svm_type c_svc
kernel_type rbf
gamma 0.000244141
nr_class 2
total_sv 98
rho 0.746684
label 1 0
probA -4.59135
probB -0.976141
nr_sv 35 63
SV
1 5:0.050242782 9:0.075958624 15:0.85755736 16:1.5585554 19:0.88722849 20:3.0646086 21:0.0099454671 29:0.51701844 37:0.23911837 39:0.97247458 40:0.56697285 43:2.8508389 54:1.3868179 68:2.316668 71:1.7125309 84:0.011747032 88:0.57672685 90:0.86565238 103:0.85195464 109:0.66573888 115:0.48807892 123:2.3188462 125:1.4119313 127:0.2076045 131:0.85314178 136:1.3206115 140:0.81648886 145:0.23332804 147:2.2301447 148:2.3402252 157:0.42263535 163:2.4660792 167:1.6198263 172:2.2661743 173:0.081647143 188:1.2912309 194:1.5046828 197:0.84692532 200:4.1648345 205:0.54451019 210:3.4781966 211:0.48815361 216:2.0614548 217:3.3545229 222:0.97133708 234:0.20435099 236:0.48705691 239:0.22383076 241:2.132792 242:2.1842592 252:0.62526357 256:0.25160429 258:1.0231521 267:0.68569136 271:1.6360295 272:0.80544335 275:0.18638331 276:0.86415017 283:2.5180256 288:1.915252 297:0.15070802 317:0.96218425 318:2.7943943 320:0.97475702 321:0.10664999 324:2.6549928 333:0.43712527 335:0.96677148 342:2.8642242 348:1.9024842 349:4.5279369 350:1.1444956 353:3.1940465 359:0.040008187 360:2.1823874 365:0.69902736 378:1.4368176 382:1.3871497 387:0.03482455 390:0.35850549 391:1.5346692 397:2.4015353 398:1.8851968 411:1.0674647 412:2.7672148 414:2.2563791 420:0.52236116 425:0.17803937 432:2.8116336 433:2.965106 444:0.074415013 450:0.68904388 454:0.86867452 459:0.3429648 462:0.39946687 468:0.76952809 473:1.9477661 481:0.96249056 483:0.64072359 491:1.2165393 492:1.8810031 493:0.8364197 494:0.40857187 496:0.73640621 499:0.58703542 500:0.13923919 514:0.18776581 517:0.77925408 526:1.2145829 527:3.4481711 529:0.45993131 539:0.48083821 545:0.23750885 555:1.7992055 559:0.89844328 562:0.14006957 565:0.98622614 567:2.5247571 575:1.1434344 578:0.78553438 581:1.3651606 583:2.5858293 589:0.32040611 592:2.5079088 593:0.11960027 596:1.5451936 601:2.4108891 612:4.4819374 616:0.31699321 635:5.9801617 638:0.70343941 639:4.95714 641:0.216142 642:0.30314532 651:0.6995815 657:0.10112935 664:0.52423787 671:1.867051 672:1.692302 673:0.73112035 674:0.03318578 675:0.36232769 677:0.52576005 681:0.20556945 682:0.91709358 684:0.83837581 692:1.5533328 701:0.092958726 702:0.3410458 703:0.14368096 705:6.6645589 706:0.54503977 718:0.4496429 720:0.29898793 721:1.7059941 724:1.1155136 725:0.33690536 731:0.68287826 759:0.77883482 765:1.6166935 766:0.71979916 771:1.5409403 774:0.51007241 777:1.3177099 780:0.84850556 788:2.7110448 789:1.7360516 791:0.093454421 795:0.78991801 796:0.024689645 798:0.12286589 802:1.691521 804:2.6152151 820:2.2383156 823:0.35419974 833:0.27380526 839:0.26592523 841:1.9535983 849:0.92643428 853:1.0658227 854:0.25547159 857:3.495023 859:0.35376585 865:0.48101231 867:2.3967927 868:1.195182 869:0.92667639 873:0.61656028 886:0.33102044 902:1.4026649 904:1.4522384 905:0.27102593 908:3.2384398 912:0.04953301 922:4.1764235 928:2.5633233 931:1.4408599 937:1.9276333 943:3.8309808 945:2.0742846 947:0.11847219 958:0.98039699 961:1.369961 965:0.4814859 966:2.4467187 967:2.0496156 972:5.0317483 974:0.78346342 975:2.2605748 976:0.94621336 978:1.4294719 992:0.038148925 997:3.0666773 1004:0.49884069 1022:2.3064818 1026:0.62265193 1029:0.3710801 1030:0.31238565 1041:1.8299683 1047:0.098284945 1049:2.0686572 1051:0.13938832 1060:0.13134992 1064:1.3681877 1075:0.59643233 1081:1.6254132 1089:1.1236762 1095:3.6475828 1096:2.5526614 1097:0.67186224 1098:0.31876811 1102:2.388154 1103:1.0797782 1105:0.4510904 1107:0.14498487 1126:1.258907 1130:1.1228675 1137:0.50787145 1138:0.16930249 1140:2.2978384 1150:4.3232417 1159:0.0087479055 1168:2.0290127 1170:5.1109972 1176:1.3340598 1183:0.23312265 1188:2.7157831 1189:1.4207015 1199:0.25426733 1206:4.7374277 1217:1.708431 1218:0.80743682 1219:1.1280916 1220:2.2481294 1221:2.2364447 1223:1.0678563 1234:0.88045317 1236:0.6446861 1239:0.48843026 1242:1.7816592 1248:0.43903202 1249:0.25122219 1250:2.8563278 1257:2.1394305 1260:3.2085505 1274:3.4303622 1278:0.35535598 1279:2.4228463 1280:0.30645576 1282:0.36048636 1291:0.410849 1293:1.3950763 1297:0.38356501 1304:0.86786032 1313:5.0708637 1315:0.11417729 1319:4.2019224 1341:0.58350503 1343:1.7917035 1353:0.3313458 1359:0.47925231 1360:1.8114777 1368:2.8082175 1371:0.5832054 1372:2.3254783 1376:0.47793555 1378:0.072752044 1379:1.2994845 1385:0.23388255 1386:0.6986444 1387:2.7657485 1395:1.068189 1406:5.0141087 1409:0.86029911 1410:2.3883471 1411:2.969564 1414:0.37899762 1419:1.5057454 1424:2.0453448 1430:0.5733704 1439:0.81950897 1444:3.0765979 1452:1.9833391 1458:1.8699715 1463:0.58248478 1465:0.050229639 1467:0.39375621 1470:0.25571072 1471:0.43178976 1475:1.9503695 1479:2.7943799 1484:0.25667429 1487:1.2542795 1496:0.38477242 1502:3.0493252 1511:1.9818313 1513:0.95729572 1515:0.94320601 1519:0.1127058 1520:1.870146 1522:1.2050729 1523:3.3427489 1526:0.84094763 1533:1.0601726 1544:3.0443962 1551:0.73399878 1555:1.029135 1556:1.1094213 1560:0.67904997 1562:0.41087604 1566:1.8148834 1568:1.1632981 1573:0.54044938 1574:0.03741017 1576:2.7652822 1582:1.2934639 1583:0.79397988 1586:1.0565761 1588:3.710382 1590:3.2518685 1596:0.56086349 1604:1.7043028 1605:0.075826019 1613:0.7496146 1615:0.80940247 1618:3.7520657 1625:0.31480634 1627:0.55349398 1629:1.5441598 1647:1.0260259 1648:0.59389114 1657:1.1082311 1658:2.2127991 1668:0.35406953 1669:1.6715972 1675:2.4989643 1677:0.083865941 1678:2.879528 1679:0.6690231 1690:1.5769141 1691:2.3388638 1710:0.75676548 1712:3.2621222 1720:0.98141229 1726:2.5095642 1727:1.8685035 1730:2.5452437 1733:1.5689198 1745:0.50012684 1752:4.0269117 1753:1.5639091 1756:2.1472068 1758:4.4277477 1760:0.09536007 1762:3.2535415 1764:0.13348053 1765:0.53855044 1766:2.4438441 1767:0.46520633 1772:0.56924403 1773:1.8992029 1774:0.022393189 1777:0.31402254 1780:1.4332726 1781:1.0511959 1790:2.3998408 1799:0.39174846 1804:2.2911203 1806:0.16805626 1811:2.1495657 1812:1.9228158 1814:0.05738759 1817:0.2279903 1822:2.1481464 1825:2.8047521 1830:1.4343966 1831:0.62251067 1833:1.3427351 1844:1.278945 1846:3.2731543 1848:4.7927923 1849:0.46668833 1852:2.7675223 1854:0.1776586 1870:0.77853763 1872:0.99239731 1874:0.20636722 1881:1.5682702 1888:1.6076332 1893:0.56315994 1895:0.65058023 1896:0.70992535 1897:1.2504914 1901:4.1381445 1912:1.7105799 1918:4.0392756 1923:0.8645575 1925:1.7659639 1926:0.27318415 1928:0.27811584 1938:2.7064342 1942:0.88518655 1951:0.1773621 1955:0.81909513 1963:0.21634248 1968:2.6566393 1972:0.25871477 1973:0.12460928 1974:2.053787 1975:1.4400605 1977:1.0935293 1978:0.13627763 1985:0.51621497 1988:1.9921519 1997:0.39840797 2004:1.5719103 2011:1.0353358 2014:0.69092643 2019:0.65030384 2020:1.1595076 2026:0.67086637 2042:0.25012809 2048:3.7754223 2053:1.0817066 2058:3.4564009 2079:0.13611057 2081:1.5961138 2094:1.2028233 2107:1.1660273 2117:0.51416272 2130:0.36510006 2137:1.1222481 2144:1.4446504 2154:0.80375588 2155:2.6440015 2160:2.8650081 2162:0.3531771 2166:0.99541765 2169:0.37930346 2177:2.2618091 2183:1.0724776 2186:1.5685371 2188:2.0851347 2199:0.46044874 2200:2.4031749 2202:0.28963819 2216:0.87098503 2223:0.55843419 2226:0.36638132 2229:2.8368516 2233:1.0889001 2239:4.5299907 2257:1.9953094 2262:0.89406884 2264:0.30319268 2267:1.3536649 2273:2.5657251 2274:1.6676557 2278:1.2540838 2280:0.71999013 2281:1.2805744 2284:0.15494326 2285:0.14757398 2286:1.0451874 2288:1.2022798 2296:0.40604168 2298:3.046288 2302:0.42192024 2307:1.8313243 2316:0.94299555 2320:0.12442124 2322:2.5222907 2324:2.0236557 2325:0.60517728 2337:1.0585808 2353:0.77929235 2360:3.3736002 2381:4.6994038 2386:1.6398264 2393:0.86801732 2404:0.26940653 2405:1.1743146 2406:0.34005952 2416:1.8946835 2417:0.68100268 2420:2.8781321 2425:2.2813363 2431:3.5776951 2432:1.5420985 2434:0.24643216 2435:2.4745619 2439:0.28604877 2446:1.6210804 2452:2.4385376 2455:2.5583954 2457:1.4631118 2459:1.0662024 2467:0.16160673 2471:3.7303467 2477:0.21976867 2485:0.61113542 2487:0.65444857 2498:2.2085211 2501:2.1409597 2503:1.2643609 2507:5.6068096 2508:3.5620694 2514:1.6960623 2520:2.3349154 2526:1.3006154 2528:3.6506736 2531:0.0081795454 2537:1.2628559 2549:0.13149396 2552:1.7327325 2558:3.4931076 2562:0.56310296 2576:0.86752242 2589:0.44230899 2594:2.1114738 2598:0.614263 2604:0.14944044 2610:0.71227199 2613:0.44742265 2621:2.2419937 2625:1.0491278 2632:0.25273454 2634:3.0098853 2636:2.2535152 2637:1.7779827 2651:0.54909867 2653:1.3390551 2656:0.29802251 2659:0.87262297 2667:0.56177044 2688:3.9655244 2689:3.5182753 2690:1.363642 2692:1.2698581 2693:2.2302675 2698:0.73048139 2704:3.6651773 2715:1.0963541 2723:0.87076861 2727:1.9374173 2736:2.3366683 2738:1.124984 2740:2.4720294 2750:3.661406 2751:1.2688695 2752:1.7830882 2761:0.96284676 2763:0.73308992 2766:4.8765917 2778:1.4533346 2786:0.32727075 2790:0.10761404 2795:2.9831505 2800:0.16998366 2807:0.039993554 2808:1.4620093 2816:2.0771749 2821:1.1760905 2831:0.1133669 2835:0.053129554 2842:1.597109 2854:1.1551613 2856:1.1795783 2857:1.9273716 2860:0.86998159 2864:1.5548822 2867:8.2099094 2873:1.1070615 2882:3.7666097 2885:0.30261499 2891:1.0608015 2912:0.80099434 2917:2.2433619 2920:0.19336873 2927:0.32292137 2929:1.3624322 2932:2.2929027 2934:0.12618101 2937:0.43978634 2938:1.6596675 2947:0.60822892 2950:4.8253889 2953:1.0760503 2955:1.2788138 2957:2.256681 2958:1.7428527 2962:1.5895935 2971:0.63775462 2976:1.1947572 2977:2.2137382 2993:0.060948133 3001:1.2644869 3003:0.57550985 3012:2.4409275 3015:0.026569605 3018:0.84533262 3020:1.8626283 3021:1.2237623 3032:0.63404197 3034:4.2567062 3036:0.42389864 3041:0.21823409 3049:0.5416705 3050:0.032273412 3051:0.41900706 3059:1.0174677 3062:0.12325975 3066:0.38047481 3067:1.5285162 3070:2.7171485 3085:1.3411255 3092:0.2279902 3094:3.5408933 3095:0.27181244 3107:1.4132698 3114:1.2375617 3117:0.17334189 3118:1.0772811 3119:0.96677899 3124:0.39289635 3129:1.7594341 3141:1.3051317 3144:2.8854444 3152:4.4622664 3154:2.6100945 3155:0.2873024 3159:0.94913948 3160:0.93002838 3162:0.67386907 3163:0.19147742 3168:1.2635051 3170:2.6351159 3172:0.38372365 3178:2.4404218 3179:0.11314893 3180:3.4934156 3182:0.96902984 3184:1.3150127 3195:1.7126726 3196:0.8936401 3199:0.22315806 3200:1.6619904 3206:0.78877866 3226:0.46739113 3228:0.15137798 3232:0.92330313 3237:0.85979718 3249:0.43233371 3251:0.52592742 3253:3.9707603 3256:1.0466435 3258:2.0051291 3260:1.0919842 3267:2.2163217 3275:1.3308153 3276:0.46589839 3278:1.9084426 3285:2.5620401 3286:1.7782336 3293:2.4961262 3294:0.0056988001 3299:0.93890274 3300:0.047639623 3310:3.8856976 3321:1.8695303 3327:1.9273155 3334:4.850852 3344:2.7982585 3349:2.1908123 3354:3.4007411 3355:0.28522855 3357:0.79132473 3361:2.2722981 3377:1.2635757 3387:0.39330918 3390:1.5333295 3392:0.054166187 3394:1.5209186 3396:0.22661442 3415:0.57153684 3425:1.2003393 3431:0.62175488 3437:3.0003281 3439:0.048584685 3442:0.73590171 3446:1.7619541 3450:1.0570388 3457:1.0401055 3459:1.9560367 3460:0.25364369 3465:0.76620996 3467:0.68731487 3468:1.2607796 3471:1.1546348 3478:0.86024427 3481:1.7099702 3482:0.31353903 3491:2.6626914 3494:1.558792 3495:0.81987023 3496:2.7459815 3504:5.0501637 3505:1.1864185 3509:2.6255262 3525:0.24627659 3529:0.83075488 3532:2.9663343 3537:0.87913787 3538:0.89166057 3540:2.7879305 3548:1.3278399 3549:2.5779891 3556:3.2814994 3560:0.28477699 3569:2.4577384 3576:0.88426775 3577:0.16467124 3578:3.4133401 3580:0.37495863 3582:4.0934782 3586:0.09941107 3588:2.49596 3591:0.052768514 3598:0.13531107 3602:0.58643645 3604:3.8900542 3608:2.1303473 3614:1.0703526 3621:0.95539725 3623:1.6943787 3627:2.0665014 3629:2.0443749 3630:1.0756595 3635:0.13715971 3640:0.27659711 3643:0.71002877 3644:3.8432946 3650:4.2542596 3653:0.38922137 3667:2.6832616 3672:0.62950408 3677:0.65421987 3684:1.0591919 3687:1.2929531 3689:1.6636119 3690:1.0379986 3696:0.73100686 3697:1.5274873 3712:1.2516886 3713:0.019071877 3715:0.767335 3719:0.52409244 3723:1.3825691 3724:3.6607838 3732:0.60143846 3737:1.1009489 3751:2.3911142 3752:1.3598472 3757:1.5809461 3766:0.52211058 3769:1.8363338 3772:0.47805771 3775:0.71406949 3777:0.054201692 3785:1.9305167 3793:3.0369902 3808:4.3663807 3811:1.3029437 3815:4.7975235 3818:0.45633227 3819:1.3795319 3824:3.3030457 3826:0.5990566 3829:0.015902758 3836:2.2717457 3837:1.2994298 3845:2.768764 3848:0.4222911 3860:0.68312472 3872:3.0295796 3875:2.0774717 3881:0.53127235 3882:4.3086872 3886:0.3309364 3888:2.5981665 3889:0.93648279 3892:0.63682139 3893:1.8357656 3907:4.1271558 3910:3.172555 3919:1.6350594 3922:0.61198515 3933:1.1097151 3957:2.7871006 3963:2.6986375 3974:1.0012051 3981:3.5787449 3982:3.0204928 3985:0.40806749 3988:5.023272 3990:2.2038693 3993:0.33776835 3995:1.0279394 4000:1.5698966 4002:1.8725295 4004:2.0052476 4005:3.1651213 4010:1.0020709 4011:2.7079763 4016:0.76370633 4020:0.23577201 4032:1.7904347 4033:1.0575325 4038:0.64938849 4059:0.35303748 4063:2.3375921 4067:2.0489123 4074:0.61405551 4076:2.6738091 4077:0.70698333 4084:1.8977554 4085:0.60532266 4092:1.8320574 
1 9:1.5108699 11:0.14374897 12:1.4595317 15:0.49011922 16:1.1861341 19:0.92977917 20:2.8390145 21:0.83343685 29:0.14565796 37:0.51767063 39:2.058382 40:1.5437181 43:3.0572028 54:1.6564057 62:0.28970715 68:2.4804974 71:1.4997058 84:0.70871508 90:1.823684 103:3.23896 123:3.5450077 125:2.7251775 136:1.2525239 146:0.065375522 147:1.2908361 148:2.6059051 150:1.228635 157:0.7451731 163:1.3229823 167:1.6254294 178:2.1373391 188:0.29529566 194:1.2454655 195:1.2958295 200:2.4814379 210:1.1713797 211:1.6108003 214:0.85882801 216:0.17282271 217:2.20398 218:0.57871515 222:0.97281837 236:0.9136582 241:1.428269 242:2.3696039 246:0.66106164 252:3.1034722 258:2.4771569 262:0.5530138 267:0.88267696 271:0.63934678 272:0.46047962 275:1.0176437 276:2.7376933 277:0.21733642 282:0.98606217 283:1.9102936 288:2.0818851 289:0.19048278 317:0.40594721 318:2.1793699 320:1.1960335 323:0.3714565 324:1.9907045 333:0.82672864 335:1.6555767 342:1.7608023 348:0.23326989 349:3.9324834 350:0.87275118 353:1.8372394 360:0.61117458 365:1.5152519 367:1.1142389 378:0.31568944 379:0.50610876 382:1.3011324 387:1.7079163 390:0.06855619 391:0.36517251 397:1.6302755 398:1.4987327 404:0.7745297 411:1.7251465 412:2.4926896 414:3.192723 425:0.22416887 432:4.0240078 433:3.6587558 444:1.0459932 449:1.6944889 450:2.1913507 454:0.086730003 458:0.95318162 462:1.2112067 468:0.83048892 473:1.7248008 481:3.4053388 483:1.0217906 487:0.79481304 488:1.0187292 490:0.15708721 491:2.0887902 492:0.17752182 499:0.17965642 500:2.0521953 502:0.016429465 517:1.8658092 527:1.9600974 538:0.011350989 545:2.6218982 554:0.033481844 555:1.5564756 559:1.2452961 561:0.95375085 562:0.44635701 565:2.6863167 567:2.7689316 572:0.98023891 578:0.62904048 581:0.95533037 583:1.3295393 589:0.7751466 592:1.934979 596:1.8212339 605:0.40648797 612:2.5707541 616:1.1769702 635:5.5347538 638:0.24570733 639:3.5414245 642:1.8926049 651:0.52522504 661:1.0615714 671:2.5576987 674:0.64468211 677:0.65418774 681:0.75921839 682:0.36754882 684:0.38044456 687:0.65940595 692:2.3246815 702:0.030304104 705:6.2744818 718:0.060683131 721:1.2179245 724:1.1071093 725:1.6794662 730:0.87248957 731:0.60112047 751:0.24912897 753:0.96256042 754:1.2490946 759:0.38295603 764:0.58981705 765:1.1157719 774:0.34443647 777:1.2020514 780:0.77957547 782:0.59746563 788:1.8733761 789:1.4535459 794:0.54446959 804:1.6911131 820:0.40015933 823:0.068528742 841:0.54234797 849:2.2953739 853:1.4899659 857:2.8383477 867:2.6303568 868:1.0436289 869:2.1420608 871:1.6972349 873:1.7406685 877:0.32766965 878:0.94219482 882:0.0014466792 886:0.24888644 895:0.057741091 902:0.99523598 904:0.1714226 908:3.9547236 909:1.7937896 922:2.2388182 928:1.6038103 931:0.51172185 937:0.65386695 938:1.0400618 943:2.4133301 945:2.4546227 951:1.7545819 953:0.82953286 958:0.070651263 961:0.16373193 963:0.42260331 966:3.5847957 967:0.28923208 972:3.6794896 974:1.6580846 975:3.3012588 976:0.86074793 978:0.38915178 997:1.7536981 1001:0.56149691 1003:0.68670374 1004:1.1520431 1014:0.52465081 1022:4.7093549 1036:0.67240959 1039:1.0442232 1041:2.1235993 1047:1.7638124 1049:2.7707596 1051:0.97872812 1064:2.1596003 1073:2.3619509 1075:0.52336794 1080:0.17348289 1094:1.1780739 1095:4.4631534 1096:0.60922635 1097:0.20617256 1102:1.8012828 1105:0.64885902 1111:1.6010908 1126:1.3589859 1130:1.1025149 1138:0.37862271 1150:3.8211768 1168:1.2023547 1170:5.2038703 1176:2.3328431 1183:0.32769576 1188:1.5623116 1189:1.443629 1206:5.2595816 1208:0.17192858 1216:0.12215656 1217:3.1426229 1218:1.2118152 1219:1.8534241 1220:2.5447176 1221:0.45496404 1223:1.9150689 1226:0.32696688 1234:0.21267436 1236:0.80155587 1242:3.9503713 1248:1.428647 1249:1.3339007 1250:2.371949 1257:1.7514837 1260:3.1128113 1274:2.0559144 1291:0.36225808 1293:0.90438044 1304:1.7833173 1313:5.9538827 1319:1.418673 1325:0.44434294 1332:1.1079587 1334:0.91770875 1341:1.5434865 1343:0.84095871 1352:0.52244455 1356:0.075593352 1360:2.5387213 1368:1.2138597 1372:1.5860794 1377:1.3969973 1378:1.2960944 1386:1.3139939 1387:1.9246595 1394:0.63243222 1395:1.381742 1398:1.982752 1406:3.9363902 1408:0.66739333 1409:0.67923087 1410:2.5013728 1411:2.5851173 1414:0.10966854 1419:0.54851961 1423:0.3917768 1430:0.88963854 1444:4.2942276 1445:0.12497723 1452:2.4048486 1458:1.0229998 1463:0.44209948 1467:0.71001661 1469:0.66619384 1470:1.2365406 1471:0.26952609 1472:2.8553815 1475:1.9705151 1479:1.9988106 1484:0.33182991 1485:0.13197508 1487:1.672228 1499:1.033587 1502:3.3415182 1511:0.010329604 1515:2.3785448 1519:0.67769146 1520:0.56625754 1522:1.773813 1523:2.1799819 1526:1.1427819 1542:0.001946032 1544:2.7165976 1555:0.99992448 1566:2.44291 1568:2.404084 1571:0.50768763 1576:2.8365338 1583:1.6403342 1588:4.1446295 1590:3.0783122 1596:0.9742164 1604:2.2506638 1605:1.0314476 1613:0.16262037 1615:0.51695532 1618:4.6479964 1625:0.90263635 1629:0.23226869 1640:0.60012746 1647:1.3713713 1648:1.8381774 1658:2.082854 1661:1.8251797 1663:1.4775944 1668:1.4771737 1669:0.48690486 1675:3.3156338 1677:1.3412375 1678:0.88233185 1679:0.8585102 1690:1.8010947 1691:4.8387799 1701:1.1031322 1710:0.73189956 1712:4.3294644 1718:1.9854653 1726:2.3223698 1727:3.4044678 1730:0.96340173 1742:0.39191544 1752:1.7553734 1756:4.986773 1758:4.0922766 1762:2.7168083 1764:0.525585 1766:1.9313908 1772:0.55262607 1773:3.1944046 1780:0.98783827 1786:0.55357093 1790:3.573379 1795:0.71271992 1804:2.7567194 1806:0.47499806 1811:1.6954513 1813:0.10537814 1814:0.48357022 1817:0.92495662 1825:0.64527881 1829:0.076059312 1830:2.2516673 1831:0.46588135 1833:0.23754919 1834:0.088692978 1840:0.28688323 1842:0.71691281 1844:1.5232782 1846:3.081687 1848:3.1042001 1849:2.2575865 1852:1.4671651 1856:0.093137935 1863:0.98122549 1870:0.83248389 1872:0.33591485 1881:2.2427325 1882:0.99104977 1888:2.8051698 1889:0.13471831 1893:0.33974037 1895:0.78567874 1897:2.8434508 1901:3.5051718 1912:2.9644229 1918:3.0119286 1923:2.4147007 1925:0.42773575 1926:0.27464053 1928:0.023825824 1932:0.57811028 1938:1.0405612 1942:0.40095562 1968:2.1968148 1972:1.5928004 1973:0.25146335 1974:3.2230582 1975:0.99312961 1977:0.50869203 1978:0.58709121 1993:0.32704991 2004:1.7265885 2010:0.83333898 2012:2.5523596 2019:1.2893548 2020:2.0074914 2026:3.1049433 2042:0.68893075 2043:0.013313547 2044:0.13294303 2048:1.5292246 2052:0.15855512 2053:1.7091718 2058:2.4773431 2066:0.58255035 2079:0.94397879 2081:1.2289914 2088:0.84719074 2102:0.0009778887 2107:0.5725373 2114:0.24767613 2120:0.64630729 2130:0.33667246 2131:1.524691 2137:2.004777 2144:1.4063983 2153:0.28309363 2155:3.0809219 2160:1.3034605 2162:0.68915975 2177:3.7872741 2186:1.8438715 2188:3.4409678 2199:1.229683 2200:1.6524886 2206:0.66059005 2215:1.3159457 2216:0.11371577 2226:1.4554147 2229:3.0667093 2233:0.12132007 2239:3.2529373 2241:0.92106861 2257:2.8360238 2262:1.3683823 2267:3.9100561 2273:3.3913727 2274:1.364808 2278:0.087417215 2281:3.4988096 2284:1.7840865 2286:1.026342 2294:1.2972059 2298:2.6247661 2307:3.0844405 2317:1.3372523 2320:1.3793392 2322:2.843163 2324:0.37098694 2325:0.51568294 2327:0.1092937 2329:0.22785556 2353:0.34414306 2360:3.433054 2381:5.189661 2393:0.058344692 2404:0.43528059 2405:0.47841808 2409:0.92256129 2416:0.51396847 2417:2.1051979 2420:4.2856622 2431:1.8896313 2432:1.1651731 2435:3.1671355 2439:1.3577337 2443:0.67376822 2444:0.26705748 2446:3.5084736 2452:1.5514507 2455:3.9942183 2457:0.67426759 2459:1.0497236 2466:0.34124011 2467:0.47651085 2471:2.7204742 2485:1.9605621 2487:0.69597596 2498:0.81077182 2501:1.8618673 2503:0.44888547 2507:5.8443651 2508:2.0736156 2509:2.2466881 2514:5.2970233 2520:1.4943546 2523:0.077211231 2526:1.2177874 2527:0.63548958 2528:2.343523 2549:0.53325844 2552:1.6561587 2558:4.6606431 2560:0.80226201 2561:0.70362073 2576:1.1894767 2583:2.2127364 2589:3.1620848 2594:2.2223723 2601:1.8566087 2610:0.65454954 2621:2.6607063 2632:0.19936967 2634:2.4199803 2637:0.43506399 2651:1.8151007 2653:2.28614 2655:2.1348588 2656:0.47291824 2672:0.44576102 2686:1.4364083 2688:3.7236104 2689:3.9428787 2690:4.4921379 2692:1.0527915 2693:3.8912277 2698:0.12821794 2704:2.521071 2715:1.1205881 2723:0.053072631 2726:0.6511988 2727:2.4371181 2729:0.87211978 2732:1.147083 2736:1.7429154 2738:1.1803367 2740:1.4544407 2750:5.0227437 2751:3.0585084 2752:1.218057 2765:1.138494 2766:4.9611006 2778:0.8301971 2786:1.4828866 2787:1.5857255 2790:2.5397096 2795:3.3504944 2811:0.27510947 2812:0.58123147 2816:3.1804602 2821:0.37046316 2834:0.4082554 2835:0.20935091 2836:0.22474688 2842:3.1216607 2854:0.471228 2856:1.4123313 2857:0.81951076 2860:0.59527552 2864:1.7098279 2867:8.4837179 2872:0.49101621 2873:0.97284055 2882:2.7346549 2888:1.9530486 2891:0.58948159 2894:0.97469801 2896:0.5509764 2908:0.62521964 2910:1.2377539 2917:2.4975455 2919:0.62376267 2920:0.42152566 2927:1.1512866 2930:1.2975526 2932:0.26431078 2934:0.48362231 2938:2.1210299 2947:2.3715024 2950:6.6901212 2953:1.662217 2955:1.710794 2957:2.1850135 2958:2.3263793 2962:2.5420718 2976:1.1106498 2977:1.5827105 2993:0.71174526 3003:1.9499251 3012:0.72821879 3018:2.320333 3019:1.1254599 3020:1.4517266 3021:0.96998519 3034:3.6825659 3036:1.2946224 3041:0.66962045 3049:0.38204136 3051:0.23108882 3057:0.19215086 3061:0.74574614 3065:1.3306856 3066:0.12485064 3067:2.5439003 3070:3.7978675 3094:5.9455929 3095:0.016779631 3102:0.97929519 3114:1.8377185 3117:2.0245185 3118:2.3026469 3119:1.763705 3124:0.38863939 3129:0.74852175 3133:0.61881536 3141:0.73790133 3144:3.3153467 3150:1.3555155 3152:3.1354411 3154:2.2828228 3155:0.29742604 3159:2.1684351 3160:1.3902457 3163:0.87176454 3168:1.4454753 3170:2.3210373 3172:0.2855137 3178:1.1630809 3179:0.53118229 3180:2.5167232 3184:0.41020411 3192:0.2237072 3193:1.4455595 3195:2.6680245 3196:0.19126323 3200:0.16956216 3206:1.2840847 3220:0.077896178 3226:1.8152518 3228:1.3118008 3232:1.148977 3233:1.2563009 3236:0.24394748 3237:0.023357138 3249:0.17796052 3251:1.3255917 3253:3.7312701 3256:0.58310211 3260:1.0938895 3267:1.6561475 3275:3.4764991 3278:2.1039333 3285:3.7051201 3293:1.446997 3297:2.4287791 3299:0.063762054 3310:1.8175884 3319:0.9401986 3321:1.5910715 3327:0.96277362 3334:4.2128415 3335:0.83805472 3344:2.5240507 3347:1.2892582 3349:2.7425528 3354:2.8422599 3355:1.6673887 3357:0.2614738 3361:1.0189434 3365:1.7331315 3369:0.27408379 3377:1.7052896 3387:0.3277775 3388:0.13824858 3390:1.7882146 3392:0.11510013 3394:0.023920044 3396:1.1326025 3399:0.71190363 3402:0.47354057 3415:0.4954825 3425:3.1143873 3431:1.9323822 3437:2.1017435 3442:1.3598443 3446:0.91249973 3447:0.59607083 3452:0.60989428 3457:1.1033983 3459:1.9446465 3460:0.11971903 3465:0.73616385 3467:0.8601985 3468:0.4285987 3471:0.60187829 3478:0.88660479 3481:0.76773369 3482:0.34166157 3491:1.0900366 3494:0.36869085 3495:1.5276554 3496:2.2564948 3504:4.8818655 3505:0.41606995 3506:0.32862478 3509:2.5066912 3513:0.67298806 3515:1.0951784 3521:1.2173692 3525:0.11825958 3532:4.340374 3536:0.41847658 3537:1.1725218 3538:1.2056222 3540:2.2933433 3545:0.023001166 3548:0.67817104 3549:2.0654161 3556:1.9241488 3560:1.0897996 3569:2.4500713 3570:0.034006119 3576:0.78379118 3577:1.0354651 3578:2.913702 3580:1.7296727 3582:3.536202 3586:1.8267404 3588:1.058576 3598:0.26210922 3602:0.34717715 3604:5.2994714 3608:2.2139454 3620:1.4647192 3621:4.608376 3623:2.7707884 3629:0.00044724345 3630:0.8047061 3638:0.16958678 3640:0.40003771 3643:1.1083261 3644:0.12953992 3650:2.3797927 3653:1.6583648 3665:0.41314414 3666:0.57655418 3667:2.3143594 3672:1.8162525 3677:0.57971364 3687:0.1188567 3689:1.098208 3690:0.75689024 3695:0.2981087 3696:0.19326514 3697:2.1234274 3705:0.00033634901 3711:0.24030593 3712:1.3809117 3715:2.9533987 3719:1.4509797 3723:1.3850528 3724:5.5232263 3727:0.1335775 3732:0.40252465 3734:2.4177704 3737:2.0109389 3748:0.52580863 3749:1.2581992 3751:1.6470298 3752:1.4854054 3757:2.7458496 3766:2.0338621 3769:1.9415205 3771:0.16940811 3772:0.50924575 3775:2.9392719 3777:1.5849779 3785:3.6663575 3793:1.0632331 3808:4.8761106 3815:4.1112294 3818:2.7957196 3819:2.3271327 3824:2.6794221 3826:0.41241443 3836:1.2960587 3837:1.7124444 3845:3.3638062 3848:1.8425865 3855:0.17279553 3860:0.21484691 3862:0.14053099 3872:4.0776176 3875:1.4231189 3877:2.1650484 3878:0.50224078 3881:0.90021348 3882:4.1871166 3886:0.6980648 3888:4.0137725 3889:1.9539747 3892:0.56071448 3893:1.3684518 3907:4.9536562 3910:2.2166362 3919:1.1648097 3925:1.4015827 3929:0.82951534 3933:0.21582952 3948:1.0329764 3957:3.7116051 3963:3.0696685 3966:0.87167263 3970:0.35094649 3974:1.4325492 3981:0.25408506 3982:2.4405777 3984:1.4404265 3988:6.6800213 3990:4.4960141 3994:0.85974652 3995:1.862667 4000:3.0450892 4002:3.3510396 4004:0.72761786 4005:2.3463285 4010:1.269506 4011:3.2054219 4016:2.8293276 4020:0.11519292 4032:0.59752429 4033:1.3528945 4063:4.3006339 4067:3.4671061 4072:1.4082351 4074:2.4342566 4076:1.9966024 4084:1.105111 4085:0.9842093 4092:1.8436354 4096:0.25557593 
1 1:0.88877082 8:0.47746366 14:2.4725575 15:0.51405734 19:0.22716828 20:3.6287661 23:0.80421948 27:3.2709434 29:1.4194546 34:0.3383517 39:2.1140599 40:1.5891254 43:2.9188375 54:1.0397007 61:1.4157883 68:1.2970004 69:0.79582942 71:1.6192567 77:1.3537304 80:1.2630415 87:0.66971815 90:1.5177855 91:0.53777635 103:0.91422063 110:0.41096848 113:0.57100153 115:0.50123978 123:1.4346149 125:0.166756 127:2.0728879 130:0.79210532 131:0.66281855 140:1.5588645 141:1.6922048 143:2.217159 146:1.3722399 147:3.8987532 152:2.181689 157:1.3779505 163:1.4387872 166:1.8647903 169:0.012013108 172:1.9457855 173:1.0720897 174:1.9343097 180:1.273115 184:0.70954323 190:0.93620992 194:0.29747301 195:0.50609887 196:2.3882031 200:1.4470102 204:1.1715479 205:1.5577605 210:3.0249805 211:3.5375478 216:1.5557504 217:0.1645281 218:2.3671594 243:0.90697217 251:0.82965034 260:1.4247575 262:0.2556982 263:1.9910201 272:0.29764122 276:1.2409984 282:0.93768495 283:0.80306536 290:0.6308406 291:0.64197874 298:0.059780225 299:2.2259505 308:4.1027942 313:0.28523827 314:0.19108105 317:0.7248584 318:0.24688628 321:1.3782482 342:0.75880951 349:1.1140206 351:0.58845907 353:1.6120549 361:1.7560872 363:3.2341676 365:0.24618357 366:0.011944145 374:0.49256778 382:2.6055944 384:1.4689083 389:0.53326839 390:1.6155792 391:0.53516686 393:1.5207705 397:4.2032337 398:0.8756519 404:1.3685262 412:0.075807631 414:0.14451945 425:0.10834354 426:3.8502924 432:0.17013517 442:2.4817178 444:1.2932093 453:1.6616843 460:0.33633506 463:2.3553052 466:0.070378065 473:5.8746047 483:0.34201968 484:2.1465507 487:2.0598269 489:0.69558501 491:0.68722665 492:0.46616536 493:1.2511327 494:2.1569946 496:2.6182642 499:1.8532578 504:1.6048946 505:0.22649986 507:0.76929462 509:0.79147947 511:0.068115383 515:1.45393 520:0.9716621 521:0.017513096 527:2.4648676 529:1.2755728 536:1.0653541 538:3.0447378 545:2.5894234 557:0.46761575 565:0.67091298 567:0.6797927 570:0.91124308 575:1.9657985 576:1.3176999 578:1.3751704 580:0.25197032 581:0.75722742 584:0.322909 592:3.0142083 593:0.71892321 594:0.42610359 596:0.69528246 605:2.5773222 609:2.9655252 612:1.8348669 615:0.21948025 616:1.0158693 626:1.2764161 629:0.05278787 635:1.0266736 639:2.2445874 642:0.93736422 644:0.28744739 647:1.3738763 651:0.76230073 654:1.1962433 656:2.5009396 659:0.76515341 661:0.96908438 664:2.5762379 667:0.40618688 671:1.9456918 674:0.52014208 675:1.1541544 682:0.96177477 687:1.9464513 692:0.36668646 701:0.60047668 702:3.6629355 703:0.5131802 705:4.1574907 706:3.46383 711:1.9579985 720:1.1725879 721:1.4618028 723:0.59095436 724:4.5200167 725:1.4515448 726:0.52711725 730:0.58954847 739:2.1867068 748:1.4447393 749:2.0543218 750:1.6441517 751:1.265031 753:1.3851562 764:1.6547096 773:0.51248598 774:0.43061864 776:0.59379351 777:1.2031627 780:0.20824468 782:0.41039649 788:1.5052471 789:0.65932459 798:1.4070663 799:0.67740852 801:1.1702009 811:1.2544364 818:0.40854877 820:0.45420158 823:1.4389364 826:1.5172396 830:2.4306481 831:1.9704509 838:2.0390673 841:2.4902332 842:2.2823751 849:1.6330082 855:2.4483833 865:2.1185522 867:1.9056165 868:2.0450847 871:0.79062235 872:3.029804 881:1.5311824 883:0.40766358 888:4.5132637 889:1.0503316 899:0.088587746 900:0.40652424 902:1.6049526 904:1.0728289 905:1.9936535 908:3.1192377 909:0.36285025 910:0.036640525 918:0.61979735 923:0.67062414 924:0.62075949 926:0.79824096 928:4.8303413 935:2.9056926 936:0.19280046 937:1.1532805 943:0.2134836 951:0.15419151 954:0.78351706 958:0.72095156 961:2.7038667 963:0.59943765 965:1.2675389 966:2.6794848 967:1.4897492 968:1.1546552 972:1.0178542 974:1.4612656 976:0.7586146 978:1.7519482 980:0.20104256 985:0.041365057 989:1.9678036 993:0.090680987 996:1.861879 998:1.3300672 1001:3.6118767 1002:0.37458032 1004:1.5109625 1006:1.6859533 1007:0.34305531 1013:1.3167875 1014:1.8179967 1018:0.23609185 1022:2.371819 1027:1.3278334 1028:0.35768014 1034:1.6389465 1042:1.6697632 1046:0.17847699 1049:2.8735485 1053:1.6402328 1070:2.0021813 1074:0.94987023 1075:0.63605165 1077:2.7263105 1078:0.65845191 1081:0.39570671 1087:0.56199849 1094:2.0274389 1095:0.27583039 1096:0.68153542 1098:1.0755768 1102:2.0905576 1107:1.9620417 1122:0.18624634 1124:1.535696 1139:0.80591577 1140:5.2407689 1150:2.4596331 1159:3.6623805 1163:0.34886679 1168:3.061399 1170:5.5984507 1172:0.14005208 1173:1.0362563 1176:1.5139921 1179:2.1074963 1180:0.01592385 1181:0.34642938 1183:1.0595305 1187:0.031640038 1188:0.86322534 1189:2.4488235 1192:2.4971154 1193:1.5361265 1206:2.116509 1216:0.63180751 1217:0.45726913 1219:1.4959888 1220:1.8699185 1221:3.9256759 1223:0.018358707 1231:0.32076466 1234:0.22765265 1237:2.507421 1239:0.33070397 1242:2.2303593 1243:2.212667 1246:2.9765551 1248:0.43890733 1260:0.54596853 1265:0.61543465 1267:1.8344843 1274:1.0253353 1278:0.26560855 1279:3.3258634 1281:2.2618079 1282:1.0132583 1290:0.4400177 1291:1.6884936 1295:0.21915895 1296:1.9585729 1299:0.74465036 1302:1.7734028 1305:1.6059422 1309:0.71552652 1313:3.5327051 1314:1.2248411 1315:1.6694586 1318:0.58825302 1319:3.2653942 1325:1.114421 1335:0.22710079 1339:1.7329066 1342:0.7104156 1344:0.077798769 1349:1.6288103 1357:1.295265 1359:3.3246524 1361:0.26237443 1366:1.8125471 1371:0.19550785 1372:4.1436706 1373:0.95267689 1374:0.39841589 1377:0.53704733 1379:1.506475 1385:3.0508885 1387:3.5114961 1391:0.85811287 1393:3.0947499 1397:0.60064012 1400:1.0429633 1404:0.2309126 1406:3.0811856 1408:0.92817932 1409:0.57233673 1412:0.27838415 1413:0.31553712 1419:1.0784051 1420:0.16677102 1424:2.1166725 1426:1.2628505 1428:6.5497327 1430:3.3059249 1432:0.35580036 1433:3.7912333 1434:0.020178124 1435:2.0384662 1439:1.0128818 1441:2.2613649 1444:1.0207589 1445:1.6328998 1449:1.1830477 1458:0.95510787 1462:0.59586078 1470:4.6331758 1480:0.30187112 1487:2.7071977 1495:0.39689445 1496:1.5039073 1502:2.2514443 1504:1.1351537 1513:1.9000139 1515:2.8009343 1517:2.1204646 1519:0.95444977 1520:1.59338 1522:2.4543352 1526:0.57042634 1528:2.554368 1547:1.0012392 1555:0.96695274 1556:0.7780481 1557:1.1532454 1560:0.64819151 1567:2.0707459 1573:3.8221164 1576:0.33088338 1577:2.7372065 1581:0.012639165 1582:4.1153202 1583:4.0309806 1587:0.61642843 1588:4.5060015 1604:2.362999 1616:0.88991761 1618:4.6590476 1622:0.47931927 1624:1.6534595 1629:2.6659093 1636:1.9558148 1637:0.96390224 1641:0.0010999143 1642:0.75638413 1647:2.0560989 1655:1.1585895 1656:1.1004468 1657:2.7380354 1658:3.1969919 1659:1.2065455 1663:1.8072227 1664:0.057824939 1665:0.99612516 1668:0.49184784 1675:1.9531142 1676:0.921211 1677:4.4581485 1678:0.83498168 1679:0.4300335 1680:2.0606456 1690:0.16874999 1696:1.1668658 1701:1.8126208 1704:0.032132179 1707:0.47124696 1711:0.18295947 1712:1.4385744 1714:1.3460603 1720:0.40554655 1726:0.11231962 1727:3.7875295 1728:0.81049722 1730:1.4989421 1733:2.077193 1745:0.53021979 1746:1.8530957 1747:1.557107 1756:0.16540438 1758:1.5357556 1759:0.0045561194 1761:0.43936467 1762:0.48699403 1772:1.920189 1773:0.92542696 1774:0.11929419 1780:1.6301569 1781:1.0692146 1784:0.69092 1785:2.5991881 1786:1.0296674 1788:0.95668155 1794:2.6809659 1795:2.4229856 1796:0.16522485 1804:0.27385575 1807:0.43566683 1814:0.31565553 1815:0.25569734 1818:2.2914245 1822:2.5394866 1825:0.27131641 1829:1.9139485 1833:1.9434795 1834:0.63043636 1842:2.9911304 1844:0.86278456 1846:1.5481726 1848:0.39085349 1849:0.56072056 1850:1.9813278 1851:0.19436596 1852:1.9439812 1854:0.47732002 1856:1.0988511 1872:1.9002107 1881:3.9455333 1888:2.7603106 1890:0.48412073 1897:0.99870539 1898:1.9424939 1901:0.80250019 1904:0.27998281 1925:3.2061207 1938:1.6681174 1943:4.7112069 1950:1.3709855 1951:1.3787439 1953:2.8841131 1955:0.79888946 1956:0.48155031 1966:2.6218956 1968:1.6919365 1972:1.2792015 1973:0.84530884 1975:1.757777 1977:1.6577764 1982:0.29654264 1984:0.60069567 1990:0.21372026 1991:1.0660856 1996:0.22449441 1997:2.6862092 1998:1.9687093 1999:0.0971784 2000:0.11562937 2004:0.91365087 2005:2.8140833 2006:2.0201554 2011:1.0174127 2017:0.10507697 2020:0.64023966 2021:0.82690525 2027:1.2132344 2030:1.0618379 2033:1.6360226 2042:1.6493506 2043:0.38506311 2048:0.28793105 2058:1.674383 2059:0.48994061 2068:0.010412887 2075:0.43957895 2083:1.680388 2084:2.1646121 2085:2.056978 2094:4.4500389 2097:1.4874184 2107:2.1525695 2110:0.75689864 2118:1.3060298 2123:1.4719293 2125:1.2475584 2139:2.1965005 2140:2.2623775 2141:0.0024755299 2150:0.34397903 2153:2.2821693 2155:0.20052603 2160:4.270885 2162:0.70230305 2165:1.2907317 2166:2.9152639 2172:1.0025493 2177:2.1242616 2181:1.5631341 2186:2.5150275 2187:3.8703632 2188:4.1017876 2194:0.53614455 2195:1.8394313 2196:0.99223983 2198:0.25506848 2200:1.3346356 2203:0.6577673 2205:0.8146714 2206:0.16088921 2214:0.89225227 2229:0.36468625 2233:1.0039687 2239:2.5802073 2240:5.6587014 2246:1.5321034 2250:3.4865639 2257:1.6419903 2264:0.26699376 2265:4.2764359 2267:2.3133292 2283:1.054844 2285:0.94352221 2287:1.0547162 2290:2.1065233 2292:0.83482015 2296:0.84123701 2298:2.6446226 2304:0.68214285 2305:0.30899709 2307:2.1270022 2311:1.1571848 2322:2.0623941 2327:0.34688228 2329:1.7146114 2333:0.99670696 2336:0.018703401 2337:0.66972256 2343:0.64627796 2348:3.0344784 2350:0.14581898 2353:2.5497429 2355:0.30234578 2360:3.6059957 2364:2.2499697 2372:0.089045942 2378:0.29997194 2379:1.2496492 2388:0.9948864 2389:0.76559591 2394:2.4849937 2406:1.3728031 2413:1.5683821 2417:0.055658758 2420:0.63607025 2422:0.058124796 2431:3.2153592 2432:0.73367834 2435:0.37713754 2438:1.3166219 2446:3.2825918 2449:0.42275786 2453:0.74371368 2456:0.029352427 2457:2.9271677 2458:1.1369956 2459:1.0776844 2470:1.064519 2471:3.8477178 2474:0.95563883 2480:0.034871623 2487:0.010447949 2503:2.3613241 2506:0.88305604 2507:3.6008484 2508:3.2854822 2512:0.75723541 2514:1.2670302 2516:2.2353468 2522:0.026919574 2523:0.20764321 2527:0.35383967 2528:1.331659 2531:1.0714169 2545:1.1645294 2552:0.16208476 2558:1.7484131 2561:3.9281645 2562:0.64911199 2570:3.0213575 2571:1.1234421 2589:2.0018167 2594:2.6755345 2599:0.10932961 2600:0.61305487 2601:0.92172337 2619:0.88398927 2621:3.6439803 2629:0.24079964 2632:0.30351216 2634:2.1948552 2636:1.4696183 2637:1.5921512 2638:0.57036185 2639:0.84960473 2651:1.5103226 2652:1.9092951 2654:0.15155944 2656:2.516367 2659:1.9683632 2660:2.7818255 2667:1.2890911 2674:0.84536517 2676:0.8154667 2687:0.81967175 2688:3.28774 2689:0.8977412 2690:1.1733645 2693:2.3792174 2698:2.0873809 2708:1.1965861 2710:1.4206634 2715:2.2137003 2718:2.3875294 2727:0.57639968 2736:5.6625619 2745:1.5244579 2750:1.3508862 2752:0.47819084 2753:0.030663311 2754:0.16107795 2756:3.0821042 2766:1.300594 2775:1.662962 2777:1.5169749 2778:2.6862218 2786:1.4074469 2790:0.24119145 2792:0.64039111 2793:0.25541097 2800:4.173347 2805:0.69573629 2807:0.36138511 2811:0.84335601 2820:1.0703714 2821:0.002338469 2823:0.14986107 2826:0.18974429 2837:0.29711422 2842:2.0654092 2856:2.4176235 2857:1.1792032 2860:0.99960464 2864:0.072488882 2867:0.76347792 2870:0.45604688 2873:2.7774444 2882:3.7887383 2885:0.11010116 2888:2.912668 2891:2.9055369 2894:4.2310605 2895:1.4448702 2896:2.0654042 2913:0.097505078 2917:1.1762908 2919:0.74475807 2921:0.092344165 2927:1.6807667 2932:0.087268472 2934:1.8133838 2940:1.9979396 2947:1.5127758 2949:1.284806 2950:2.4252594 2952:3.083425 2955:0.67042315 2957:2.7556918 2962:1.0584464 2971:0.86169851 2973:0.53599203 2977:2.637548 2978:3.8549993 2979:2.2987025 2982:0.70939338 2985:0.89735973 2992:1.5812367 2993:0.44856238 3015:1.8360751 3019:1.3369813 3029:0.5204494 3032:0.26251978 3033:2.9824462 3034:1.2676852 3035:0.80204678 3037:1.9042344 3044:0.069790334 3047:1.3923197 3049:1.4228475 3056:0.2365298 3059:1.8813291 3060:4.0721869 3069:0.27807996 3074:2.1815758 3077:2.6983933 3085:1.97148 3094:3.4017015 3099:1.7299622 3110:0.52298772 3111:0.32694146 3114:0.91500461 3118:0.68415809 3123:2.9532945 3129:2.8272982 3132:0.063860133 3144:4.2148352 3152:3.3078363 3155:1.5581139 3160:0.3535955 3162:2.8836164 3163:0.19214308 3164:1.2362121 3166:1.2989967 3169:0.92156923 3180:1.1758767 3185:0.03580587 3189:0.43873885 3195:0.2434054 3196:1.1054072 3198:1.8156261 3200:1.8569112 3206:1.2530663 3208:1.1849815 3233:1.599999 3241:0.0090422332 3245:0.51458228 3249:0.13230786 3251:2.1179543 3256:1.0834752 3258:3.3291616 3259:0.90011859 3260:0.57881367 3267:2.1954589 3270:0.167145 3275:2.1879973 3276:1.7966846 3278:1.6448218 3281:0.3755964 3282:2.4513631 3286:1.8603063 3291:3.9538128 3293:1.5603486 3294:0.20591472 3298:0.36504623 3307:0.50897193 3310:3.8419645 3317:0.042166218 3321:1.0985765 3325:0.49648938 3327:0.2502411 3334:3.8970253 3340:0.86982065 3344:1.1081765 3345:0.61335194 3347:0.20803963 3349:1.303943 3351:0.86260223 3354:0.53179687 3357:0.95569813 3363:0.071858108 3377:2.4369879 3382:2.3541777 3385:0.40517753 3392:0.80348921 3395:1.9274526 3396:0.41651079 3397:0.91848326 3401:0.73470235 3402:1.4174502 3413:2.7003918 3418:0.68919593 3420:0.37186691 3422:0.36637312 3423:3.6373203 3424:0.016508013 3425:2.4095702 3427:0.048464596 3436:0.5496282 3437:3.3937979 3442:3.4431455 3443:0.62574464 3445:1.1899565 3446:4.7830043 3450:4.535872 3452:0.87908047 3456:0.58732599 3457:3.1424043 3459:0.71302587 3468:1.4783974 3471:0.27227429 3481:0.62018776 3482:1.1078117 3485:2.631536 3494:1.9136344 3496:2.6829846 3500:0.12953311 3505:3.1995387 3508:0.17267907 3512:3.7023845 3513:1.0003755 3515:0.24631304 3521:2.6309404 3522:0.2760964 3526:0.4160651 3528:1.4786968 3529:1.2650727 3535:0.24800137 3536:0.19219756 3537:0.5900619 3540:2.1969113 3544:0.63662952 3548:1.4288913 3549:0.73217869 3554:1.8962146 3560:0.60854012 3564:2.3261821 3569:3.1779523 3576:1.0336939 3577:2.490103 3578:2.3430719 3582:5.5414109 3598:0.7521643 3601:1.731011 3605:0.20009525 3608:2.4553404 3616:0.05489096 3618:0.62224543 3620:0.040669084 3621:2.1982861 3623:1.4218471 3624:0.62450808 3627:1.9761095 3629:4.5434952 3631:2.9072311 3635:1.3605053 3642:0.074621081 3644:2.0415344 3650:2.6449716 3654:0.34893093 3658:0.7260201 3669:0.89022791 3671:1.2882752 3672:0.43103766 3675:1.151579 3677:1.255218 3680:0.23967987 3690:0.2058413 3697:2.326005 3700:2.7444406 3719:1.4899526 3720:0.88914835 3724:3.5785968 3732:1.945779 3741:0.10826027 3747:1.2118751 3752:2.037957 3753:1.7377174 3754:1.2849832 3756:3.3045936 3760:0.30526733 3763:0.53666687 3766:3.2662721 3767:0.5750308 3768:0.64167416 3769:2.1237588 3771:3.8391781 3777:1.5208613 3778:1.2910777 3795:1.0696697 3802:3.4315476 3806:2.3960788 3807:0.85265207 3808:0.94428182 3818:3.4367504 3822:0.79929763 3824:0.68983018 3828:0.54866707 3835:1.604422 3836:1.4991387 3849:1.8330359 3851:0.46867239 3853:0.51062012 3857:0.86489695 3861:1.9016634 3864:0.96341634 3871:1.1311233 3872:3.2936053 3875:1.8581356 3876:1.2427075 3877:0.91736758 3882:1.2168372 3888:2.0660105 3889:1.3615768 3893:1.1751931 3895:0.42697844 3899:0.43217906 3900:1.0369214 3901:0.9918499 3906:0.88774079 3907:6.2267184 3910:2.4108133 3919:2.8986993 3935:1.6889539 3936:1.9559205 3938:1.0740894 3940:0.0086709857 3941:0.75081575 3947:0.36757836 3950:3.0073957 3951:0.59800494 3963:4.5823274 3974:1.0213747 3978:0.2484602 3984:0.090450384 3985:0.57360244 3988:2.8175864 3992:0.53662968 3994:0.63814467 4000:0.49962568 4002:0.81327593 4003:1.1141653 4004:0.90286779 4008:0.11596662 4011:1.0434306 4013:2.4806716 4017:0.96162707 4020:2.3732467 4021:0.89770651 4023:0.037803464 4029:1.2727549 4032:0.22491559 4043:0.28415743 4044:1.2993023 4046:0.58264816 4048:0.18332499 4058:1.2297626 4059:1.3075768 4063:2.3817706 4070:3.7025578 4074:3.9544816 4076:4.5850973 4079:2.549454 4084:2.0855405 4085:1.3831639 4087:0.28389072 4090:0.11830458 4094:0.76093614 
0.8890170677846376 18:3.2188826 19:1.0831987 26:4.4129648 27:3.643924 31:0.78549665 34:2.4914763 38:1.168349 45:2.3808713 57:1.8634882 60:0.58739567 61:1.0201861 68:0.31825256 83:3.8551033 84:2.7588112 93:0.88717544 94:1.0014942 103:1.1856902 105:3.6045406 108:7.3730297 123:3.536746 125:0.42889956 126:3.6939645 147:0.46670401 170:0.50015932 180:2.4727192 181:2.5480633 190:0.32885244 199:1.7993332 210:5.9375648 217:6.2513142 233:0.64747083 237:1.8152926 238:0.21324566 240:1.8737676 241:1.0452442 252:0.75650823 256:0.60424948 258:1.3196746 259:0.76546848 270:3.072293 290:2.4656343 298:3.2294824 301:0.25709957 302:1.6923418 311:0.070564918 312:0.35327798 342:2.7360308 347:1.9472572 348:4.7067127 353:3.6693394 361:2.2585318 365:1.8378046 366:0.97776353 371:0.15218177 372:4.3349252 375:2.1738868 378:1.4972494 379:4.5576286 386:0.69002384 391:4.2685652 393:3.0340004 400:0.17084101 408:0.93983805 421:1.453494 429:0.49714884 434:1.3904809 436:0.50562561 440:0.75084156 454:0.72594178 457:0.50323033 463:2.275207 472:3.5455232 482:4.6244264 485:2.5906096 494:0.25379169 496:0.74791253 497:0.33869216 499:1.2299104 502:4.7651572 515:0.67438036 523:2.7163637 526:2.7130535 562:4.1794052 563:2.4557889 576:1.2951525 577:3.5151172 578:0.60127467 595:0.12350979 603:1.1649565 607:1.9096373 616:2.0427065 620:0.3942498 621:0.51677567 629:1.2655889 640:2.28407 641:4.5634112 644:2.0555253 645:0.45744038 662:0.15681285 664:2.9714627 667:2.0455017 669:1.0533061 672:1.8800259 675:3.0513525 681:0.10322052 682:1.4305091 684:1.8252742 686:1.0417675 688:0.30890861 691:4.492528 698:0.18956095 702:0.76428008 706:3.1584945 712:2.5492058 717:0.96484566 723:4.4759731 732:3.6987984 736:2.1709805 737:1.4418671 738:1.3117679 739:2.6800396 748:2.379457 750:2.9239588 751:1.673683 761:0.57497811 776:0.90222538 789:0.66604757 799:1.1036329 812:0.08768487 813:0.7670393 814:1.7407924 819:0.28214538 825:0.46303168 826:0.93890297 829:1.5201044 832:1.1286054 834:0.43315548 839:2.9462693 840:3.7227569 841:0.68594998 842:0.35523441 846:0.37569559 857:0.63162863 860:0.28730363 868:5.6811147 878:0.97898293 881:3.3911922 882:2.0510073 889:0.51160115 891:0.057827413 895:0.058746025 902:2.4585974 912:3.2987943 919:0.31030539 924:2.895545 927:0.3744567 928:0.69896376 933:2.0674949 947:0.5113669 948:1.5491979 965:2.4048369 970:0.45697248 979:0.65489316 982:1.3403034 985:3.6952536 989:0.085301086 993:3.9846907 995:2.7825744 1001:5.5386038 1018:8.4957609 1019:5.2136297 1034:0.38512847 1053:1.902143 1056:5.4300346 1062:1.6048408 1071:0.79919869 1078:0.0092011988 1080:2.202024 1090:0.39350742 1095:3.973161 1102:2.6012273 1104:1.8114247 1105:0.6462388 1108:3.9695241 1111:2.1663373 1139:1.8106972 1153:0.63089472 1159:0.22507206 1163:0.47828197 1165:1.6707461 1170:0.60588527 1171:3.8339264 1175:0.76347846 1177:1.4927986 1178:0.83566523 1180:0.6771701 1181:1.9959931 1196:0.50182384 1206:1.9461118 1208:0.46528885 1215:3.8433511 1228:1.3319187 1231:0.90208745 1236:0.77549815 1240:1.0518066 1242:3.6599367 1251:5.280952 1252:0.62145239 1255:1.1621106 1273:0.15879701 1274:0.453444 1277:0.52270144 1279:1.8563263 1286:1.951968 1291:2.6321018 1292:5.5400343 1295:2.6002102 1302:2.2890368 1309:2.3445733 1313:0.14975071 1323:2.4582019 1342:0.26726627 1347:0.96029025 1356:2.7971976 1357:0.94930321 1358:1.9900681 1369:2.7202096 1387:0.36941361 1388:0.88301295 1389:2.5509231 1396:5.6355066 1410:0.35988051 1419:2.310503 1430:0.57780886 1432:0.48341185 1438:1.0564874 1443:3.9108341 1456:0.12625855 1458:1.5272353 1463:1.3116714 1465:4.1976581 1467:0.65292054 1469:2.1441586 1472:0.36892799 1474:0.089344718 1476:2.6151805 1479:0.51175255 1484:0.37985772 1486:0.86294103 1488:6.397872 1490:2.8347709 1492:0.22058049 1495:3.2437949 1503:1.9838008 1513:2.1256816 1514:3.2763445 1518:1.4076478 1519:0.090770096 1520:0.74329442 1538:1.9896145 1539:1.4259058 1552:0.77024794 1556:2.6263857 1565:0.60748738 1569:0.33706319 1571:0.64322942 1582:3.3292673 1584:0.91344953 1586:0.36444455 1587:2.3209925 1590:4.5655503 1598:0.25677216 1600:0.62862742 1604:1.0050393 1606:1.9653437 1613:5.3260307 1617:1.3767982 1636:8.4669542 1637:1.8961792 1657:0.65411925 1659:2.6855369 1661:3.685318 1662:4.4580517 1663:0.27183679 1664:1.2032112 1667:0.012598217 1675:1.0735964 1677:4.7159204 1680:1.2301049 1683:0.3807672 1686:0.044903144 1688:2.4438331 1690:3.9061284 1696:0.75508636 1699:0.12318975 1705:0.94074464 1706:0.24706304 1707:3.0762751 1708:0.20614302 1721:1.8562288 1725:0.333911 1726:4.6331763 1729:0.18834037 1736:5.2894549 1737:4.3380957 1742:2.214731 1746:1.4384141 1754:0.28873283 1758:0.13959473 1762:4.5661349 1775:1.5116463 1779:0.14477688 1780:0.49678671 1781:1.0267886 1788:0.634978 1792:0.11029743 1794:0.060022354 1795:6.626133 1804:0.11702752 1805:1.078217 1808:2.2681868 1812:1.2624383 1814:0.62704647 1822:0.45630023 1823:0.37148452 1833:2.2452776 1837:4.0983624 1849:0.24407548 1852:1.4512194 1855:3.2772279 1856:4.9624372 1862:2.8011281 1870:0.86358583 1871:0.47441587 1872:0.48073798 1882:2.1700761 1890:1.913995 1898:1.1012844 1922:1.4289026 1926:1.2581625 1943:2.8847828 1952:0.61346006 1953:0.88233709 1964:3.2715642 1968:1.474195 1970:0.026832543 1972:4.9469948 1973:1.1323115 1982:0.0063188672 1987:0.75488269 1996:0.29615074 1998:1.1343142 2000:3.6199756 2006:3.7600646 2009:1.9985805 2012:2.305974 2021:2.370955 2029:0.38781077 2031:0.76774323 2042:1.4926364 2046:0.63402051 2048:0.64271098 2057:1.4196895 2060:2.0098741 2063:0.31262803 2069:0.40680188 2076:1.2146685 2083:1.50998 2105:3.1176348 2108:0.39939094 2112:5.5182056 2113:0.0048647374 2118:1.4913803 2123:0.91949737 2125:1.0383399 2138:3.6884334 2140:0.0078433454 2148:0.81191063 2150:0.073410064 2152:2.0366797 2153:1.0490392 2156:1.8534205 2165:0.56281918 2167:0.19639412 2168:2.5657258 2172:5.1187716 2187:3.3338442 2196:6.1700091 2198:0.029017329 2199:1.4384587 2201:1.4282261 2202:3.0375144 2203:2.4529548 2212:1.4308145 2223:2.3380313 2232:2.424032 2237:1.6152146 2240:0.25912708 2245:2.4756525 2246:0.73418504 2253:3.9899831 2254:0.51130068 2267:0.16880053 2272:0.096915141 2275:1.4393234 2282:1.4863238 2290:1.7976725 2294:1.6720746 2303:1.4334792 2313:0.69055438 2319:2.5613508 2322:2.9149194 2329:1.277106 2335:0.090653151 2346:1.8820876 2349:3.4501193 2357:4.1256924 2361:0.75256932 2375:0.2111488 2378:0.30594385 2392:0.083982266 2400:3.53163 2401:3.5594327 2417:2.2295296 2431:0.73425031 2435:2.0977519 2437:4.1407194 2441:2.0883248 2452:0.49524873 2458:0.94847322 2459:0.15749994 2466:2.3646672 2473:0.57754087 2476:3.6202433 2477:2.4133449 2487:0.97065151 2490:0.28588015 2504:2.9494972 2509:0.30525488 2514:2.0361309 2516:1.7845166 2518:0.31583136 2520:0.64705163 2526:2.018621 2529:0.92652166 2536:1.1970296 2553:1.3314277 2554:0.24795465 2561:5.0361996 2569:0.27439046 2570:1.1787869 2574:2.8513806 2577:0.12190029 2578:3.5477569 2581:0.8629055 2604:1.2040913 2607:0.21539572 2612:2.6983664 2620:1.359347 2622:1.2240324 2637:0.21210989 2639:0.64546204 2642:2.0369868 2651:1.7669952 2652:3.093061 2657:2.0380468 2658:6.3216605 2669:0.11725025 2674:1.7081112 2676:0.18115169 2688:1.1389339 2695:6.3744607 2698:1.1088142 2708:2.6367834 2710:0.46766374 2712:1.2572106 2713:2.6832294 2714:2.1078327 2715:0.89746708 2717:1.7630681 2718:1.1212019 2720:0.62651515 2721:0.19853243 2723:6.2691331 2724:1.7642552 2731:1.3104749 2732:2.6488268 2743:0.46244389 2745:7.1685371 2752:3.5773559 2766:2.7264946 2771:0.73064697 2774:0.49734941 2775:0.54893434 2778:6.5920663 2792:0.71953565 2793:2.3686883 2795:2.1364558 2796:0.58016461 2797:0.6317355 2800:4.4623685 2811:1.3975101 2814:0.83673233 2817:0.5673818 2825:4.6747952 2826:0.81382948 2828:0.65601563 2840:0.93680185 2845:1.7499727 2849:0.30193698 2859:0.80778611 2864:3.9339526 2870:3.575918 2873:3.136301 2882:3.4663367 2883:0.95540148 2887:0.13086301 2888:1.4671124 2895:2.8409123 2903:5.8340549 2910:0.65078235 2911:0.24563195 2926:2.1631546 2929:3.6185904 2931:0.41583672 2940:2.2794344 2950:1.3756062 2958:0.40528554 2969:1.4390914 2974:2.918443 2979:0.88016081 2981:7.9117799 2986:1.1211138 3000:1.0593634 3008:0.55976725 3010:5.5845675 3011:0.82185495 3015:1.8269948 3019:0.59005809 3026:0.078704566 3044:0.43412516 3052:2.1614985 3065:2.5312166 3071:0.96872628 3075:0.66591489 3077:0.50347447 3081:3.4196537 3089:1.3726158 3099:0.13507491 3105:1.6918783 3117:1.8182588 3129:0.74985516 3145:1.9750805 3152:5.7505436 3157:1.1331352 3161:3.6580536 3163:1.8212378 3164:2.3172603 3172:1.2282444 3179:6.2928791 3182:1.0181627 3198:5.4938421 3208:0.041113406 3210:0.076988935 3211:5.3344665 3231:1.7807255 3235:1.594502 3236:1.7657056 3242:2.9573669 3245:0.77215254 3246:3.3019102 3247:5.9376688 3252:0.030923903 3258:0.22105795 3260:3.2118642 3283:0.78642035 3286:1.3868034 3291:6.0457888 3334:4.4737692 3344:0.25940117 3348:1.1598164 3349:0.56158686 3351:1.3511106 3358:0.69665879 3359:1.736804 3363:2.0298462 3367:3.082576 3373:0.56856656 3388:1.7753034 3394:0.0039775372 3402:2.2036517 3403:3.3141174 3410:1.1614549 3413:4.2741661 3418:2.1539721 3420:1.3157227 3424:1.3772577 3437:0.25143069 3438:4.1417141 3444:0.53808409 3449:0.73609829 3456:1.4788443 3458:0.034094691 3474:2.2861769 3476:2.4684117 3482:0.35927504 3484:0.82428765 3493:5.8580251 3494:3.7352376 3496:3.9603922 3498:0.050604582 3500:1.3259501 3508:4.1265459 3514:2.7761524 3526:3.5868766 3531:1.8416513 3534:0.55483001 3536:0.35356402 3539:3.6926188 3544:0.54512054 3548:0.58886087 3554:0.025005817 3560:0.0040127118 3564:1.4720331 3569:3.7391107 3586:1.6010147 3596:0.38618502 3598:1.1066744 3603:0.34180444 3607:0.75108838 3614:3.4164364 3615:0.61480796 3616:2.4020827 3627:1.7132956 3629:2.3888922 3632:1.1146899 3644:1.4413323 3649:1.2393885 3653:3.6915138 3657:1.3932203 3660:0.22446701 3666:0.16330954 3669:1.5203983 3677:1.1760811 3679:0.26130158 3689:0.78710711 3690:1.6231143 3691:0.80838972 3692:2.3636785 3703:0.059142351 3710:0.34561786 3711:2.0997422 3715:1.3760507 3717:0.91644156 3729:3.8576255 3744:1.5448794 3752:3.735857 3753:2.8780079 3755:0.69083321 3759:2.0591264 3761:0.65684181 3766:4.8026037 3767:5.5109181 3771:0.24031705 3776:0.069381699 3777:0.20046079 3793:2.183955 3795:0.58663899 3797:4.4593573 3802:0.20944472 3818:2.9750996 3822:1.953518 3824:0.68697935 3831:1.7121738 3834:2.7702856 3835:2.9430981 3841:1.1673532 3846:0.9348886 3850:0.80295503 3857:0.52648914 3859:3.1700692 3860:5.2809367 3863:0.59353948 3864:0.1832348 3871:1.0766068 3877:0.94448769 3885:3.5854988 3888:0.34734067 3891:9.9133387 3903:3.1692507 3906:1.1552774 3912:2.9284589 3918:2.3419025 3919:0.9111529 3927:1.0470241 3935:2.2424977 3938:1.8050027 3942:1.6712312 3945:1.496027 3952:0.27230549 3957:0.747455 3966:0.039726391 3970:1.2882016 3980:4.4677777 3984:1.2438998 3985:1.6174886 3995:1.2138284 4004:1.6609536 4007:1.434325 4013:1.7063222 4018:1.3267787 4021:7.2608027 4032:0.081914514 4034:0.54599285 4036:0.45565984 4038:0.54837406 4039:0.19898647 4044:0.90210557 4045:0.88099188 4052:1.4913931 4057:0.49646643 4058:0.41695791 4061:1.9002252 4068:0.32122394 4071:0.72950149 4074:3.8698564 4084:4.2844505 4089:1.7357512 4090:2.1723158 4094:0.17471144 
0.598432528897794 18:0.67827541 19:5.3652611 27:4.805047 28:0.12089265 31:0.71818233 34:1.2863733 38:1.0757067 44:0.62094939 45:0.15785566 60:0.24146938 61:0.4228189 83:3.1269944 84:1.44666 94:1.3852838 105:5.9457855 108:1.4398988 123:1.864661 144:0.041062236 154:0.016756132 163:0.64686549 170:1.1234715 180:4.0390162 210:5.9330897 216:1.6881949 217:4.5336208 224:1.1201376 225:0.011802848 237:1.971715 240:2.3585544 241:0.75823861 265:1.5752553 290:0.85219586 297:1.0919377 301:2.3761973 302:2.4055231 311:4.2204309 312:0.57708013 314:1.3765852 323:0.16061203 328:2.6847672 348:3.3523567 353:1.3394097 361:0.84243488 365:0.93525606 371:1.5256469 372:2.9889877 374:0.68397641 375:1.8965986 378:1.3910835 379:3.839751 382:0.52780318 385:2.3518388 391:3.6297696 393:3.1974542 426:1.8550158 429:0.66587085 432:1.7618186 434:1.3506999 436:0.36818695 440:0.28484237 442:0.10008778 452:2.0940444 454:2.5622401 459:0.46001446 463:2.2525761 472:3.1289961 482:3.3480175 499:3.6807046 502:1.1993259 505:0.22536135 515:3.5028627 523:0.76377022 526:4.9624615 549:0.19636145 553:0.38680071 562:2.0072529 570:0.56268549 575:0.13660458 576:0.91067189 577:1.4465222 586:0.40864992 595:3.5819039 602:0.066175222 607:0.72456199 621:0.27644065 641:3.4733381 644:0.03391888 645:0.31879663 662:2.338378 664:0.065998524 667:5.5694666 669:0.39692843 672:5.6263595 675:1.0350113 682:4.2293057 691:4.5970802 698:1.5452805 702:1.6337612 706:4.4074225 711:0.24491522 712:0.68948108 717:1.4275602 720:6.4341102 723:2.7712345 724:0.11477998 732:1.127519 737:4.8948812 738:0.22052254 739:2.3527446 748:2.6498296 750:2.1365578 755:2.9963908 757:0.1607219 759:0.37252572 771:1.7468724 776:1.0901864 788:2.1305039 791:1.5090154 798:0.79054213 799:1.7870957 810:0.22756074 814:3.18784 820:1.341433 825:1.5768535 826:1.1541624 839:5.9756427 840:0.87493539 846:1.4163778 860:1.9189246 865:4.4952111 868:10.557814 878:0.27229559 882:2.2429242 889:0.21458495 891:0.28001773 896:0.49006623 912:0.035603166 920:0.35342264 922:0.3268407 924:4.2463193 927:0.051696539 928:2.1238735 930:1.5848341 933:0.57736665 944:0.76597381 947:4.7530265 948:0.2550838 979:3.5444567 985:2.176348 989:3.4919035 993:0.87105191 995:0.76332414 1001:0.78829145 1014:2.160974 1015:0.11538455 1018:8.0067539 1019:5.1313343 1021:0.020577848 1056:4.0950756 1062:3.2786117 1067:0.78555954 1071:0.86558658 1077:0.054349363 1078:0.46749479 1080:5.2625942 1090:1.8483226 1095:2.5492554 1096:2.9950011 1103:0.4500933 1105:0.6001327 1108:2.6383066 1111:1.0561926 1116:1.0808644 1130:2.3384502 1139:0.93507183 1155:1.2012765 1177:2.3126574 1178:0.23012531 1191:1.0428603 1206:2.0308836 1208:0.049397349 1231:0.83108008 1236:3.697093 1240:0.84377855 1242:4.3356237 1251:6.1426473 1273:0.46629694 1274:3.9017971 1279:0.88798404 1286:3.9694576 1288:2.9518216 1291:0.79821253 1292:2.5637922 1295:3.764571 1305:0.25039431 1309:3.6245403 1320:1.840978 1323:1.0292188 1324:2.5156302 1333:0.9617101 1335:1.2496352 1342:1.8423519 1345:1.0388985 1357:1.2548265 1359:1.6875266 1365:3.1098304 1368:3.5477495 1369:2.2771635 1387:1.29848 1396:2.6227643 1399:1.1533788 1406:0.87585765 1419:1.7652551 1422:3.6264515 1430:5.0655713 1432:0.38774395 1433:1.8398144 1438:2.2929397 1443:3.7605019 1456:0.52256256 1458:3.8159876 1465:6.6164322 1467:0.76910645 1468:1.211998 1470:0.61945164 1471:3.0072088 1474:0.57963187 1484:0.62261057 1486:1.4104965 1487:1.2132375 1488:2.3326707 1490:0.93953604 1495:4.6228366 1513:0.77456671 1515:0.39622045 1518:0.63963437 1519:0.25070459 1520:3.1891401 1525:0.90805215 1538:1.2906001 1541:0.25261146 1556:2.7875576 1560:1.8786887 1569:1.4447997 1574:2.15839 1582:2.5197117 1587:1.9105281 1590:5.9339418 1613:5.2258897 1617:4.2054219 1622:1.0939401 1628:1.0403347 1636:3.3103127 1643:1.1863619 1657:0.78921086 1659:2.7773976 1661:4.7418852 1662:4.6734066 1664:2.07143 1668:0.44012877 1675:1.3304789 1677:5.2607379 1688:1.3726597 1690:5.0647364 1696:1.0210121 1699:1.4678917 1703:0.32600683 1705:4.3714943 1707:1.2286117 1725:1.2046155 1726:7.9460282 1727:0.32822675 1736:1.3534675 1737:2.6679342 1742:0.047081247 1750:0.29336429 1754:1.060033 1758:2.9547198 1762:3.416703 1770:0.27883556 1772:0.78214407 1775:0.50058782 1780:0.5919618 1781:0.35407799 1788:1.2276931 1794:2.0999708 1795:8.4057455 1804:3.7694068 1808:0.90511394 1825:0.59761167 1833:2.9323428 1837:1.5910805 1844:0.61820877 1855:0.96063846 1856:3.3264935 1857:1.1340718 1867:2.1754262 1870:0.81506383 1872:5.6743112 1877:0.75472713 1890:3.5748854 1896:0.15549898 1898:0.92434323 1922:0.52512634 1926:1.3951128 1928:0.95349419 1938:0.91450763 1943:0.65846193 1950:0.51229405 1952:1.2159293 1955:0.59353614 1964:0.16339292 1972:4.6071534 1974:0.13744867 1987:3.7444394 1990:2.3933315 1997:0.16480088 1998:0.50624287 2000:3.9756689 2006:0.86686933 2030:0.15248072 2031:0.74326581 2042:1.0967746 2048:0.73051584 2055:0.58167064 2057:0.39599282 2060:0.52396077 2068:0.41178328 2075:1.6649752 2076:2.9812279 2100:0.13815939 2105:2.2308142 2108:2.2196429 2112:2.7187061 2116:2.4697645 2125:1.3426392 2132:1.2635438 2138:5.595346 2140:2.0780451 2148:2.6799781 2152:2.1290562 2153:1.8883591 2156:0.52204722 2168:1.9620026 2172:3.5575912 2179:3.4855192 2187:2.5105784 2196:2.3604708 2202:6.8757133 2203:1.9159298 2214:2.4494157 2223:2.7595351 2237:0.94016206 2253:3.2710452 2254:1.7584898 2262:0.64460623 2267:1.7621415 2282:2.8020642 2290:3.7134125 2303:2.4164352 2304:2.9069262 2311:0.64764094 2313:2.7435279 2322:1.7931681 2328:0.34163719 2331:0.23055676 2348:1.091013 2349:0.59172583 2356:0.73319387 2357:0.21119906 2360:0.67668712 2364:1.4043666 2372:1.0183148 2386:1.9612103 2393:0.39310244 2400:3.8417771 2401:3.6452625 2408:3.0031228 2417:1.2323306 2422:1.7794724 2431:2.2636216 2437:0.40505075 2441:3.9029086 2452:0.29644537 2471:1.7131468 2473:2.0674245 2476:1.4540725 2477:2.7443843 2481:0.4019773 2487:1.6121027 2488:4.3786464 2505:2.4404626 2514:2.299314 2518:1.229741 2526:1.756287 2529:1.3765349 2531:0.070583344 2536:0.99809194 2539:1.0284618 2553:1.4681621 2554:0.63145661 2561:2.1901698 2562:2.9522724 2563:0.70425165 2574:5.9261155 2577:2.2086532 2581:1.9748203 2583:0.91080129 2586:1.8334479 2597:1.2102273 2604:4.2759147 2612:3.9022164 2620:2.1034966 2639:2.0149567 2651:0.73879069 2652:2.4165962 2656:0.013474196 2658:5.779799 2672:0.82326818 2674:2.3034632 2676:2.7085302 2688:2.5676892 2692:3.1970775 2695:0.22210914 2704:1.0699099 2708:2.5757272 2710:0.84013969 2713:2.7728512 2714:1.1593359 2717:2.041095 2719:4.2574873 2723:8.5349627 2724:0.56656766 2745:1.398587 2752:1.0538579 2766:1.5236027 2770:1.5617217 2771:0.24705788 2774:2.1291537 2778:5.0309205 2790:0.21147799 2792:0.88106906 2793:3.1023126 2795:2.9340141 2796:0.40249655 2800:2.3228045 2811:2.0805397 2825:3.388077 2826:0.46200508 2828:2.0447786 2845:0.98762941 2849:1.6732049 2864:5.0136399 2873:1.7412057 2882:1.3231719 2887:0.44221899 2888:0.37584513 2895:3.4006045 2898:0.92944705 2903:3.6474493 2907:1.6455933 2917:0.82311881 2920:1.1889882 2926:0.014095396 2929:0.97772682 2932:1.9819381 2938:0.36147639 2940:0.0015125871 2941:1.6618813 2950:1.3537974 2968:3.0283566 2969:0.56880724 2970:2.3310168 2974:2.1849844 2979:0.11762267 2981:8.1678696 2982:0.34506282 2986:1.378417 3008:1.4728947 3010:5.6283784 3011:2.6135285 3015:3.9299736 3019:2.2825937 3020:0.3576639 3035:1.6380363 3044:1.2153771 3065:4.1478958 3075:1.1042027 3081:4.2796178 3087:2.1752923 3089:2.0677197 3105:2.102175 3117:3.4846535 3133:2.3058302 3135:0.41350335 3144:0.44427139 3145:3.590265 3152:7.173677 3157:0.68856484 3161:2.5858901 3162:0.51946348 3163:1.8396463 3164:3.9431922 3169:0.7489903 3172:0.71804917 3179:5.5072117 3182:6.2824779 3198:4.7791548 3206:0.84443516 3210:1.411461 3211:0.31666398 3222:3.6310103 3223:0.0055129677 3233:1.2203598 3238:1.6842363 3242:1.9971212 3245:0.71122921 3246:2.0844138 3247:3.894311 3253:3.3106298 3259:0.46429902 3260:1.7697779 3267:0.093371958 3283:3.4866385 3286:5.3630042 3291:1.8349978 3332:1.4013677 3334:7.4275165 3344:0.75292349 3348:2.8765135 3349:0.65875411 3351:2.8566158 3359:0.21907115 3361:0.79324645 3363:3.4065483 3367:2.6119776 3386:0.45502698 3388:4.4907041 3394:0.75253546 3395:0.13133061 3402:4.1798358 3404:0.068786681 3411:0.42045504 3414:0.044464648 3418:4.2178736 3424:2.3413165 3438:2.7216849 3442:0.15265635 3449:3.224941 3457:0.4353205 3474:0.22863849 3493:6.5246081 3494:3.4622889 3496:7.6650004 3500:1.338455 3508:1.565335 3512:1.7150645 3514:1.8615741 3521:0.7232784 3526:1.6808271 3536:0.68460029 3548:0.58017981 3549:0.4614833 3560:1.7396036 3564:1.6032562 3569:4.6170416 3603:0.7851795 3607:0.34771848 3608:3.3765807 3614:4.6606727 3615:1.767813 3624:0.39596143 3629:2.0146558 3630:0.80331969 3636:2.1639636 3644:4.4166532 3649:1.265625 3650:1.0635558 3666:4.294199 3669:0.97120452 3676:0.92402279 3677:0.65972912 3687:0.1131334 3688:0.77663624 3689:2.9664817 3690:1.5640316 3703:0.93137151 3711:2.8829529 3717:0.93781018 3729:0.99309945 3744:0.68201005 3745:0.88685715 3752:6.6781654 3753:1.8532529 3755:1.758135 3756:1.4795029 3759:3.332901 3766:1.2256716 3767:4.4662881 3777:2.0326908 3789:1.3852224 3793:3.5024469 3795:2.0869212 3797:6.6355591 3802:3.7671347 3818:2.8580339 3824:0.097085215 3831:0.63773042 3835:0.39877307 3841:0.075782716 3847:1.7760046 3856:1.0089771 3857:0.23520198 3860:4.2439094 3864:0.84701669 3871:2.1096873 3876:0.91785347 3877:1.9272707 3885:3.013967 3891:7.6098714 3893:3.1931913 3895:1.2481785 3903:1.6993183 3906:4.2235494 3918:2.4651699 3929:0.023048133 3935:1.9363706 3936:0.82253343 3937:0.048951626 3942:0.6956538 3945:0.0066155344 3957:3.4841568 3972:1.100548 3980:3.0471067 3981:2.7240105 3984:2.1160305 3985:2.3029935 3997:3.5181389 4002:2.142885 4004:2.7495995 4007:1.5616026 4013:0.87524849 4021:5.879065 4032:0.093803197 4034:0.71494979 4038:0.81340456 4040:1.0587629 4044:0.27922907 4057:2.4921901 4058:0.084799826 4061:2.8425863 4074:3.9862871 4084:3.1256082 4089:4.5875139 4090:4.350544 4092:2.5077589 4094:2.6387331 4095:0.092305109 4096:0.84525597 
1 8:0.094697773 18:0.39197263 19:0.86839151 20:0.71502376 27:4.2154126 30:0.48005655 34:0.67344785 39:0.45782149 45:1.8971252 48:0.43445432 49:0.0073111281 58:1.4809558 60:1.019601 68:0.075476319 83:2.12521 84:2.5342057 103:0.93783551 104:0.3770242 105:4.5902438 108:2.0660505 110:0.30246711 112:0.88931483 115:1.0981473 123:3.925796 145:3.5464137 156:0.32086313 163:0.97019351 170:1.4844403 180:5.9121494 181:0.93935162 200:0.052269623 210:2.6605861 216:1.6658511 217:4.3804178 219:2.1467071 224:1.4111469 233:2.2362165 237:0.79433954 240:1.4429984 241:4.3446631 252:3.2292485 259:0.56773597 265:3.3164318 267:3.1434016 290:4.3151464 298:0.41062617 301:0.87272429 302:0.58955634 311:3.9523978 312:3.9818826 328:3.4615035 348:1.0127567 351:0.44916138 353:0.68829536 361:3.023324 365:1.4243348 366:0.90778971 372:1.5267097 375:2.5742929 378:1.343637 379:0.6088258 385:2.414438 388:1.2662153 391:2.9374468 393:3.4054129 414:0.18150851 432:1.8835706 434:0.12555926 436:0.059813738 440:0.054321885 452:0.7596128 459:0.83033502 463:3.081028 472:3.8535249 473:0.68763816 474:0.38905987 482:5.3869128 484:0.065211803 499:3.6858613 502:0.20803799 505:1.0529879 512:1.022941 515:6.0748901 523:1.989706 526:5.8912673 549:1.1305739 557:1.2115988 562:2.9527681 563:0.4437398 570:1.1934997 576:2.6764932 577:1.4233716 578:0.0086933374 595:3.2638953 611:0.39145446 612:2.4728727 620:0.85134012 621:0.64864028 624:0.19256744 637:0.048221558 639:0.1097689 641:6.5888314 644:4.0848818 645:0.21422787 646:1.1401647 662:0.99577677 664:0.74557269 667:4.9243155 672:2.3036938 675:0.76555669 682:4.0743976 691:3.4447217 698:3.1223171 706:2.9852428 711:2.157299 712:2.2400129 717:1.9620032 720:6.2132215 723:2.9651804 730:1.6181557 737:3.313803 739:0.53599072 748:4.5652676 750:3.321161 755:2.0934696 757:0.23508912 771:0.40445849 774:1.1197164 776:1.5506241 786:0.49177182 788:0.68445033 789:3.8190029 798:2.4004714 799:0.88446361 800:0.097847104 801:0.4559952 814:1.3205349 820:0.27961877 825:1.1545565 826:1.3803735 839:4.6971793 840:1.7650245 842:1.7905051 846:0.76092196 848:0.44866377 856:1.1329457 865:2.2140903 868:5.4755335 869:0.49906039 882:2.5424352 886:0.12381774 889:0.5483278 890:0.012270898 891:2.2889457 896:2.2043657 902:3.2861664 904:1.5654411 912:1.3877578 918:0.037678152 924:2.2946613 927:1.3659785 928:1.2711668 930:1.2121269 945:0.22958335 947:5.6341639 948:0.69691062 954:0.040555835 966:0.4141956 968:1.235589 985:1.2496289 989:3.4768183 993:0.43150041 995:0.7039963 999:0.86340761 1001:0.49925992 1014:3.4209802 1018:6.0547462 1019:5.3956094 1041:0.67722696 1045:0.66754442 1056:1.4450184 1062:1.9297216 1067:1.4151665 1071:0.76542395 1078:3.4316888 1080:3.8876541 1090:1.2027891 1095:1.4142046 1096:4.5012217 1100:0.65341824 1102:2.3953257 1105:1.3914039 1108:3.5282068 1122:0.24801859 1125:2.5105755 1139:1.4383765 1155:0.47938523 1165:0.23246786 1169:1.0514174 1173:0.85298306 1175:0.59244931 1177:0.33487022 1181:1.0280298 1183:1.7628536 1186:0.38620415 1191:0.2322956 1206:1.7369031 1208:2.3457735 1215:1.9098155 1217:1.8988187 1227:1.1852859 1228:0.75534892 1231:0.95116508 1236:1.1797267 1240:0.37269038 1242:1.0227503 1251:3.5939293 1253:3.0140002 1258:0.64297795 1269:0.11750743 1271:0.63942957 1274:1.3007282 1276:0.16183966 1279:0.53159708 1281:0.11182493 1282:0.47609064 1283:2.2099681 1286:2.2459936 1291:2.2386465 1292:2.4441826 1295:2.8466854 1297:0.45200762 1302:2.1748366 1305:0.069774836 1306:0.79879749 1309:1.6869618 1313:0.50794286 1324:0.075956628 1333:1.0098457 1335:3.4366181 1340:1.0535872 1342:1.2538984 1345:0.0097974092 1356:0.32650378 1357:0.13527128 1359:0.63221902 1365:2.8499773 1369:6.0883074 1387:0.40357661 1396:0.92307574 1397:0.80748278 1406:1.4824846 1410:0.28578952 1412:2.4725966 1416:0.75007844 1419:1.1302826 1422:0.16373336 1426:0.37941819 1430:1.4268851 1432:1.0308433 1438:2.2376189 1441:1.1675528 1443:2.9563568 1456:0.76841331 1458:1.3043041 1465:5.0553417 1467:0.97106475 1469:1.1285728 1470:0.29369658 1471:1.6962345 1472:0.27463254 1474:0.74621707 1487:1.6954875 1488:4.3977785 1493:0.3202948 1495:3.8656719 1508:0.62797105 1513:0.93166417 1515:0.61345387 1518:0.99324548 1519:0.74871981 1520:3.0815074 1522:0.58074713 1525:0.016922027 1526:0.094565749 1547:0.28543973 1556:2.4156511 1560:2.5361209 1562:1.3176458 1567:1.795296 1569:2.5800197 1574:0.65398419 1577:1.1993712 1582:2.7372472 1587:1.9995543 1590:2.5796375 1600:1.5525712 1612:0.57897645 1613:5.6307702 1617:1.7757766 1624:1.0526345 1625:0.035332397 1626:0.38933462 1628:0.9387061 1629:0.078010045 1630:1.6916249 1636:0.58123457 1643:0.53335261 1657:1.1649139 1659:0.054880545 1661:2.4072301 1662:3.5948038 1665:0.57139808 1668:4.3648305 1675:3.2933662 1677:5.7557044 1690:3.761651 1696:1.5883449 1699:0.75985116 1700:0.0048134923 1705:3.3619003 1725:1.6783559 1726:3.896374 1736:0.51664859 1737:0.23932773 1739:1.6323657 1746:1.1032159 1749:0.85310346 1750:1.1393455 1754:1.2529962 1758:1.3949728 1761:0.59650576 1762:0.38713259 1772:1.8764477 1775:2.0107813 1779:1.3070052 1780:0.88986981 1781:0.4864133 1794:2.3363302 1795:6.7918477 1797:0.19283198 1804:1.842478 1825:0.056715876 1826:0.84271806 1833:2.5784709 1837:1.6622156 1851:0.51261932 1855:0.91711152 1856:1.2843846 1857:3.9798775 1870:0.73569357 1872:5.1084189 1877:2.3082232 1890:1.0380561 1897:2.2922099 1898:0.92528951 1904:1.9650941 1915:0.0046995878 1922:1.6262549 1926:3.2304602 1928:2.5638924 1943:1.2401298 1947:0.11334394 1964:2.827008 1970:0.418035 1972:4.4224591 1974:1.0261465 1987:3.6144536 1990:1.5095526 1997:0.85080236 2000:3.5296922 2005:1.5546215 2006:0.32361165 2009:0.046216138 2012:2.2859814 2021:1.9354726 2028:0.17900524 2030:0.22459304 2031:1.0631629 2042:1.5374084 2048:2.7802308 2057:1.4523215 2070:2.2932606 2073:0.56935465 2075:0.92682773 2076:1.4591968 2083:2.8911395 2085:0.83616853 2100:1.0888247 2105:1.7813805 2107:1.2977034 2108:0.88060224 2112:2.2000065 2116:1.1998624 2123:0.94912553 2125:2.4444549 2138:4.4801021 2144:1.913923 2148:1.999033 2152:3.0770962 2153:2.1405032 2164:1.4702814 2168:3.3443055 2172:1.0007784 2179:1.4265513 2187:3.1305778 2196:4.7105937 2202:2.8263805 2203:1.0446029 2206:0.33358076 2212:1.028296 2223:3.9653893 2237:2.5350821 2240:5.3284812 2246:0.28458259 2250:0.04941234 2251:1.7448606 2253:6.1365981 2254:1.268693 2262:2.0906403 2267:4.0840864 2275:1.3992665 2282:0.68556654 2290:1.5177584 2294:0.51774955 2303:1.4125087 2304:1.4916086 2313:1.5272858 2314:0.018608898 2322:3.8022327 2328:0.88054216 2329:2.7091212 2331:1.1837506 2338:0.8584677 2346:1.063871 2348:1.4007499 2356:0.40966257 2357:2.2877371 2358:0.13460128 2360:0.032455415 2364:1.0825769 2372:1.2115624 2374:1.4632654 2378:0.62860429 2386:0.26100636 2400:0.6004588 2401:5.1859188 2404:2.9741988 2408:3.637001 2413:0.3588177 2417:3.5562801 2431:0.66503012 2432:0.47341722 2441:2.6075997 2446:1.8216344 2452:0.29991037 2457:0.024490893 2473:1.7842793 2477:2.462837 2481:0.53850585 2487:2.2839856 2488:1.4342194 2503:0.32659924 2504:0.083873779 2505:1.5808918 2514:1.3363178 2516:2.3062899 2518:0.34851485 2520:1.4786001 2526:0.63357806 2529:0.16157328 2539:1.5191919 2553:1.2729747 2554:0.63765961 2559:0.24895447 2561:4.0230145 2562:0.83980608 2568:1.610896 2569:0.75095218 2574:6.4988213 2577:3.266278 2581:1.2726724 2583:1.3431852 2589:1.2748399 2595:1.1303418 2604:4.6029339 2605:0.04668428 2612:1.0504456 2620:2.6031213 2636:0.75890148 2639:1.2368851 2651:1.3280401 2652:0.36887997 2656:0.012500495 2658:1.801715 2676:3.9303925 2688:1.5411505 2692:1.0018948 2695:1.9085618 2698:1.4859457 2705:1.5968306 2707:1.8509119 2708:0.58631521 2710:4.2585702 2713:2.0490568 2714:4.0523796 2719:1.121788 2721:1.6639175 2723:4.7528577 2732:0.32894653 2745:1.5912173 2749:0.3113988 2750:0.44061196 2759:0.5589149 2763:0.030577242 2766:1.9668767 2774:1.600781 2777:0.850927 2778:4.5549774 2790:0.63919085 2792:0.8350085 2793:5.159842 2795:0.56990838 2800:1.2993037 2808:0.53693074 2811:1.7983019 2817:1.1687586 2818:0.46784061 2825:5.187602 2828:4.5261407 2831:0.57988852 2840:0.26201209 2844:2.4352148 2845:1.4911796 2848:0.69544768 2849:1.6196747 2864:1.4953021 2873:4.2764382 2882:0.55155057 2887:0.23043361 2888:3.4611123 2893:1.4947318 2895:3.5012805 2898:1.1338983 2903:2.4195282 2910:0.116797 2917:1.1426408 2920:1.2012731 2926:1.6918534 2929:0.21463168 2932:1.1475335 2940:0.11519939 2941:2.0150235 2949:1.2937896 2950:0.54295349 2968:2.6485634 2969:1.6995883 2970:1.0529728 2978:0.80752635 2979:1.1722109 2981:5.7944174 2982:2.0938401 2986:6.1622124 3000:0.78857869 3005:0.83281159 3008:1.8930118 3010:5.9577012 3011:1.0772262 3015:3.195091 3019:0.87860644 3033:0.71489918 3035:0.13500956 3044:1.3504744 3056:2.7783957 3065:2.8092072 3069:0.32011715 3075:3.7952418 3081:1.6664741 3087:0.68394494 3102:0.13775261 3105:4.8585291 3117:2.0205314 3129:1.5258002 3139:0.77748287 3147:0.30276349 3152:5.9783535 3161:1.0095956 3162:2.5683975 3163:3.6537445 3164:2.1725397 3179:3.1351333 3182:3.5681603 3198:3.413672 3206:0.22649369 3211:0.20776954 3214:0.70306534 3222:0.18921635 3230:1.4427302 3231:0.1154868 3233:0.99550653 3238:0.5078069 3242:1.7118495 3245:0.055191368 3246:2.1992915 3247:1.2021412 3252:2.375982 3253:3.0031996 3259:2.2935162 3260:0.94808698 3267:0.36898169 3283:2.2456124 3286:3.339994 3287:0.12567091 3291:4.0294733 3332:1.0286252 3334:5.3172708 3338:2.3108997 3349:1.1921933 3351:0.78356457 3355:0.11886298 3359:0.27229363 3361:0.39159256 3363:3.5007167 3366:0.60214412 3367:3.8197556 3373:2.1056361 3388:3.6467533 3392:1.1969345 3395:2.2474158 3402:2.6399877 3404:2.1599016 3413:2.0431225 3415:0.10209078 3418:2.1891906 3424:1.380177 3437:1.6908505 3438:1.3570611 3442:1.676187 3444:0.55939025 3449:2.8746159 3456:0.18774405 3457:0.42036122 3474:1.1476691 3484:0.078963697 3493:7.5878673 3494:0.34073997 3496:6.7416344 3500:1.7290859 3507:0.18029141 3508:2.5419967 3512:0.20990205 3514:2.742008 3521:1.6951879 3536:0.72648734 3539:2.9697294 3549:0.88887501 3554:0.24642673 3560:0.44983593 3564:3.5330257 3569:7.1798964 3574:0.12170304 3583:0.24373618 3584:0.55820787 3586:1.0797818 3593:0.96437091 3603:3.3639266 3604:0.52650261 3608:0.415537 3614:3.3637717 3615:0.45897213 3616:0.93116188 3629:2.0345719 3630:1.0651827 3636:2.1144633 3644:2.7995234 3666:3.3230827 3669:3.0933411 3676:2.6705647 3677:2.6332841 3681:0.90786028 3687:0.59645367 3688:3.4799263 3690:0.4557479 3691:0.79671848 3692:0.39944276 3695:0.27129039 3703:0.64604568 3711:2.7060809 3712:0.33347502 3729:1.1786159 3735:0.13803166 3744:1.1421369 3746:0.76407558 3752:5.7050867 3753:3.8820739 3755:0.57059979 3756:0.67087436 3759:3.7713642 3766:4.266602 3767:1.4436803 3769:2.0100691 3771:0.5351885 3777:2.0880263 3789:0.73974478 3793:1.0406995 3795:1.279582 3797:5.804471 3802:0.85495079 3813:0.9804945 3818:6.6126633 3822:0.93540877 3824:2.1465442 3831:3.0131383 3835:0.57986689 3841:0.22727615 3847:1.2452116 3851:0.13172719 3857:0.89537865 3860:1.6283414 3871:0.79262149 3876:2.3221817 3877:2.4074953 3885:0.50457335 3886:0.52274197 3888:0.56038892 3891:6.2664084 3893:0.40366197 3895:3.0119503 3903:1.6471773 3906:4.9236813 3907:1.2323213 3919:0.49833494 3936:1.0293043 3937:0.80840409 3938:0.67278427 3948:0.60529351 3957:1.1611874 3961:0.62236011 3972:0.3420687 3974:0.56597418 3978:0.62537253 3980:2.7560959 3981:0.96967036 3984:2.2512133 3985:0.92064619 3997:5.0112743 4002:3.8792784 4007:1.2203405 4013:1.1128144 4018:1.5820704 4021:1.5791559 4034:0.94629765 4036:0.96435553 4044:0.70087349 4052:0.86688465 4061:2.700949 4070:0.10335186 4071:0.95918274 4074:4.9316363 4082:2.9579289 4084:2.9364045 4089:2.1696441 4090:2.7146547 4092:1.7937559 4094:0.26418629 4095:1.3657445 4096:0.63658249 
0.06699060209650853 18:1.0128987 19:4.1595087 27:5.2183795 28:0.59477115 34:0.46547577 38:1.1831613 39:0.063688934 58:1.9665815 60:1.6187105 68:0.9468444 80:0.41574466 83:1.6389046 84:1.517202 94:0.19646943 105:4.9749007 108:1.986804 123:1.7464516 125:0.52802432 145:0.56371987 163:1.1801605 170:1.8690434 180:4.358707 200:0.0056109726 210:4.5526567 216:2.1241636 217:6.100018 219:0.010829985 224:2.1834435 237:1.2938055 240:2.9767799 241:1.5358126 252:0.71325839 256:0.12494895 265:2.4954612 267:0.79489446 290:2.5762448 297:0.90310168 298:0.052543774 301:2.2697701 302:2.1901596 311:2.7692642 312:1.778731 314:1.1281266 328:2.4291544 329:0.045556039 346:0.053181201 348:2.8558269 361:2.4572225 365:0.27978867 366:0.053811073 371:1.1613297 372:3.342006 374:1.5073373 375:3.1831784 378:1.7560172 379:2.4191892 385:1.5846007 391:3.0693309 393:1.762687 426:1.7878225 429:1.3758984 432:2.470356 434:0.39434904 440:1.9720986 452:1.9535742 454:0.59824479 459:0.76124525 463:1.7276868 472:3.5182168 473:0.5360592 482:4.1344237 499:3.2969255 502:1.5150836 505:1.0119419 515:4.5943656 523:0.47683227 526:5.3911495 530:0.079339921 549:0.92812216 562:0.8044163 570:1.0117911 576:0.79825324 577:2.7454655 578:0.30259174 595:3.1886485 602:1.2571079 607:0.38108522 612:0.37526679 616:0.062721252 620:0.15021496 641:5.1199203 644:1.9888272 662:1.8291951 664:0.068816632 667:4.583066 672:4.2361646 675:1.8971379 682:3.9474487 691:4.8899403 698:2.3271856 702:0.4678205 706:2.8779011 711:0.8273505 712:2.5402927 717:1.2330831 720:6.4093804 723:2.3005316 732:1.2860457 736:0.2115387 737:4.3118138 739:2.8005507 748:4.3170815 750:2.9344659 755:3.2784059 757:0.017568469 771:0.26697287 776:0.46228051 788:1.8325663 789:0.70641208 791:0.0094902217 798:0.85447943 799:1.5564213 810:0.33658978 813:0.69009066 814:2.8167245 820:1.0170573 825:1.1102436 826:2.0974584 839:5.3540282 840:1.9693691 846:2.5582476 848:1.3736192 856:1.7276318 860:0.41574794 865:3.1611991 868:7.8681135 876:0.55659688 878:1.0595772 882:2.509634 889:0.60003924 896:1.3678963 902:1.4281406 919:0.039512254 924:3.6342468 927:1.2123798 928:0.64126164 930:0.87238574 947:5.9052143 948:0.20136251 968:0.28370777 979:2.9676263 985:0.92764819 989:3.018986 993:1.4938425 995:1.0345997 1001:0.23879966 1014:2.0222061 1018:6.7775497 1019:4.478024 1045:0.34469026 1056:4.4299846 1062:3.1487889 1067:0.081172049 1071:0.67766911 1078:1.720251 1080:5.2059011 1090:1.2250788 1095:2.1867259 1096:3.960551 1102:1.9811289 1105:1.5991914 1108:2.4452515 1116:0.013452992 1125:0.69188225 1138:0.03889215 1139:0.12352988 1155:1.4188395 1165:1.163924 1173:0.6735788 1177:0.9082675 1183:1.3901687 1188:0.1250625 1191:0.81345838 1206:1.2061493 1208:1.7637548 1217:0.77625811 1226:0.18189383 1227:0.32565048 1231:0.92296612 1236:2.0070848 1240:0.64893198 1242:3.7777503 1246:0.0067148507 1251:4.7364001 1252:0.93460506 1253:0.63700086 1255:1.1136528 1273:0.020496041 1274:2.433408 1279:0.96281391 1283:0.74826884 1286:3.7841797 1288:1.0760535 1291:1.1050416 1292:3.0233448 1295:4.904974 1297:0.34890381 1305:0.61851621 1309:2.7742338 1320:0.40143949 1324:1.1696903 1335:1.3494401 1340:0.28530276 1342:1.7203615 1345:2.3192422 1357:1.2762611 1359:1.7167486 1365:3.9494576 1368:2.1581068 1369:4.1447902 1371:0.021015823 1387:1.7875807 1396:1.8025107 1406:0.68214256 1419:1.9202669 1422:3.1455183 1430:4.1654706 1432:0.34428412 1433:0.66343272 1438:2.504245 1443:2.1845686 1458:2.0457194 1465:7.6643534 1467:0.074916765 1468:0.59007728 1471:3.1540341 1474:0.88667148 1484:1.2785827 1486:0.39044902 1487:0.028635293 1488:4.7763824 1490:0.53802007 1495:4.338675 1513:0.70953923 1514:0.36618418 1518:0.40468109 1519:0.019009113 1520:3.8343532 1522:0.44707629 1525:0.32919759 1538:1.7640929 1541:0.22198355 1556:2.7227511 1560:1.5526341 1569:2.4468215 1574:1.0986803 1582:1.5158751 1587:1.7078133 1590:4.769299 1612:0.035265416 1613:5.2989216 1617:4.2479124 1625:0.29201591 1628:2.1215689 1630:0.20876753 1636:2.4300537 1643:1.2901376 1648:0.35218504 1657:0.73114467 1659:2.1721892 1661:5.514554 1662:4.4122639 1664:2.563055 1668:2.6745694 1675:1.8134975 1677:5.7524629 1687:0.16460651 1688:1.6267853 1690:4.449595 1696:0.63448817 1699:1.0605348 1700:0.15529469 1703:1.9859223 1705:2.8292499 1707:0.39382103 1721:0.012586564 1725:1.9007206 1726:5.9779749 1736:1.5430539 1737:1.8578768 1739:0.6112383 1746:0.78210425 1750:0.32168892 1754:0.11738741 1758:1.5267293 1762:2.0693111 1770:0.22131583 1772:0.2068142 1775:1.2117764 1780:0.71431297 1788:2.1576002 1794:1.9257365 1795:8.3753004 1804:3.2893889 1808:0.89721107 1814:0.98999631 1822:0.092715532 1825:0.2783058 1833:2.389905 1837:1.7168244 1856:2.1561296 1857:3.7348161 1867:1.4103923 1870:1.4630044 1871:0.34741119 1872:5.6489444 1877:0.74522561 1890:2.6729758 1898:1.1401808 1904:1.0235014 1922:1.7748029 1926:1.7084128 1928:1.5104566 1943:0.96568167 1950:0.69643134 1952:1.2313762 1964:1.1334774 1970:0.77011102 1972:6.528513 1974:0.82414836 1987:3.0475118 1990:2.3068759 1996:0.5086726 1997:0.37748265 2000:4.3189898 2006:1.2153987 2021:0.16980186 2030:0.24378395 2031:0.81462026 2042:1.0910151 2048:1.2737298 2057:0.91076905 2060:0.49694353 2070:0.14539593 2075:1.6339414 2076:2.9765728 2083:0.3390047 2101:0.2416625 2105:2.5679123 2108:2.3655379 2112:3.2663348 2116:1.3366016 2123:0.65614122 2125:1.3937204 2138:5.6486707 2140:2.1163013 2144:0.71562672 2148:2.1085899 2152:2.7746017 2153:1.5979941 2168:2.589242 2172:4.2292747 2179:3.0337241 2187:3.2853441 2196:4.1945071 2202:5.8908052 2203:1.6229841 2214:0.60741687 2223:3.0620255 2237:1.6376333 2240:0.24385493 2253:5.5860181 2254:1.2090907 2262:1.3210245 2267:3.4340923 2269:0.71901059 2270:0.74967933 2271:0.18654892 2282:2.4484251 2290:5.2075539 2294:0.97496986 2303:2.0680985 2304:2.4426968 2313:1.725706 2322:3.5390573 2328:0.63187253 2329:2.5275092 2331:0.61281383 2346:0.54189289 2348:0.96945167 2349:1.0855714 2357:1.3734961 2360:1.1565415 2364:2.4290566 2372:1.513669 2386:1.876138 2400:2.711669 2401:5.9160066 2404:0.40649393 2408:2.4455037 2417:3.1255465 2422:0.33277926 2431:0.47377142 2437:1.2230277 2441:2.3026848 2446:0.12648199 2452:0.54021424 2457:1.4724 2473:1.1761016 2476:1.7003077 2477:2.3934147 2487:2.342535 2488:4.772326 2503:0.14248723 2505:2.5954237 2514:2.4542758 2516:1.1647439 2518:0.5096491 2526:2.0994425 2529:1.9284537 2531:0.56866431 2539:0.8792302 2553:2.5530953 2554:0.55314422 2561:1.5617731 2562:0.97166264 2563:0.37863567 2568:1.3843418 2574:6.3749828 2577:3.8862178 2581:0.1993589 2583:1.3432406 2586:0.10042244 2595:0.39388528 2597:0.37465063 2604:4.3675561 2612:2.3185349 2617:0.31828812 2620:1.7533212 2636:0.2346355 2639:0.54450619 2651:0.88168406 2652:2.2310476 2658:4.6046329 2672:0.80216908 2674:0.14378071 2676:3.2687395 2688:1.4306853 2692:1.4626477 2695:0.2740398 2698:1.0009469 2707:0.18204515 2708:1.8940948 2710:2.7451327 2713:2.9092014 2714:0.96647316 2717:0.88737112 2719:3.1294057 2721:0.3533138 2723:6.8748727 2724:0.16035841 2745:0.40619171 2752:1.5517896 2759:1.2358813 2763:0.63294673 2766:2.2103412 2770:0.0099476874 2771:1.13454 2774:1.5294091 2775:0.2707243 2778:6.1902971 2790:1.4210252 2792:0.63981152 2793:4.1528745 2795:1.2212555 2796:0.12799987 2800:2.3368559 2811:2.1007795 2817:0.42169806 2825:4.4036627 2828:2.889945 2831:0.50947988 2844:0.20255429 2845:1.5008836 2849:1.166508 2864:5.3142157 2873:3.4746222 2882:1.1192687 2887:0.37773934 2888:0.75541621 2895:2.8449728 2898:1.095381 2903:3.8681991 2907:1.4915844 2917:0.65481341 2920:1.3689591 2926:1.1149648 2929:0.8003521 2932:1.4900165 2940:0.079388142 2941:2.4301703 2950:0.51815653 2968:3.2936611 2969:1.8155112 2970:1.3593227 2974:2.3978548 2979:0.69808805 2981:7.5353341 2982:0.86590624 2986:2.9411736 3005:0.75859177 3008:1.1348076 3010:6.3825326 3011:2.564585 3015:3.8452611 3019:2.7219019 3035:1.9574127 3044:2.3853812 3065:3.4265258 3069:0.62269473 3075:1.8651769 3081:4.5664363 3087:0.98120439 3089:0.53247136 3105:2.9752812 3117:3.0911922 3133:0.80061287 3139:0.39701933 3144:0.20232205 3145:2.2681448 3152:7.2594557 3157:0.15728132 3161:1.4970741 3162:1.2263227 3163:2.5623336 3164:3.7184043 3179:4.9047704 3182:4.8645234 3198:4.9374804 3206:1.0911245 3211:1.5845668 3222:2.8169513 3230:0.60091799 3233:1.2468188 3238:0.38128233 3242:3.0015802 3245:0.29614136 3246:2.866205 3247:2.0078478 3253:2.9382496 3259:1.3483763 3260:1.1886646 3277:0.67766082 3283:3.7738318 3286:4.3637834 3291:2.5092185 3293:0.05094298 3334:5.7527285 3348:1.001936 3349:0.6327939 3351:1.9111212 3359:1.4065808 3361:0.97472209 3363:3.0412219 3366:0.85127175 3367:2.7250021 3386:0.60810316 3388:4.3975711 3395:1.7192115 3402:4.7149858 3404:1.7651439 3411:1.161386 3413:0.77183688 3418:2.2020283 3420:0.75024575 3424:3.2327812 3437:0.91162372 3438:2.7924266 3442:0.89996564 3444:0.90308917 3449:3.2849393 3474:0.072453216 3476:0.33513969 3484:0.021615773 3493:7.579206 3494:1.7172509 3496:6.9732094 3500:1.7974076 3508:0.91258878 3512:0.45100242 3514:3.2811441 3521:1.3919157 3526:1.3170431 3536:0.76038873 3539:0.58425558 3548:0.013328254 3549:0.12645333 3560:1.0544683 3564:2.7941153 3569:5.2113218 3583:0.30827308 3586:0.81277943 3603:0.94665498 3604:0.38969111 3607:0.80847478 3608:1.8629274 3614:4.5832853 3615:1.9022658 3629:2.6018758 3630:1.2989388 3636:1.4834172 3644:2.2681577 3649:1.1219767 3657:0.47464302 3666:4.0541382 3669:1.6355481 3676:0.69854194 3677:1.6847064 3682:0.132045 3688:1.0787255 3689:1.8354716 3690:1.7423742 3703:1.4280021 3710:0.92496216 3711:3.1463296 3717:1.1540418 3729:1.1683106 3744:1.0747612 3745:0.36309209 3752:7.5638542 3753:2.682898 3755:2.0393651 3756:0.94490361 3759:5.0071983 3766:3.2579284 3767:2.3962908 3771:0.81885672 3777:0.23166138 3789:0.66787159 3793:2.767694 3795:1.562693 3797:7.7853775 3802:2.3026314 3818:4.920321 3822:0.014139056 3824:0.81695491 3831:1.1777214 3835:0.52533424 3847:1.9631871 3856:0.46925673 3860:3.1864941 3871:1.4902506 3876:0.45808265 3877:1.5390868 3885:2.2019672 3891:6.8756084 3893:3.5045488 3895:1.3254058 3903:3.3505852 3906:4.7838025 3918:1.7073988 3919:0.088001907 3935:1.9765012 3936:0.99589711 3937:0.87752771 3942:0.69807911 3957:2.4748478 3972:0.069769412 3974:0.53157222 3980:2.9143796 3981:0.9576472 3984:2.8577347 3985:3.356616 3986:0.3874855 3997:4.6327429 4002:3.1360316 4004:2.0378981 4007:3.0349603 4013:2.6633408 4014:0.10524321 4018:0.55626231 4021:4.3912263 4034:0.75845182 4038:1.6053531 4040:0.76119995 4044:1.1239858 4052:0.091764092 4057:0.42008725 4061:2.6676464 4073:0.034410983 4074:4.8963804 4082:0.47376442 4084:2.4025211 4089:4.440136 4090:3.099699 4092:2.186254 4094:1.8378994 4095:0.10435961 4096:0.78347266 
0.03129459997747783 12:0.24865013 18:2.2198191 19:5.8196054 27:5.0570436 31:0.34179103 34:1.3483213 38:1.2327018 45:1.0176091 57:0.28353164 83:2.233861 84:1.5515169 94:1.3459477 105:5.9002047 108:1.804772 144:1.0193133 148:0.80200016 163:0.4830319 170:0.79110354 180:3.4836028 210:5.4835196 216:0.86502558 217:6.063777 224:1.4503978 225:0.83277726 234:0.23590922 237:0.75197566 240:3.6959105 241:0.2105476 258:0.046539247 265:2.1670222 270:0.90489709 290:0.65837997 297:0.43190718 301:1.9751561 302:2.6030855 311:2.294383 312:0.43835747 314:0.92416036 323:0.88302392 328:1.95655 329:1.2300355 348:2.0094213 353:0.271404 361:1.6050647 365:1.0683725 371:1.5566099 372:3.5305693 374:1.473479 375:2.7667625 376:0.24070197 378:1.6012621 379:3.1543622 385:2.1371546 391:3.8109331 393:2.097018 416:0.13335453 426:2.1680727 429:0.58533633 432:1.4207401 434:1.9493132 436:0.5287745 440:0.1065926 442:0.15934271 452:1.939146 453:0.17516452 454:2.2932048 463:1.1826193 472:3.6111584 482:2.2336204 499:2.6549037 502:0.59200031 505:0.41193536 515:3.0621743 526:4.9609056 549:0.81880176 553:0.10583854 562:0.45192242 570:0.050894469 576:0.087702863 577:1.7725643 586:0.10454297 595:1.7669944 602:0.17071891 607:1.4323866 620:0.15264428 635:0.53877795 641:3.8587315 645:0.68867743 662:1.5761811 664:0.048824936 667:4.5640078 669:1.393532 672:4.6842818 675:2.2670805 682:3.7060823 684:0.28674904 691:5.4789114 698:1.3885908 702:0.28147104 706:4.4408836 711:0.33920875 712:1.8536048 717:0.13248768 720:5.8835526 723:3.4994669 732:2.4863005 737:3.9082515 739:1.8952413 748:1.7621077 750:4.0178852 755:3.3771124 771:0.4272885 776:1.1293495 788:2.4271009 791:0.59622312 799:2.4038854 811:0.23096813 813:0.64079297 814:2.6827679 820:0.64035445 825:1.3065946 826:1.4019732 839:5.6348767 840:2.8874207 846:0.85942793 860:1.8057711 865:4.0013061 868:9.5768166 878:1.6230967 882:1.922285 889:0.45314103 902:0.36676395 912:1.3420321 922:0.6554628 924:3.0771151 927:1.6157767 928:1.1307144 930:0.6647532 933:1.0161338 947:4.7701659 976:0.36081344 979:4.2418556 985:1.495937 989:2.7787731 993:2.1027009 995:1.9561106 1001:1.124046 1014:2.244247 1018:6.7847528 1019:3.9252234 1021:0.26916385 1056:4.955606 1062:4.0221314 1067:0.78429651 1071:0.55805379 1078:0.047867328 1080:5.1824551 1090:1.1255298 1095:3.0384009 1096:2.36957 1103:0.40244743 1108:1.8916725 1111:0.16821513 1116:1.0343083 1130:0.31890476 1139:0.95612001 1148:0.42698717 1155:2.8239317 1177:1.6565021 1178:0.61004335 1191:2.2468739 1206:1.6127075 1208:0.090023488 1217:0.1746456 1231:0.76591605 1236:4.0251875 1240:0.29196477 1242:4.6455698 1251:6.1915498 1252:0.50524217 1255:0.049295276 1273:1.8348089 1274:4.1461864 1275:0.18788682 1286:4.5483208 1288:3.0017598 1291:0.40366137 1292:2.4131742 1295:3.8234839 1305:0.39189479 1309:2.9410992 1320:1.8523043 1323:0.20755051 1324:2.4379294 1333:0.92228156 1335:0.92834967 1342:2.6964452 1345:0.97750968 1357:0.96670574 1359:0.97832358 1365:2.1409802 1368:1.7166072 1369:1.285984 1387:0.015473306 1396:2.4910386 1399:0.57178801 1410:0.076370507 1419:2.495297 1422:3.9094164 1430:4.3175755 1433:0.6268934 1438:3.0078847 1443:2.3739867 1456:0.10469663 1458:2.8334093 1465:7.7312422 1467:0.69621986 1468:3.1582608 1471:1.9463899 1474:0.98406279 1486:0.42181864 1488:2.6730118 1490:0.86737299 1495:4.8642778 1513:0.81690305 1515:0.29522562 1518:1.0656278 1520:3.5759246 1525:1.4444166 1538:2.2944121 1541:0.92589086 1556:2.2313113 1560:1.4040564 1569:1.8735971 1574:1.8905425 1582:2.132483 1587:1.7048852 1590:4.7543335 1612:0.013605401 1613:5.3811655 1615:1.0465411 1617:4.705421 1628:0.44344777 1636:4.1403103 1643:0.6824826 1657:0.008446157 1659:2.6666093 1661:5.7358446 1662:4.800426 1664:2.3677993 1665:0.27300388 1667:0.90280265 1675:0.52158672 1677:3.8361073 1680:0.15792054 1687:0.18702197 1688:2.0153472 1690:5.7993779 1696:0.0069697974 1699:0.23253083 1703:1.0405215 1705:2.7682695 1707:0.76310325 1721:0.58709347 1725:1.2064072 1726:6.9106636 1727:0.33708784 1736:1.6989554 1737:2.300698 1742:2.2945907 1750:1.0729265 1758:3.0796115 1762:3.415576 1775:0.52717179 1780:0.11061168 1788:1.7355447 1794:0.98902965 1795:7.4361973 1804:3.8805742 1808:1.4325458 1833:4.1551046 1837:2.2776773 1852:0.60821682 1855:1.399489 1856:3.2392805 1857:2.4188414 1867:2.0792909 1872:4.6315808 1890:2.6143315 1898:0.81969762 1904:0.64081353 1922:0.79353464 1926:1.0870564 1938:0.9617492 1943:0.55423832 1950:0.54694378 1952:0.94630992 1964:0.45442563 1972:5.1983504 1987:4.7294812 1990:2.0721514 2000:2.9691737 2006:0.86267334 2031:1.8596596 2042:0.74462944 2048:1.9093451 2055:0.74875718 2057:0.93910146 2060:1.2910013 2075:1.0920105 2076:2.5379043 2105:1.7673792 2108:3.4224663 2112:1.6595728 2116:1.8777648 2125:1.2166119 2138:5.4358354 2140:1.3643929 2148:1.3035914 2152:2.5128739 2153:0.8914628 2156:0.40397644 2168:2.092833 2172:5.2123394 2179:1.7517126 2187:1.3069172 2196:3.3976297 2202:6.7451296 2203:1.0749381 2214:1.2347497 2223:2.6942589 2237:0.70652193 2246:0.41906226 2253:3.5187054 2254:0.46961972 2262:0.32904279 2267:1.7404531 2282:3.1626852 2290:4.0502586 2294:0.31655252 2303:1.7715414 2304:2.3311896 2311:0.70756054 2313:2.7345085 2322:1.7812872 2329:2.0513978 2348:0.5023365 2349:1.5520564 2357:1.2952104 2360:0.45663452 2364:1.1213527 2372:0.96189111 2383:0.79590154 2386:1.9903611 2400:4.6429734 2401:4.371223 2408:1.8790959 2417:2.225152 2422:1.1753678 2431:1.1601626 2437:0.94901609 2441:2.280844 2452:0.53729969 2471:0.55442393 2473:1.9790385 2476:2.8162129 2477:2.9761877 2487:2.3837821 2488:4.261817 2505:2.2227781 2514:1.769402 2516:0.41874307 2518:0.49638242 2526:2.867342 2529:2.630337 2531:0.78744245 2536:1.5307182 2553:2.6746771 2554:0.70346922 2561:2.7260983 2562:1.7142657 2563:0.68466437 2569:0.45760953 2574:5.663136 2577:2.069176 2581:0.14488132 2583:0.00043016672 2586:2.0701685 2597:0.58403945 2604:2.5214982 2612:2.2454529 2617:0.19733253 2620:1.4777162 2636:0.28059885 2639:0.5816974 2642:0.43626285 2651:1.5783664 2652:2.7268865 2658:6.5768261 2672:0.8662653 2674:2.8674269 2676:2.9098876 2688:1.7657626 2692:2.2110035 2695:1.0155103 2698:0.74376416 2704:0.56646347 2708:3.3913984 2710:0.34001198 2713:2.4053769 2717:2.2421703 2719:3.0940838 2723:9.2991953 2724:2.2159388 2745:0.22790383 2752:2.2645502 2759:0.81291902 2766:0.11794412 2770:0.99840748 2771:0.84611022 2774:2.3481467 2778:3.9160929 2790:0.093493938 2792:0.62897164 2793:3.4440279 2795:1.8042853 2796:0.70135415 2800:2.8133459 2811:2.1351404 2817:0.227954 2825:3.7977855 2828:0.92812318 2845:2.0537477 2849:1.2521632 2864:6.2948375 2873:2.1435544 2882:1.1700968 2883:0.22925287 2887:0.61174893 2888:1.0148035 2895:1.711724 2898:1.4485183 2903:3.6087134 2907:1.4848058 2917:0.075214297 2929:2.2549343 2932:1.5273523 2940:0.083417714 2941:0.70679176 2950:0.82629329 2968:3.6817594 2969:1.5164597 2970:1.4619529 2974:2.2684782 2979:0.024869531 2981:8.1365271 2982:1.086446 2996:0.58930737 3005:0.14963803 3008:0.58388311 3010:5.4897876 3011:2.149538 3015:4.0761662 3019:2.3077092 3035:2.6220946 3036:0.41049755 3044:1.6836103 3065:4.1799631 3075:1.4003894 3081:4.7529922 3087:2.0682652 3089:1.651897 3105:0.53361845 3117:3.6460714 3133:1.6821084 3139:0.36037707 3140:0.51599753 3144:0.27104849 3145:4.4004002 3152:5.7658963 3157:1.5117347 3161:3.0517077 3162:0.11829895 3163:2.4825644 3164:2.7984219 3172:0.24502042 3179:6.5262222 3182:5.2054963 3198:5.4146776 3206:0.84952247 3210:0.48527369 3211:0.67226833 3222:3.744699 3223:0.23219474 3233:2.1647902 3238:0.0022149682 3242:4.0921969 3245:0.70967913 3246:2.1113913 3247:3.7521057 3253:2.7446942 3259:0.20707577 3260:1.3745713 3283:3.2106926 3286:4.3107543 3291:1.7476642 3334:7.7125854 3344:0.27477148 3348:2.0534921 3349:0.26068857 3351:2.6886215 3359:1.2678168 3361:1.3954442 3363:2.5466578 3367:2.3012979 3386:0.27483898 3388:4.3558779 3394:1.4626203 3402:2.226279 3404:0.25208414 3411:2.6336019 3418:2.6363182 3422:1.2063096 3424:2.4872494 3437:0.30716926 3438:4.2040124 3444:0.72150815 3449:3.0181963 3456:0.26410791 3474:0.44050282 3476:0.81428957 3491:0.073372781 3493:7.1002097 3494:3.6396861 3496:6.6175556 3498:0.11829871 3500:0.34062552 3508:1.4637172 3512:0.43646353 3514:0.85596776 3521:0.56567967 3526:2.1555438 3531:0.013285846 3536:0.41156128 3548:0.2066457 3549:0.30478877 3560:1.0230169 3564:1.2536889 3569:4.0378022 3603:0.18195535 3607:0.3408739 3608:2.6437407 3614:4.3130441 3615:1.2942603 3629:1.1064135 3630:1.4661647 3636:1.5214423 3644:4.2348146 3649:1.771178 3650:0.067472637 3653:1.1568631 3666:4.2201481 3669:0.62579083 3672:0.47527602 3677:0.86895192 3688:0.049882382 3689:2.6097767 3690:1.8141541 3703:0.39208657 3710:0.31572399 3711:2.9485073 3717:0.69627577 3729:1.4494714 3744:0.88977015 3745:2.5247786 3749:0.0036415458 3752:6.5802584 3753:1.8322372 3755:1.4312733 3756:1.945647 3759:3.6356354 3766:1.8108698 3767:3.7428548 3777:2.3456581 3789:1.2349468 3793:4.0665784 3795:3.0037212 3797:7.1715412 3802:3.5740309 3818:2.3851171 3822:0.26522273 3824:0.20157258 3831:0.89530951 3834:1.0660043 3835:1.2697802 3847:1.7772471 3856:1.3726914 3859:0.79036957 3860:4.6631021 3864:0.82877702 3871:1.7817916 3877:1.4835397 3881:0.19227052 3883:0.019708902 3885:3.1239467 3891:7.8280802 3893:3.8414428 3895:0.28207088 3903:3.0569441 3906:3.4128275 3918:2.8476207 3929:0.16581443 3935:1.9617522 3936:0.37657201 3937:0.13558337 3942:0.90271461 3957:4.2608232 3972:0.46818462 3974:0.13577545 3978:0.7737298 3980:2.9320779 3981:0.60874844 3984:2.5731986 3985:1.5432863 3986:0.023079246 3997:4.1373782 4002:2.9933658 4004:2.8315785 4007:2.0467207 4013:1.0820671 4018:1.3754537 4021:6.7632594 4034:0.84910589 4038:0.45019829 4040:0.76483774 4044:0.44192415 4052:1.5323119 4057:2.889025 4058:0.58117002 4061:3.2736733 4074:4.8432355 4084:3.0531518 4089:5.3703284 4090:3.5081279 4092:1.942681 4094:2.7356665 
