svm_type c_svc
kernel_type rbf
gamma 0.000244141
nr_class 2
total_sv 79
rho 0.454811
label 1 0
probA -4.43456
probB -0.670798
nr_sv 32 47
SV
0.7775773599843046 9:5.7280622 12:4.7058964 18:1.3203974 19:4.664175 22:2.5083838 24:0.032869637 27:5.083734 28:3.6101165 36:1.4117086 40:2.7773833 43:2.1820288 44:0.84147966 49:1.6665194 54:2.2762949 57:3.5596979 63:2.0272491 68:4.8442841 80:0.45965478 84:0.15076455 87:3.1109619 89:6.3063817 90:5.4849067 99:3.2061701 103:0.94560504 107:0.015827328 108:3.8155966 115:2.2837861 117:3.9343703 122:1.3998945 136:1.0349026 138:1.0124216 140:0.73969281 149:4.1388016 154:1.3164396 178:0.36163867 179:2.9879978 181:2.0971069 195:2.107456 200:2.2078457 214:0.49843603 217:2.2040703 220:0.43058842 221:0.49570113 225:2.3798547 232:1.4711726 234:0.54263419 239:0.70313007 240:3.4223647 241:5.108058 252:1.06055 262:4.096138 275:2.5131159 277:4.0259256 279:0.1034358 283:1.0704218 288:2.4890084 295:2.6569843 302:2.2889652 305:3.1314778 315:8.5121336 321:0.023560822 323:0.56100941 324:2.895968 327:1.3292036 335:12.48849 340:0.3946971 341:7.294127 353:2.5265949 357:0.80040753 361:1.792542 362:2.1721599 364:2.2974503 365:3.7777736 367:7.4176188 374:0.36861742 389:1.1249988 396:0.57924879 397:3.1490276 399:2.8925724 411:0.44893062 419:4.1406136 431:3.651377 435:1.6253599 448:2.7731709 451:0.81447256 455:1.5226142 462:0.30755231 487:3.1025226 488:1.8420408 496:0.018103749 499:1.2893232 500:1.3580751 514:4.4644928 521:2.2747419 524:3.1046381 526:0.06403181 529:0.94432318 539:0.61326206 544:0.13152276 545:0.85708928 559:4.199398 562:1.2974713 569:3.6075535 571:3.0224371 585:0.28751808 589:0.38228428 597:4.4623108 600:1.3829732 606:0.14279824 612:0.13086964 618:2.3084469 631:1.2688829 639:0.32500365 657:0.83047813 674:0.23198521 675:0.93591201 679:1.1727873 685:1.4284922 688:4.6979427 691:0.42849439 695:2.5496492 705:2.726454 721:0.95472383 722:1.6413072 741:0.66074574 749:0.54351091 750:1.5288508 754:3.3499894 758:3.9082808 763:3.5808187 764:0.51458335 769:2.5585136 780:1.1671312 788:0.13672194 789:0.96010977 791:0.77531964 792:2.4399254 795:1.8204134 801:2.1923904 809:2.3754706 811:3.4070988 812:4.1255226 817:0.13521433 818:5.8071494 820:2.6812296 823:1.8056419 833:1.5352412 839:3.3025262 840:1.7915438 841:5.1055737 849:1.1921874 850:3.5217657 852:0.82819843 858:1.0371926 859:0.58492452 867:8.9123297 871:0.14941645 873:4.4358406 877:0.72680444 885:1.4602339 889:6.1925759 892:2.0110011 900:1.7807726 904:0.4994964 908:2.9023957 925:1.7669744 938:1.3665864 941:3.9670553 942:3.9579298 953:5.6024833 961:0.54322469 962:0.23702446 974:1.3347642 976:1.54494 979:0.13410735 995:1.9308063 998:2.7307239 1004:1.9666219 1021:0.57372653 1022:2.8015211 1034:4.85884 1039:0.62249756 1043:2.1786413 1045:2.210372 1047:5.6326585 1054:1.2753972 1063:0.054140568 1081:1.5942599 1093:0.13881306 1097:1.5469282 1107:1.9543854 1113:2.2683015 1115:0.22379658 1117:1.9339107 1125:1.5723979 1138:1.0912104 1168:0.24410158 1170:7.1759214 1176:0.61803448 1179:2.3611677 1180:1.6103854 1182:2.3581257 1184:0.87794894 1186:1.0065888 1189:1.2519188 1193:2.5764809 1199:0.41351169 1201:0.87903833 1203:3.0749135 1209:0.20171487 1215:7.0903139 1216:2.1192265 1219:5.0273857 1220:1.0947498 1223:0.83317661 1226:3.1485672 1228:1.5400461 1235:0.092442632 1237:1.6606659 1241:0.37075469 1251:4.0437808 1252:2.7018855 1273:4.166985 1274:0.56839931 1275:0.48942456 1290:3.0809984 1293:3.0154324 1306:0.36022237 1314:0.54729015 1315:1.018285 1331:3.4837248 1332:2.4432693 1336:4.1033201 1338:0.45663369 1341:1.2110072 1358:0.9189834 1362:3.7136381 1364:2.4200788 1366:1.977268 1369:6.6085768 1374:1.503548 1379:5.0107827 1381:3.3923695 1386:4.0746107 1406:4.2912178 1407:2.5986462 1416:0.23915449 1417:0.75910151 1419:1.8485487 1450:2.2627947 1451:4.4360237 1457:1.0990809 1459:0.26129085 1466:3.8851697 1473:2.292721 1475:0.12665492 1476:3.9382181 1484:1.4728296 1488:1.4452569 1490:2.3531065 1508:0.51731265 1520:6.2362332 1534:0.6304816 1538:1.2599669 1544:3.2555015 1546:1.9429202 1555:3.1462514 1565:1.7304437 1566:2.2504377 1569:1.84883 1570:0.34461942 1571:3.4083762 1582:1.5761423 1588:2.5203381 1597:2.3544824 1601:1.903569 1603:0.23740187 1604:1.3142881 1606:0.14875525 1608:0.23205936 1615:0.25356472 1618:2.0125563 1621:0.28310394 1624:2.1090467 1627:2.8584843 1628:2.7006123 1634:1.1607677 1638:4.4653597 1639:0.24492237 1648:1.9864526 1673:1.7958202 1690:0.237023 1695:0.62140977 1701:5.2883368 1703:0.33781594 1709:1.9589311 1710:0.98400164 1712:2.417253 1718:0.97910279 1720:0.41347501 1722:8.0340071 1732:2.4034791 1733:0.71337348 1734:3.8842494 1735:2.5751526 1736:0.89257818 1738:1.0706153 1762:1.743655 1771:0.59486425 1772:4.4912181 1790:2.0437479 1800:3.3864129 1815:2.5057874 1818:2.8657029 1824:8.8187675 1828:0.92977011 1832:0.49831429 1839:0.060495019 1847:0.4916361 1849:1.0258236 1852:0.8439818 1856:3.8752511 1857:2.3097847 1858:1.5878896 1859:5.5884438 1860:5.3926897 1867:0.39532119 1868:2.7214265 1873:3.3473978 1879:7.5920019 1883:2.7285581 1890:4.6926241 1897:1.4640481 1898:1.5560297 1912:3.0811429 1916:0.064296201 1922:2.7218642 1930:0.054226145 1938:0.85691345 1940:7.9355679 1955:1.3731989 1956:1.4305122 1958:2.1500506 1959:1.7993696 1962:0.87809128 1964:0.73239839 1974:1.4257665 1986:1.2103217 2004:0.82548487 2012:4.1435761 2026:8.6417065 2030:2.7751245 2038:4.3920689 2055:1.4159272 2058:4.0424089 2066:1.9188583 2069:0.1635294 2076:1.4863546 2081:0.28122562 2083:2.2267332 2085:3.396955 2108:1.5089324 2114:0.19362926 2125:0.41422021 2127:0.19897318 2128:2.6203392 2138:1.6242748 2151:1.644197 2160:3.7662344 2164:0.74118221 2172:4.0192122 2176:0.41344571 2177:3.6077371 2194:0.47921658 2196:1.3512334 2197:0.76578373 2199:1.0220003 2206:0.57309139 2210:0.81713074 2211:2.247324 2217:1.1898983 2218:1.7943177 2232:1.9621346 2233:3.1142616 2236:2.3606632 2239:6.3556132 2241:3.4466734 2259:4.7874479 2262:2.8619239 2271:0.72321409 2272:1.0251545 2274:2.0903974 2283:4.8710961 2291:1.4576944 2292:2.8439596 2294:4.1243782 2303:0.72622645 2308:0.097213387 2314:0.38704553 2316:3.2668071 2320:0.26762551 2323:1.4606981 2329:8.8811235 2332:2.3067698 2343:0.28758061 2344:2.690671 2352:3.6049063 2356:1.0067202 2357:6.7330394 2362:0.2672576 2365:0.89090073 2372:2.3759217 2376:1.7354171 2381:0.080694646 2399:0.68910754 2400:1.1527392 2413:1.3053753 2414:0.71873045 2416:2.6236827 2420:2.8281958 2423:0.86269474 2424:2.3966446 2428:0.46027172 2432:1.6276242 2434:1.7293724 2435:2.4821041 2439:4.1113577 2445:0.25389567 2450:1.5272909 2452:2.9407947 2453:6.3282275 2458:6.6486506 2459:1.3574758 2487:0.091832846 2489:3.0988951 2490:0.49388549 2493:0.27028829 2501:2.2686341 2509:4.6988845 2516:0.2865456 2519:2.4674432 2529:0.35401469 2534:0.97179097 2536:1.2019494 2537:2.6899145 2547:0.073314711 2551:6.1687965 2558:2.2837689 2560:2.6136041 2561:8.818059 2563:2.5398214 2572:0.30754694 2575:2.0845146 2576:2.0524805 2589:0.31234261 2592:4.1538944 2594:2.1485369 2595:1.0609145 2600:2.5116217 2601:1.2825263 2610:2.4760332 2624:0.30377311 2629:0.43873385 2638:1.186015 2649:3.9863071 2652:1.9304523 2655:4.2715545 2668:0.098292142 2678:1.2819022 2685:2.9314048 2689:0.35698223 2690:0.62617183 2693:0.14987239 2695:2.3481352 2703:5.1029196 2718:4.8976789 2720:2.8898954 2725:0.49389184 2727:4.5773525 2732:1.3673447 2736:1.8567991 2740:0.62269223 2742:0.90827215 2751:1.1364664 2759:5.8245254 2765:1.4410684 2766:1.9302099 2768:0.63647938 2777:5.1222391 2786:1.7878771 2791:3.4260197 2802:0.24595368 2814:0.88782555 2821:2.7543354 2828:0.6279496 2831:1.5210238 2838:1.8834804 2842:1.0131904 2843:4.4516244 2846:0.13979277 2851:0.161165 2854:0.58306992 2856:3.649848 2857:2.0747156 2867:2.8935709 2872:2.3825274 2878:0.90081 2879:1.6906042 2880:0.79918033 2891:3.3739331 2892:1.5795698 2894:3.1659057 2896:10.117833 2901:3.1643624 2910:5.1703486 2912:2.912457 2913:1.4896216 2914:2.8555756 2917:2.0119734 2920:3.2590795 2938:4.7153163 2941:2.3418484 2945:4.4522262 2953:2.8949513 2958:6.9010496 2959:0.79336739 2972:1.7720541 2980:1.1599663 2984:1.4544888 2985:0.107429 2995:2.2583938 2997:2.6614425 3005:0.48779121 3018:2.1948471 3021:1.3219099 3050:2.3963604 3052:1.4058633 3067:0.027174301 3072:0.67810094 3074:2.7340066 3078:1.4179523 3079:5.1337838 3085:1.0968118 3102:0.18873961 3114:3.0590332 3143:3.2454886 3146:3.8815703 3150:1.7052909 3151:0.30655342 3153:2.7647166 3154:0.79367751 3162:1.7993612 3163:2.4231277 3181:6.7948108 3184:2.783859 3186:4.3699622 3190:6.719079 3194:0.56688857 3195:1.7897085 3199:0.85300136 3202:3.7595954 3207:2.3688924 3216:1.874894 3222:1.9113318 3226:1.0506752 3242:4.29739 3256:4.8509169 3257:1.0194993 3268:5.5854769 3269:0.8131777 3275:1.6004999 3284:1.0989851 3289:2.8535614 3290:0.36884612 3301:0.40813738 3306:4.7611313 3307:6.8318377 3309:3.7314868 3321:1.0344512 3354:0.59847015 3369:2.8683031 3378:2.8872569 3379:1.5961075 3386:4.0144925 3390:2.5367742 3396:1.6914482 3424:6.1892462 3431:3.1603668 3436:0.3399052 3442:1.8063955 3444:1.4863296 3445:8.160038 3460:0.59489185 3465:8.3994169 3474:2.0374866 3485:2.2558732 3491:2.6979856 3492:0.24824578 3504:2.2658472 3513:0.44519702 3515:0.027403474 3519:2.1294584 3535:2.4818721 3537:4.6659503 3540:3.0443747 3543:0.21918276 3548:1.08479 3556:1.8406186 3557:5.3050833 3570:0.77999938 3576:1.2707288 3577:4.0559921 3580:2.4253657 3585:0.88012213 3586:0.86005521 3598:5.6499195 3602:2.8544455 3603:1.0520505 3608:0.63815451 3619:2.4773734 3621:4.4635477 3626:2.1814489 3627:1.6333672 3632:2.3083897 3635:2.3961072 3636:5.7624345 3642:5.3652196 3649:7.4842596 3652:1.1991652 3653:0.5696404 3655:2.5423541 3660:1.3666757 3669:0.13342449 3672:0.17644987 3677:1.1350262 3690:0.13472965 3691:1.5725842 3695:0.21653816 3697:1.1365314 3715:10.720331 3719:2.0818422 3725:1.0044637 3726:0.67018676 3729:3.126843 3731:0.22838223 3732:5.9368377 3734:1.9072546 3741:2.8364513 3742:1.3330739 3744:1.7515327 3751:4.535512 3761:1.2815373 3765:3.6191905 3766:2.5735288 3767:2.591274 3768:0.56921625 3771:0.46232355 3776:0.21126871 3785:1.1461241 3806:2.9856639 3811:1.8921728 3819:0.1610496 3822:1.2122059 3827:0.34771308 3829:8.1736393 3833:1.9404376 3837:1.2059669 3841:6.6143785 3869:5.7116637 3872:4.3482962 3880:1.1126982 3882:0.037106112 3888:3.7170038 3892:2.2906103 3893:4.3081789 3903:1.9957228 3909:0.82417291 3910:4.720583 3922:1.8209219 3928:0.67802221 3930:0.79573512 3935:1.0571539 3970:4.3048205 3984:1.6982162 3990:4.5468516 3994:1.7275814 4006:6.7667465 4011:1.6145158 4013:3.7495506 4020:2.2843778 4021:2.1515291 4028:0.66045749 4033:0.89847249 4036:0.97322476 4041:0.9375183 4042:1.5135036 4052:2.7106595 4054:1.8398248 4057:1.7485433 4063:2.1760507 4072:0.77560037 4075:3.4597039 4079:1.4432471 4084:2.1501346 4085:1.098772 4091:4.4249325 
1 2:0.33189821 3:0.2804344 9:3.5638325 12:4.3076968 18:2.4912946 19:4.8166275 22:0.045443937 27:5.3336663 28:2.2177017 36:1.2600127 40:1.6191647 43:2.360858 44:0.83914596 49:1.9495256 54:1.0912029 57:4.4172258 63:2.123065 68:4.4266238 80:0.89610249 84:1.3592077 87:4.4398527 89:5.4616523 90:4.1855102 99:3.4339509 103:2.3800008 105:1.4270697 108:2.2774053 115:2.192807 117:2.71065 122:0.35582685 136:2.0929215 138:0.96519381 140:1.1428455 149:1.876291 154:0.78603345 159:0.22741528 178:0.62895739 179:3.2187374 181:1.0076017 195:1.7794231 200:2.0334783 208:0.45086288 214:1.1692791 217:2.2440679 221:1.8547511 222:0.33743796 225:1.737448 232:1.3602605 234:1.2015504 239:1.4864959 240:1.8682097 241:4.0203681 242:1.0027907 252:0.57624841 262:4.5989504 275:3.1314626 277:3.7874396 283:2.0231802 288:1.8510585 295:3.0828843 302:1.2184415 303:0.62188417 304:0.45165664 305:2.0397921 315:7.1703367 321:0.31687921 323:1.758309 324:1.207701 327:0.36477214 335:11.30027 341:5.1981874 348:1.1437988 353:2.3863924 357:1.0302784 361:3.1321726 362:2.6236978 364:0.58466661 365:4.601881 367:6.5031424 374:1.8555473 376:0.94304878 389:1.5581243 397:4.1413612 399:1.3984509 404:0.40860516 409:0.8076849 411:0.70561498 413:0.024621397 419:2.113981 421:0.30702621 431:4.0789146 435:1.3345752 448:2.1882975 451:1.2830179 455:1.0326123 461:0.60716039 462:1.6756384 479:0.69455063 487:2.7360551 488:0.42537153 493:0.22252846 496:0.94814557 499:1.9484015 500:1.374387 505:0.44417942 512:1.0086129 514:4.0647783 521:2.8672628 524:2.6275227 526:1.1452614 529:0.20043248 539:1.1062956 541:0.2302098 544:0.084307611 545:0.91701615 548:0.44460195 559:4.590816 562:2.3790648 569:2.083055 571:2.7035441 597:3.3725953 600:1.8112297 612:1.1057982 618:2.2877994 631:1.5199022 635:0.0046882629 639:0.52047873 657:0.37905484 665:0.59085423 674:0.050680935 675:0.60219491 678:0.062384248 679:0.61247885 685:1.6503054 688:4.9265971 695:1.8330498 705:3.5309856 714:0.088281095 720:0.014190763 722:0.36313486 726:0.12277949 732:1.4086729 749:0.81021595 750:2.156265 754:2.6829834 758:2.9884472 763:2.4125109 769:1.8244874 775:0.19720387 780:2.9084733 788:1.3597177 789:1.7679511 791:1.6206907 792:3.2668543 795:1.7092476 801:2.6555524 809:1.674798 811:4.9164333 812:3.4864402 818:4.5982037 820:2.8665686 823:1.5786049 833:1.8864728 839:4.1471925 840:3.6696689 841:4.899899 849:2.0228732 850:2.3974855 852:1.162272 857:0.72308636 858:0.92162859 867:8.7028131 871:0.92220187 873:3.2627246 877:0.51382357 885:1.0229385 889:5.8808708 892:1.3628745 900:1.6828052 904:1.2312448 908:1.6900758 910:0.11648124 911:0.7452029 916:0.096431784 925:1.593977 938:1.7623575 941:2.9642835 942:2.2078972 943:1.070865 953:5.0545392 961:1.3624299 974:1.3370376 976:2.9452271 979:0.49869716 985:0.18451926 995:1.4025273 998:3.6400256 1001:0.45089111 1003:1.3617866 1004:2.3662841 1016:0.20023726 1022:3.9513547 1028:0.69225669 1034:3.9859488 1043:2.5690691 1045:2.5090435 1047:4.6495242 1051:0.14276892 1054:0.79539233 1063:0.34340948 1081:1.0796649 1093:0.1598206 1095:1.2673151 1097:1.7956648 1107:2.7721946 1113:1.6948518 1117:1.8901703 1125:1.0456448 1138:0.86278647 1165:0.39214 1168:0.92166281 1170:7.2247634 1176:1.529143 1179:3.5067358 1180:1.2559341 1182:1.52762 1186:0.32530156 1189:2.2100918 1191:0.2685371 1193:3.3350968 1199:0.18793865 1201:0.61363029 1203:2.512686 1206:0.148993 1209:0.53179419 1215:6.3275628 1216:2.1866381 1219:5.2958384 1220:1.0235138 1226:2.7083497 1228:0.89932966 1235:0.75598216 1236:0.22584513 1237:1.6018431 1241:0.82759315 1243:0.69846427 1251:3.7116034 1252:1.7091132 1273:4.1051617 1274:1.7107726 1275:0.87091279 1277:0.8128044 1290:1.4369911 1293:3.2192025 1299:0.38477716 1306:0.44050136 1313:0.12153935 1314:0.66820824 1315:1.202912 1331:3.0983994 1332:0.77813017 1334:0.38147098 1336:3.3706403 1337:0.99962276 1338:1.3726385 1341:1.3118778 1348:0.39476264 1349:0.25046039 1358:2.9748201 1362:2.4300358 1364:2.6096182 1365:0.70350993 1366:0.95636678 1369:5.6184168 1372:1.0866427 1374:2.0485463 1379:4.4014249 1381:1.6868694 1386:4.1413622 1392:0.50050122 1406:2.7598505 1407:1.9321587 1416:0.89019704 1417:1.0940269 1419:1.3414848 1450:1.2508235 1451:2.6957173 1457:2.0577681 1459:0.91056442 1466:4.0699425 1468:0.24365601 1473:0.41846108 1476:5.3664579 1479:3.0865743 1484:1.0502579 1488:0.88675743 1490:2.9546273 1508:0.35324731 1520:6.0902491 1534:0.17424214 1538:0.57057405 1544:3.0857999 1546:2.0075243 1550:0.16360894 1555:2.5029709 1557:0.11954415 1565:1.676501 1566:1.6255276 1567:0.13526249 1569:0.67783153 1571:2.82425 1582:2.5912917 1588:3.049597 1597:1.6556011 1600:0.23502102 1601:0.96218556 1604:1.0949953 1606:1.196362 1608:1.4773723 1615:0.71106112 1618:2.352128 1624:3.3160207 1627:1.6039507 1628:1.4557345 1630:0.64047813 1634:0.69441342 1638:2.3038211 1648:1.8298714 1667:1.0968871 1673:1.6790617 1677:0.093298316 1678:0.85232484 1691:0.090896338 1695:1.6544942 1701:5.3719215 1703:0.42605293 1709:1.2564822 1710:2.3302503 1712:1.3299016 1722:5.9515123 1726:0.35406998 1729:0.44311941 1732:1.5174794 1733:1.2930881 1734:2.3856754 1735:1.5728126 1736:1.0389585 1758:2.3547704 1762:0.96755642 1771:0.6524564 1772:4.44347 1790:2.4301882 1800:2.9557216 1804:1.091691 1815:3.3100054 1818:2.8166304 1824:8.2261696 1828:1.1941313 1832:0.12532368 1849:1.0927002 1852:0.49737757 1856:3.3928714 1857:2.222918 1858:0.94799834 1859:4.6428547 1860:3.8856356 1868:1.5879803 1873:2.4053049 1879:5.8612757 1883:2.4556694 1890:5.2918696 1897:0.49736089 1898:1.5178385 1912:3.3092086 1916:0.78667587 1922:2.1667049 1930:0.40251809 1938:0.39765319 1940:5.7153826 1943:0.2463581 1955:2.1825445 1956:1.3558669 1958:1.9354671 1959:2.1157835 1962:0.51378155 1964:0.15345143 1974:1.4560289 1986:0.45987618 2004:1.0080293 2012:5.1612616 2026:7.6611381 2030:0.798599 2038:2.2713583 2055:1.1582953 2058:4.6287899 2066:0.4257485 2076:0.90859652 2083:3.8505254 2085:3.0979047 2108:0.92986864 2114:1.5393908 2123:2.242873 2125:1.8366947 2128:1.9664798 2137:0.12549782 2138:1.4248825 2151:1.5645401 2160:3.1363163 2164:1.0315543 2172:4.6573048 2176:0.9656288 2177:3.6878607 2194:0.33100033 2196:3.3769383 2197:0.31754127 2199:0.56277066 2206:0.65562809 2210:0.12751132 2211:1.9420054 2217:0.032965578 2218:0.79733253 2232:3.2729361 2233:3.8426993 2236:1.044974 2239:5.7249026 2241:3.6736979 2246:0.83500028 2247:0.65178972 2259:3.1358502 2260:1.0219611 2262:2.5158772 2270:0.31409007 2272:0.90185422 2274:3.0831158 2283:4.5351119 2291:0.90358382 2292:2.4613221 2294:3.9539213 2298:0.32147914 2303:1.540212 2308:0.36305553 2314:0.75263429 2316:2.6210876 2329:7.9828906 2332:1.7341248 2343:1.5770169 2344:2.2066743 2352:2.0653744 2356:0.74603146 2357:5.8823624 2362:0.28688064 2365:0.94382906 2372:3.1498902 2376:1.5193992 2400:1.3864025 2405:0.80572498 2413:2.3601766 2416:2.8974845 2420:2.6505349 2423:0.89183253 2424:0.88753283 2428:0.67420882 2432:2.1197457 2434:0.96264017 2435:2.4092484 2439:4.4388089 2450:2.438195 2452:2.1161833 2453:5.8578191 2458:5.6999564 2459:1.3808217 2462:0.85855031 2468:0.058280081 2471:0.046233982 2474:0.28830644 2487:0.38934731 2489:2.3020637 2490:0.1513409 2501:2.1809516 2509:4.3507018 2516:1.018355 2519:1.5351127 2528:0.0036337525 2531:0.76157439 2534:2.1851625 2536:1.1251075 2537:1.553304 2547:0.1474749 2551:3.0699463 2558:2.4744995 2560:2.3827901 2561:8.5098734 2563:3.1639819 2575:1.9491031 2576:2.2324054 2589:0.43198124 2592:4.796133 2594:2.5270493 2595:0.13964328 2600:1.6934171 2601:1.8802302 2610:1.6862843 2629:0.066924602 2638:1.6673597 2649:2.763159 2652:2.2455435 2654:0.48222792 2655:3.3614938 2656:0.0065841973 2662:0.87029207 2674:1.4692867 2678:1.2047844 2686:1.1631277 2689:0.53058422 2690:0.59760308 2693:0.19971105 2695:1.567906 2703:4.2249293 2708:0.98730838 2718:2.865551 2720:2.5568647 2727:3.2593791 2732:2.1517427 2736:3.8401508 2740:0.50867444 2742:0.47359166 2743:0.18057695 2751:1.6731173 2759:6.2491765 2765:1.8549764 2766:2.0268929 2768:1.2715535 2777:4.0527239 2786:2.1295993 2791:2.686588 2800:0.05531773 2802:2.515373 2814:0.17800015 2816:0.81205219 2821:1.9019669 2825:0.066467434 2828:0.19421916 2831:0.55536866 2838:0.70197308 2842:3.4673445 2843:3.0604608 2851:0.55217522 2854:1.363417 2856:2.0633414 2857:0.76865995 2867:3.1849852 2872:1.8014584 2873:0.20643187 2878:2.1080372 2879:1.1679285 2889:0.12294406 2891:3.1030252 2892:1.7717403 2894:2.6079972 2896:9.8170776 2901:3.2513971 2910:3.5992401 2912:3.8210988 2913:1.1850674 2914:3.5336723 2917:1.9408994 2920:0.64154786 2938:2.98441 2941:0.78824145 2945:3.5444996 2953:3.5930386 2958:7.4277129 2959:0.58503723 2972:1.6412615 2980:1.0850219 2984:0.83229649 2995:1.8435209 2997:2.5845616 3005:1.2435262 3018:1.9674209 3019:1.668449 3021:0.96290845 3050:1.750762 3052:2.6130047 3053:0.41196376 3067:0.18066385 3072:0.011182576 3074:2.5069511 3078:0.45447204 3079:3.4207685 3081:1.6875834 3085:2.8970635 3094:0.42521039 3111:0.500049 3114:3.0921481 3117:1.0018568 3143:1.6980811 3146:3.153985 3150:0.95343101 3152:0.78229839 3153:1.2786679 3154:1.103205 3162:1.9651709 3163:3.2429781 3181:4.7871723 3184:3.1954141 3186:2.9999418 3190:6.2359281 3194:0.42417774 3195:1.106992 3199:1.0419943 3202:2.3772664 3207:1.3202256 3216:0.6940003 3222:1.676245 3226:1.0848162 3242:3.933156 3256:3.9689088 3257:1.5255808 3268:2.9106205 3275:1.3410777 3284:0.49026483 3289:2.237391 3290:1.3253562 3301:0.28413683 3306:3.321188 3307:5.4910965 3309:2.6642251 3354:1.4027228 3366:0.0075906813 3369:2.9960437 3378:3.4454868 3379:1.000134 3386:3.8409078 3390:2.0584185 3396:1.0533834 3424:4.7477384 3431:3.0220518 3436:0.023293614 3437:0.62824196 3442:1.5291605 3444:2.4535677 3445:7.1453185 3452:0.25406361 3460:0.74803162 3465:7.0875793 3474:2.3286483 3485:2.6858084 3491:1.5098977 3504:2.6199903 3513:0.85100722 3519:1.9347342 3535:3.8939602 3537:2.8488543 3540:2.7945275 3543:0.1547474 3548:1.095498 3556:1.0753706 3557:3.8197436 3569:0.52867353 3570:0.08825016 3576:0.38622075 3577:3.1139054 3580:1.3322321 3582:0.9704169 3586:1.4976122 3590:0.29215181 3594:0.23984636 3596:0.41035253 3598:6.2230902 3602:3.1151309 3603:1.4666189 3608:1.0064483 3619:1.233194 3621:2.9754987 3626:2.3936851 3627:2.8143842 3632:3.1480081 3635:1.3508527 3636:3.7409039 3642:5.4718175 3649:6.0546069 3652:0.73615706 3653:1.7211182 3655:2.0066965 3660:0.39112854 3669:0.85615683 3672:0.1206415 3674:0.53358471 3675:0.60528034 3677:0.7312575 3681:0.95075154 3690:0.95937675 3691:1.657603 3692:0.3575294 3697:2.3809536 3715:10.06226 3719:3.3150141 3722:0.094872952 3725:1.2624943 3729:2.2171946 3732:4.2965622 3734:1.2440912 3741:2.9517527 3751:2.2043796 3761:2.6204214 3765:2.8589003 3766:3.7306032 3767:2.6266565 3768:1.595107 3771:0.64190632 3773:0.13475692 3785:0.79081923 3806:2.2444253 3811:1.1064124 3819:0.55500507 3822:1.1761771 3824:0.66934848 3829:7.6480842 3833:0.92449665 3837:0.69940913 3841:5.9070902 3869:5.6768217 3871:0.001817584 3872:4.0116396 3880:0.12327939 3881:0.18558967 3888:4.1619883 3892:3.3772073 3893:6.1377439 3900:0.055213869 3903:1.4806008 3909:0.44526249 3910:4.9877458 3922:0.73711199 3927:0.70908189 3930:1.299782 3935:1.2420223 3957:0.39736575 3960:0.030724362 3970:4.0544238 3984:2.3392882 3990:4.1113648 3993:0.086901404 3994:1.56144 3996:0.18876824 4006:6.2880898 4011:1.2475955 4013:4.0062475 4020:2.6581087 4021:2.5272334 4028:0.87902045 4029:1.4775702 4033:0.046337575 4036:1.1274326 4041:4.3675303e-05 4042:2.854718 4052:1.3609262 4054:0.49850795 4057:1.4599849 4063:2.1781182 4072:0.34207714 4075:2.3353815 4079:1.6558559 4083:0.55667615 4084:1.8544961 4085:0.91028476 4091:4.2349901 
1 1:0.57042766 5:1.7599375 11:1.2369317 15:0.074830294 18:0.076930791 19:0.34210384 20:0.24827147 21:0.6718201 22:1.1421534 24:0.18754125 26:1.9879147 27:4.7605047 29:1.7171986 46:1.0471785 48:1.3301111 54:0.27903467 57:1.7271268 58:0.68708307 60:0.91156 61:2.4284508 68:1.6335654 69:1.6626124 70:0.05578354 80:0.18977091 83:2.1727111 90:1.7409081 94:0.037442833 108:0.69971371 112:0.25433519 115:1.5861375 123:5.055903 124:1.1225373 125:0.22512689 127:0.38731155 129:0.98678482 130:1.5019158 134:0.72269785 136:0.081501782 140:1.0229149 141:1.89245 143:5.2645464 146:1.7263983 147:0.60427874 148:1.2416453 154:1.294173 155:0.022186249 157:1.2715106 163:1.4147646 166:2.0968804 176:0.069812596 195:1.7212481 214:1.6731441 224:0.32822612 227:0.66281426 233:2.023489 235:0.46343029 239:0.14204133 242:0.097445667 258:1.0481515 275:1.2502943 276:0.58759141 283:3.4411423 298:3.2154467 299:0.99543333 301:0.076878101 317:3.4826672 318:1.2302411 320:1.589473 333:2.496479 348:0.55673152 351:2.100554 353:1.405875 357:1.7533982 361:2.5048251 364:0.32325912 365:0.17371738 369:0.17643601 371:0.56122625 373:2.4198925 377:1.6421757 389:2.3541427 391:6.0787101 393:3.0817561 397:1.3713877 402:0.014789879 409:0.38938403 418:1.0215816 430:0.22162706 432:1.8924214 433:0.79692221 440:0.63546669 444:3.0000918 448:0.21542108 449:1.0247952 455:0.49501979 461:2.4816666 462:0.83462948 463:2.6597652 469:0.5500797 473:1.1159739 474:0.20451057 477:2.218231 478:0.53446198 481:2.6807189 485:0.11760741 489:0.38919157 492:0.097379595 493:0.59516817 495:0.58839834 502:5.1655545 505:0.59789878 509:2.5309353 512:3.0392277 524:0.47470045 526:3.4712117 530:4.639327 533:1.4002723 536:4.5746188 538:0.17281091 539:0.84445512 540:0.25126252 545:1.8646805 548:0.65065688 550:0.95727932 551:0.22967644 552:0.75401491 554:0.26340467 555:0.5793432 561:1.2099447 562:0.96599662 565:0.88647336 577:0.57871974 580:1.5495864 586:2.8856614 596:0.069258824 602:2.3638263 611:1.2661061 612:1.4689246 616:1.9121637 622:1.4187865 635:3.0242207 639:1.8671556 641:2.773571 646:4.1117969 648:0.51383632 661:0.61313426 662:1.2534764 667:0.74563223 671:4.7652144 672:0.20691937 679:3.2308221 681:0.62190557 682:4.4425163 688:0.59470236 698:1.8771203 702:1.0776433 703:2.1242557 705:2.51986 706:0.60002333 713:1.1848639 721:0.10331479 724:0.17893425 730:3.1158822 731:0.48396081 733:0.40323335 737:0.83715916 748:3.8318672 750:1.6406038 752:0.47988421 753:0.62276292 757:2.079314 759:0.936885 760:1.2586319 764:1.6363714 765:0.050830185 774:3.310303 791:1.9830779 792:1.7705841 796:1.654263 799:1.8906902 802:0.33705398 806:0.56328982 807:0.3735266 810:0.7979064 811:1.5346422 819:3.777416 820:0.80574095 823:0.69937646 827:0.18572657 828:1.1595585 830:2.0223403 834:1.4722936 849:3.8149686 851:0.692505 853:0.47290513 855:2.9548962 856:0.34067228 857:0.74696875 865:2.1718688 867:5.8916621 868:0.54256225 871:0.74879974 874:1.785686 882:3.600579 884:1.8140519 888:0.48076013 890:1.1835831 900:0.28576028 905:1.025445 908:0.058955371 913:0.26692486 922:3.9589579 923:0.81297839 924:3.2376413 926:0.066950232 937:0.54145795 945:1.0576463 947:0.50585091 953:0.11695471 954:0.086647987 960:3.1123488 962:0.088965505 963:1.0053732 966:1.2630073 968:1.5715997 969:1.7337067 970:2.6251745 972:1.8245871 973:2.7276177 974:0.86545575 980:4.4865546 989:1.5678159 991:0.86640316 992:0.01480864 996:2.5762701 998:0.53023815 999:0.88930947 1001:0.96488202 1005:2.0168631 1006:1.8929669 1009:0.49896184 1010:1.5908271 1014:1.6747789 1026:0.037293345 1030:0.95190203 1032:0.39615232 1045:0.75591695 1046:3.834343 1048:0.98281527 1049:0.31685591 1053:3.5214467 1056:1.7594346 1059:0.61449742 1062:2.3208311 1074:1.8883162 1075:1.8590344 1077:3.00475 1084:3.250453 1095:0.69164515 1098:1.1501888 1100:0.19276714 1102:0.28731382 1105:0.59079069 1107:0.049226433 1108:0.57246834 1111:3.1313901 1112:0.34050247 1119:2.1248646 1122:0.00084352493 1128:1.1551765 1133:0.30231395 1137:0.60253817 1140:3.1198761 1153:2.1192293 1161:2.7714837 1168:0.39079893 1173:0.13888532 1177:3.140394 1178:0.40147454 1183:1.4186631 1187:0.19386692 1188:1.6598032 1192:0.30718988 1196:1.4021139 1206:2.1546736 1213:5.0282331 1216:1.5021691 1217:3.1640699 1218:0.68671751 1228:2.1200092 1234:0.21041165 1237:0.46981329 1240:0.37270159 1248:1.2729738 1258:0.32688677 1267:1.0887372 1275:0.46016017 1277:1.7398044 1279:2.4475937 1285:1.3542607 1287:1.055373 1291:0.79769456 1295:3.2375345 1296:1.9714004 1302:3.4462786 1305:0.6027137 1307:4.9068313 1313:2.4498534 1314:4.3796463 1317:1.9971336 1319:1.2328148 1321:0.40091223 1332:0.64071953 1333:0.30316055 1335:0.66839278 1340:1.8952174 1342:0.56184226 1359:0.97286475 1360:1.6035296 1363:0.24509177 1368:2.2589173 1371:0.45021886 1372:1.5546663 1373:2.9607644 1377:1.1016786 1379:2.8165622 1382:0.020442178 1383:1.3911967 1384:0.41908878 1385:1.9887537 1406:1.6868148 1408:2.7315609 1409:2.0509901 1411:0.26855507 1426:1.6059744 1442:1.1500038 1443:3.3597162 1445:1.5131509 1449:0.29879749 1450:3.4577105 1452:0.54476899 1473:3.2991204 1475:0.61743295 1476:1.7261746 1484:2.6842525 1487:2.6155326 1491:1.1860682 1511:1.5147874 1513:4.6666451 1515:0.017408669 1517:5.0424128 1519:1.7205434 1522:2.9631467 1539:1.6213176 1541:0.47446722 1548:1.2753195 1555:0.21696138 1556:2.5893002 1581:0.2432875 1582:1.7432201 1583:0.70190179 1588:0.95615494 1590:0.077332944 1596:0.97746176 1602:2.9848242 1613:0.10066533 1618:4.4435968 1623:0.15857762 1625:3.2712333 1626:1.9574246 1628:3.0223749 1636:0.4625417 1655:1.2413058 1663:3.4508111 1674:0.11796597 1675:0.9056372 1676:1.6570984 1678:4.0449967 1681:0.34297436 1687:2.9203289 1688:2.2628856 1690:2.8060322 1698:0.45953906 1702:0.70906538 1703:1.5329282 1705:1.5185657 1707:1.436321 1708:0.1419473 1710:1.4279077 1720:0.36921626 1725:2.5577495 1726:1.8870569 1733:1.82227 1746:2.7706008 1750:1.1664019 1752:0.085063085 1755:2.4140337 1756:2.2226665 1759:1.064563 1762:3.36762 1772:0.55457568 1774:0.093619905 1775:0.32925338 1780:0.27140534 1781:1.7327015 1782:3.0936036 1784:0.76277792 1785:0.18772766 1786:1.6169038 1791:1.4712038 1792:0.14449103 1793:2.117691 1795:2.903029 1803:0.58299917 1812:0.82459873 1815:2.7708337 1821:0.88859308 1825:4.4192157 1826:4.4257488 1827:0.25843945 1833:1.0868036 1834:1.2903905 1840:1.6514705 1842:3.8610799 1848:0.025174081 1851:2.5502102 1852:1.992504 1856:1.0931603 1857:2.5945952 1861:0.55800366 1869:0.37901509 1871:0.7722404 1882:2.4117498 1886:0.3062017 1888:3.5702815 1890:0.85751134 1891:0.0070793033 1893:1.1717403 1897:2.4425893 1898:1.9031327 1899:0.69223404 1909:4.103898 1922:1.0819337 1926:0.06500873 1935:1.9170357 1936:0.58102 1943:1.1534698 1951:1.2763602 1952:0.62600058 1953:5.5112042 1955:4.4456348 1956:0.719666 1962:2.9777834 1968:0.90310353 1969:1.1229994 1972:0.1294668 1975:3.8879004 1978:0.45810264 2002:1.6982038 2010:0.1624769 2011:0.32346013 2013:1.1843479 2026:0.49549198 2027:0.028539553 2035:1.7819438 2038:0.18048936 2041:0.90310252 2042:1.5871947 2043:1.0694082 2047:0.57764012 2048:0.82050306 2051:0.32885012 2052:1.3256347 2054:0.15871221 2066:1.3509178 2076:0.27174908 2087:0.66256177 2108:0.43233353 2110:0.11518285 2111:0.45703208 2118:3.6331749 2120:1.8528357 2121:0.93824589 2123:1.9895335 2125:1.9858429 2126:0.062689148 2148:0.34894761 2152:1.7187655 2162:2.6030588 2172:2.3464856 2183:2.8146648 2188:0.71472663 2196:3.5744786 2199:3.7048888 2202:2.3436396 2205:0.66330206 2213:0.71619415 2216:1.9787384 2224:1.2157105 2229:1.80685 2239:1.0796322 2240:2.7339249 2246:2.1387272 2265:0.33030209 2266:0.035627931 2267:0.71811533 2272:1.7423121 2274:2.5733154 2279:0.21252725 2280:0.089998662 2283:0.84729111 2290:0.7169258 2298:1.7808044 2299:0.95094287 2302:0.77500004 2303:1.3125044 2322:3.6244736 2327:4.0670543 2331:0.25193498 2332:1.1611966 2350:0.73490763 2353:3.5498164 2355:1.0825207 2356:0.52978748 2360:1.7920684 2368:0.22010942 2372:1.8611627 2383:0.41581872 2386:1.1047714 2393:0.36634424 2401:0.48639011 2402:1.7254722 2405:1.4043423 2414:1.7741603 2416:0.30279848 2417:2.6084962 2420:0.87884688 2426:1.4465435 2431:3.7105758 2434:0.65485215 2435:1.1751604 2438:0.019870672 2439:2.1744413 2447:0.044261336 2452:7.2837338 2455:0.86721992 2457:1.037444 2466:0.066765413 2471:0.14520431 2474:1.5221205 2475:0.93167472 2485:2.321207 2487:0.70541817 2489:3.1505563 2490:0.56106848 2491:2.0097396 2495:0.66956443 2500:0.46708098 2501:1.5906876 2503:1.7785275 2504:2.232028 2505:1.0584158 2506:0.512972 2507:0.44997421 2508:1.744933 2509:0.2937817 2512:1.6180148 2514:3.2742815 2515:0.19635692 2516:1.0378196 2520:0.88740867 2522:2.5447371 2526:3.2981339 2527:5.1617112 2530:1.2593746 2532:0.97162008 2547:0.24202932 2553:3.8004246 2571:2.4821038 2581:0.66389716 2583:2.2861152 2592:0.1743136 2594:1.3292739 2595:0.013263822 2599:0.0094525814 2608:0.029021055 2612:1.5136104 2618:0.25556701 2619:0.49294212 2629:0.29753253 2632:0.3053 2634:1.0024412 2638:0.73178041 2639:2.7989843 2640:0.68823814 2641:3.3304863 2653:1.1657178 2656:4.376236 2657:0.71017301 2658:0.28421238 2660:1.041764 2672:1.6358291 2673:0.049132302 2690:0.35487479 2691:1.6967835 2692:0.59435058 2698:3.7482343 2708:4.2220201 2710:1.2806731 2711:1.2945147 2713:4.0152431 2714:4.2456999 2718:1.2106267 2719:3.0013962 2723:1.7149762 2725:1.3129191 2726:1.889053 2727:0.84060466 2728:0.53851473 2735:0.72543406 2736:1.8290787 2740:2.3861871 2747:0.54324734 2750:1.6198816 2751:1.9729875 2752:1.944416 2754:3.0127251 2761:3.8633018 2763:3.298461 2766:4.3133116 2773:0.57891774 2774:1.2645143 2778:3.0702627 2785:1.1015397 2786:0.81989837 2793:1.4315288 2799:0.66750956 2804:0.43593407 2806:1.6645967 2809:0.059274353 2811:0.85287237 2817:1.6540051 2822:2.0062976 2823:4.5279102 2825:2.4412258 2831:3.0187364 2833:1.5639789 2838:1.0760117 2844:3.8154185 2845:0.0077712238 2854:1.6134123 2856:0.96382785 2860:3.4547889 2862:2.5781631 2865:1.8523419 2867:1.8766736 2869:0.052307844 2872:0.36843896 2882:0.31459188 2883:4.3692079 2888:0.79516029 2891:2.2134295 2896:1.0482553 2898:1.580533 2907:2.9709213 2917:1.2324259 2919:1.4028599 2920:3.3016849 2931:3.413862 2934:1.2724298 2938:1.7315546 2940:1.0411149 2941:1.8318909 2944:0.62381244 2950:1.1834497 2952:1.5397404 2955:0.058389813 2956:2.5679657 2958:0.67529356 2959:1.0997646 2962:4.150537 2968:2.016799 2976:0.76804864 2977:0.53220987 2981:1.1053898 2992:1.4661154 3009:0.27793884 3010:0.35157183 3012:2.7430069 3015:1.9492238 3019:2.5111909 3037:0.30734116 3044:0.19857585 3051:0.91006261 3063:2.3604693 3067:2.3842056 3069:2.8278146 3074:3.7065756 3081:2.3078368 3085:1.8081774 3093:0.1839411 3094:2.7778642 3101:0.67921776 3108:0.53107524 3118:0.4958474 3119:0.81496334 3125:2.0525656 3128:2.6497898 3133:0.03022261 3139:0.69346911 3144:5.3945489 3149:2.0731573 3150:1.5560306 3152:0.62558454 3155:0.52663863 3167:3.6329165 3170:0.33753633 3172:2.9789655 3178:4.9149652 3180:4.8372149 3181:3.275182 3184:0.9939276 3196:0.89300442 3200:5.8209047 3206:0.78859746 3207:0.86772633 3214:1.1138159 3217:0.38032901 3223:0.46420127 3224:1.1282594 3227:0.30491471 3230:1.7826557 3231:0.21185094 3233:1.0344199 3236:3.0664923 3243:0.90528673 3245:2.9123936 3258:2.0255184 3260:1.5996461 3271:1.1467793 3275:3.9148901 3276:1.3435186 3277:1.5869572 3285:0.88074636 3286:2.4597151 3293:2.106245 3297:0.1843351 3299:2.1585429 3309:3.2766128 3310:3.2080307 3334:3.1902325 3338:0.0050999671 3344:3.3265357 3347:2.989789 3353:0.95923698 3354:2.0879672 3357:2.9014697 3360:0.65703493 3368:1.0352951 3369:1.7472453 3374:0.62271166 3394:1.9193017 3402:0.2289564 3409:1.6043843 3413:1.7074896 3420:1.6069808 3422:2.9913158 3423:0.47206533 3424:2.1641941 3425:0.91134822 3428:3.5374341 3450:1.0489111 3453:0.56575263 3456:0.14199808 3457:2.1986012 3465:2.2772918 3473:0.21021774 3476:1.8696315 3482:0.48842084 3484:3.1719675 3485:0.075818464 3486:1.132184 3488:1.8005778 3489:0.3723101 3492:0.11031634 3493:2.3681719 3494:0.20375139 3495:3.4172595 3501:0.92365658 3504:2.3954816 3528:1.38095 3529:0.51734942 3545:1.0761211 3548:1.6616678 3554:2.5306578 3556:0.67056113 3560:3.9173398 3564:2.2000892 3566:1.7617164 3567:1.7476208 3577:0.86017931 3578:2.5664072 3582:0.0041418672 3586:0.6179719 3591:0.97822452 3598:1.2388685 3601:3.3794913 3603:1.4651891 3608:0.56992424 3626:0.19610406 3629:2.76862 3630:3.813206 3631:1.4414592 3635:1.5088174 3640:1.9001557 3643:1.5027283 3649:2.4981008 3666:1.05603 3669:0.94393814 3672:0.10745332 3673:1.3310447 3677:3.4950843 3684:0.52661633 3686:1.3703214 3687:1.6371927 3700:2.7459786 3707:1.3000998 3710:3.6445506 3711:2.1700227 3712:0.5216527 3714:0.99712944 3722:0.81660342 3724:1.6869626 3727:1.8023062 3737:2.6897612 3739:0.83872461 3752:0.52223063 3753:7.1051936 3756:2.0309293 3758:2.5414913 3761:1.2099342 3765:0.47503206 3766:3.2706356 3767:3.0862286 3769:3.5461426 3771:2.9656692 3777:1.0220178 3778:0.68794608 3779:0.89830166 3781:0.2182737 3793:3.5504179 3795:0.92536509 3813:0.9671424 3814:0.82465661 3817:0.1544539 3818:0.56103504 3819:2.0413637 3829:0.98299575 3831:1.1774654 3833:0.5455296 3838:2.3130693 3840:2.0513952 3844:0.38724631 3848:3.4317632 3851:0.19561425 3855:0.44231036 3860:0.46170452 3864:0.45249295 3874:0.048740912 3876:2.8051221 3882:0.33527452 3886:1.103454 3888:3.2391465 3893:2.3507893 3897:0.42179722 3900:0.81546295 3906:2.8258781 3912:0.96268046 3919:1.2014935 3922:2.5501094 3926:0.019331686 3927:0.78315973 3930:1.5317242 3936:2.2421973 3938:0.60451978 3946:0.10176745 3954:0.71253926 3957:2.5725553 3962:3.3533332 3963:3.2993555 3968:1.5502858 3974:1.6141851 3975:2.0927815 3978:0.049488246 3979:0.085743815 3980:1.6483657 3981:1.057791 3984:3.9411705 3988:0.1894957 3994:2.5374172 3995:1.6905951 4000:2.1113923 4008:3.0364871 4013:0.23886608 4016:0.35387307 4021:1.9931381 4024:3.3122289 4032:2.1428771 4033:1.6242044 4043:1.1912252 4059:2.7858567 4065:0.44535673 4067:0.34218192 4068:0.54478377 4074:5.0458045 4075:4.276722 4084:3.0286305 4089:3.9671128 4094:3.3845651 4095:2.8515663 4096:2.171258 
1 4:2.6341045 18:0.89965153 19:4.6107359 21:0.55094045 25:1.3481756 26:2.9182987 27:1.9336921 31:1.3162359 38:0.061374485 44:0.49244556 54:0.14524353 60:0.94126254 62:0.8807137 75:0.59448123 83:0.77217776 87:1.2896539 103:0.91438335 105:1.2356448 107:0.21291801 127:0.38182655 130:0.74493921 136:1.8035753 143:3.6489174 144:2.545917 147:2.5419543 154:1.2273358 155:0.88028824 163:1.3269217 167:0.68863523 172:1.8730682 174:0.33125246 181:0.46900374 186:1.2932215 200:3.1540072 204:0.57173085 210:0.48233148 217:1.9252549 218:1.3467939 230:0.7361567 232:5.3252344 239:3.4514296 240:3.5212278 241:1.6325685 245:0.84554213 254:0.52407849 256:0.13835979 257:1.0263608 258:2.6471279 262:0.88464332 265:0.70678091 274:1.3045179 279:0.1366639 282:0.52211249 288:4.0025249 297:0.38325459 301:0.7773664 304:0.33361599 308:0.0050736666 315:1.4079109 326:0.088326067 334:0.88801908 338:0.52571565 342:2.642658 347:1.7444055 348:4.5069132 351:0.30885455 353:0.63403666 365:4.0193124 367:2.408088 372:1.2748989 374:1.4018813 379:5.8455262 382:2.5524817 385:1.2565906 391:1.4835329 393:2.8831968 394:0.85713315 397:1.459347 398:1.2008591 402:0.71040821 409:0.34044275 412:1.299148 414:2.7249851 416:0.71761382 426:4.6949301 432:1.8629514 436:0.22760069 438:0.32357568 453:0.8845644 460:1.5769525 464:0.1371319 468:0.11730844 473:0.43879515 482:3.4111531 487:0.85260099 491:0.74951339 494:1.372681 498:3.4539733 502:2.9745903 514:0.25685471 517:0.0018906896 523:3.6002214 526:2.3588905 540:0.84717011 544:1.5108155 549:0.15800062 552:1.944391 554:0.47184384 562:3.4051616 600:0.72157985 603:0.011663586 612:2.8893547 616:2.0936682 626:0.062349558 628:0.18896088 629:2.021842 633:2.3805315 635:0.46175769 639:4.1064711 640:3.7860603 641:0.52183259 642:0.27069411 646:0.96427011 650:0.2336207 654:3.6458285 656:0.63249195 661:0.89745677 670:0.959598 671:0.65422028 675:2.5378647 682:2.2712686 684:0.1057853 697:0.15083769 702:3.0421712 705:0.49593151 706:4.5814133 711:1.0228009 720:1.1445558 723:2.7382722 728:1.1266379 739:3.0960577 749:1.0997469 750:4.405283 751:0.59089315 755:0.66601169 760:0.26409221 761:0.51810569 764:0.08760643 767:0.40981147 768:1.189703 773:1.3718612 789:1.4261537 791:1.1442425 795:3.5073819 796:0.37360296 798:2.7795231 799:2.3213062 802:4.0949731 809:0.18650106 814:3.5567904 820:4.4033179 825:2.476661 830:0.50348866 833:0.98451561 839:3.5015574 842:0.60497165 860:1.7208958 866:2.9914882 868:3.8846014 871:0.077247262 872:0.67967057 877:2.2300811 881:2.048816 883:0.56915903 889:2.8796148 896:0.023020446 899:0.29190212 903:0.54277283 904:2.084259 905:0.29716185 908:3.4661555 909:0.38381833 912:4.5072885 919:0.69107455 922:0.16964382 928:3.0287387 933:4.1079092 937:2.063529 938:0.2022973 941:1.0843685 945:2.7658434 954:0.83858198 958:0.23672208 960:1.1568758 968:3.4008307 972:0.20729715 974:2.331501 976:1.8054359 979:4.6407003 989:1.0230839 993:1.0414661 996:1.9739932 1001:0.8643136 1002:3.3857675 1003:2.2358332 1004:1.8588479 1006:2.224344 1014:2.4255905 1018:6.0113082 1028:1.8503236 1042:2.2392607 1045:3.4985068 1053:6.1547675 1056:1.1445402 1059:3.3736131 1062:1.979605 1064:0.74116135 1067:0.0055153966 1075:0.84831512 1077:2.3141859 1081:1.3368199 1095:5.2263546 1096:1.0421705 1105:1.5121975 1108:1.6021286 1110:2.2850688 1116:1.3083905 1117:0.22425392 1125:0.016004145 1140:2.613817 1159:0.75508296 1161:3.9205599 1163:0.57915968 1165:0.79096687 1168:1.2898295 1170:5.3112216 1171:0.32076085 1176:2.2882695 1180:3.3590674 1186:2.5070486 1189:0.034904763 1191:0.78744453 1206:0.7766192 1220:0.40922076 1221:2.0820956 1228:1.1162688 1234:5.3279262 1242:3.7825656 1252:1.4521257 1253:2.4744468 1257:1.0361121 1274:2.3065729 1279:2.8748455 1281:2.0163615 1286:2.335341 1288:5.7153249 1291:3.4543908 1292:3.2792125 1293:2.9477491 1294:0.047836363 1295:1.8174658 1299:1.2465258 1302:2.01773 1305:0.24170193 1309:1.5619971 1314:4.4383917 1315:0.33227479 1323:1.2943873 1341:0.86178881 1342:0.52822411 1343:1.2777624 1347:1.1787254 1356:1.859019 1358:1.5365468 1363:0.20901825 1368:0.72368604 1372:4.4048944 1374:0.34574443 1376:2.7281201 1379:2.0450902 1391:0.83477044 1400:1.48159 1401:2.9553051 1404:2.9932582 1406:2.9543355 1411:3.1706858 1416:0.20175499 1419:1.6407892 1424:1.2248504 1426:3.6946983 1428:2.0006952 1430:0.06884554 1441:1.2534382 1443:0.62460387 1450:0.95465457 1456:1.0027461 1458:4.3540311 1465:4.3583016 1470:1.1985317 1476:1.6442198 1488:4.1393337 1492:4.3478155 1495:1.3173201 1496:0.26864675 1509:0.59732366 1511:1.5228744 1513:0.47511911 1515:1.4392562 1517:0.36791015 1518:2.8452291 1522:3.2096977 1523:1.9746261 1537:0.017335504 1544:0.56136328 1552:3.0959759 1555:2.9685316 1556:1.6284871 1567:1.7991366 1574:3.0094991 1580:0.042991877 1582:4.5206447 1583:2.6760054 1587:0.98282528 1590:2.4367721 1596:1.3165631 1613:0.75651073 1615:4.0410633 1616:4.3638206 1617:2.2951298 1626:0.66225535 1628:0.089963734 1629:2.2176461 1636:2.5981493 1647:1.3126736 1648:1.3153418 1659:1.377925 1667:1.8544376 1668:1.3686461 1675:1.5789939 1677:1.0430895 1678:2.1386127 1680:1.020921 1686:0.3624022 1690:3.2808633 1696:1.9513582 1703:2.7265513 1713:0.6182518 1722:0.1482909 1725:0.35480493 1726:1.27273 1727:1.4089925 1730:0.74504095 1737:2.7479546 1758:3.4007423 1765:0.36038905 1767:0.81328136 1772:1.5965118 1774:1.8117741 1777:0.46642295 1780:0.024577916 1781:3.7164092 1782:1.1428425 1784:0.54790282 1785:1.7652309 1788:3.8246975 1795:2.6300106 1798:0.34321123 1804:3.2926164 1805:1.7318176 1808:0.80617154 1822:0.24971728 1824:1.2883604 1825:1.8409144 1832:2.2556047 1833:5.6512151 1842:3.9568725 1844:1.0261838 1848:3.3860652 1850:2.968154 1851:2.0412362 1852:1.1349437 1856:0.21843202 1862:0.063177958 1872:1.7323261 1887:1.329401 1890:1.5077329 1895:0.5120132 1897:0.084589899 1898:1.6088817 1904:2.7849495 1912:1.1917471 1935:1.5702809 1936:0.17364919 1943:2.5925498 1950:4.6805496 1951:0.55073756 1953:0.16437098 1955:0.96161842 1967:1.2143816 1968:3.6898346 1977:1.429365 1988:0.55185008 1990:1.5436221 1991:1.8279603 1997:1.6346183 1998:6.2759266 1999:0.37210917 2000:1.5995011 2001:0.20433512 2011:3.5366478 2021:3.2373614 2030:0.68002701 2042:1.0490975 2050:1.9798101 2057:3.1330442 2058:2.1537244 2068:1.6953537 2070:0.083383083 2073:0.53233892 2075:2.5261714 2080:1.2919072 2083:3.6184325 2085:2.0874107 2097:1.0038677 2099:1.1256932 2102:0.57540166 2105:3.8979714 2107:0.3053942 2117:3.2002764 2123:3.2556837 2132:0.23309022 2138:0.66182679 2153:0.56323516 2156:1.6138163 2163:0.42725769 2165:5.9012542 2166:0.27243298 2172:2.9656341 2177:2.1292329 2181:3.5039148 2187:0.56709999 2196:2.3533211 2202:2.4038398 2203:1.5873263 2210:7.2212696 2229:2.2688599 2238:2.2745328 2240:1.5212295 2246:4.0696454 2250:0.057151169 2253:2.1668067 2255:1.9353507 2257:0.95507777 2262:0.74435955 2263:0.13687119 2264:0.78089231 2270:3.6784368 2281:1.6332843 2290:2.0605071 2292:0.63706803 2297:0.019901052 2298:1.7357495 2302:1.5933312 2303:1.1847998 2306:2.0505469 2311:2.0961196 2318:1.5690947 2321:1.8432702 2322:3.1098928 2329:1.6700565 2337:1.5817765 2344:1.1212232 2346:1.5998312 2353:0.27099296 2355:0.13651469 2357:2.683562 2365:0.38850829 2378:0.87326413 2382:3.4764204 2383:1.3271859 2400:2.5435452 2402:0.56150997 2415:0.22041124 2416:0.94831538 2420:1.3441515 2428:1.0663499 2431:3.3023148 2435:2.4318717 2436:1.3184923 2438:2.7346106 2452:0.74046165 2466:0.06402503 2470:6.0109425 2471:3.211947 2474:2.13135 2476:1.416623 2486:0.85009736 2487:0.20827827 2491:1.8402686 2497:2.8299513 2507:0.3265107 2508:1.6681025 2512:1.652058 2516:2.1439018 2526:0.69209015 2528:1.1396719 2531:0.6371299 2536:3.3371906 2551:0.73354638 2561:0.98816061 2563:0.89521277 2574:0.93761742 2576:0.054235086 2577:2.0021615 2578:3.8150711 2583:5.0608797 2590:0.74846715 2594:1.0848131 2595:0.49822813 2599:0.037232995 2603:0.033970147 2604:1.3797083 2617:0.54902661 2621:0.62632227 2624:0.16968811 2636:0.21861115 2639:3.8620069 2642:0.50309312 2651:0.73235357 2656:1.9827614 2658:0.597691 2663:1.6383194 2673:0.87372118 2675:0.33025974 2687:0.88499165 2688:1.5027595 2689:0.84838724 2695:0.71310335 2704:1.9197488 2708:2.9817951 2712:0.15387541 2714:2.4219754 2716:0.83119452 2718:1.2396648 2721:1.9146786 2723:3.4577193 2724:4.8861704 2727:0.077867836 2736:1.6755981 2740:4.3696256 2742:1.2325099 2745:1.4076986 2752:0.38950238 2754:2.2334988 2756:3.6062279 2762:0.69637072 2766:1.6554723 2774:1.3870341 2775:0.52593833 2778:1.0841151 2784:2.0990155 2785:0.60726523 2789:0.7375626 2792:2.9042597 2793:1.7346734 2800:4.4940648 2802:0.54887575 2807:1.5645355 2811:1.4307158 2818:0.022806171 2834:1.0967047 2840:1.5667305 2843:0.50967371 2844:0.16068521 2846:0.017492324 2864:0.099426128 2873:3.7405753 2878:4.2105637 2882:2.7906833 2883:1.8695898 2891:4.6470041 2903:6.2881823 2909:0.6724894 2917:1.9479342 2919:4.52527 2931:3.1844127 2937:0.93447959 2938:0.22235727 2940:3.2591555 2949:2.2851269 2950:4.1659565 2964:1.4895452 2965:3.1407659 2971:3.4822266 2972:1.8959315 2980:0.071574837 2981:1.1747438 2985:0.66403949 2986:0.019203588 2993:0.098614395 3010:3.229383 3012:0.83245564 3019:3.4744782 3035:2.9874971 3043:1.9572155 3051:0.80358428 3052:3.1028905 3059:2.8008809 3060:0.23826559 3071:0.12943037 3081:2.1667082 3085:0.36173975 3087:0.53273243 3099:0.92108417 3101:0.28012592 3108:1.5529674 3125:0.37356681 3129:0.98659837 3139:1.0047847 3144:4.2333651 3145:4.0255823 3152:4.154706 3154:1.2036376 3157:2.1935368 3161:1.5942597 3170:1.1513542 3172:1.8300811 3179:2.0096824 3182:3.2157075 3198:2.7324905 3206:0.78556752 3211:2.2120478 3216:0.032951396 3231:1.8467702 3232:2.6325068 3233:1.4955636 3238:2.1535842 3242:1.8659282 3246:0.64121127 3247:5.8108072 3249:3.3038259 3256:0.038067818 3258:1.3795394 3260:1.47759 3268:0.22136503 3275:3.9055462 3277:0.0036953688 3278:0.7133714 3286:1.4943258 3290:3.2587113 3291:7.3859758 3292:0.6904608 3293:2.4053917 3295:0.65649205 3298:2.7510715 3299:1.2243536 3310:3.2513628 3318:1.4439045 3334:3.9989078 3338:2.6828117 3341:2.9918978 3344:2.0195239 3345:1.8490703 3347:0.036560714 3351:1.2694468 3354:2.0815115 3355:0.51137429 3359:0.85825461 3363:3.3112385 3364:0.38186234 3377:2.0318778 3388:0.0012436956 3390:0.75235307 3398:0.13129601 3402:3.5589573 3407:0.017199486 3409:1.6150839 3413:3.6382427 3418:2.0418863 3420:1.1170642 3422:3.788141 3432:0.15770276 3436:0.20239931 3437:0.48414814 3444:0.3121978 3448:0.60675591 3452:3.1425736 3455:0.19885579 3456:5.2544484 3458:1.5206861 3465:0.46868932 3468:1.9736154 3478:1.4886265 3479:0.35290357 3484:0.44583744 3489:1.0718523 3490:3.5845697 3493:3.8070188 3494:4.8238654 3496:1.6909803 3498:2.3433383 3500:0.15924278 3501:2.7637129 3502:0.34082228 3503:0.05775778 3521:4.5834312 3528:3.2566512 3536:4.1410332 3540:1.1464653 3548:2.8269267 3554:0.64832139 3556:0.33777264 3565:2.1397369 3566:2.9974635 3576:1.1056205 3582:7.5880075 3598:1.4129002 3601:3.4925468 3605:1.0121349 3608:2.98312 3614:1.9868364 3616:0.18141074 3624:2.4866285 3626:4.3195987 3627:2.825376 3630:0.94502366 3631:0.072081864 3635:2.8493791 3642:1.084137 3644:0.70071024 3649:0.26535732 3650:1.4174126 3653:2.2699056 3655:1.6937357 3657:0.67975366 3661:3.1722903 3662:1.4679966 3672:0.13607332 3684:1.9195522 3690:1.4076536 3692:1.3434224 3697:0.67910695 3700:0.70098567 3710:1.5755452 3715:0.93522394 3718:0.37664452 3722:1.8362515 3724:0.28022864 3727:0.93052763 3729:0.41748649 3731:1.1419551 3732:0.67474836 3742:0.21848628 3745:0.14935105 3752:0.87373132 3753:5.5035238 3758:1.3589414 3761:1.1496997 3765:1.1856675 3766:2.6576419 3768:1.2343277 3769:3.0910954 3771:4.1036863 3773:0.68140489 3777:2.2634525 3783:2.1434929 3789:0.064597219 3793:5.5864272 3802:0.48483947 3807:0.62521112 3822:2.4502001 3824:1.5821828 3833:4.027133 3838:0.56313235 3856:2.7390275 3857:2.5722773 3859:0.21020979 3862:0.57438755 3864:1.0879828 3865:0.92293823 3876:0.2888945 3877:0.28272542 3880:0.20442358 3881:0.37743041 3884:2.6330056 3885:1.0050781 3886:2.5242963 3891:1.2167927 3893:1.6780583 3900:0.076835781 3903:1.6911591 3906:2.094631 3912:1.3608739 3918:3.0839133 3927:2.8562329 3938:5.0762076 3941:1.2204025 3952:1.3959962 3956:0.23031589 3957:1.8540338 3958:1.3825613 3963:3.4939001 3970:0.79672343 3972:1.0852141 3980:1.6165169 3981:0.78988075 3984:5.0803766 3985:2.7713888 3992:0.15977377 3995:2.5387418 3996:1.5176425 4002:0.26902798 4004:6.2541938 4011:0.53796798 4014:2.8811145 4015:0.57186151 4017:0.096922114 4018:0.97283298 4021:4.0832925 4024:0.1225169 4032:3.1622729 4033:0.26757222 4038:5.7311726 4044:0.54461312 4045:0.14508107 4055:1.2918344 4057:2.3306339 4063:1.9891031 4065:0.59745497 4071:1.4284824 4079:0.45644832 4083:2.133018 4084:2.5261664 4089:2.5156271 4095:1.6261512 
1 4:2.6473839 14:0.37666109 16:0.42001218 18:1.5292914 19:1.099525 25:1.0612726 26:1.773944 27:3.4389575 29:1.7208865 45:0.51293302 49:0.56119937 58:0.39925832 60:0.50319976 62:1.4140706 69:2.3625946 80:0.8205145 83:3.7695832 84:1.8571522 86:0.025935419 87:1.956815 90:0.36004084 103:2.3649876 105:1.881956 108:1.9241744 112:0.26742542 115:1.2694778 123:2.8131123 125:0.87298143 130:2.9159443 136:2.5225956 143:1.210704 144:0.24709082 146:0.54954529 147:1.32658 150:1.3632443 152:2.0238059 163:0.50944316 166:0.02318278 172:1.4642785 180:2.5337286 181:1.6347452 200:3.7870219 204:0.88635564 210:0.53174442 211:0.7118938 218:0.68797636 219:1.9829085 223:2.0470076 232:2.4128571 234:1.2987068 239:1.311157 240:2.9312382 241:3.8735032 256:0.11644268 262:1.3329878 274:0.42362821 282:1.7647862 287:0.47990125 288:0.43768933 290:2.3243339 301:3.4175003 302:0.53431809 324:0.78815192 328:1.180674 329:0.19917175 342:1.3981892 347:4.1035657 348:1.9182445 353:0.91883945 365:2.4315491 367:1.4552838 371:0.037359685 372:1.3218704 373:1.2589524 374:1.5586956 379:2.0671759 382:2.8384902 385:1.2769908 388:0.65511185 389:0.83284062 391:2.1903622 393:2.7381546 397:0.64839232 398:1.4176475 408:0.55699217 409:1.1137187 413:1.6532015 414:1.0665413 416:0.2076533 426:1.0792115 432:2.5857668 434:2.9080036 436:0.46326584 459:1.4675344 463:2.1015291 464:0.42737529 473:2.7780328 482:5.1249709 484:2.0965698 493:0.040919542 494:0.23227045 496:1.2392339 498:1.3267804 499:2.8228045 500:0.11780775 502:4.8428888 505:2.1151133 514:0.14555573 515:1.7536007 517:1.9367553 523:2.8971395 524:1.6067837 526:3.4455016 538:0.14948171 562:5.344656 569:0.70222187 575:1.4466184 586:1.3662368 592:0.33989629 603:1.5575289 612:2.7758379 616:2.9814739 619:0.13850218 624:1.1954882 629:0.49673703 633:1.0205945 639:2.1172454 640:2.0955482 641:2.4549792 642:1.8484056 644:1.5788165 645:1.4750562 646:3.3679249 654:1.0290961 657:0.3011058 661:1.658424 662:0.6145556 664:1.2277807 667:1.0092511 672:0.44039994 675:1.0275824 677:0.18546283 681:0.30588794 682:1.4460826 684:0.91489363 687:0.4144271 690:0.023879319 698:1.5172218 702:3.570471 705:1.7097553 706:4.5659761 711:3.5482655 720:1.360595 721:0.41799003 723:2.2439725 726:1.371038 727:1.2264501 730:1.8105283 737:0.34508857 738:0.48524594 739:1.665802 747:1.3652216 748:1.0513499 750:3.4920101 751:0.1901814 754:0.87919742 759:1.1481774 760:1.6393132 761:0.4280709 764:1.4682357 768:0.48326492 776:1.5183527 789:2.7294073 791:0.36057788 795:3.332159 796:0.50087023 798:2.5389686 799:1.7777508 802:1.4915323 811:2.2857351 814:2.009279 819:0.84844822 820:1.1026435 825:0.76628613 826:1.3663208 833:0.11762697 838:0.52234995 839:0.77781332 847:0.36905688 848:0.10636273 855:0.33372152 856:0.15204057 857:0.74859214 865:1.002512 868:3.0483472 872:1.6066825 877:1.3391238 878:0.24583498 881:0.26314726 883:1.0173099 888:1.7634281 889:1.3061621 894:0.11402416 903:0.056936651 904:2.9611967 905:2.4583848 908:0.50263476 912:4.2858863 918:0.046365887 924:0.42521051 928:2.9294739 929:1.4463365 933:0.019482076 937:0.037857391 941:0.36823699 945:3.3535557 952:0.13094199 954:1.2004218 960:1.6167419 965:1.2289811 968:4.78934 974:2.8413923 979:3.1766431 989:0.23618758 993:0.40926418 996:1.3564008 1001:1.1821948 1002:3.5990105 1003:0.046785295 1004:2.600868 1006:0.42669755 1014:2.7123685 1015:0.0055217445 1018:6.5940638 1019:1.0335691 1031:0.063847944 1042:0.94776809 1045:0.74891633 1046:1.0562031 1053:3.5708587 1056:0.36997023 1059:1.3659686 1062:0.9152962 1063:0.63220352 1077:2.6427708 1078:0.34133193 1090:0.22364002 1094:1.4379348 1095:2.8254845 1096:0.41635072 1102:2.5318098 1105:2.5753489 1108:3.5118937 1111:0.64256799 1117:0.89326751 1125:0.33546859 1140:2.4365699 1153:0.76232386 1161:1.9480344 1163:1.2698212 1165:1.0009631 1168:0.37774163 1170:3.4701483 1171:0.562442 1176:0.051352978 1181:1.0909784 1186:2.3429019 1191:0.15885407 1192:0.35044751 1197:0.81961375 1206:1.5001471 1216:0.39902061 1220:0.73976797 1228:2.148026 1234:4.179172 1235:0.57089955 1240:1.6100278 1242:3.2677298 1243:0.56263697 1246:1.4412066 1253:2.5629368 1254:0.80634207 1255:3.9423585 1257:0.13101961 1265:0.068571299 1271:0.13850296 1279:2.1266124 1281:2.1556394 1286:2.036294 1288:3.3635619 1291:1.0480131 1292:0.86797166 1293:0.62899655 1295:1.1672876 1302:0.83953559 1305:2.0489969 1306:1.178979 1309:2.0681839 1314:2.3974435 1319:1.8934815 1323:1.406119 1332:0.59512967 1342:0.42574421 1356:0.26767004 1357:1.6053731 1358:1.1950256 1359:1.2868521 1368:0.63716525 1372:3.7200439 1373:1.1176767 1376:0.1332811 1385:1.3693995 1389:0.3018977 1391:1.6360867 1393:0.4074297 1396:1.6226997 1399:0.47654438 1401:0.83791411 1404:0.81930709 1406:4.6494021 1411:1.9760255 1412:0.59525657 1416:0.9551633 1419:0.30488932 1421:0.40302134 1426:1.4476103 1428:2.7189362 1430:2.6321685 1432:0.31180996 1433:0.55211282 1435:2.1054752 1441:1.5915248 1443:1.9223068 1445:0.72112834 1450:0.20071174 1452:0.51803911 1456:1.8349142 1458:3.5528693 1465:1.7255672 1469:1.0495288 1470:0.037959762 1476:2.5121896 1484:1.0630064 1486:0.38269043 1487:1.9176308 1488:4.6888332 1492:1.0194265 1493:2.7512767 1495:0.85999411 1503:0.54051769 1504:0.29713362 1511:0.54724455 1513:0.18715067 1515:0.92558628 1518:2.792073 1519:1.0710702 1522:1.8882487 1525:0.76921511 1544:1.3748214 1548:1.2247193 1552:1.3723822 1555:1.4696963 1556:2.2832441 1567:3.5739491 1569:0.47271776 1580:0.35559773 1581:1.0768138 1582:5.1456213 1586:0.68175805 1587:1.7207054 1588:0.22112483 1590:0.90128595 1596:1.1719077 1600:2.0174947 1601:0.54743838 1606:2.5979466 1613:1.1415968 1615:2.5440309 1616:0.058755726 1617:2.2991638 1618:1.1519699 1625:1.800061 1629:2.4338138 1630:1.5967236 1636:2.2988219 1648:0.24627399 1659:0.017758295 1661:0.85197961 1662:0.72231543 1663:1.4847769 1665:0.55233657 1667:0.4736312 1668:1.5343853 1675:3.2663665 1676:1.2627863 1677:3.3656244 1678:1.1195805 1680:1.7211151 1695:0.79229677 1696:1.0940504 1703:2.7015965 1707:0.31732297 1715:0.88509035 1722:0.040030628 1725:1.2926283 1726:2.201478 1727:1.1024719 1730:0.4936623 1737:4.3930206 1740:0.99732482 1743:0.33970606 1746:0.61987674 1754:0.83160543 1756:0.61194843 1758:1.3097174 1762:0.68363726 1772:1.6205252 1774:0.48679671 1779:1.7103181 1780:0.61193961 1781:1.9134207 1785:1.2384758 1788:2.1263711 1793:0.25076669 1795:3.3428903 1807:0.034086049 1808:1.564671 1822:0.049485743 1824:0.99332833 1825:2.040509 1833:1.9264781 1837:0.19391736 1842:4.0702806 1844:0.96554637 1848:0.54357815 1849:0.81177771 1850:0.28078577 1851:1.4614357 1852:0.19328374 1856:1.9629699 1862:0.63906658 1865:0.3923094 1872:3.3849626 1877:0.24194042 1882:3.4562664 1884:2.8568041 1887:0.30992612 1897:1.3070304 1898:0.83607888 1900:0.30293006 1904:3.591146 1912:0.26036489 1928:2.8920088 1935:0.81005812 1943:3.388612 1950:1.9545922 1951:1.0907451 1952:0.83325428 1953:4.0811486 1955:0.20450521 1964:1.2438301 1968:0.71011847 1975:0.58304745 1977:1.531744 1990:1.4224808 1991:2.0195928 1997:1.3745396 1998:0.60131758 2000:1.0323999 2002:0.76678783 2005:0.10959992 2011:1.6825095 2012:0.45351076 2021:1.2993782 2028:1.6272279 2030:0.9523682 2032:0.064868182 2038:0.27728239 2042:1.9457248 2043:0.95334291 2047:1.9032524 2048:1.7724857 2050:1.7015421 2057:0.95273674 2066:0.12570745 2068:1.3778564 2075:1.948028 2080:2.2293367 2083:3.5488737 2084:2.2907498 2085:1.9514544 2096:0.38975734 2097:1.6370625 2099:0.11132178 2100:4.0557141 2102:0.31151688 2104:0.37448421 2105:3.3515582 2118:1.8517479 2120:1.3017523 2122:0.13551497 2123:2.2037227 2137:1.7048538 2140:2.6482289 2144:1.0140688 2153:1.8082838 2154:0.57005966 2156:2.1083295 2165:3.1142757 2166:1.0781758 2172:3.0195906 2177:0.84583223 2181:0.39758027 2187:0.85829455 2188:3.184989 2196:2.4162107 2198:0.44485241 2199:1.4792424 2201:0.19567443 2202:1.8219399 2203:2.9046295 2210:3.2289469 2211:1.3532156 2214:1.8471353 2216:0.5537138 2232:0.82065374 2233:0.40405798 2237:0.33634156 2239:2.2275543 2240:4.3249679 2246:4.2171354 2247:0.51126486 2250:2.3665388 2253:2.533314 2267:1.3330653 2270:1.3810399 2275:1.9712253 2276:0.61235702 2292:1.0103194 2298:1.411351 2302:1.0066903 2311:3.7718122 2314:0.053519517 2317:1.4726669 2321:0.93555593 2322:2.9612162 2329:0.71555883 2333:0.53437912 2337:2.2509072 2345:0.25322753 2346:0.44445905 2348:1.7235246 2349:0.52387077 2350:0.36628702 2354:2.6271217 2357:1.7007966 2358:1.2285242 2369:0.28891557 2372:1.2332604 2378:0.74672234 2394:0.09646371 2400:2.4111843 2401:0.29911643 2415:0.032264292 2416:0.086614609 2420:0.40629452 2428:1.838318 2431:4.9201999 2435:1.2689509 2436:0.17386517 2438:3.7827463 2441:1.360536 2446:0.27757728 2449:0.50371206 2450:0.029957386 2452:2.3897161 2457:1.4036068 2458:0.62695771 2466:0.28605515 2471:0.14440137 2474:1.9526331 2476:0.76873553 2477:1.2266785 2487:1.7416306 2488:0.018044442 2503:1.7722156 2504:1.990549 2509:1.5200112 2516:3.9372313 2522:0.70840394 2528:1.7520418 2536:1.1004862 2539:2.0613015 2547:0.29930919 2551:1.3666632 2554:0.3802512 2561:4.561563 2570:0.61003119 2574:0.073328197 2577:2.2383206 2578:4.2850361 2583:2.2159288 2586:0.83989513 2591:1.6476074 2594:1.297478 2595:0.90680647 2599:2.8105872 2601:2.0987535 2603:0.43988219 2604:3.7414987 2618:1.3190815 2619:0.67937362 2621:0.63727915 2636:0.42427808 2638:0.39733988 2639:3.8523974 2651:1.529283 2652:1.3072433 2656:3.0893514 2663:1.390252 2666:0.047119647 2669:0.68749809 2675:0.30678904 2676:0.62190109 2687:0.36539769 2688:2.2485423 2689:0.51348984 2695:1.2205604 2698:1.6462698 2704:0.90241683 2708:4.8282628 2710:0.87366748 2714:4.2997046 2715:0.85787767 2716:0.43171316 2718:3.7168887 2719:0.92195725 2720:1.562199 2723:4.5739384 2724:1.4170624 2725:0.095499665 2727:0.21584386 2732:1.1285589 2740:3.086118 2742:0.72275996 2745:2.2306416 2752:1.5650278 2756:1.5713644 2759:1.3009731 2765:0.66765547 2766:4.7289743 2774:1.2866166 2775:2.798728 2777:1.0615218 2778:2.4956853 2784:1.8287054 2792:3.4951651 2793:5.3202124 2795:1.5264511 2800:1.6932181 2811:3.1109962 2816:0.6659469 2818:1.217398 2821:0.070563227 2825:0.5659287 2826:0.076381803 2828:0.54335982 2831:0.8527208 2834:1.5645905 2836:0.25775009 2840:0.72102147 2844:2.1605365 2846:0.56322205 2848:0.51603425 2851:0.42009169 2856:2.633224 2860:0.17811248 2862:1.0854957 2864:1.0310391 2869:1.4314284 2873:4.4497075 2875:0.024730682 2878:0.31141981 2882:3.0239697 2883:3.4771864 2888:1.9247564 2891:3.4114821 2895:2.3110201 2896:1.2500657 2898:0.93004006 2903:4.1612597 2907:1.1685878 2917:1.3344601 2919:2.5548062 2931:3.3187325 2940:0.8096559 2949:1.5693945 2950:2.932775 2965:2.7986922 2971:0.72022903 2972:0.97792327 2974:0.53170347 2977:0.56384498 2978:0.80637407 2980:0.34893167 2981:2.7956691 2986:3.8411949 2992:0.011520114 3010:1.624434 3013:0.55079818 3015:0.15836987 3019:0.053955674 3033:2.6159189 3034:0.2942158 3035:3.1462874 3047:0.42125088 3052:1.0653549 3056:1.2439148 3059:1.7092123 3060:4.7420831 3065:0.73683625 3074:0.30999526 3075:0.47107995 3081:2.1516554 3089:1.539227 3099:0.28058273 3105:1.2764566 3108:1.3131316 3117:1.0133276 3118:0.29221341 3122:0.34093314 3129:2.3249841 3144:1.7632194 3145:0.6920523 3152:5.5577435 3157:2.5546982 3164:0.98496473 3167:0.13982475 3172:0.84860826 3179:0.59217429 3182:1.6607423 3184:0.14485009 3198:3.8872876 3200:0.2145313 3206:2.8707824 3211:0.824826 3212:0.39812988 3214:0.29851761 3230:0.20619124 3231:2.3790298 3232:0.64693642 3233:1.6797822 3238:0.43131086 3242:1.5920047 3245:0.788661 3246:0.10619691 3247:7.0524292 3249:1.3736567 3256:0.61910045 3258:1.9539605 3260:2.9116554 3275:2.0111134 3276:1.2824193 3278:1.9287033 3286:1.2266291 3290:2.3058276 3291:6.8176966 3292:0.22463684 3293:1.6139351 3298:1.1677564 3299:1.1563966 3310:1.5983677 3325:0.74277985 3332:0.58096957 3334:4.0407419 3338:2.7824972 3341:2.6548347 3344:1.9664325 3349:2.375994 3359:1.4149754 3360:0.77415764 3363:2.5719485 3365:2.0745623 3367:1.1740212 3377:2.8124416 3388:1.1537783 3392:1.052243 3395:0.029475987 3399:0.40841037 3402:4.6722555 3407:1.1986988 3410:0.10373297 3413:4.3741093 3418:2.3444986 3420:1.8831701 3422:1.0945871 3423:1.5670226 3438:1.4412706 3446:0.68277359 3452:1.4383337 3456:2.6495469 3457:0.15164275 3468:0.04727453 3479:1.8812553 3484:1.1132935 3491:0.85582435 3493:4.8085895 3494:2.2557817 3496:5.1317401 3498:0.29708415 3500:3.2414145 3503:1.9090575 3508:2.5125046 3512:0.62050241 3513:0.19414827 3520:0.77447069 3521:1.9267974 3522:0.27675086 3528:1.4380158 3529:0.44722307 3531:0.098734349 3536:2.8092179 3540:1.2757241 3544:0.1496385 3548:1.6791298 3549:0.04415746 3554:1.4738444 3560:0.59937638 3564:0.88653576 3566:0.25268966 3569:0.99726021 3576:0.44542307 3577:0.58443582 3582:3.5675559 3586:1.1724668 3597:1.2270041 3598:1.6616651 3601:2.8631148 3608:1.9911281 3614:0.053692475 3615:1.5500727 3616:0.75096023 3624:3.327909 3627:0.46438077 3629:0.72669858 3635:2.0446553 3638:0.38575542 3640:0.016748816 3644:1.5673132 3650:1.1470331 3653:0.89292443 3655:0.766563 3657:1.7923619 3661:0.42890123 3666:1.5093715 3673:0.40315503 3677:0.65765607 3678:1.1377316 3683:1.3266112 3684:0.3709195 3689:0.64410883 3690:0.11349294 3691:1.0952153 3692:0.88654864 3697:0.12494785 3700:1.3746493 3701:0.55846262 3703:1.1061641 3711:0.19337502 3719:0.20824641 3720:0.28933749 3724:0.77610713 3727:2.5325494 3732:1.5011686 3742:0.33544818 3749:0.3159703 3752:0.58258486 3753:4.5662313 3765:1.053753 3766:5.7987752 3767:2.1510398 3768:2.1534166 3769:3.6739998 3771:4.4126873 3776:0.78957093 3783:0.40014479 3793:4.4255581 3797:3.0754104 3802:0.83596104 3806:1.6670847 3807:0.35304409 3818:2.7701015 3822:2.4395547 3824:2.348912 3825:0.064005062 3831:0.81207132 3833:0.26409155 3835:0.31732357 3836:1.1235073 3841:0.057612479 3852:0.36810315 3857:1.0496646 3859:0.13147444 3860:0.049220562 3862:1.5222811 3877:2.5918252 3881:0.90678346 3885:1.5086401 3886:0.32497346 3888:0.018300563 3890:0.64787459 3891:5.3170567 3893:2.6730394 3895:0.69023067 3901:0.88198781 3906:4.1397419 3927:0.52381539 3938:4.1088061 3941:1.3062043 3943:0.3525061 3945:0.16206937 3952:0.62926942 3955:0.013905674 3957:2.0985463 3963:0.75292432 3974:1.2045844 3980:2.6013532 3984:5.5495977 3985:2.788238 3988:0.10965982 3994:1.5801706 3996:0.26289105 4002:0.58009887 4004:4.6274738 4008:1.1887026 4013:0.83223504 4014:1.2136532 4017:0.53829169 4018:0.48513454 4021:3.5965314 4029:0.29654825 4032:0.86190999 4033:2.0579758 4036:0.65505874 4038:1.6683539 4039:0.25126466 4041:0.33334601 4042:0.15292765 4044:2.4316483 4055:2.4482214 4063:2.2633364 4067:1.8131702 4071:1.8208712 4079:2.0582051 4084:4.2573314 4089:0.95465821 4092:1.3910396 4094:0.083811656 4095:2.2131548 4096:0.49170223 
1 14:0.16650367 18:0.51346171 19:1.3749392 25:0.88722759 26:1.8512172 27:3.630235 29:0.44048411 31:0.025361404 34:0.13036034 39:0.23813093 45:0.50191391 49:0.67119813 58:0.32959309 60:0.44601893 61:0.57581639 68:0.59868062 69:2.3784752 70:0.16692171 80:1.5965919 83:3.2926641 84:2.0458755 86:0.84750986 103:1.8173537 104:0.22548464 105:0.34053907 108:1.2839735 112:0.21745187 113:0.2166761 115:1.712348 123:2.7332184 125:1.6171755 126:1.3595974 130:2.4607286 136:0.88206869 143:2.9283192 144:1.156003 145:0.016585939 147:2.5528069 155:0.32496539 163:2.3483553 167:0.85167044 172:2.4366603 180:0.30862412 181:0.60726249 190:1.2329355 199:0.37873939 200:5.4081264 204:0.020508379 210:4.9586873 217:1.2187912 218:1.6126422 223:2.8412857 224:0.098883003 232:1.9475999 240:0.68538177 241:2.8537352 252:0.8894645 260:0.0097781122 262:0.96142173 267:2.3587425 270:0.71044242 274:1.0787948 286:0.00053806603 290:0.61847174 291:0.31943321 297:1.1629301 298:0.29072952 301:2.7413323 312:2.2532649 317:3.9433961 328:0.54403639 342:0.9397822 347:2.4227214 348:2.693511 353:3.6448505 361:1.621121 365:0.82058322 367:0.10865419 371:1.5368729 372:0.24197334 379:3.1814299 382:1.4365197 385:1.6735851 386:0.53309321 388:1.0709558 391:3.6390269 393:3.4672537 394:1.0930582 397:4.2271748 408:1.1595143 432:0.50175524 434:1.9326942 440:0.22563785 442:0.36803597 454:2.5484056 459:0.58965218 460:1.3269894 463:3.0352569 464:1.0000055 472:1.7202119 473:1.3711526 481:2.113266 482:5.6424832 484:1.4335709 491:0.59477055 493:0.46172595 494:1.917848 496:2.2989113 498:0.99489164 499:2.5044296 502:3.0366244 505:0.84854609 509:0.19955349 517:1.2422153 523:3.1668847 526:1.5967143 527:0.72492111 538:0.84981948 562:4.8657827 575:0.38187686 576:1.227803 578:0.81042349 580:0.15989609 586:1.0532198 592:0.039315432 603:0.81283307 607:0.020908102 612:2.9130306 616:1.5647434 619:0.58776021 624:0.75883651 629:0.47819379 633:1.938616 635:0.69515663 640:2.4888887 641:2.0878432 644:1.62911 646:0.47156939 651:0.67652333 656:1.3142099 662:2.5811598 664:3.0485063 667:0.85615343 672:2.7809751 675:1.996053 682:1.8077133 684:0.12995002 698:3.3008499 702:3.3033235 706:6.4765692 711:0.18044308 720:2.0282266 721:2.9992228 723:3.2597656 724:1.177038 727:1.7112522 730:0.26093912 732:0.22556858 737:2.9637992 739:3.8690631 748:1.8162981 750:0.23188925 751:2.4667351 752:0.22623363 755:0.66671687 759:3.7871482 764:0.36012 776:1.4248865 789:0.2371349 791:0.64827979 794:1.0480633 796:0.05332467 799:2.5030918 811:0.6053654 814:3.6559596 819:1.7601671 820:2.1940641 823:0.5624119 839:3.1630797 841:0.94791418 857:0.55273497 865:2.4572601 867:0.39760593 868:7.5839286 869:0.095942795 872:1.376838 881:0.17698178 882:2.3979063 883:1.241626 886:0.072743922 888:1.6379956 894:0.53623855 903:0.65237051 904:2.7273026 905:5.0500946 908:1.8842548 912:4.5020223 913:0.62438893 924:1.1158841 928:4.3641129 933:0.63721097 937:0.86645412 944:0.66923749 945:2.2433131 948:0.71063054 954:0.29494613 960:0.65500015 965:5.8087263 968:1.660356 970:1.343807 974:2.97189 979:2.4038882 985:3.7509034 989:1.8472409 993:3.2040229 1001:3.079335 1002:1.544899 1014:1.8584934 1018:7.4794402 1019:1.8528616 1029:1.3587992 1043:1.4027772 1046:2.0845702 1053:3.5932791 1056:3.8294747 1062:0.92378688 1065:0.2873565 1077:1.3698897 1078:0.37099177 1080:1.8237157 1087:1.7341744 1090:1.0624828 1094:0.50181711 1095:3.1031811 1096:1.1418474 1102:4.2351365 1105:0.60749686 1108:2.2369821 1111:3.1289618 1140:1.4597368 1153:1.8648386 1159:0.5459007 1161:4.0218716 1163:1.5524867 1165:0.92233336 1170:0.45951852 1177:2.0782478 1180:0.28280196 1181:3.7821901 1182:0.35673949 1188:1.6145558 1192:1.0484577 1206:3.2343817 1217:0.37845731 1228:1.9958421 1234:2.3726027 1240:1.905565 1242:5.1677818 1246:1.4051722 1251:0.46849409 1253:0.13254507 1254:0.62788761 1255:2.1406822 1277:0.37852636 1279:2.805021 1281:2.5169947 1286:1.5590851 1287:0.35871741 1288:0.74105895 1291:2.4527113 1292:2.5582347 1293:0.19698054 1295:2.7510133 1302:1.6729569 1305:0.005970329 1309:2.2389812 1314:0.38616943 1319:1.425789 1323:1.4166793 1338:0.15882152 1341:0.67173612 1342:0.73781377 1356:1.1982954 1357:3.6013248 1358:1.6027037 1359:4.4034672 1368:5.0747175 1369:1.7228016 1372:2.2018321 1376:0.893911 1385:0.053472877 1387:2.8480861 1389:0.40979075 1393:0.00055098534 1396:1.9117444 1397:0.41570359 1401:0.51453215 1404:2.3471034 1406:2.9074862 1408:0.41823417 1410:0.58329713 1426:1.0675077 1428:1.77652 1430:2.8221169 1433:2.8611419 1435:2.596705 1441:1.1090848 1443:5.4656258 1445:1.3748012 1450:0.34464133 1452:0.6712932 1456:1.1022363 1458:1.0930989 1463:1.2320023 1465:2.1350789 1467:2.3186107 1470:0.64214534 1471:1.277529 1474:1.2375448 1476:2.1933608 1484:2.6918523 1487:2.02459 1488:2.3975742 1490:0.54726475 1492:0.60251963 1495:0.29733986 1511:1.1207254 1513:3.180712 1514:0.95586228 1515:0.2224727 1518:1.5234661 1519:2.2260785 1520:0.33415335 1522:0.55117506 1548:1.0879636 1556:2.3902912 1567:1.8914096 1574:0.056574747 1580:0.30263811 1581:0.72554004 1582:6.0473452 1583:0.50462925 1584:0.17969213 1586:1.0451376 1587:3.5248566 1590:1.6061087 1598:0.41885924 1600:1.621701 1605:0.47724912 1606:0.96034431 1613:1.8128324 1617:2.3083229 1618:0.80752933 1622:1.4513261 1624:0.63719809 1625:3.0967607 1628:0.47360289 1629:0.92815131 1636:4.2613549 1637:2.2873023 1640:0.33268917 1657:1.4353747 1659:4.8923645 1663:0.91509879 1675:3.2125766 1677:4.2892146 1678:1.5898764 1680:3.1914635 1681:0.86080265 1686:0.28432798 1688:1.083178 1690:0.23263842 1696:0.025729049 1697:1.1428233 1703:1.5928988 1705:5.4469705 1706:2.302283 1707:3.5217307 1708:0.79512191 1725:0.29374999 1726:6.0074501 1727:1.1368905 1730:0.72680455 1733:0.32321811 1736:1.1138759 1737:4.5965481 1739:0.94819939 1745:0.41916537 1746:2.0216951 1747:0.5748654 1754:2.8942111 1762:5.0642467 1774:4.1924417e-05 1775:0.18508744 1779:0.46405464 1780:0.50656331 1781:2.0369399 1785:1.9075921 1788:2.0219259 1794:0.79502457 1795:4.5074778 1805:0.29373437 1808:1.0827364 1812:0.8668083 1822:3.603286 1825:0.24999204 1826:1.2662287 1833:4.9999032 1837:0.53236854 1842:2.2569849 1844:0.87890399 1848:0.14850724 1849:0.69698763 1850:0.35652164 1851:1.2869473 1852:1.385403 1856:1.1259831 1862:2.0782964 1871:0.2543698 1872:1.1484329 1881:1.5339613 1882:2.389852 1884:0.48681495 1890:0.75578988 1893:0.61948419 1898:2.0057547 1904:0.60112101 1909:0.71089298 1928:1.6946098 1938:0.67456126 1943:4.3975368 1952:2.322541 1953:3.1333055 1964:0.66350979 1968:2.577415 1972:2.665714 1975:2.3117175 1982:0.16849059 1990:0.43085673 1997:0.98460966 1998:1.7749835 2000:2.9608042 2006:1.8111649 2009:0.59399563 2011:0.30632573 2021:1.6463634 2030:0.39645159 2042:1.2431464 2048:1.179473 2050:0.40772268 2057:1.8669841 2068:0.94660938 2075:2.3270328 2079:2.2832987 2083:1.1504025 2084:1.1986299 2085:0.16315916 2094:0.24205798 2097:1.8225039 2099:0.63246691 2100:1.917644 2102:0.64457107 2105:3.8543692 2107:0.343003 2112:0.21514171 2118:2.0121205 2120:1.5350394 2122:0.6070531 2123:0.96533835 2125:0.15984803 2131:0.75244963 2140:2.5220144 2144:0.43104225 2153:2.1707118 2165:3.2664247 2167:0.45122787 2172:1.8652498 2179:2.1816282 2181:1.1362586 2186:1.4730221 2187:1.0768234 2188:3.1175034 2195:0.81086004 2196:2.4135704 2198:1.7335329 2199:1.4912434 2201:0.57382119 2202:4.8504291 2203:5.1776233 2210:1.4937443 2214:3.3232527 2223:0.678684 2232:0.26976657 2237:0.11018068 2239:2.6889546 2240:3.3952601 2246:1.3111092 2247:0.51085931 2253:1.5014089 2267:3.0375977 2278:1.9382219 2286:1.3559847 2290:1.347629 2303:0.50199234 2304:1.215638 2311:2.8496706 2322:1.9757587 2328:0.23894387 2337:1.7198267 2343:1.3499495 2345:0.040095955 2346:2.0151842 2348:4.6814575 2349:1.2914958 2353:1.1420722 2358:0.4685052 2364:1.3202747 2378:0.50349587 2386:1.1266948 2400:1.838693 2401:0.57551628 2406:0.68642676 2422:0.41968629 2425:0.56953174 2431:5.8997998 2435:3.4635823 2437:2.5216217 2438:2.3198991 2441:3.8281732 2452:2.3678877 2453:2.2649126 2457:3.2626951 2466:0.084174916 2471:3.4149108 2475:1.7094418 2477:1.4945192 2487:0.58338904 2488:1.0791916 2491:1.0711055 2495:1.8916337 2503:2.8685904 2504:0.55006421 2506:1.1705221 2509:2.0860362 2514:1.6516199 2516:3.2613175 2520:2.7289245 2522:0.9992311 2526:0.94043142 2530:2.6176243 2533:0.047323108 2536:1.1087317 2539:0.41409934 2545:0.69914436 2553:0.0049293414 2554:1.7631568 2561:3.0236883 2574:2.7664127 2577:1.3495314 2578:4.1715646 2581:2.3297975 2583:0.052243203 2586:1.0593374 2591:1.0141605 2599:0.80470675 2601:1.8920312 2604:1.5328965 2612:3.0816588 2635:1.6659608 2637:3.9431925 2639:2.2376466 2641:0.75284147 2651:2.020927 2652:1.1036808 2656:1.3007073 2658:0.76164305 2663:0.022769779 2676:0.94177878 2688:3.7932677 2689:0.44276202 2695:1.1340573 2697:0.33835936 2698:0.57056451 2708:4.2349343 2710:0.79100591 2713:0.858078 2714:2.3553751 2715:1.2854332 2718:3.1253653 2719:1.7983588 2720:2.4964933 2723:5.4007859 2724:0.5907467 2731:0.11755499 2732:0.69158596 2740:1.2005433 2745:4.7620473 2750:1.1147113 2752:3.6591377 2753:0.19775519 2763:0.24959162 2765:1.2178333 2766:4.6269836 2770:0.56833947 2774:1.2043383 2775:2.4658101 2778:6.3318315 2792:2.1448412 2793:3.5343461 2795:2.101016 2800:2.1442385 2802:1.5041189 2811:2.3688662 2821:0.28476611 2825:1.0441935 2826:0.76922375 2828:0.61774141 2831:0.31952018 2834:1.8479441 2840:0.76394427 2844:1.7327013 2849:1.317723 2856:0.49382797 2864:1.231548 2869:0.042207241 2873:2.9256887 2882:4.6470008 2883:1.8212094 2887:1.0782628 2888:1.9987642 2895:1.7218041 2898:1.5893266 2903:4.093852 2909:0.91364628 2929:0.64834845 2931:2.5834892 2934:0.029369563 2938:1.7243202 2949:1.2648966 2950:0.36851686 2958:0.85073894 2965:0.76411664 2968:0.37091205 2971:1.2241006 2974:2.4011049 2978:2.1734674 2981:3.9804814 2986:3.7967205 3009:0.28861716 3010:3.5603364 3015:2.3986528 3019:0.88353062 3033:1.6984777 3035:1.9192207 3036:0.8315717 3052:1.6633387 3059:0.89433688 3060:6.2683392 3065:1.1992629 3067:1.3150101 3069:1.3720127 3074:0.73731947 3077:1.898407 3081:2.2373435 3087:0.29887503 3089:2.3112071 3105:1.8378111 3117:0.95966512 3119:0.59499735 3121:0.063087195 3129:2.2220345 3133:2.7818649 3139:0.43099469 3144:0.79401392 3145:1.7804358 3152:6.4374313 3154:0.07529819 3157:3.5802553 3161:3.0384381 3163:0.37057215 3164:1.9339244 3172:1.203912 3179:0.47076896 3198:5.9920139 3200:1.9291248 3205:0.35170323 3206:1.4461761 3211:2.6418121 3231:0.57938266 3232:0.53854167 3233:1.7163637 3245:2.7944331 3247:6.7327957 3249:0.85270834 3256:1.4940643 3258:2.6784434 3260:2.944519 3267:0.75176859 3268:1.0234599 3276:0.79861128 3278:0.34541899 3286:2.9424849 3290:2.4269423 3291:4.7295418 3293:1.8472954 3298:1.9624662 3299:2.2590778 3310:2.3969419 3334:3.3992145 3338:3.679672 3344:3.2670379 3348:2.6733866 3349:5.8827019 3353:0.067230225 3354:1.394455 3358:0.5372504 3359:0.62832069 3363:2.1807692 3365:0.90473521 3367:1.0636728 3377:3.354995 3388:0.96321136 3395:0.44468379 3402:3.6762462 3403:0.31591147 3404:0.55421644 3413:2.9437828 3418:5.0499573 3420:0.55473554 3424:0.21118301 3428:2.3633139 3437:0.47417909 3438:2.3320901 3442:0.59344363 3446:0.20618457 3449:1.8187079 3456:2.0203357 3457:0.52892542 3458:1.8665752 3476:0.68886799 3479:0.78574753 3484:2.6456037 3489:0.0089177042 3491:2.409502 3493:1.5794899 3494:4.8555117 3496:6.072072 3500:3.198041 3504:1.4531692 3508:3.9288266 3512:0.66217071 3526:1.1249387 3528:0.25322005 3531:0.96504641 3536:1.6468731 3539:0.16764931 3540:0.019195557 3548:2.6038394 3554:1.5034821 3556:0.24810442 3560:3.238555 3564:2.7179832 3568:0.21377116 3569:1.6616893 3582:1.484082 3594:0.44759029 3597:1.2473691 3598:0.90260142 3601:0.35432196 3604:0.99458581 3607:0.27076307 3608:1.4426988 3612:1.6413784 3614:0.67729533 3615:0.87949646 3616:1.1783651 3627:2.1281307 3629:1.9961241 3635:2.4416149 3644:5.387641 3650:2.4898195 3653:1.3790212 3657:1.2068123 3666:1.0477115 3669:0.96411622 3683:3.8754439 3687:0.45263609 3690:0.89104426 3691:1.1035073 3692:0.7536388 3693:1.3191693 3700:1.1125751 3701:0.77982408 3703:2.6507704 3711:0.60444891 3722:0.51702589 3724:1.2511542 3728:0.71843481 3729:0.44003761 3732:0.03160055 3735:0.60675812 3752:2.601203 3753:4.9431434 3756:0.13896886 3766:2.6819854 3767:3.9027679 3768:0.047280818 3769:3.5750341 3771:2.3998492 3783:0.60965258 3789:0.14952347 3793:5.2765241 3797:4.8632307 3807:0.63240361 3813:0.50731772 3818:1.2768018 3822:1.0610347 3824:2.4103394 3831:3.0378051 3835:1.4293317 3836:1.8584132 3844:0.72061837 3846:0.63819921 3850:0.81574214 3851:0.19653022 3856:0.085971147 3857:1.4573015 3859:0.54118294 3860:2.5413897 3863:0.62483382 3864:0.041279331 3872:0.37701526 3876:1.0932968 3885:1.6013798 3886:0.99114823 3888:0.67972147 3891:5.3744059 3893:0.41596413 3895:3.0310104 3900:0.37487814 3901:1.8453944 3906:0.41597492 3919:0.42883897 3927:3.0814362 3929:0.30475911 3938:4.9860272 3942:1.3873403 3945:0.68519503 3952:1.2303281 3957:0.18772061 3963:1.1469759 3980:3.722321 3981:0.75310707 3984:3.0223176 3985:2.0766635 3988:2.3864689 3995:0.18522446 4000:2.007134 4002:0.10578663 4004:2.8958387 4008:3.6984196 4013:2.3897047 4014:0.30157691 4021:5.5346837 4032:2.1378183 4034:1.005812 4036:0.63382775 4038:0.19178236 4044:1.902144 4055:1.8626552 4058:1.4402022 4068:2.1625957 4071:0.2653133 4074:1.5588512 4084:4.809515 4089:0.90079182 4094:1.3585324 4095:1.5298337 4096:1.085874 
0.2641797715521808 4:0.085939378 16:0.15374365 18:2.342495 19:2.99946 27:3.1502883 29:0.13100088 31:1.1751903 40:0.55361694 49:4.1611123 54:3.2191834 56:0.51740944 58:0.82784963 60:0.49351978 62:0.18917251 69:3.4083605 70:3.5791252 80:1.2309507 83:4.6447883 84:2.3004172 86:2.0253065 105:0.99853873 108:1.4073218 110:0.95093852 112:1.8513587 115:1.374958 130:2.2328279 134:1.6087437 136:2.1917403 141:0.58084714 143:1.6932273 145:1.0110281 146:1.1049011 147:1.458712 150:0.98745739 166:0.10598247 167:2.3030262 175:1.7715869 180:1.4930857 181:1.0424984 200:3.5627377 204:1.2075605 210:3.0175679 211:1.242258 218:0.13732105 223:2.0223598 224:2.1375051 233:1.5931497 240:1.1674275 241:1.5826553 252:0.015147328 254:0.3904143 256:1.4084238 262:3.3082809 265:0.55418116 267:0.69282234 272:0.38162494 274:4.8943305 286:0.035398021 290:1.0536141 291:0.25401378 297:2.8727412 298:0.31133926 301:2.8309293 311:0.66859281 312:0.88023639 315:1.6657141 317:1.2860177 328:0.12320587 340:2.023067 343:0.061884284 347:1.9312043 348:1.9280063 350:0.48486543 351:1.3796642 353:1.2358911 365:0.99493706 367:3.5692875 371:3.342562 373:2.8854842 374:0.82922018 375:0.028606892 382:1.7451843 385:1.7765375 386:2.1080189 389:0.67867088 391:1.8466313 393:1.3627141 397:3.1328814 408:0.45665404 413:1.8271266 420:1.7048453 432:1.3845102 434:2.4212093 440:0.099546731 459:1.0274487 460:0.19548967 463:4.0214911 464:0.10188493 472:1.684834 473:2.3905599 474:0.18706805 477:0.45359543 481:3.2462654 482:2.4089415 484:3.5801821 487:1.5056715 494:1.2704086 496:3.410938 498:0.867854 499:4.4073043 502:5.4201899 515:3.144321 517:0.91302341 523:1.9005901 524:1.6168019 526:4.3654871 538:0.040993094 540:0.071716882 547:1.7525543 558:0.47847408 562:3.543045 569:0.91766202 575:1.5373455 576:1.1255548 578:0.89114183 586:2.007611 592:0.37950006 603:0.98936129 605:0.32773414 608:0.27652687 612:1.8618938 616:2.1394846 620:1.1224436 624:2.314651 633:0.98992932 639:1.1440476 640:2.0288532 641:1.3069513 642:2.9382379 644:2.2378228 646:3.0992513 654:0.56759346 657:0.085063785 662:2.8597465 664:0.96915305 667:5.3065853 672:1.2791684 674:0.59040403 681:1.0071256 682:2.8494444 698:1.5819871 702:3.8362029 705:1.3503751 706:5.8020701 711:4.2452822 717:0.17333093 720:1.5112648 723:3.2312963 724:1.3846186 725:0.53869116 726:0.72368586 730:0.88627994 736:0.42681494 737:1.3155214 739:1.8462608 747:0.75112987 748:2.680305 751:1.7943538 759:4.1637826 764:0.86710346 775:0.12747988 776:2.3830457 789:1.2729818 792:0.066382021 795:1.69207 798:1.3045627 799:1.9871522 801:0.013904929 802:1.140553 807:0.72911048 811:1.2314428 814:2.4372044 819:0.18398893 820:0.66971391 826:1.0333655 838:0.76481324 839:1.6708882 846:0.94746941 847:1.5433604 856:1.5369178 867:0.2391178 868:3.0591233 872:1.132766 874:0.12309708 882:1.7447218 886:0.39614952 888:2.1479838 889:2.1061022 894:2.0466008 902:0.80773187 903:0.12944937 904:3.0467882 905:5.0758877 908:1.6370684 912:4.186574 924:3.4715145 928:0.53382838 937:0.64612293 941:0.44739506 942:3.2346344 945:3.3710291 949:0.37355661 954:1.0928693 958:0.77250677 960:3.26969 965:3.9421101 968:3.0391173 974:3.5380967 979:2.7482383 985:3.0108421 989:0.15880607 993:2.0398767 1001:1.9302539 1002:2.2712462 1004:1.3662813 1009:0.28229815 1014:0.46515784 1017:1.5444723 1018:6.3687387 1019:3.4432447 1022:0.068985738 1024:0.23201376 1034:0.14297995 1045:0.35466689 1046:2.215333 1053:5.2450004 1056:1.4675466 1062:1.6143467 1074:0.63602668 1077:2.3587394 1080:1.3781066 1095:3.6457779 1096:2.7521458 1099:0.29860073 1102:4.4632683 1105:0.21727365 1108:3.4084308 1111:4.0056467 1128:1.166904 1140:1.9015228 1144:2.0976491 1153:3.6075494 1161:0.3510696 1163:1.2622777 1165:0.49876282 1168:0.18929487 1170:0.26976734 1171:0.45060432 1177:1.3695254 1179:0.0028693378 1181:0.62206328 1186:2.3648975 1194:0.58100045 1197:0.27893126 1206:3.4873514 1216:0.97505993 1217:0.071347654 1220:0.78262907 1228:2.7053714 1233:0.2874127 1234:3.2122316 1240:4.0610156 1242:1.6857121 1246:0.8827554 1248:0.058927 1251:0.53437287 1253:3.0205069 1254:0.4302789 1255:4.1094127 1257:1.4045039 1258:0.70441771 1259:0.25603443 1265:0.77030563 1266:0.34536371 1271:2.7613816 1274:1.0405961 1275:0.36390719 1279:2.9000149 1281:2.8836153 1286:5.3448324 1292:0.35003361 1293:0.5725159 1295:1.0220675 1302:0.46767187 1305:0.19410905 1306:0.96862197 1307:1.6031388 1310:0.032391995 1311:1.3563045 1314:3.3968809 1315:0.50072098 1317:0.73708129 1319:2.5485189 1323:3.4700348 1332:0.25134003 1338:0.502065 1342:0.047990113 1345:0.11043273 1357:2.0332382 1358:0.64352089 1359:0.036387667 1368:1.3243668 1369:1.1754018 1372:2.9418316 1377:0.26859006 1378:0.57216686 1382:1.0447255 1383:0.85371292 1385:1.5459539 1389:0.59164113 1391:2.1275735 1393:1.5885794 1396:2.5842121 1401:0.35890007 1404:1.4177928 1406:2.5678794 1426:0.56135803 1428:2.3035903 1430:0.9687193 1432:0.38961348 1433:0.23465255 1435:2.4963036 1438:1.9118037 1443:2.4058123 1445:0.75876415 1450:0.39963198 1454:0.32070196 1456:1.8598948 1458:0.65290815 1469:1.5970138 1470:0.22161251 1471:1.690439 1474:0.36273909 1476:1.4661984 1484:1.8060781 1486:1.1164467 1487:3.6784351 1488:5.3164368 1492:0.52122349 1493:0.79252905 1495:1.402163 1504:0.35784909 1506:1.5882318 1511:3.2485106 1513:2.7281511 1515:0.37372082 1518:1.2443942 1519:1.2760959 1520:0.058753073 1522:0.75074327 1525:0.12457049 1539:0.61413878 1544:0.71385807 1547:0.11314362 1548:1.3602501 1551:0.49855298 1556:3.0654802 1564:0.63920867 1567:2.5629501 1569:1.036909 1576:0.086798817 1581:0.94073331 1582:6.4991045 1584:0.30199373 1587:1.9420931 1590:1.2678708 1600:3.0148222 1604:1.776406 1605:1.0588908 1606:1.0345073 1613:1.9372561 1615:0.38960212 1617:0.92002308 1625:2.7818444 1628:1.5351367 1629:1.2984719 1630:0.77911568 1636:1.3428657 1637:0.12765813 1657:2.41471 1658:0.3365725 1659:0.19489448 1662:0.50007164 1663:0.50194675 1665:0.65967995 1667:1.154268 1675:3.927752 1676:3.1073899 1677:3.9158492 1680:1.6992581 1681:0.69296736 1696:0.28129637 1697:1.380155 1700:0.59689832 1703:1.6627953 1705:2.2144892 1706:2.8225844 1707:1.0685041 1721:0.40693867 1724:1.2222961 1725:0.86419916 1726:3.1691315 1737:3.4216237 1746:2.9960599 1754:3.129771 1756:1.6229963 1759:0.61440855 1762:1.4599209 1767:0.25540084 1772:1.6054834 1774:0.42305347 1779:1.0748185 1780:0.54967844 1781:1.1225004 1784:0.91816998 1785:3.309566 1791:0.015978158 1793:0.0043760538 1795:3.8965797 1808:0.75030506 1818:0.49280652 1822:2.6817396 1825:0.61647886 1832:1.1145886 1833:1.6602334 1834:1.155381 1842:2.589081 1848:1.8333524 1849:2.6715748 1851:2.7310839 1855:3.2494602 1856:2.796829 1857:0.77453756 1858:0.5371936 1862:1.3168455 1865:0.50553769 1872:1.7768153 1877:0.82071215 1881:0.14578339 1882:3.9209261 1884:0.33561736 1893:0.42743105 1894:0.92362666 1897:1.7371273 1898:1.914884 1904:1.4275776 1909:1.727855 1916:1.1604992 1922:0.63594091 1928:3.8518465 1935:2.4013302 1943:2.4333594 1951:0.92732686 1953:2.5855668 1955:0.59371799 1964:1.98276 1968:0.033608541 1969:0.51792866 1970:0.064658247 1975:1.9830432 1991:0.71111637 1997:1.8483772 2000:1.2088704 2002:0.9499315 2009:0.24819946 2011:1.6821625 2012:0.71578526 2024:0.79927748 2028:0.54805094 2029:0.85638565 2030:0.10703254 2033:0.87830698 2042:2.0507283 2043:0.85848272 2047:3.317626 2048:1.8116214 2049:0.18973117 2050:2.8260796 2061:0.83205271 2066:0.79439849 2068:0.61071438 2075:3.117785 2076:2.7720475 2080:2.1070712 2084:2.6309044 2094:1.0490474 2097:0.24818841 2099:0.49212691 2100:6.2419758 2104:0.79206634 2105:3.0264351 2107:0.17243576 2112:0.43588787 2118:0.8123045 2120:0.0023086518 2138:1.0681911 2140:1.9481044 2153:3.2383161 2154:0.79578495 2156:0.70045078 2165:0.79069102 2166:0.38797534 2172:1.5309453 2179:2.1526182 2181:0.13222452 2183:0.40057445 2188:4.7445097 2193:1.5446627 2194:0.33760285 2195:0.38823044 2196:3.2956419 2198:0.91251767 2199:0.11757305 2201:0.74609655 2202:4.8351636 2203:1.3630391 2204:0.68289536 2210:0.98242629 2214:5.1240973 2218:0.3113386 2223:2.5878491 2226:0.25542256 2239:1.7873955 2240:4.6837206 2244:1.1419885 2245:0.085859939 2246:2.8946126 2247:2.5996027 2253:0.71402431 2255:0.10168644 2267:1.8080904 2275:2.5428786 2276:1.1679661 2286:0.74223208 2290:3.5549772 2294:0.62281561 2298:3.129163 2300:0.39221698 2302:3.3105519 2311:0.89463282 2317:1.1469982 2322:1.8607458 2328:1.1019111 2336:0.61714238 2337:0.96973306 2339:0.098662145 2346:0.23523661 2348:5.2742834 2349:0.12779616 2350:1.9222168 2354:1.8569355 2355:0.45361707 2357:0.95711643 2358:0.64691842 2360:0.78310454 2369:0.25738013 2376:0.11966494 2378:2.419414 2400:1.1414233 2408:1.699146 2422:1.6781393 2428:2.0522556 2431:4.2419176 2435:0.54190636 2438:3.7542465 2441:4.0063248 2444:1.7044944 2446:2.2628472 2452:0.33903152 2457:3.6467819 2471:0.47367692 2475:0.61242259 2477:0.74170971 2479:0.078956395 2487:0.86243927 2488:2.0819981 2490:0.90707737 2491:0.53330648 2495:1.5864244 2504:1.0702755 2509:1.7609015 2513:0.2836979 2514:0.48131651 2516:4.5308375 2522:1.3667288 2526:3.7435455 2529:2.1392274 2536:2.5251923 2539:1.6890879 2541:0.43900943 2547:0.10719515 2561:2.2896452 2577:0.84895706 2578:3.5055773 2581:1.6130362 2591:2.7980361 2592:0.24977842 2594:2.1343853 2595:0.46129289 2596:1.0362687 2599:1.9011863 2612:2.4724388 2618:2.5734258 2632:0.27504361 2636:0.099041641 2639:2.991389 2651:2.977984 2656:2.7881076 2666:0.36002418 2674:0.35852653 2688:0.98440021 2690:1.8326766 2695:0.64885241 2698:2.6606562 2701:0.24379739 2706:1.0165224 2708:4.2174039 2710:0.041961789 2713:1.1893024 2714:4.969491 2718:3.574913 2720:3.1448503 2723:3.945859 2732:1.5004671 2740:2.0254548 2741:0.99623817 2742:0.12950331 2745:4.6255636 2750:1.2318524 2752:0.92013001 2754:0.30850628 2761:0.63533986 2763:0.31491917 2765:0.6761241 2766:3.7846754 2770:0.71831191 2774:4.6514268 2775:0.70288271 2777:2.2798281 2778:3.9528036 2784:2.2655392 2790:0.43313038 2792:1.8635198 2793:4.2504878 2795:2.9542952 2800:1.8793048 2802:1.0141611 2803:1.2460573 2811:3.2576339 2817:0.14751753 2821:0.52630496 2823:1.715229 2825:3.0350626 2826:0.69046676 2828:0.18355004 2830:0.47320965 2831:1.6212041 2833:0.81399614 2834:3.4937487 2837:0.5060733 2838:0.52198321 2840:1.2823243 2844:5.0959363 2846:0.94792581 2849:1.4782639 2851:0.26009846 2856:1.2202368 2857:0.5114364 2860:1.2521061 2864:0.87040359 2865:0.66468686 2869:2.8682117 2873:3.4849677 2882:4.2053123 2883:2.0293016 2891:1.5473126 2895:3.772316 2898:1.2092308 2903:2.9895165 2907:0.17955655 2917:1.4508092 2919:0.98536646 2926:0.74026477 2931:3.2511158 2938:2.3645644 2940:1.3435864 2949:0.92650467 2959:0.10772656 2962:0.57575595 2965:2.5609584 2968:0.17234388 2973:0.73451602 2974:0.54137313 2978:1.1252638 2981:2.7628102 2986:4.8369327 2992:3.5709844 3005:0.0013183653 3010:4.1916165 3013:0.61425698 3015:2.6287155 3019:1.1870093 3033:4.6751256 3034:0.92978483 3035:2.5323024 3037:1.0804398 3051:1.1315886 3056:2.3711412 3059:0.22245961 3060:5.1001315 3065:0.18148522 3067:1.1536129 3069:0.60838711 3072:0.12217891 3074:1.310915 3079:1.0362482 3081:3.2800179 3085:1.4598638 3089:1.4200654 3108:0.66104728 3121:2.1838076 3122:0.66446298 3124:0.36770603 3129:1.1912268 3138:0.32014489 3139:1.9544649 3144:2.1744277 3145:1.9687321 3147:3.0694358 3152:3.5937681 3154:0.059618175 3157:1.6874262 3159:0.41425589 3160:0.59103072 3163:2.5037494 3164:3.043303 3167:0.4719255 3172:1.7075049 3182:0.80010933 3198:5.0442462 3200:0.89101398 3206:3.0312862 3211:2.0199144 3212:0.97703743 3214:0.82169354 3217:0.072357729 3230:0.29865819 3231:1.6499412 3245:1.9571903 3247:8.3078175 3252:0.41930389 3256:1.0936121 3258:3.7177701 3260:0.30048576 3271:0.61237901 3274:1.2293682 3275:0.61744803 3276:1.1317344 3278:0.41040388 3285:0.082231432 3286:2.8038266 3290:3.5769594 3291:6.4117613 3292:0.15748481 3293:3.9459929 3295:0.99916011 3298:1.4996116 3310:2.628165 3317:0.31180453 3334:4.6846948 3338:0.28160113 3341:1.2830801 3344:1.1317523 3345:1.1016254 3347:0.40833187 3348:0.59818703 3349:4.0409193 3353:0.74308228 3359:1.7236065 3363:0.85314643 3365:3.2974582 3377:0.0028356016 3388:0.16938108 3399:1.4250801 3402:2.050884 3407:0.80137181 3410:0.15921828 3413:1.2412347 3418:3.0467436 3420:0.46095163 3422:1.3567711 3423:2.6618326 3428:3.7766497 3438:2.7750907 3442:0.06719026 3444:0.25109038 3449:1.5335131 3452:1.1748315 3456:2.2302289 3467:0.20513898 3479:0.74935651 3484:0.12997252 3493:4.7380567 3494:4.6250472 3496:3.1106155 3500:3.6174269 3501:0.33004534 3503:2.2983925 3508:2.1413569 3513:1.0954111 3514:1.9428955 3529:1.1002001 3536:1.4341059 3539:1.727982 3541:0.12294614 3548:1.1006556 3554:1.2910894 3555:0.46613178 3560:4.2998056 3564:1.8355703 3566:0.96820146 3568:2.0135009 3569:1.5710148 3582:0.44269282 3588:0.32766169 3589:0.055891991 3597:2.9217811 3598:0.91072929 3608:1.4340197 3612:0.66735041 3615:0.76848912 3616:1.813252 3621:0.46092725 3624:2.8911643 3629:2.4897752 3635:4.0282869 3640:0.035081118 3644:3.1312773 3649:0.83250844 3650:1.5423567 3653:0.51592547 3657:3.0462487 3662:1.2842146 3663:1.8156543 3666:1.542649 3669:0.11860344 3677:0.94130105 3683:1.4613682 3684:0.4653827 3686:0.46876344 3689:0.36536902 3690:0.52005649 3691:2.2192931 3692:0.15376323 3700:2.5211604 3701:0.31482685 3703:1.9144297 3705:0.66151726 3711:2.0313406 3718:0.042648107 3724:1.5707719 3725:0.54492629 3727:0.88912725 3729:1.1578578 3732:1.913828 3735:0.39898992 3744:0.17659768 3752:0.76931202 3753:5.4960437 3756:1.0228369 3765:0.2349132 3766:2.4320154 3767:3.1653018 3768:1.0221807 3769:5.0942678 3771:4.4114704 3776:0.38807917 3783:0.98991966 3793:3.7424579 3797:1.9222057 3798:0.77535176 3800:1.3933028 3806:2.0823746 3807:0.19103366 3817:0.49240914 3819:0.12005231 3822:1.6538256 3824:4.6910434 3836:0.40237457 3844:0.45113742 3852:1.6432977 3856:1.0699834 3860:2.5115025 3863:0.64694238 3872:2.8808341 3876:0.79660726 3877:2.4100466 3886:0.99410069 3888:0.81412506 3891:1.1452557 3893:1.3698819 3895:1.7931681 3896:1.2258196 3906:3.6211231 3908:1.1084707 3912:0.53197247 3915:0.54710436 3927:2.007786 3938:4.4248328 3941:2.0675254 3942:1.1936901 3945:1.9505757 3946:0.42654738 3962:1.1693704 3963:0.48098689 3974:1.4201477 3980:3.569922 3981:0.018204898 3984:4.3130822 3985:1.534508 3988:0.70312738 3995:0.10638778 4000:1.2787634 4004:1.3511302 4008:2.6072698 4010:0.55557758 4014:3.4370651 4021:3.8867357 4029:0.99486417 4032:1.9105819 4033:1.5065689 4036:0.61486453 4038:0.43216413 4039:0.24870497 4041:1.9022998 4042:0.89609319 4044:2.7025104 4045:0.70264137 4055:1.6961267 4063:1.2059668 4074:2.137059 4075:0.64850938 4079:1.1837487 4083:0.18612462 4084:4.0822663 4089:0.81934404 4094:0.39628077 4095:1.7752167 4096:2.9012463 
