svm_type c_svc
kernel_type rbf
gamma 0.000244141
nr_class 2
total_sv 80
rho 0.466833
label 1 0
probA -4.67386
probB -0.443024
nr_sv 26 54
SV
1 2:0.88793367 15:0.15903258 16:0.96248853 18:0.83841133 19:1.2479024 28:0.26818627 35:0.25423074 37:0.10398957 43:2.2184832 45:2.3636594 50:0.013872743 57:0.98335826 60:0.92941821 62:0.15323365 63:2.0302036 68:0.33631313 80:2.1194026 81:0.12359703 84:0.7102685 103:0.84549409 104:2.1332731 108:1.654579 110:1.45715 124:0.14409994 125:0.008947283 127:2.1863377 136:1.9512627 140:0.6805377 144:0.024823964 145:2.4982488 147:2.8501461 150:2.0052407 152:0.51028049 153:1.1239266 155:2.9091039 157:2.2880409 163:2.3799224 166:1.4314767 172:1.3921583 176:0.82569826 178:1.2312136 181:0.21055824 182:1.1116173 184:0.9692741 187:0.56958592 190:2.0612943 191:0.15135248 192:0.3018935 194:0.72960776 195:2.0410972 199:1.1267941 211:2.7408376 214:0.85198712 218:3.4929142 222:2.4408801 225:3.711436 228:0.38348168 237:0.62188041 241:1.6368934 242:1.4267824 246:2.3326905 248:0.55224752 252:0.17698997 257:1.5095704 258:3.3872099 261:0.67506844 262:3.5006814 265:1.3091787 267:0.50360715 269:0.10484239 275:1.2152352 279:0.7809729 282:1.4408665 283:0.9565689 286:0.44726318 287:0.91720861 288:1.5117239 290:0.55801421 295:1.8593583 304:2.0046825 310:0.44347483 312:2.5002017 315:1.2887832 317:1.9675429 340:0.46678445 342:2.9402125 347:3.0781572 348:0.91568106 356:3.3202801 360:0.35312402 363:2.5270066 365:0.91636795 366:1.6595287 371:0.70610392 374:3.1975968 378:1.4510834 381:0.54819274 382:1.6938508 387:0.56723291 391:0.27868572 393:3.3074036 397:4.7081728 398:1.002874 399:1.3743641 405:0.18915924 410:0.66087711 414:0.72939813 415:0.94903582 419:0.16520348 432:2.1864157 460:0.10831597 464:0.014116734 470:0.52565712 473:0.8480804 475:3.1261649 477:1.8585088 481:0.07473129 484:0.8163408 485:0.93513352 489:0.50433016 492:1.8858864 493:1.5033181 498:0.7157135 499:2.8682275 500:3.0916588 502:0.32799301 511:1.5500579 514:3.5625441 520:0.96635228 526:2.7839432 534:0.013381839 536:2.6883063 540:1.8888527 545:1.3637797 552:1.3717506 556:1.1904584 558:1.5988278 567:0.46031797 571:0.65856493 584:1.6038753 588:1.3294148 611:1.797708 615:0.07142514 618:0.57016659 620:0.050566465 624:1.8521371 627:0.37996513 629:0.44321644 639:4.3915758 642:1.77851 644:1.321211 646:2.2886162 647:0.58434725 650:2.0476763 655:0.51734066 661:0.23142689 665:2.5234971 668:0.044400871 671:3.6144416 674:0.75306845 675:0.97881734 681:1.0924315 684:0.15412682 685:0.35388029 686:1.7631509 690:0.87951362 692:0.61038798 697:0.53933364 699:0.99333608 702:0.74734771 705:1.0200052 712:0.5697704 714:0.39618093 717:2.0015526 718:0.34831804 720:0.21178991 722:0.14972168 725:2.2723746 728:0.74670273 730:0.036573395 739:1.057555 748:0.10363397 751:1.0918489 753:0.29543945 758:1.1185174 760:1.0332216 764:0.30443487 770:0.89100218 774:0.55783176 775:0.38706845 783:1.4706012 785:0.18945347 788:0.78217101 791:1.5298889 794:1.8630244 795:3.3073938 798:0.61404741 799:0.25664687 800:0.583143 801:0.51661694 805:0.36003783 809:2.1643536 810:0.066732541 811:0.37679571 818:0.16415527 823:0.59752452 829:0.79865211 830:3.1748841 838:2.795593 839:2.7996624 840:1.719056 846:0.69926232 850:1.764768 851:0.68423569 860:0.39913249 861:1.1490145 862:0.20655134 866:1.084774 869:0.31674647 871:0.66903901 874:0.22381942 882:0.35049111 886:0.48883894 888:2.4953637 908:2.3986096 909:1.5494961 911:0.84513646 913:0.63957644 916:2.0489335 928:1.5590016 930:0.31100905 938:2.877475 943:0.65590656 949:3.6489851 951:0.87872505 953:0.41503531 954:2.268512 966:3.5128496 968:2.3422205 969:0.39520809 970:0.81653863 972:2.7945533 977:0.10703922 978:1.517843 985:2.1702695 998:4.827714 999:2.9079151 1001:0.44006369 1006:1.1042852 1010:0.55460453 1013:0.82957083 1016:2.9955266 1017:2.3387952 1031:0.45675021 1033:2.1635869 1034:0.50059164 1036:1.2250146 1041:1.0004578 1043:1.4032084 1049:3.3682756 1051:0.48450285 1053:0.91248888 1056:0.89805496 1062:0.23005408 1063:0.81471783 1067:0.85274315 1069:2.5160117 1073:0.33153275 1075:2.2439215 1080:0.17420414 1081:0.47568911 1084:0.44188708 1087:0.47041976 1094:2.2351291 1102:1.1976693 1104:0.52448589 1105:2.8270838 1107:0.5802654 1108:0.06756638 1114:0.019862324 1115:0.69872266 1117:2.6483345 1124:0.20351067 1128:2.8549066 1131:1.3235914 1140:1.4766846 1158:0.32876274 1159:3.5910132 1160:1.3040496 1170:3.8658602 1176:0.49936503 1179:4.443644 1184:0.66926914 1186:1.9539416 1190:1.2498928 1193:1.6315171 1203:1.164806 1206:0.47182137 1208:0.49414158 1209:0.30756363 1212:0.4439058 1216:3.0794075 1220:2.2389879 1226:0.63302612 1228:0.0093479156 1231:0.84627277 1232:2.9641967 1237:3.6332674 1240:3.056252 1249:0.65133524 1259:1.5868534 1272:0.12520759 1273:0.5558883 1274:3.4348755 1279:3.6302176 1281:2.3242188 1291:2.829046 1294:1.2971714 1299:3.2382402 1302:0.32246661 1304:0.49479306 1309:0.83042908 1311:0.26035467 1313:0.96314234 1314:0.26202047 1330:0.59839356 1331:0.82801312 1332:2.4248669 1334:1.9382355 1339:0.59717643 1340:0.66773939 1343:1.5100882 1347:0.47640741 1357:0.28097853 1362:1.8735281 1374:0.43385747 1381:0.02079346 1385:0.85523617 1386:3.4393957 1389:0.98455656 1401:0.12479186 1411:0.80709982 1412:4.6124778 1415:1.6024475 1416:2.2782998 1419:2.4079034 1420:0.97737306 1423:1.723334 1426:1.5649997 1428:0.72066426 1432:0.1055437 1433:2.7182009 1435:2.0945621 1444:0.45557135 1445:0.64837456 1446:0.90778714 1452:0.42087823 1456:0.51268393 1457:0.31427637 1462:0.44164711 1466:0.63877273 1468:0.32749304 1469:2.2536199 1470:3.9016542 1471:1.93679 1475:0.038138449 1476:1.5730375 1483:0.73664755 1485:0.27703783 1489:1.8938836 1495:0.39745063 1499:0.10648909 1504:0.14928368 1505:0.25553665 1509:0.52855527 1513:1.6751269 1515:5.5311856 1517:0.69118297 1518:0.21345568 1520:5.387269 1522:0.44924349 1525:1.3143141 1526:0.62186736 1529:0.052248776 1534:0.65854013 1535:0.18293735 1543:1.0547179 1554:1.2589965 1555:1.053141 1557:0.25527257 1558:3.0533161 1562:1.3699021 1563:0.77118397 1570:0.46292606 1576:1.8889337 1580:1.3246055 1595:0.089697897 1597:2.6355193 1600:3.1571386 1602:3.7411046 1606:0.52517176 1608:0.35370076 1615:0.42536771 1618:0.72846699 1623:1.7191067 1624:0.96670383 1633:0.91012543 1634:0.049904585 1656:0.87746751 1658:2.2326674 1663:0.49243864 1665:0.35276476 1667:1.4166973 1668:1.1218101 1669:0.38066727 1675:1.1951196 1677:3.6818438 1680:1.1845838 1686:0.56624299 1688:0.18609288 1690:0.41827419 1695:1.8078316 1701:1.1185617 1703:3.0602357 1704:1.4914786 1710:1.8921366 1712:2.8767338 1713:1.7216636 1718:1.3399308 1721:0.12988564 1722:1.8125937 1723:0.98254651 1725:2.5196872 1727:3.1130641 1728:1.0283375 1740:1.4033147 1749:0.56892419 1750:2.243752 1756:6.3313689 1761:1.8114176 1763:0.3648048 1768:0.92110705 1771:2.2580602 1780:1.4867045 1784:1.1157615 1785:1.8010116 1789:0.12014781 1794:1.1201454 1804:0.39817089 1807:2.2976377 1812:2.6802046 1817:2.8190925 1824:2.0572989 1825:1.7925802 1833:6.0855236 1838:0.52806425 1842:1.2349846 1849:1.3204398 1850:1.0490274 1855:0.025115728 1856:2.6470912 1857:0.082194388 1865:3.218719 1879:2.9755805 1882:0.43837109 1888:0.20589378 1891:2.6018033 1894:2.1915791 1895:3.0054269 1897:0.25013238 1898:0.31631115 1899:0.46849617 1900:0.59972626 1912:3.5993395 1915:2.3904929 1916:2.3041961 1923:0.21418527 1932:2.3414445 1938:0.38362196 1940:4.1165218 1941:0.090133727 1942:0.010897279 1943:1.3528652 1944:1.1277089 1948:0.011351377 1950:0.5270676 1953:1.6115456 1958:0.28555679 1965:0.53513032 1968:0.86379176 1973:2.5697956 1974:1.4287682 1977:1.6936193 1994:0.5606125 2000:1.0567005 2002:1.1924696 2004:0.84100533 2007:0.54215598 2011:0.69891387 2012:5.3168478 2019:0.70163715 2021:1.1047229 2026:0.81655335 2028:1.5947434 2038:0.20015398 2042:1.2385281 2049:1.0010134 2057:1.1947089 2058:0.39501846 2062:1.0137362 2084:2.2309535 2088:0.72203231 2107:0.11774811 2112:1.2638365 2120:1.4245268 2121:2.7863159 2127:1.6739134 2136:0.24029201 2140:0.11973937 2147:0.49239489 2152:0.25857693 2155:1.0191958 2160:0.18130624 2164:1.1691424 2165:1.3107724 2166:0.82502651 2167:2.8435192 2172:2.843926 2177:1.0605838 2179:0.50837767 2186:1.0029293 2187:0.88153666 2196:1.1206052 2199:1.0242881 2201:0.033242483 2204:1.8248188 2206:2.7884471 2210:4.7800407 2216:0.13918032 2219:1.1856961 2224:0.21773463 2225:1.2307611 2226:3.6801243 2228:0.35181093 2229:1.3350151 2233:2.9026656 2239:0.87837017 2240:3.3626604 2246:3.8273921 2253:0.30636576 2257:0.7685014 2259:0.53354192 2262:0.17838465 2267:1.3371282 2276:0.5746063 2286:0.4025194 2294:1.9169464 2304:0.1913556 2305:0.19011313 2307:0.95585507 2308:0.69413674 2310:0.04308033 2311:0.42300949 2314:0.28164831 2316:0.23427081 2317:1.4346423 2321:0.96854496 2322:3.2498093 2328:2.002315 2333:0.65238047 2343:2.5122526 2344:2.5480835 2346:0.2597045 2348:3.7868721 2350:0.69768763 2360:4.1999831 2362:1.7067833 2369:0.45048198 2374:1.3036082 2379:0.32550442 2387:3.2105138 2395:0.02586548 2396:1.1013582 2402:4.2575717 2405:0.52186239 2407:0.24222624 2413:4.3627844 2417:2.4571404 2418:2.3986967 2420:0.38316923 2422:0.60516858 2424:0.032643557 2430:0.52047443 2431:2.0761659 2432:1.5405412 2435:5.6831074 2438:1.718896 2443:1.1140535 2445:0.32555705 2446:2.3242218 2450:0.83101994 2454:0.46346056 2455:0.58046377 2457:0.21150416 2458:6.4233932 2459:0.48974359 2474:1.5489018 2476:0.37885481 2486:0.85539865 2487:1.6243845 2490:1.4519851 2493:0.62160313 2499:0.13602501 2501:0.70065874 2504:1.6964343 2509:3.5929329 2513:1.9033685 2514:4.0254765 2516:2.1900213 2521:0.20469509 2524:0.24637812 2526:3.3048139 2532:3.5697134 2533:2.6287093 2549:0.7636919 2561:1.3140156 2562:0.49814728 2577:0.35670573 2584:0.51391858 2588:0.62431461 2591:0.72868156 2595:0.47889143 2601:1.6225505 2609:0.61967862 2610:2.40081 2616:1.0817399 2632:3.0512967 2636:1.0498433 2639:2.0062683 2644:1.1550337 2651:0.52873373 2652:0.14905477 2653:0.58774757 2656:1.5566443 2660:0.31716689 2668:1.7317238 2669:0.090545073 2674:1.5354196 2675:1.317299 2687:0.53227037 2688:1.4956846 2689:2.3773808 2690:1.1844333 2693:1.5303702 2695:1.8287833 2698:4.7874751 2701:0.33952314 2703:3.1967618 2705:2.3781416 2706:0.77512515 2708:1.892033 2710:1.6339407 2715:1.0223762 2716:1.0298864 2719:1.4747884 2721:0.73699671 2723:0.32728153 2724:1.1328071 2725:1.433728 2727:0.86106098 2732:1.5191398 2736:1.2803144 2739:0.66603708 2740:3.7789342 2742:4.2523818 2750:0.58598411 2753:2.0536931 2756:0.074366629 2759:1.5052233 2765:1.7400439 2775:4.0733209 2784:0.40254033 2785:2.7931275 2786:0.41844815 2793:4.6481452 2800:0.32409164 2805:1.6085529 2807:0.21070236 2809:1.9864727 2811:1.7378104 2816:1.7959666 2821:3.6152289 2822:0.77451175 2828:1.5491539 2833:3.1076322 2834:0.73507965 2836:2.7787795 2837:1.046067 2838:4.5417147 2840:1.9869933 2842:1.1762394 2844:1.1911309 2852:0.52631044 2853:0.23592117 2854:0.50596428 2857:2.1929164 2860:5.4475551 2864:3.0217676 2865:4.272953 2866:1.6908073 2867:1.2058201 2873:1.2331762 2878:3.2937922 2883:1.8333158 2888:1.6185206 2891:3.9178073 2893:0.98317623 2894:3.5683467 2896:0.82052588 2903:1.2128655 2906:0.0069004297 2907:2.6105573 2914:0.67046106 2919:0.20516211 2920:0.12876344 2921:0.17940679 2927:0.078500628 2931:1.001446 2934:0.13064495 2937:3.2826838 2945:2.0733752 2948:1.788288 2950:0.048897386 2952:2.9049811 2953:0.72456205 2954:0.59322631 2957:2.1170719 2958:0.44883084 2962:2.4052536 2969:0.26494318 2975:0.094225347 2982:0.86041212 2985:2.2566693 2992:0.22125143 2997:0.065949559 3005:4.0862713 3006:0.4577466 3012:0.16829863 3013:1.9190903 3018:1.2841625 3027:0.14127126 3030:0.09033443 3033:3.5678749 3041:1.410951 3052:1.8333983 3059:1.8090823 3067:1.5928959 3074:3.7721097 3077:0.21924591 3085:1.1371971 3091:0.29274899 3094:3.563236 3101:0.56430525 3104:0.073646247 3106:1.7251403 3107:2.4652312 3112:0.69329214 3121:1.5361671 3123:0.41383383 3127:3.8309941 3129:3.7739663 3136:0.3243413 3139:0.56730872 3149:1.6262106 3151:1.0959699 3152:3.5193753 3155:1.6959815 3160:1.7295353 3163:3.510304 3167:1.1574247 3170:0.74776947 3179:1.706934 3181:0.23536366 3184:2.0366089 3195:0.024831623 3197:2.2083259 3200:0.32380021 3207:0.68046665 3208:0.48255658 3210:2.2267542 3212:2.0519969 3214:0.29604822 3216:1.2991086 3220:3.5734603 3224:1.0099999 3229:0.12950891 3234:1.6151351 3235:0.39249021 3247:2.3109589 3253:2.4323587 3256:0.64415836 3260:0.038266271 3275:0.83790606 3290:0.88673872 3291:1.0151781 3292:2.9842248 3295:0.12780523 3306:1.5343739 3309:3.4690199 3319:3.3284533 3322:0.18709111 3328:0.73497194 3334:0.89921176 3344:1.0893358 3345:1.2190005 3347:1.6831903 3354:4.7757435 3355:1.1886123 3364:0.24504466 3365:1.0095837 3367:3.6919417 3375:1.5417359 3377:0.49446791 3381:2.1040406 3383:0.60738957 3401:1.6513752 3409:1.1235102 3413:1.8594323 3416:1.4071251 3421:0.26903465 3422:1.7058476 3425:0.52917683 3427:1.6223063 3432:1.0185254 3437:2.9425509 3438:1.0607471 3442:2.3367977 3444:2.8957653 3446:1.3831266 3447:0.98879153 3458:0.18214434 3459:0.80607349 3465:4.41679 3471:0.37184522 3482:2.7617722 3486:0.8600868 3490:0.96576905 3495:4.4594631 3496:1.0272605 3498:0.77583545 3501:0.55856055 3507:2.2877707 3514:0.59755743 3517:0.66590148 3522:1.2631959 3536:2.4702897 3548:0.016570151 3552:1.9236208 3554:1.9552664 3568:4.3433485 3569:1.4325979 3578:3.011009 3580:1.8890679 3582:0.83912486 3585:2.6281469 3586:2.885097 3588:1.1433829 3589:0.25030714 3592:1.8460293 3598:3.2294357 3599:0.407529 3602:1.0071046 3603:1.2288677 3608:0.62304616 3616:2.3322513 3618:2.0470493 3619:1.7148919 3620:1.2177825 3621:0.75806487 3623:4.8073235 3624:0.23822969 3629:0.38221657 3630:2.6517615 3636:2.5620687 3642:2.0045097 3650:0.44413358 3652:0.49772471 3661:0.48077109 3664:1.5635982 3674:3.3138316 3676:0.50026178 3677:1.4190557 3684:0.25303987 3690:1.3108056 3692:1.8126428 3697:1.0876541 3698:1.1217375 3711:1.1671591 3713:0.10969251 3715:1.4652923 3718:1.7866355 3719:3.281255 3724:3.1269925 3727:1.8078352 3731:0.87314516 3732:1.31541 3737:0.32722315 3742:0.92327994 3749:2.040442 3753:2.8673263 3756:0.088729501 3765:1.9490325 3769:2.391192 3771:2.1291022 3773:1.7440054 3777:3.3189633 3779:3.0564868 3789:0.95517516 3795:1.1883738 3796:2.1090956 3802:2.1381543 3803:3.797523 3810:0.22248596 3815:0.80626464 3816:0.13332275 3818:4.1796699 3822:2.4039187 3824:2.4466882 3834:0.47025728 3844:1.6967623 3849:1.0126002 3852:1.1508756 3872:0.96700215 3873:0.33237553 3876:1.2424308 3877:0.19478729 3882:3.2756829 3886:1.1504918 3888:2.3260877 3889:1.3296247 3890:0.60627073 3892:1.3432382 3899:0.64183068 3907:0.9998827 3908:0.30044645 3912:0.20597467 3918:0.60470021 3925:0.070609689 3927:1.6244904 3929:0.91372156 3935:0.16392684 3938:0.61807632 3941:0.57664013 3943:1.8089342 3947:3.1114619 3950:0.072223246 3955:1.7788349 3956:2.1566973 3963:5.0667582 3972:0.074600011 3974:0.86332488 3976:2.1577389 3988:3.7815328 3992:0.97322053 3994:3.2749989 3995:0.74445158 3996:0.28234822 4000:0.12050068 4004:0.071267962 4006:3.4486644 4011:1.1425273 4029:0.111426 4031:1.097851 4032:1.927457 4033:0.020009398 4037:3.0482111 4038:1.4630139 4041:0.78672886 4043:4.4520731 4063:0.29626328 4067:0.90122056 4068:1.8968376 4071:2.8122904 4075:3.3154254 4076:3.1808379 4083:3.3241115 4084:3.6855209 4087:0.7573843 4090:2.741616 4094:0.6275903 4095:0.97369564 4096:2.7061274 
1 2:1.449311 15:0.7305283 16:1.8222923 19:3.9980521 21:0.0059032887 28:0.73796618 32:1.1905966 33:0.90523797 35:1.1859243 40:2.0249622 43:1.1818266 45:2.6036723 54:0.25256664 57:0.2883454 59:0.3614707 60:1.0820543 62:2.9124231 63:1.5775447 64:2.5023732 68:1.6347616 74:0.32320464 84:0.96234965 88:0.71914339 94:1.1131986 95:0.68392241 103:0.098406553 104:2.2814069 108:2.5636816 125:1.3286954 127:2.0283206 128:0.57644713 130:0.20155472 136:1.1367127 138:0.10951582 144:0.091065824 145:1.2958654 147:4.4770198 150:2.4705069 152:0.97499686 153:0.18060318 155:2.6640601 157:1.7199726 163:2.1783786 166:0.90007985 168:1.5030817 171:1.5785294 172:4.3265848 176:1.2329624 178:4.528142 181:0.86769128 187:1.6898009 190:1.8334404 191:2.4459739 192:1.6377069 194:2.004534 195:2.3544736 196:0.3771897 199:3.0078092 214:1.1478715 218:4.0575767 222:2.4158213 223:0.8306154 225:1.1162479 246:1.8008046 248:0.96898907 252:0.14628685 256:0.80891669 257:1.8715439 258:3.6312375 260:0.30713364 261:0.1516555 262:2.8234372 265:2.1850872 266:0.59963065 269:1.6051381 271:0.2103864 275:1.5810683 276:1.3910253 279:0.70358962 282:0.03428331 283:1.677268 286:1.6598375 288:2.3404472 295:3.567184 302:1.1495051 304:2.4473534 305:0.018938333 310:0.64781892 312:1.121542 317:0.67667085 324:1.2574053 342:4.2339187 347:3.5959208 348:0.85101008 356:0.82144451 360:0.73761857 363:0.70224625 366:1.0145564 367:0.64488035 374:3.408179 378:0.69821304 379:1.865447 382:2.0319819 387:1.5136023 388:0.89009196 391:0.51735973 393:3.8344731 397:1.4417551 398:1.1058636 399:1.2715974 405:0.050933335 410:0.62152016 414:0.70283407 415:0.98892081 419:1.7462246 425:1.0112323 430:0.11576986 432:2.1395087 439:0.058546126 451:0.029447645 454:0.77936363 470:0.86854708 473:0.30870765 475:1.9279709 481:2.3136168 488:0.9818961 489:0.75801843 490:0.51603979 492:3.1430719 493:1.4960796 498:1.2423433 499:2.4192264 500:4.006052 504:0.32137907 505:0.15861219 511:3.0962541 514:2.2022715 516:2.461961 517:2.004324 526:3.4812694 536:1.9520247 540:0.50993133 542:0.11075571 543:0.051858224 545:0.82899886 552:0.55975181 554:0.44495296 556:0.79994488 558:1.1078644 561:1.6180604 565:1.0911727 567:1.3330158 574:1.0233245 584:0.93029732 588:0.18036357 596:0.095455632 601:0.25232568 616:0.070415527 618:0.64874089 620:0.33817858 624:0.89144397 629:0.34232029 639:3.2710674 642:0.56926167 647:1.0957683 650:0.89258641 651:1.6889307 655:0.9936012 661:0.62410438 665:1.9366252 668:0.64395559 671:2.0114934 673:0.059601694 674:0.45340943 675:0.17151588 681:2.779593 684:1.4076092 686:0.14977303 692:1.6305974 697:0.89409411 705:2.0123727 706:0.38437849 712:0.93211019 717:0.31647351 718:0.8316412 722:0.26995602 723:0.0075190067 724:2.4575253 725:3.0391581 728:1.0204732 748:0.3739531 750:1.0090141 751:2.0169578 758:2.4643216 760:1.8203174 770:1.3398716 773:0.029151261 774:0.83160806 777:2.0743449 783:1.6432509 788:1.8584015 791:0.39597166 794:1.3147494 795:3.7307754 798:0.33803174 799:2.0835004 800:0.76681274 802:0.68155599 806:2.615129 809:2.3923199 812:0.058307704 813:0.24668339 820:0.3736074 823:0.052386969 824:0.22641419 825:0.068687856 830:3.3074861 838:1.6338395 839:3.1140122 840:0.48419708 842:0.033058167 846:0.020386532 847:0.1709467 850:0.94557965 857:1.1091024 860:1.1414607 861:0.75986743 862:0.19854701 866:2.0305064 871:0.26773167 873:1.198024 874:1.086835 882:0.71740627 886:1.241272 887:1.5087174 888:1.0775446 895:1.3366065 896:1.2467554 902:1.9589093 908:2.7229536 909:1.4638884 916:2.9871266 919:0.70654184 927:0.81835109 928:3.5362606 934:0.98333591 938:4.0301547 943:2.8363771 949:2.5283511 951:0.70544231 952:0.40072706 953:1.2737778 954:3.5281775 958:0.04505989 961:0.069746554 966:2.5163848 968:0.52088612 970:0.095563099 972:2.1141002 974:0.11648589 976:2.1633129 977:0.27247429 978:1.6581297 981:0.4513061 982:1.0689127 983:0.95399874 985:0.62720418 988:2.9228716 998:2.1613278 999:1.6486856 1001:1.701546 1004:1.8136011 1006:1.511676 1010:0.4102467 1015:0.63885844 1016:2.455672 1017:2.926579 1024:3.0847054 1026:0.28842133 1028:2.1172135 1031:0.39572281 1033:1.543746 1034:0.71889812 1036:1.2107841 1042:0.92288792 1043:4.2707329 1049:2.8617086 1053:0.084006011 1060:1.8937852 1062:0.46239257 1063:0.24654984 1064:1.0100826 1067:1.8710426 1069:2.6660342 1070:1.9106879 1073:1.8208898 1076:0.41515309 1078:0.39408842 1081:0.71101743 1084:2.3534184 1096:0.018777996 1097:0.50349081 1102:0.31442377 1104:0.72263479 1105:2.4696984 1110:0.69184601 1113:0.98269695 1115:2.0356677 1116:0.80842119 1117:2.7033567 1128:1.2413828 1131:2.2720981 1150:1.6350776 1154:0.39724654 1157:0.50160682 1158:1.1789964 1159:3.4873054 1160:1.6460751 1163:0.03355822 1166:1.7892172 1170:2.8832433 1180:1.0581472 1182:1.1323496 1184:0.99210596 1185:0.27084237 1186:4.0797753 1193:0.97461534 1194:0.36324334 1206:0.28056508 1212:1.0347211 1216:2.2584345 1217:0.16409862 1220:1.2406203 1226:1.4134358 1228:0.8644166 1231:0.72131199 1232:0.7865594 1236:1.1797684 1237:1.6634458 1240:1.3078734 1249:1.0702829 1251:0.16820958 1255:0.51873547 1257:1.1232749 1260:0.33261472 1272:0.42989492 1274:3.7938397 1279:2.1437435 1281:1.7687296 1288:1.9233499 1291:1.1876993 1293:1.8747237 1294:2.5434849 1299:1.5182667 1301:0.89280826 1309:2.1821003 1311:1.0520195 1313:1.0363637 1320:0.090619206 1327:0.099124402 1328:1.4174756 1329:0.23293599 1331:1.1180571 1332:2.4596345 1334:0.20780495 1335:0.11286247 1339:0.97454369 1340:1.8370568 1341:0.34767431 1342:0.019778758 1343:2.4830575 1351:0.97032642 1356:0.83899575 1357:0.41051877 1362:0.030137852 1375:1.0172782 1381:0.61719835 1383:0.23287117 1385:0.75780755 1386:3.3547387 1389:1.9999108 1396:1.17488 1397:0.47099257 1404:0.22447208 1408:0.25269532 1410:1.4772575 1411:2.2331877 1412:4.1820092 1416:1.1973157 1419:3.2628739 1423:2.6569684 1426:1.5542173 1433:3.3031089 1439:1.5843198 1443:0.34731942 1445:0.70711923 1446:0.39082807 1453:0.2380352 1456:0.38821328 1457:2.2947431 1458:0.51844203 1459:0.024764001 1462:1.2241702 1465:0.50317144 1468:2.9774852 1469:1.2899846 1470:3.0785968 1471:0.69643301 1475:0.63645411 1483:1.020267 1485:2.293854 1489:3.2038279 1495:1.7426002 1497:0.23747063 1499:0.81159306 1504:0.25010884 1507:0.22719643 1513:1.979264 1515:4.8050199 1517:1.4507887 1519:0.52795893 1520:4.1487036 1523:2.3254378 1526:1.0323272 1534:1.5158412 1535:0.82975471 1537:0.23871067 1543:0.75381714 1544:0.23938376 1547:0.12259784 1548:0.49650574 1549:0.34360942 1554:1.2833242 1555:0.4144516 1558:1.9950013 1562:0.37031454 1563:0.46937394 1566:0.20668028 1570:0.012645215 1573:0.54261202 1576:0.73858511 1578:0.049944401 1580:1.3325391 1590:0.56783646 1595:0.15195474 1597:2.6876967 1600:3.3986788 1602:1.4064246 1604:1.4922984 1606:1.2235031 1613:0.11628544 1615:0.91717219 1618:0.24205691 1623:2.3025119 1624:2.4924583 1633:0.21699555 1639:0.063890308 1642:0.73092043 1651:0.29804677 1654:0.58511573 1656:1.1250706 1658:0.34770942 1663:0.026715547 1665:0.053253811 1667:2.2335474 1668:1.8180603 1675:0.74010921 1677:2.3608739 1680:3.0491555 1685:0.28785306 1688:0.3452262 1689:0.45962495 1695:4.2921872 1701:0.087554097 1703:2.0459392 1704:1.8240229 1710:1.5336514 1712:1.1530548 1713:2.9872575 1718:2.5700145 1721:1.6109886 1722:2.1424303 1725:3.1782768 1727:3.6247871 1728:2.1860595 1730:0.018648684 1740:1.5440679 1742:1.5261661 1749:2.0734286 1750:1.1588259 1753:1.6082133 1756:5.026031 1760:1.1195138 1761:1.312562 1767:0.68022597 1771:2.5423038 1780:1.1799405 1785:0.64058012 1786:0.23057425 1789:0.35703325 1790:0.72207707 1791:0.40368009 1798:0.63502026 1807:0.74101007 1811:0.16323464 1812:2.0833707 1817:1.3977067 1824:1.662631 1825:1.963201 1830:0.8682276 1833:5.2643094 1835:0.41771385 1838:1.3499447 1840:0.48243967 1842:1.0030303 1844:0.87690926 1846:2.249332 1849:2.6032259 1850:1.2949862 1855:0.85824877 1856:1.5086013 1865:4.1279659 1868:0.73002946 1873:0.15928262 1879:1.6903126 1882:0.27910814 1891:2.7106218 1894:1.6394511 1895:5.6466322 1898:0.31905898 1900:1.8351516 1901:0.81530458 1904:0.24957745 1912:5.2921567 1915:0.19796723 1916:1.4985993 1918:0.93738931 1923:2.3336871 1932:4.3849254 1938:0.40424684 1940:2.305614 1943:0.14928493 1944:0.79537547 1948:0.13747051 1950:1.1172626 1953:0.87867153 1958:0.031422198 1963:0.47932908 1965:0.53326148 1973:1.4314166 1974:0.39607939 1977:1.2928129 1986:1.1811066 1994:1.7994866 1998:0.040811971 1999:0.85869902 2000:0.56898451 2002:1.9672608 2007:0.58248889 2011:0.57250285 2012:4.5128851 2019:0.17233765 2021:0.6470083 2028:1.5552585 2038:0.20705435 2042:1.2389227 2046:1.0389775 2048:1.2228019 2049:0.76978606 2050:0.45877552 2057:2.1787782 2062:1.4364929 2074:0.47201145 2079:1.5240325 2081:0.44863594 2084:2.610095 2088:2.59128 2089:0.15405393 2107:1.9213841 2112:2.1222315 2119:0.1394774 2120:1.7795056 2121:0.82164174 2127:4.0283976 2130:0.11023489 2136:0.64810497 2144:0.10079414 2147:0.03418237 2152:0.55156338 2158:0.87182438 2163:2.5001755 2164:1.6057537 2165:1.7249364 2166:0.93331349 2167:2.2073197 2172:1.7495555 2177:1.4657429 2179:1.0660272 2186:0.75328857 2187:1.8597081 2198:0.59158993 2199:0.89054418 2204:1.9861724 2206:2.9754016 2210:3.310261 2215:0.70162678 2219:0.062326282 2225:0.52460587 2226:4.3752313 2227:0.23733437 2228:2.4183698 2229:0.90110362 2231:0.78083056 2233:2.4896696 2235:0.051404119 2240:0.35755432 2241:0.50212914 2244:0.85771978 2245:0.45201474 2246:2.9994643 2253:1.8114984 2255:1.4641051 2257:1.6472919 2267:1.125005 2268:0.088894337 2276:1.3588256 2281:2.4321671 2294:4.0738001 2298:0.34074289 2308:1.5476999 2311:0.75088978 2314:1.2454734 2317:1.8064981 2320:0.20149723 2321:0.66556734 2322:1.4956392 2328:0.24734873 2331:0.33708325 2333:1.2141418 2335:0.90087366 2337:1.656636 2341:0.30167553 2343:2.6938264 2344:2.245939 2348:1.2780317 2349:4.0143752 2350:0.35498619 2360:3.2577553 2362:3.272723 2387:4.0155931 2394:0.37864408 2396:0.12244871 2398:1.3290596 2399:3.366724 2402:4.768775 2407:0.93842357 2413:1.9930414 2417:2.1578918 2418:2.1651025 2420:0.23240405 2421:1.405059 2422:0.95432663 2430:0.30072629 2431:0.4022252 2432:0.80742311 2434:0.70106477 2435:6.7304401 2438:0.35610729 2439:0.82540965 2443:0.90291715 2445:0.38671979 2446:2.0631633 2450:0.238675 2458:4.4910469 2459:0.93405086 2462:0.32343194 2468:1.3536053 2476:2.1457942 2486:0.65131593 2487:1.4155657 2490:1.3386877 2491:0.37243897 2493:1.9733012 2501:0.40936959 2504:1.6896322 2506:0.16159111 2509:5.0304842 2513:1.4585474 2514:3.2327914 2515:0.89375722 2516:1.1357663 2526:2.4946108 2528:1.0325452 2529:1.0548631 2532:3.2563541 2533:3.5528831 2549:2.143554 2560:0.36324513 2561:1.1402153 2562:0.96583247 2583:0.36732984 2584:0.4357802 2588:1.721387 2591:0.54789162 2595:0.23031512 2598:0.88145363 2601:0.43678758 2609:0.25729299 2610:2.5698848 2616:0.70948982 2626:1.9819994 2632:3.4893408 2634:1.4462669 2636:3.6063931 2639:1.8889335 2640:0.29450613 2644:1.5448426 2649:2.3167453 2651:0.79615593 2653:0.58119452 2656:0.6116482 2660:0.55725861 2668:0.40372598 2672:0.26107007 2673:0.58212018 2674:1.8552495 2687:0.49902523 2688:2.0731454 2689:4.0207505 2690:1.2466077 2693:1.5648218 2695:1.0790921 2698:2.2913411 2699:0.84240735 2701:1.4710755 2703:2.0342436 2704:4.4183412 2705:2.4294941 2706:0.61707479 2708:4.191257 2710:0.018748224 2715:1.0923858 2719:2.1526515 2721:1.9900026 2723:2.745491 2724:2.5235035 2725:1.8709033 2727:2.0937631 2732:0.88131762 2736:1.3133948 2740:2.4419851 2742:1.3796037 2750:0.7580691 2753:2.2975407 2760:0.36024582 2763:0.82655418 2765:1.2936592 2769:0.85310304 2775:1.5386996 2785:1.6618983 2793:4.3249106 2809:0.8798492 2811:1.1378759 2816:3.6083248 2820:0.067896068 2821:4.1455288 2825:0.72827148 2828:0.08040683 2830:1.5767739 2833:1.7222184 2834:2.6358242 2835:0.49250033 2836:1.8412173 2837:0.41534406 2838:2.6094961 2840:1.6769326 2842:2.331461 2852:1.226842 2854:1.5493056 2856:0.55847126 2857:1.9675424 2858:0.17315277 2860:5.080761 2863:0.2389133 2864:2.7234426 2865:2.9949126 2866:3.5805712 2867:2.240849 2868:0.15808856 2873:1.2783871 2878:3.8175371 2883:0.12758428 2887:0.45821917 2891:2.5313842 2893:0.98988414 2894:1.1611557 2903:1.5181893 2906:1.5068154 2907:1.6105496 2913:0.47612086 2916:0.13662583 2918:0.84144568 2919:1.0410234 2921:0.1607272 2927:0.11020613 2929:0.24963593 2931:2.9726741 2934:0.46453711 2937:3.2717235 2945:2.0085239 2947:0.38963687 2950:2.2227082 2952:0.95490992 2953:0.29896057 2954:0.20273966 2956:0.71111977 2957:1.2463682 2962:0.88112485 2969:0.32756633 2975:0.99670357 2985:1.9945934 2996:1.2371817 3005:5.7411461 3012:3.6032443 3013:4.5071468 3014:0.086221695 3018:0.84680784 3027:1.6157178 3030:0.68337005 3033:2.3879614 3041:1.9611682 3044:0.0056010783 3050:0.70892245 3052:1.332515 3057:0.48129049 3059:3.2944598 3067:0.1646851 3074:1.226647 3077:1.9241226 3079:1.2937279 3081:0.22042561 3085:0.50744474 3091:1.4364281 3094:2.8382649 3101:2.0265286 3104:0.35508525 3105:0.21310297 3106:2.011425 3107:1.4337018 3120:1.0356655 3127:4.5222068 3129:5.288877 3149:2.3373914 3150:0.46746761 3151:0.74067211 3152:4.6377068 3155:2.6324248 3160:0.98700035 3163:3.6474297 3164:0.01807335 3166:1.0888041 3167:0.70233256 3168:1.7628419 3170:1.876639 3179:2.3365445 3184:2.5486472 3193:0.31108731 3196:0.69351017 3197:1.1468595 3200:0.21395324 3207:1.2500598 3210:2.9902554 3212:0.74347883 3214:1.0449933 3220:1.5019193 3225:0.28449219 3226:0.80409944 3228:1.1802875 3231:0.093945265 3232:0.61823511 3234:1.7996633 3235:0.68369138 3239:1.0472108 3242:0.92635274 3247:1.5806706 3253:0.35051352 3256:2.0629067 3275:0.77753186 3290:0.30642575 3291:0.28765649 3292:3.1556773 3295:1.4961746 3297:0.28419143 3309:2.27935 3310:0.46832576 3318:1.2542974 3319:4.1345448 3321:0.80412656 3322:0.11560921 3327:0.24010909 3328:2.0128624 3334:2.1615694 3335:0.29202107 3344:1.4831001 3345:2.0810354 3346:1.1608305 3347:2.2366977 3354:5.202868 3355:2.4335334 3364:2.2214231 3367:1.4384854 3375:1.452795 3376:1.4665995 3377:1.0473925 3381:1.9333233 3388:0.37240314 3396:0.10203579 3401:0.81276143 3413:0.21998003 3415:1.5395112 3416:0.40841645 3422:0.46695119 3427:0.20981154 3432:0.62374854 3435:0.50504291 3437:0.75993466 3438:0.91443437 3442:1.5981746 3444:3.4217701 3446:1.2490364 3447:2.9527214 3456:0.1184817 3458:1.344032 3459:0.39689308 3460:1.2302622 3461:0.46822438 3465:4.8746586 3471:1.3829857 3476:1.0149826 3482:2.1622155 3490:2.4215171 3494:0.21722859 3495:1.8686271 3496:0.57343268 3497:1.7363586 3498:1.6148958 3501:0.24293035 3502:0.26731575 3503:0.78144532 3504:0.22815073 3506:0.37559566 3507:2.61485 3509:0.11812809 3522:1.2701714 3525:0.49431682 3529:0.03212066 3530:1.2137814 3532:1.6275294 3534:0.13258725 3535:1.3304449 3536:3.6556301 3540:0.30938488 3552:0.75926054 3554:1.4454718 3556:1.3668408 3560:0.46235403 3568:4.6435165 3569:0.24624369 3570:0.16250664 3572:0.27307948 3576:0.087762371 3578:1.1813642 3580:0.12537026 3582:1.2237561 3585:1.5581533 3586:2.6657889 3592:0.80442089 3598:3.4530857 3602:1.2731441 3607:0.18243793 3608:1.3110061 3615:0.56283998 3616:3.5505309 3618:2.0045035 3619:2.5035348 3621:1.2411073 3623:4.8605499 3624:1.7535067 3626:0.20292152 3630:3.6316321 3633:0.97167701 3636:1.8096237 3637:0.66796142 3638:0.49055192 3642:0.17542316 3644:0.34318277 3650:1.0606325 3661:0.66987962 3672:0.63744128 3674:3.4512684 3681:1.131671 3684:0.35508227 3690:0.048164546 3692:2.3665535 3698:0.73537081 3701:0.43855363 3710:0.67838401 3711:1.1437957 3713:1.586448 3715:2.3191459 3718:0.36836907 3719:3.0800216 3722:0.3492488 3724:2.5538015 3727:3.0153394 3729:0.43629119 3731:3.531805 3732:3.5971494 3737:2.4454796 3738:0.77047813 3739:0.81467617 3742:1.2432666 3743:0.94532537 3749:1.5955927 3752:0.34807259 3753:2.345881 3756:0.052474022 3769:0.89468199 3771:1.8585012 3773:0.85755754 3777:3.5348539 3779:2.4369085 3780:0.1388543 3783:0.0284729 3789:2.3610759 3795:0.96687913 3796:1.7442235 3797:0.68545419 3802:3.1487432 3803:2.4636626 3813:2.4549406 3815:1.4228957 3816:0.42029887 3818:1.5334386 3822:2.2219329 3824:2.477952 3834:1.0702957 3852:2.0412686 3860:0.20187867 3876:0.36897448 3877:1.9642429 3879:0.12408887 3882:0.83282191 3886:1.0271499 3887:0.2915011 3888:0.50967252 3889:2.7024481 3892:2.8934207 3907:0.22369879 3908:0.43636248 3912:0.38171241 3918:2.1886673 3925:1.802646 3928:0.17560524 3929:0.55528855 3938:0.80257142 3941:0.41781247 3943:1.0838088 3947:1.9551265 3951:0.049202442 3956:2.0133507 3963:3.7586775 3966:1.5462036 3972:2.4903758 3974:0.30140039 3976:1.3708951 3988:4.4810414 3992:1.6735083 3994:0.52942097 3995:2.5872419 4000:0.76878464 4004:0.017119884 4006:0.6053744 4011:3.1198549 4021:0.82799137 4031:2.4234881 4032:3.6814156 4033:0.42933565 4037:2.3250432 4038:1.5859188 4043:3.459981 4045:0.037857085 4062:0.30207694 4063:0.83046502 4064:0.47334188 4068:1.5480675 4071:3.4227335 4072:0.075414121 4073:0.043640882 4075:1.2388115 4076:3.7904344 4083:2.9606376 4084:1.451139 4087:0.99704516 4090:4.1495762 4094:0.18333057 4096:4.2717237 
1 1:0.55696702 4:1.9758195 18:2.0979209 19:0.42969224 21:0.63101083 25:1.6598545 26:6.0616503 27:4.2210889 29:0.28295252 34:2.0843239 38:0.20653978 39:0.42880556 45:3.9552991 49:0.3238385 57:0.083455399 62:0.48620954 68:3.5155501 69:0.78423578 70:0.23420927 80:1.9617705 83:2.1098912 84:3.3418179 87:0.63716239 94:1.0574716 103:2.0256095 105:0.13716806 108:3.4824586 110:0.3976227 111:1.7538916 112:1.396073 115:3.1921401 123:2.2202561 125:0.94347072 126:1.6636045 129:0.54493743 130:2.9759789 136:1.2874506 144:1.0408102 152:0.32624772 163:1.9926603 166:1.9231247 172:3.651572 173:0.069011286 178:1.3079634 180:0.91921902 181:2.4054966 190:2.1796508 199:3.046452 200:7.0632071 205:1.4797363 210:2.6477151 217:1.6314058 221:0.68757564 223:2.9873767 232:3.9260821 233:1.2316287 240:4.5410337 241:5.1541786 247:0.057186529 251:0.2768833 252:3.1581364 254:0.92802757 258:0.61401665 259:0.97417021 260:0.40122962 274:0.095688142 276:0.86788726 283:1.0637136 287:0.16296449 288:0.98483062 290:1.3319236 298:0.47445345 301:0.7789883 302:0.48506328 307:0.21275616 311:1.4219307 313:0.68709105 317:0.30833769 321:0.14194268 324:3.5104368 328:0.95523691 340:0.58421886 342:4.3645811 347:2.3514857 348:3.7647097 351:0.46585074 353:3.745611 361:1.6791619 365:2.5140195 366:0.34614503 367:3.7760427 372:0.47468835 373:0.81127793 375:0.89656997 378:0.3669011 379:3.2777989 382:3.4281075 388:1.8972833 391:1.6705132 393:3.0637608 394:0.11396208 397:0.76686192 402:0.24550931 404:1.0062244 408:0.19569609 432:2.5837092 450:0.036961935 459:2.6192274 460:1.3582512 461:1.6713247 463:2.1634567 464:2.8536661 472:2.476686 482:7.8028378 484:2.8900602 493:1.5828865 494:0.57734406 496:0.54629523 498:0.075677872 499:5.7380548 502:8.5663147 514:0.65604734 519:0.010046795 523:3.2133934 526:3.0217836 552:4.4998279 554:0.11702896 562:4.4000864 565:0.92370987 570:1.0057821 575:1.0946282 576:0.20191781 581:0.99520242 586:2.303865 592:1.0059375 600:0.6375097 601:2.3002422 603:1.7909387 612:2.7957506 616:2.0248055 621:1.4719884 628:0.43960702 629:1.3504705 640:1.4286439 641:4.4372969 642:0.13635737 644:1.8562461 646:3.8377748 652:1.6353199 654:1.7106423 657:0.3124674 661:0.1189891 662:0.43263629 664:2.9494476 667:2.0781476 670:0.6827817 672:1.903476 682:0.98026079 684:3.6917129 686:0.96886992 688:0.84444642 698:2.6629567 702:1.4014816 705:0.46652156 706:6.1899586 712:0.13091074 723:5.2538166 727:3.2356691 732:0.85373062 737:2.1758766 739:1.8283536 749:0.085561454 750:2.9414034 751:1.5346541 755:1.4198451 760:1.541539 773:1.4572117 774:0.70087892 776:1.3984137 789:2.1977425 791:1.0780714 798:0.74509549 799:2.6106815 801:0.71956521 811:0.8515895 813:0.14637837 814:4.3905029 819:0.35915971 820:0.67766988 826:1.6533902 829:0.34512764 830:0.58403409 838:1.3701835 839:3.2819834 840:2.4350283 841:1.0953622 842:1.5916939 854:0.13111463 857:0.49447706 862:0.15151614 865:2.0226364 866:1.1885469 868:4.2832947 879:0.626876 881:1.5440962 882:2.6479759 883:1.2441142 884:3.2970269 889:2.9032798 891:2.7232659 904:2.6987872 905:5.4786749 908:1.4821543 912:3.9246526 916:1.5489597 918:0.030121893 924:2.8453596 928:4.1194515 937:0.27243567 945:3.120013 953:1.2428079 954:4.497231 965:3.1717227 968:1.0342711 974:1.8333979 979:4.3406262 982:0.4383027 985:0.42532226 993:3.0596113 996:0.95448172 1001:1.3473346 1004:3.6807623 1015:0.64949787 1017:0.12462783 1018:4.9036222 1022:2.9500074 1028:0.97334379 1031:0.47681946 1042:0.68567944 1045:1.9475677 1049:0.9414084 1053:4.1171432 1056:1.3127488 1059:1.6584674 1062:1.7447127 1063:1.4194845 1064:2.2207575 1074:0.29251444 1077:3.932246 1087:0.077632695 1094:1.7753159 1095:0.68276954 1096:1.2179791 1097:0.12979594 1102:3.2453499 1105:1.7913589 1108:3.6685798 1111:0.73291343 1121:0.49806511 1140:0.79555494 1153:2.3485146 1159:0.10560355 1161:0.8164807 1163:0.48652187 1170:1.6883692 1173:0.11267143 1176:0.63906991 1177:2.6025813 1181:2.7041256 1182:2.8323572 1186:0.79130828 1206:1.6118854 1215:2.3254564 1216:0.51085353 1217:1.4900763 1220:0.029226378 1221:0.47118062 1227:0.075139046 1228:4.2740645 1231:0.37331799 1234:2.7768271 1235:0.81143987 1242:1.3389342 1246:0.12328798 1251:0.78172141 1253:2.5132399 1255:1.0473785 1260:1.0503216 1269:0.78633219 1274:0.47206992 1279:3.5610325 1286:2.2377486 1288:2.2378297 1291:1.9432244 1292:2.1264281 1293:3.7269449 1295:3.6981416 1296:0.3302753 1299:2.0352476 1302:4.0513449 1306:0.5794574 1307:3.0662568 1309:2.0799093 1313:0.046532512 1314:2.2564778 1317:0.95327437 1319:0.93888038 1323:0.34212017 1332:0.42580265 1336:0.060055166 1340:1.8773636 1342:1.7678173 1343:0.44433433 1347:3.4090905 1349:0.57691526 1356:2.6301966 1357:3.7934954 1358:1.6071022 1359:0.56895941 1366:0.70441258 1369:2.6516562 1372:2.4329393 1376:0.25629389 1377:0.14595801 1391:1.2042919 1396:5.5497007 1397:1.8589923 1401:0.32092011 1404:1.6803744 1406:4.4373894 1410:0.6134541 1412:1.1256701 1419:2.5933886 1426:1.078831 1428:3.4384844 1432:1.0913817 1435:2.8124576 1441:2.5893087 1443:4.6964149 1456:0.60864395 1458:1.9920981 1476:3.5712037 1479:1.2438773 1484:2.3522525 1486:1.8221215 1487:2.1669307 1488:4.3014121 1490:2.894613 1492:0.31063744 1493:0.8460961 1503:1.8569708 1504:0.017418057 1508:0.33726114 1509:1.2794402 1513:2.762578 1518:3.178211 1519:1.7579241 1522:0.530577 1539:1.1785519 1544:1.3684709 1551:1.3359357 1552:1.1217788 1556:2.2507467 1567:1.9803855 1573:0.15479931 1574:1.5472292 1581:0.95265198 1582:3.4951177 1584:0.085423604 1586:0.99192065 1587:1.891587 1590:3.7079248 1600:1.2605443 1604:2.4410133 1606:2.811058 1608:0.35786009 1613:0.98540658 1617:1.1705089 1618:2.2322853 1628:1.453733 1629:0.41868901 1630:2.1398771 1636:6.7567453 1640:0.30817363 1647:0.26595613 1657:2.7496302 1659:2.6035254 1662:0.29900074 1667:2.3321183 1668:0.60192662 1675:0.41181892 1676:0.1972374 1677:4.5069637 1678:3.3434949 1690:2.0896664 1703:1.7557499 1705:1.5318896 1710:0.85796964 1712:1.6421522 1726:3.5209401 1727:0.0025121868 1736:2.2539754 1737:2.5787883 1758:2.6707621 1759:0.42460743 1762:2.2436008 1774:1.3857533 1777:0.33280578 1778:1.0938381 1779:1.1527326 1781:2.9275405 1785:2.0043721 1786:0.24593097 1792:0.17956927 1794:0.57629859 1795:3.3526225 1812:2.0882478 1818:1.8893087 1822:2.6296856 1824:0.10971782 1825:1.0701704 1826:3.3285472 1831:0.98329985 1833:1.6063913 1842:5.21452 1847:0.33890104 1851:3.577029 1852:0.7615338 1855:1.0905863 1856:1.7582858 1862:1.1409899 1872:1.8139709 1874:0.23011959 1877:1.005095 1878:0.59949529 1882:5.8130407 1884:3.1521664 1890:1.2458076 1893:3.0702105 1897:3.3623676 1898:1.7705232 1904:5.425077 1909:2.2722354 1928:3.5053456 1930:0.25903165 1935:1.0946015 1943:5.8051734 1950:3.3832052 1952:1.0228494 1953:1.911751 1955:2.1756799 1959:0.1218026 1968:3.0506182 1975:1.2312359 1977:1.6104321 1978:0.12481512 1991:1.7820144 1996:0.28057611 1998:0.68998873 1999:0.52205777 2000:4.8737097 2005:1.3120216 2009:0.61979669 2011:1.1424884 2012:2.3268924 2021:3.3554111 2028:1.683089 2029:0.7799502 2030:0.22688955 2031:1.1013166 2042:0.37928772 2047:0.85553211 2048:3.5340226 2057:3.6618042 2066:0.88602173 2068:0.53161961 2070:1.5602556 2079:0.39513627 2080:2.4405971 2083:2.9923043 2084:0.97588331 2085:0.94302374 2088:0.39381245 2096:0.91051996 2100:2.6104231 2104:0.072017521 2105:4.5622392 2107:1.0329022 2112:0.21965843 2118:1.8572258 2123:0.46310669 2125:2.4750223 2131:1.2903843 2132:0.66422725 2138:2.3392916 2144:1.7747047 2152:0.45749295 2153:5.3387542 2156:1.0630107 2160:1.3987794 2165:4.357286 2166:1.9035187 2167:4.7601905 2172:0.50164711 2180:0.5837903 2186:1.145628 2187:0.68038613 2188:2.2653308 2193:0.10004723 2196:3.9883509 2201:1.8894142 2202:0.014424503 2203:1.4429792 2210:2.6760602 2212:0.21851514 2214:1.2236731 2220:0.2766017 2221:0.70971179 2226:0.25206652 2228:1.0922761 2229:0.29285744 2232:0.72248352 2233:1.7484071 2235:0.31787583 2237:0.13566625 2239:3.6946697 2240:2.7705436 2245:1.4182138 2246:0.36069348 2247:2.429601 2249:2.362695 2255:0.11228391 2262:0.21003787 2270:0.40925166 2272:2.0121245 2275:2.5206842 2276:1.2423097 2277:0.75270981 2298:2.4781373 2302:3.2849441 2303:2.5101118 2311:0.36587676 2314:0.57151383 2321:0.76062226 2322:2.5063164 2327:1.7882357 2333:2.0696449 2334:0.55891001 2336:0.26358169 2337:1.8123267 2341:0.90480673 2344:1.523869 2346:1.8718389 2348:4.3425665 2349:2.3308678 2354:1.6194427 2357:2.13182 2361:0.57856882 2364:0.4453395 2378:0.83756429 2400:1.8297588 2431:4.7220302 2432:0.1908039 2435:2.6082964 2438:0.84250546 2441:3.5874445 2444:0.26607174 2450:1.3823503 2452:0.66534352 2453:3.0579948 2457:1.3005073 2459:0.42404374 2466:0.70434755 2471:0.24935502 2474:0.85614401 2476:1.217566 2477:2.3012099 2485:0.40640882 2487:1.2197731 2491:2.3387756 2504:2.0837724 2508:1.9940937 2509:2.8608611 2512:0.7670275 2514:2.0095007 2516:1.5446962 2520:0.36976272 2528:3.3158314 2536:0.23046419 2541:0.14781159 2547:0.67034209 2561:8.055233 2571:1.356539 2574:0.95985067 2578:3.8862822 2583:3.5818884 2591:0.85289693 2594:4.0336566 2595:0.14516631 2596:1.5115652 2599:1.437939 2612:0.080957741 2619:1.4863213 2634:0.5031544 2635:0.98469794 2636:0.65990758 2637:0.027117968 2639:3.1816072 2640:1.384289 2649:0.015708029 2651:0.90723574 2656:3.026264 2658:1.7774589 2660:1.0635102 2688:4.1064014 2689:0.23353735 2695:1.7437278 2698:0.93284571 2708:3.3723385 2713:1.6765349 2714:4.7856951 2715:1.1572064 2718:5.5143557 2720:3.0207748 2721:3.1722398 2723:4.8516212 2725:0.39876172 2732:4.0404816 2736:0.11927158 2740:3.3314281 2745:3.6597955 2752:1.0095729 2766:4.0490961 2771:2.275892 2774:1.1280442 2778:3.0630636 2785:0.49587804 2789:0.45195827 2792:1.7253522 2793:3.8037469 2800:1.1015881 2805:1.2648104 2811:0.70679736 2822:0.86323136 2825:3.5506921 2826:1.9993012 2828:1.2000804 2831:0.19305688 2834:1.0375305 2837:0.19467358 2842:1.3716586 2844:1.1434969 2870:2.9766452 2873:2.9953868 2882:4.8985605 2883:2.5151513 2887:0.1169233 2888:2.1027813 2891:4.1224489 2894:1.0945506 2895:3.6015503 2903:1.9125841 2909:0.4452382 2917:0.80799502 2929:0.95901841 2932:1.4360623 2937:1.2640319 2940:1.2102143 2950:0.90289533 2959:0.08615163 2962:0.74877107 2965:1.050651 2972:1.0642916 2977:0.24089468 2981:3.2426767 2982:0.016860515 2986:1.3473082 2987:0.031328361 3009:2.8032813 3010:2.9648485 3012:2.7348773 3015:1.711099 3019:1.1517593 3033:0.68696564 3038:0.44673598 3050:0.69024712 3052:1.5413034 3057:1.033327 3060:3.5345438 3071:1.2000417 3075:0.55724204 3077:0.96718776 3081:3.9942946 3089:1.1057751 3099:2.0437107 3105:1.1099728 3111:0.65001404 3117:0.74063921 3122:0.43621117 3129:6.3256798 3139:0.57764673 3144:2.6156673 3145:0.83505505 3147:0.13635606 3148:0.20175664 3152:5.9119658 3154:2.1973915 3155:1.9409474 3160:0.35142693 3161:0.33529156 3163:1.3723564 3164:3.7646234 3170:0.15927315 3172:2.0551379 3179:1.7064655 3182:0.92620987 3184:3.6525323 3198:0.70780236 3200:1.6335912 3206:1.6126521 3208:0.72582299 3210:1.3835087 3211:3.3879154 3214:2.2502062 3231:0.98052883 3232:2.7371154 3242:1.0769591 3245:0.67009807 3247:5.1991072 3249:2.3344815 3256:0.35847527 3258:4.3501916 3260:1.7114402 3274:0.53751791 3275:1.9441458 3276:1.1258037 3286:2.5628555 3290:1.7261493 3291:3.6615412 3293:4.9010119 3295:0.79107916 3298:4.2242804 3299:1.8087678 3310:1.8256583 3324:0.44350135 3325:0.38066497 3334:1.9229194 3341:2.4481187 3344:1.8614206 3349:0.99322617 3359:1.4299783 3363:4.0515852 3365:2.380604 3367:3.7668388 3377:2.5006049 3383:1.193884 3392:0.41303784 3402:0.26181895 3410:0.59582877 3413:3.8004789 3418:2.572968 3420:0.4971053 3422:0.70352077 3428:0.9236533 3436:3.867059 3444:0.53877521 3446:2.4160571 3449:1.3409696 3450:2.5624988 3456:3.9506116 3474:0.58356589 3478:0.51931745 3479:2.8039525 3482:1.1143949 3489:1.4395705 3490:1.0132998 3491:1.1842161 3493:0.30603302 3494:2.2065606 3500:2.0094557 3504:0.133701 3508:5.707212 3513:0.12691382 3514:0.95360768 3521:0.87038672 3526:1.8269278 3536:1.7775573 3539:1.9045802 3540:1.3972126 3548:1.4420609 3549:1.3177869 3554:2.2968097 3555:1.294618 3560:0.29691902 3564:0.42032644 3577:0.0057801306 3582:4.4520936 3586:1.0409259 3597:0.042885244 3598:0.80725253 3602:0.35162345 3608:0.67739379 3614:1.2804234 3616:0.98368633 3627:1.8070986 3629:2.7259829 3632:1.9162328 3644:3.5439596 3653:3.4455345 3657:4.5292821 3666:0.054851592 3669:0.31843588 3677:1.9461906 3681:0.0080881193 3683:3.0682788 3686:2.3953373 3689:0.29794914 3690:0.34791166 3691:0.31597853 3703:2.8285189 3710:2.1279666 3711:0.015394658 3715:1.4267967 3719:1.6214247 3722:2.0789757 3724:0.28205818 3727:1.9406837 3728:0.32831097 3729:0.80839467 3744:0.94200921 3751:0.5323624 3752:1.7392639 3753:6.395916 3766:6.2737207 3767:5.6331902 3768:2.393353 3769:3.5286884 3771:3.9495738 3783:3.064841 3793:5.3300653 3797:2.4458079 3806:0.41718346 3807:2.2183917 3813:0.23363894 3817:0.20599818 3818:3.4815145 3819:0.12004006 3822:3.4428492 3824:2.3129687 3831:0.11171781 3834:3.7084379 3835:2.8750663 3836:1.5880406 3838:0.50149155 3845:0.1871576 3856:0.15810636 3857:2.065274 3860:5.998023 3862:2.6786137 3863:4.5596943 3872:1.0262086 3877:0.96093154 3881:1.1329606 3885:0.96537971 3886:1.5431428 3891:6.0706449 3893:0.77795947 3896:0.5708136 3901:1.4850731 3903:0.70606995 3906:3.9914184 3919:1.4046717 3927:2.4242833 3938:3.1431398 3941:0.31346601 3942:1.0073586 3945:0.50292808 3969:2.311223 3970:1.3093455 3974:0.55193853 3980:3.4807739 3981:0.91236579 3984:0.91311795 3988:2.4454381 3992:1.4145321 3995:2.1981463 4004:2.5757632 4008:1.6290996 4011:0.24202162 4013:0.086319722 4021:4.4724355 4029:1.4128727 4031:0.073002696 4032:0.52484167 4033:1.69806 4036:1.5536439 4038:2.4340672 4039:0.60824037 4042:0.01109204 4055:0.82533491 4058:1.2138805 4067:1.6062257 4071:3.2491388 4075:0.93856925 4084:5.131176 4089:1.2865925 4090:0.36474651 
0.2143121350672131 4:0.96700168 13:0.39626718 18:3.0651436 19:0.53619838 20:1.2196862 21:1.3490428 25:1.9706727 26:3.1726792 27:6.2921324 31:0.91843569 43:0.26081711 45:4.2624278 49:0.80725729 54:0.63296187 57:0.098181218 61:0.87313467 68:0.3845863 69:0.78395289 82:1.3981019 83:3.8551748 84:2.0907671 94:3.360893 103:2.0568383 105:0.66851449 108:3.4793468 110:0.010768056 111:0.36630327 112:1.3021929 115:3.0994778 123:1.3232045 125:1.9786122 126:2.3991799 129:1.3545966 130:2.1247718 136:1.4333302 141:1.3093888 143:1.2616508 144:1.3813678 146:0.37509918 163:2.0498109 166:1.6097833 167:0.20787168 172:3.0930541 180:2.5075095 181:3.2894554 191:1.2877152 196:0.44622231 199:2.486608 200:6.9817595 210:4.3199353 217:3.8970857 218:1.0219883 223:3.7017217 224:0.98136818 225:0.24253356 232:4.7460008 233:1.1725397 238:0.25809708 240:3.9756031 241:7.0759993 247:0.76096845 252:2.3337417 254:0.21738237 256:0.22861171 258:0.71724105 260:0.11983874 265:0.42899355 267:0.25433728 274:0.60002023 290:0.95846498 298:2.0343339 301:3.3141317 307:1.3395617 308:0.44886252 311:2.092098 324:4.195869 340:1.5690849 342:3.6486199 347:2.7022049 348:3.9964268 353:0.94239461 361:0.4069207 365:0.37934667 367:2.2303312 378:0.41086477 379:1.3780208 382:1.3335906 386:0.98163134 388:2.3712945 391:2.5064461 393:5.0321355 397:1.2961876 400:1.290992 408:2.0328021 412:0.076913476 420:1.1367173 432:2.0033896 434:1.2175972 440:0.4877786 448:0.65105563 459:1.3189602 461:3.9207332 463:3.4621749 464:1.2494997 466:0.054850429 472:1.3922812 473:1.885648 482:4.2518978 484:0.73108566 485:1.6155109 493:0.34011769 494:1.1263102 495:0.25894329 496:2.9647782 499:3.1460953 502:7.2043314 512:0.5948984 514:3.1477196 523:2.2655983 526:3.7797458 549:0.86734283 552:0.56535637 554:0.87409472 562:4.7573471 569:0.15358654 570:1.7976453 575:0.035983354 576:3.8092537 581:0.67011404 586:1.6636034 588:1.2253196 592:0.21066484 600:0.047371954 601:1.1736184 603:1.8040258 612:3.5674701 616:2.9846718 629:0.74183017 639:0.24773815 640:1.3838645 641:5.3145514 642:0.14629596 644:1.7855766 646:4.1210828 651:0.67300439 652:0.53705031 662:1.7157782 664:2.6036613 667:2.6817369 669:2.2147779 672:1.9683473 675:0.00079733133 681:1.3693862 682:3.5496819 684:2.9178617 688:0.43562075 690:1.4524032 698:3.3816607 702:2.6022122 705:0.11968899 706:6.8974142 711:0.30479303 723:4.8950977 737:2.0783958 739:2.9119093 748:1.6678048 750:3.3308444 751:2.378433 755:2.2360609 759:0.99250531 760:1.4137014 773:0.1078122 774:1.1370658 776:1.9096222 789:2.8563306 798:0.5765487 799:4.3034172 802:0.010251671 811:1.324062 814:4.597167 819:0.97293848 820:0.57922494 825:3.2122307 826:0.96517837 830:0.36698741 839:3.5787544 840:2.9696176 842:1.1806116 855:0.73139888 857:0.18258876 865:3.292973 867:0.62230343 868:8.0793705 874:0.15496895 878:0.65741414 881:3.0876582 882:3.0102444 883:2.5408509 884:1.5234878 885:0.73245233 888:0.22982469 889:2.5574417 891:1.264524 904:4.8332834 905:4.3569717 908:0.31199571 912:7.1541219 918:0.043737859 924:2.0325923 928:1.250293 942:0.27830735 945:3.9151282 953:0.47207156 954:3.5965683 960:2.9835906 965:3.7837245 968:1.3341477 970:0.69778317 979:3.9880762 985:2.746381 993:3.4455123 996:0.36941493 1001:4.0542874 1004:2.3672831 1010:0.11464614 1014:1.4142268 1018:4.9125113 1019:0.52407777 1022:0.34619081 1031:1.4092979 1042:0.62252098 1045:0.76610005 1053:6.5456109 1056:2.2821968 1062:2.9378312 1063:2.4592662 1064:0.28371966 1067:0.40368292 1077:2.1963263 1078:1.6128067 1094:1.8451875 1095:2.3300934 1096:0.6513437 1102:3.7764583 1105:2.3544028 1108:4.0729218 1111:1.0196828 1125:1.697484 1137:1.3758626 1140:0.19737542 1144:0.79922664 1153:2.5842218 1156:0.74014878 1161:1.2379555 1163:0.089264363 1171:1.1316248 1176:1.6735235 1177:3.124552 1181:1.7755017 1182:1.6074196 1186:1.0486995 1192:0.11948475 1215:1.5238967 1216:1.5639894 1217:3.9662061 1224:0.13487089 1227:0.91519082 1228:3.567853 1234:3.404144 1240:1.4209765 1242:3.2040508 1246:0.54446089 1251:0.32362378 1252:0.54366261 1254:0.89065635 1255:1.690762 1258:0.56675088 1260:0.70431006 1275:0.3189266 1277:0.6244427 1278:1.0185498 1279:3.9124591 1286:1.6459346 1291:1.4423809 1292:2.8361573 1293:1.7147317 1295:3.4226904 1302:3.7128756 1306:0.09261176 1307:2.5356581 1314:1.294781 1315:0.57722628 1317:1.4360442 1319:1.7102557 1332:0.0019655228 1340:1.7939396 1342:1.5142024 1347:2.0153501 1356:0.1395233 1357:3.1361296 1358:3.8932567 1366:1.0197737 1369:0.14162022 1372:2.7541883 1391:1.0400519 1396:4.4418488 1397:2.1998324 1401:1.2330242 1402:1.4021139 1404:0.78668237 1406:4.6090865 1410:0.92906618 1412:2.5684178 1426:1.2884769 1431:0.92585218 1432:0.63758957 1435:3.4148254 1438:1.4442731 1441:2.699317 1442:0.37947083 1443:5.2813935 1456:0.62047476 1458:0.7478556 1463:0.81602693 1465:0.51963174 1474:0.1517517 1476:2.0592933 1484:2.1371217 1486:1.4655503 1487:1.7032732 1488:4.2534924 1491:0.69042194 1492:0.57364047 1493:1.3311744 1495:0.01611799 1503:0.79814082 1504:0.30549097 1513:2.0600729 1514:0.30253696 1515:0.86983544 1518:2.5016072 1519:1.4361274 1522:0.30969742 1539:1.488816 1544:0.059211433 1548:0.071525544 1552:0.53008783 1555:0.055828437 1556:2.7572327 1562:0.12213588 1567:0.73573101 1571:0.47278661 1574:2.2138965 1581:0.68906045 1582:3.5904891 1586:1.3612792 1587:2.6193867 1590:2.0657673 1600:1.5430301 1604:1.0650113 1606:4.4842162 1613:2.8303483 1617:1.1463078 1618:1.2680757 1624:0.92109931 1625:3.3991024 1628:0.64064503 1629:0.057099588 1630:3.314575 1636:4.3840103 1637:1.1182189 1640:1.8830826 1648:0.2510477 1657:2.1782837 1659:2.3173175 1663:0.28038338 1667:0.44208419 1675:1.6320192 1676:1.1192448 1678:5.0480933 1680:0.51422262 1681:2.5079064 1690:3.5902429 1703:3.7998664 1705:0.89343584 1706:2.0078409 1707:1.4248959 1712:0.21947634 1720:0.083854288 1721:0.044402242 1725:0.68818122 1726:4.083849 1736:2.1241562 1737:1.5221412 1740:0.26466644 1742:0.43951398 1744:2.4820056 1746:0.68047714 1754:1.2415355 1756:0.17909014 1758:0.61410743 1759:3.2082696 1762:2.0378678 1766:1.6885557 1767:0.41160077 1772:0.009523958 1774:0.51767057 1775:0.80422962 1778:3.2874417 1779:2.9337842 1780:0.12854129 1781:1.1740618 1785:0.1271213 1793:0.71574759 1795:2.456233 1812:2.5090876 1818:1.7870165 1822:2.9483628 1825:3.4958169 1826:0.63903779 1833:3.8131342 1837:0.50493884 1842:3.1838617 1848:1.3414648 1851:2.7613997 1855:1.2313005 1856:1.3216319 1857:0.93595314 1858:0.59467191 1862:0.90775728 1865:0.65629077 1871:0.4188402 1872:2.6646528 1874:0.43417084 1877:0.50905776 1882:5.1675596 1884:2.27052 1890:0.54544169 1893:1.4084539 1894:0.95164073 1897:1.6417625 1898:2.99033 1904:1.5435448 1909:1.4106278 1926:0.20738122 1928:5.5940914 1935:2.7512753 1938:0.26001191 1943:6.1833982 1952:1.2699738 1953:1.5759172 1955:1.8660738 1968:4.2317109 1969:0.61099851 1972:0.2245793 1975:4.1771679 1977:1.856549 1990:0.52263141 2000:2.820817 2009:3.2163808 2012:0.60903311 2021:0.13248263 2024:0.87178701 2028:2.3555126 2029:1.6078191 2030:0.34049875 2031:2.0029933 2042:0.69292504 2043:0.91863668 2047:1.6620789 2048:4.4629755 2050:0.97614163 2056:0.68447518 2057:2.3285511 2063:0.41960797 2066:2.1547053 2069:0.9590795 2075:2.7953534 2080:1.352888 2083:2.042912 2088:2.1882694 2096:0.70974034 2100:1.7091591 2105:1.7152599 2116:0.029364526 2118:0.61399215 2119:0.66909868 2120:2.077286 2123:0.19183326 2125:0.020853221 2131:1.8601854 2138:0.69570374 2140:0.32153788 2144:0.027830124 2152:0.089609921 2153:2.0221636 2154:1.8895454 2156:0.47706747 2160:0.72877026 2163:0.21792552 2167:1.2662559 2172:1.747548 2177:0.020819128 2188:4.7875619 2196:2.8890858 2199:1.6638615 2201:0.50903457 2202:1.4463255 2203:3.3224785 2204:0.95526987 2205:0.41446081 2210:3.1961236 2214:0.14031926 2224:0.48305264 2226:0.88054526 2232:4.5380101 2233:1.5045917 2237:0.31123644 2239:3.4886777 2240:3.5860488 2244:0.4773753 2245:1.6752691 2246:0.64027417 2247:3.0042441 2255:1.7554287 2267:2.5512693 2275:3.3102171 2297:0.69140565 2298:5.7773747 2302:3.4925082 2303:2.989713 2311:3.9194753 2314:1.1259954 2319:0.40871936 2322:3.0415344 2327:0.0056663156 2333:1.8795735 2337:1.302359 2341:0.77482533 2344:1.0392342 2348:3.3515215 2349:2.3516381 2354:3.0692897 2357:1.796244 2359:1.0306325 2372:0.29547063 2375:0.39232236 2378:2.0805554 2400:2.8939078 2401:0.19847234 2415:0.70038003 2417:0.094521046 2426:1.2395612 2431:7.329989 2435:1.7147865 2438:1.2632324 2441:1.8139071 2452:1.7659874 2453:0.38600594 2457:2.8498645 2474:0.88270205 2477:2.4099593 2487:1.1635027 2491:1.5585088 2504:2.9652765 2509:1.1483016 2512:0.19688132 2513:0.37665838 2514:1.6398458 2516:3.8703513 2522:2.1006305 2526:4.1709294 2528:0.81273329 2529:2.0449517 2530:0.86202163 2533:0.85859448 2536:0.19379845 2539:0.54809195 2541:0.43043262 2547:1.9376057 2561:5.9320893 2574:0.92283988 2578:2.9457524 2581:1.0971447 2591:0.51262242 2594:1.6570904 2595:0.43798837 2596:1.1347275 2599:0.24608761 2601:1.7506509 2604:0.33015552 2606:0.16822632 2612:0.483753 2619:0.32068649 2622:0.94190103 2632:0.025378078 2634:0.10869548 2635:0.14877054 2636:2.7124579 2637:1.2364038 2639:4.4984283 2640:0.92615151 2645:0.017870009 2651:1.1831884 2652:2.6612597 2656:1.9310133 2663:1.2462841 2687:0.72264969 2688:2.5411711 2695:0.36819682 2698:3.213836 2701:0.46445754 2705:0.089318812 2708:5.1414437 2710:1.0300524 2713:2.6097455 2714:5.7146072 2715:0.96499497 2718:4.3199701 2720:3.1505346 2723:4.93855 2724:1.9084224 2727:0.63325405 2732:3.5777717 2740:4.0943608 2741:0.96212298 2745:3.4326775 2752:1.4810876 2763:2.3824358 2765:1.4496331 2766:4.4845724 2771:1.0433304 2774:2.8041599 2775:0.77460486 2778:3.2637031 2792:1.5555732 2793:6.0895514 2795:0.16258785 2800:2.6200585 2811:2.3349776 2825:2.9917479 2826:3.5856435 2828:0.22649519 2834:0.78322363 2837:0.80460072 2842:1.1310492 2844:3.591728 2851:0.89304435 2860:2.6767788 2870:1.259621 2873:3.6536498 2882:5.592144 2883:2.401438 2887:0.48375395 2891:3.2195997 2895:4.0432167 2898:3.7638407 2903:3.4688308 2904:0.94372249 2909:0.32765526 2911:0.35338011 2917:0.91298586 2929:2.1241145 2931:2.1261833 2932:1.6305518 2949:2.2534349 2950:0.077121705 2959:0.10149774 2978:1.1506245 2981:5.2911525 2986:1.4016603 3009:2.7904944 3010:1.3147113 3012:1.3630698 3015:4.2002935 3019:1.0182837 3033:2.9424269 3035:0.98960483 3036:0.38320363 3037:0.40785152 3050:0.65029585 3052:2.7695026 3056:1.6621401 3060:2.1773236 3065:1.4481413 3067:1.0489069 3071:2.2374241 3074:2.5124421 3075:0.90175682 3081:5.3961415 3085:1.6022121 3089:1.2290334 3099:1.6127211 3105:0.63855129 3111:0.57442212 3117:0.62549639 3122:0.22898787 3129:1.5755975 3135:0.71350241 3139:0.49398381 3141:1.431412 3144:1.7500806 3145:1.4608066 3147:1.6723896 3152:4.7231774 3154:1.983789 3155:0.27585271 3157:2.0816302 3161:1.5168258 3163:1.4968951 3164:2.5204635 3172:2.5089123 3179:2.4789286 3184:1.4140216 3198:1.5181139 3199:0.71929049 3200:1.4795072 3206:2.2182894 3208:1.5091922 3211:1.8703468 3214:2.0010371 3230:0.2757206 3232:1.3689543 3242:3.4443221 3245:1.2548633 3247:7.3362598 3248:1.0450329 3256:1.4988837 3258:3.8302164 3260:2.8531427 3274:0.32830983 3275:1.485183 3276:1.2322545 3285:0.19126597 3286:2.9190814 3290:4.7106657 3291:4.5150795 3293:0.53852004 3295:1.3094428 3298:2.9704173 3299:2.9792242 3310:2.5140784 3334:3.7387168 3338:0.75445384 3341:2.133997 3344:2.8383584 3349:2.1331074 3354:0.55127233 3359:3.494256 3363:2.7227976 3365:2.4568045 3367:2.9409835 3377:4.1726913 3395:0.35494325 3399:0.7340681 3402:1.166491 3411:1.6516175 3413:3.5709193 3418:1.5184422 3422:1.8628683 3428:2.9634666 3436:3.3512676 3446:1.400111 3449:1.6290755 3450:0.87916577 3456:4.0809107 3479:0.21728098 3484:0.870929 3489:0.073888883 3491:3.2464132 3493:0.74825913 3496:0.6399914 3500:3.5730023 3503:0.084056541 3508:6.7734289 3521:0.06069532 3526:2.0764492 3536:0.79859209 3539:1.4084934 3540:0.51976413 3548:1.5308781 3549:1.086087 3554:1.8558301 3556:0.7436254 3560:2.4248161 3564:2.897464 3566:0.44018456 3569:1.0786841 3582:3.3761828 3586:0.99518645 3589:0.11229411 3591:0.45424759 3597:1.6383507 3598:1.614942 3614:0.63766593 3615:0.88074088 3616:1.8520017 3621:0.041947186 3624:0.78157622 3629:2.772182 3635:0.85827571 3644:3.413445 3649:0.74880052 3653:5.8092074 3657:2.5441847 3666:1.5836043 3669:1.8956834 3677:3.0666347 3683:6.1572084 3684:0.81516802 3690:0.3007443 3691:3.5688093 3700:0.010632783 3701:0.61608988 3703:0.30603254 3710:2.1522653 3711:0.92996943 3717:0.26386246 3722:0.29033053 3724:1.1789979 3727:3.0318513 3744:0.77679396 3751:0.6589843 3752:3.3451452 3753:6.8796978 3766:7.3758359 3767:4.1122613 3768:0.29433286 3769:5.7012806 3771:2.3522215 3783:3.6801722 3792:1.0132041 3793:5.5260839 3797:3.9325089 3807:1.5084162 3813:0.499401 3817:0.34385952 3818:5.2361951 3822:5.0524578 3824:3.4608996 3831:1.3235446 3834:1.23963 3835:2.434351 3836:3.2330029 3838:0.22598672 3844:0.95008081 3846:0.26315391 3852:0.6964649 3857:1.0402015 3859:0.1612255 3860:1.9741302 3862:0.82377237 3863:2.3586776 3869:1.0099578 3872:1.9686887 3876:0.083381385 3877:1.9687359 3881:1.412745 3885:2.8298988 3886:1.1897997 3888:0.55631924 3890:0.26719204 3891:6.8368702 3893:3.2314036 3896:1.6761928 3901:1.0479836 3903:2.4343085 3906:4.0865598 3908:0.67822313 3927:2.2698259 3938:4.7560439 3942:2.7030926 3957:0.46968496 3963:1.6436892 3970:1.1924889 3974:1.5097644 3978:0.40607607 3980:3.4895792 3982:0.28116298 3984:2.9895811 3988:2.2188022 4000:1.3216759 4003:0.24482301 4004:3.6460814 4008:2.7678847 4013:0.88627702 4017:0.57486916 4018:1.1445711 4021:5.5511365 4022:0.14675829 4033:0.61835748 4036:1.9211595 4038:1.5094992 4044:0.76337469 4046:0.48912257 4055:1.4126732 4057:0.37428543 4058:1.8591495 4067:0.18414317 4068:0.77503896 4074:2.0331147 4075:1.9747416 4079:0.0018111318 4084:6.0972033 4085:0.31721133 4094:0.58120537 4095:2.4736423 4096:0.30815014 
0.8825910926268712 15:0.54698873 16:1.0364146 18:0.39126709 21:1.4447651 25:0.16628209 26:1.9994637 27:5.3669944 28:0.53239137 43:6.3962917 45:2.339808 49:1.496317 68:1.3958591 80:0.73142821 84:0.44166175 85:0.63503683 87:2.137795 94:1.847767 95:0.47014165 103:4.371141 104:0.22804913 107:2.2654264 108:5.9735212 112:1.3166471 115:1.009927 124:0.0609072 125:0.49827489 126:0.2197742 130:0.50170463 136:2.1476488 144:1.2868226 145:1.5979825 147:0.44840825 155:2.830683 163:2.5544341 178:0.34098011 181:4.4252281 184:0.77254605 190:2.1102481 191:2.2684739 199:3.2216625 200:8.1107216 210:0.011284024 217:4.8567019 225:0.21504349 232:5.5262461 233:1.594866 239:3.1227901 240:2.3987627 241:8.7481031 251:0.38067046 252:3.1125145 254:1.4633667 267:0.33136329 276:3.5971673 283:1.5197539 286:0.84324145 290:0.53535128 298:4.9761028 308:0.65829074 317:1.1280272 324:2.6087205 328:1.7011515 338:1.4253314 342:4.2409992 347:0.21770462 348:3.6143312 353:7.277514 361:4.5267162 365:0.91877121 367:1.427613 379:1.3019333 385:0.35326031 388:3.2868795 391:2.8011885 393:7.0562043 394:0.49478474 397:1.5396605 402:0.033106685 404:3.2333753 444:1.1501232 454:0.1747123 461:7.2415185 463:5.0260615 464:1.2637851 472:2.971153 473:0.25850517 477:0.190357 482:6.6781344 484:1.2671974 485:0.56476265 493:1.6726623 494:2.9389391 495:1.1373632 499:0.65509051 500:0.064065814 502:7.6999998 505:0.00020557642 509:1.7043599 512:1.1665803 514:1.1001265 523:0.81444383 526:1.4498014 536:2.9959278 537:0.47645107 538:0.92362922 552:3.8915172 557:0.40063533 562:0.9274497 570:1.5476797 576:2.3717921 581:2.9689281 586:1.6704353 600:2.8670127 611:1.0263169 612:0.89057297 616:1.9089148 629:1.9875549 639:0.50358224 641:6.3029537 644:0.7029494 646:6.0518227 652:3.4530635 654:1.0706264 664:5.9468994 671:0.11471824 672:3.2325287 682:1.8764377 684:2.8176496 688:2.5085328 702:0.29277208 706:2.5843711 720:2.5778017 721:2.6333556 723:1.3223372 727:1.3957672 737:5.8774252 739:4.7158012 748:3.9714401 750:6.0850811 760:1.6790497 774:4.3779011 776:2.1784391 794:1.7739185 799:4.6932163 806:0.61766285 811:2.271868 814:1.3560548 819:0.73972154 823:2.0412967 825:0.50987536 830:5.0899897 839:0.93226182 840:2.0856447 842:0.14218143 865:2.7708588 866:1.3942759 867:2.1943827 868:5.1199017 882:7.9063926 883:3.0582354 884:6.1313143 888:0.45349827 889:7.4794154 890:1.7861321 891:0.52985424 895:1.1728312 903:1.6028253 904:3.6497324 905:4.6034927 912:3.3348336 916:0.79644889 919:1.2929928 924:3.9713893 928:0.5775702 933:2.2065449 953:1.4097522 954:6.4052143 965:2.9246519 970:2.3518603 980:2.6886911 982:0.22789685 985:1.6445795 989:0.13386688 993:0.19448984 995:0.6431253 996:1.156605 1001:1.7687505 1003:1.7334881 1004:0.98551595 1005:2.0457039 1017:3.2559493 1018:3.4057686 1022:3.2632 1031:2.6460564 1041:1.2416297 1042:1.3013151 1046:1.1420703 1048:1.5608169 1053:7.4207625 1056:3.0881238 1062:1.4140457 1063:2.4081557 1073:1.168626 1075:1.3948652 1084:1.9195141 1094:5.7034845 1095:4.4520988 1100:3.0675344 1102:2.2822351 1105:1.2166774 1108:3.8247149 1111:0.40981224 1125:1.9462066 1140:0.47259837 1153:0.061217606 1161:1.3274229 1163:0.2907759 1168:0.34246403 1173:3.0539103 1176:3.1022983 1177:2.4013374 1180:1.0316776 1181:0.075431541 1182:1.8196747 1186:0.40995368 1196:0.28699642 1215:2.5083225 1217:5.1067834 1227:1.2159233 1228:5.7594576 1231:0.15402454 1234:2.8193078 1237:0.0071733594 1242:0.96438527 1250:0.76492691 1253:3.1250126 1255:0.55058903 1260:0.20996869 1279:2.0244567 1291:2.6073878 1293:0.092701375 1295:0.52213544 1299:4.3811526 1302:1.8891425 1307:0.13712123 1317:1.1767018 1325:0.12319869 1332:0.91423047 1340:3.0790036 1342:2.7897227 1347:0.69637823 1349:0.099465877 1357:3.5645735 1359:0.097244442 1369:1.2747041 1372:2.5742269 1385:0.094098836 1387:0.89723974 1391:1.6565558 1396:5.1691647 1397:0.76141793 1402:1.7131177 1404:0.66675365 1406:3.2240009 1412:3.19137 1431:0.1788933 1441:0.34098604 1442:0.6625604 1443:3.2527101 1460:0.76224554 1469:1.2186188 1476:3.1745951 1482:0.1403435 1484:0.74294943 1485:0.13382235 1488:6.6079464 1491:0.24705234 1492:0.92489862 1509:0.25325853 1511:0.83064878 1513:1.4469777 1514:1.5917051 1541:0.0010331273 1543:0.18254149 1567:4.9155779 1581:2.5490489 1587:1.9461168 1598:0.10217491 1600:1.0926125 1601:0.78658593 1604:1.9378021 1608:1.6676809 1613:1.108655 1618:2.6109798 1624:0.11806375 1625:0.023703054 1628:0.35946691 1630:1.7529219 1636:3.5798011 1637:0.17971209 1647:0.16164991 1652:0.85350531 1657:0.026519597 1659:3.0646148 1663:0.68452108 1664:0.28881758 1667:0.05738765 1676:1.2242202 1677:0.97382003 1678:3.5636888 1680:1.4921063 1690:6.4610515 1703:0.83119923 1706:0.67247611 1707:0.47753221 1708:0.50228667 1726:1.4275306 1736:3.0714917 1737:3.6286654 1754:0.038118124 1756:0.24322262 1759:0.0024992824 1762:5.6498947 1774:4.1289639 1775:0.90203518 1778:1.1163819 1779:1.6439867 1786:2.5488086 1794:0.61674011 1795:2.6806064 1800:0.13264899 1812:3.7321427 1818:3.2877693 1822:0.83821869 1824:0.018211991 1826:7.5293064 1831:2.1732824 1833:3.6785281 1842:4.8207245 1847:0.29369259 1848:0.52145296 1851:3.8332181 1855:0.36215866 1856:0.96261901 1872:1.9735643 1882:6.6992855 1890:0.88855457 1893:4.273571 1894:0.75018072 1897:1.4745762 1898:6.4848337 1901:0.37136507 1904:2.6297371 1909:5.7492437 1928:0.97890705 1943:4.2386513 1950:0.101006 1952:3.078537 1953:3.4851875 1955:3.9624109 1968:2.3155928 1972:0.46703404 1975:1.4375637 1977:0.5129143 1996:1.5575167 2000:3.2630944 2005:1.6085641 2009:0.84174705 2012:5.9233217 2021:1.2771531 2028:2.0939233 2031:0.4030773 2042:1.3440009 2048:1.6173434 2057:2.7740602 2063:0.92636144 2066:3.2300646 2069:1.7646773 2073:0.20869723 2075:0.079843447 2079:4.3161149 2080:0.39751923 2083:2.994916 2088:2.7989159 2104:2.411823 2105:1.8953677 2112:1.6928757 2118:5.4173927 2123:2.2831366 2125:2.9316087 2131:2.2671592 2138:1.0194529 2152:2.7261372 2153:7.823812 2155:0.90787995 2165:0.47841984 2167:0.14045069 2172:1.4635923 2187:2.3430285 2188:1.3413059 2196:6.0432925 2199:1.0096679 2203:2.8086457 2204:1.586446 2205:0.4111923 2206:1.7412447 2210:1.2271472 2224:6.6709652 2232:3.5780046 2233:2.0266593 2237:1.4206642 2239:8.1023073 2240:7.9438248 2246:0.48201311 2255:0.44745681 2259:0.12292445 2266:1.1310078 2267:2.5376577 2272:2.2043681 2275:0.3243559 2298:0.15817395 2299:0.90593237 2303:0.32066461 2311:2.1626718 2314:0.58308256 2321:0.11500758 2322:5.5272832 2330:0.86653161 2333:0.88923723 2337:1.7128004 2344:0.60012376 2346:2.7920101 2348:1.7290609 2349:0.58570623 2353:3.0640686 2357:4.9142427 2359:0.55945092 2378:1.0433626 2401:0.61082399 2415:1.8040395 2417:0.84811389 2419:0.64732134 2426:4.031373 2431:7.0490131 2432:0.91690493 2433:0.29876739 2435:1.7815752 2438:1.6592585 2446:0.5170939 2452:4.3481355 2453:1.2217038 2457:0.86542976 2458:0.35377324 2491:3.3140965 2504:3.1995628 2508:1.9948385 2509:2.8239508 2514:3.2185898 2516:2.8314931 2520:0.99391556 2527:2.3680556 2528:2.2921069 2547:0.76495707 2553:3.1005042 2561:8.9860878 2570:1.0381737 2573:0.026129782 2574:0.80861002 2578:1.8007672 2583:4.4084902 2594:2.7481892 2595:0.59818208 2596:4.0894632 2601:0.3305544 2610:2.534076 2636:1.986728 2639:4.0325212 2640:3.029784 2651:0.36849838 2652:2.3804195 2656:1.1071358 2660:2.3173857 2687:1.0174453 2688:1.1206584 2695:0.56602085 2698:2.4856124 2708:1.3778903 2710:0.53179801 2713:6.3009267 2714:5.3135943 2715:0.10217284 2716:0.6058836 2718:1.9051683 2719:1.224493 2720:4.1839633 2723:6.0722003 2725:0.61029243 2729:0.12252584 2732:4.7613187 2740:3.3628333 2741:3.9989591 2750:0.36792496 2752:4.1162572 2760:0.32692569 2763:0.44761634 2765:0.19317496 2766:5.0648298 2778:7.2156644 2793:8.3453703 2800:6.7270412 2804:0.33212626 2818:1.2162608 2822:1.8084309 2825:1.8222944 2828:1.1635195 2829:0.67591029 2837:0.10824662 2842:3.2294126 2844:6.7528653 2845:1.7746205 2851:0.14775652 2860:1.5446552 2864:0.30236143 2873:3.7336826 2882:5.7012925 2883:7.5518732 2887:0.16740744 2891:1.7105392 2894:5.0512276 2895:2.1120622 2898:0.62690032 2899:0.60515845 2903:1.8017496 2909:0.59861523 2917:0.45685065 2919:1.1577123 2929:2.1088333 2932:0.92319363 2934:0.34325552 2938:0.63133991 2940:0.44646829 2941:0.30021426 2949:0.27847481 2952:1.4925979 2959:1.3830487 2962:4.5015974 2968:0.29344565 2981:3.0453641 2982:1.525597 3000:1.4183137 3009:2.8414679 3010:3.5290234 3012:2.8876362 3015:0.22841164 3019:0.75085646 3033:0.56368661 3052:1.4970026 3056:1.9294585 3060:3.9207361 3065:1.8982108 3069:1.4108164 3074:1.7397929 3081:4.9897704 3087:0.059398755 3105:3.4414928 3118:0.046709329 3120:0.84795856 3123:1.372333 3129:1.7936815 3135:0.36427647 3139:2.5375848 3144:7.4765115 3150:1.7313899 3152:8.3452549 3161:4.3316422 3162:0.57326335 3178:0.98058361 3184:2.3473516 3196:0.48140135 3197:0.043088339 3198:0.014926374 3200:3.4193702 3205:0.53176403 3206:1.1648046 3208:0.13657627 3219:1.0383425 3231:0.78475714 3233:2.4606345 3242:0.11676449 3245:1.256763 3247:1.5531813 3249:1.3105577 3257:0.4330585 3258:4.0731273 3260:3.3951724 3268:0.10459119 3275:1.4287697 3276:0.85796928 3286:0.61578459 3291:2.7322941 3293:1.8048588 3299:1.2723745 3310:1.7463793 3319:1.1402705 3325:0.84586906 3334:1.6429157 3338:2.0004427 3344:3.552036 3347:3.0069664 3349:2.8998864 3354:5.7058692 3357:2.4827957 3363:3.1278486 3365:1.0239009 3367:6.6768999 3377:3.6956508 3385:0.00069362298 3394:0.43101311 3399:1.687712 3401:0.89738476 3402:0.74129647 3405:0.5791077 3410:0.470328 3413:4.0678906 3422:0.31629485 3424:1.2999625 3425:1.0121821 3428:3.7386687 3436:5.8312788 3450:2.3793812 3453:2.1928916 3456:2.6538944 3459:0.52036053 3462:0.39906055 3479:1.1713787 3482:0.84878045 3489:4.7993937 3490:2.2751341 3491:3.3595047 3494:1.8385679 3500:4.0987735 3508:4.8465571 3514:1.6385975 3521:2.00547 3522:0.56182301 3526:2.3886905 3539:1.2002429 3540:1.9362595 3548:1.6793506 3549:0.13988236 3554:2.0904953 3555:2.4105656 3560:4.6152501 3566:0.047930948 3575:0.55516905 3589:0.015904278 3601:0.030047432 3603:0.96652037 3629:2.8900685 3636:0.34405473 3642:0.59954923 3649:2.0588317 3653:3.6528695 3657:0.27604458 3662:1.0884964 3666:1.2531381 3669:3.2152743 3674:3.1206751 3677:5.0938206 3683:7.2362661 3684:0.6416117 3686:2.9344988 3687:0.13681844 3691:3.8572278 3703:4.0222654 3710:3.0602448 3711:2.7473369 3715:1.5380471 3727:0.95224208 3728:2.0708899 3735:1.9219657 3752:2.7996578 3753:7.2022939 3756:0.43193829 3766:8.1211252 3767:6.3595901 3768:0.36485025 3769:1.7812631 3771:2.8874805 3779:0.28981912 3783:3.6835282 3793:7.2408848 3795:0.090059757 3797:3.798316 3807:1.8575416 3812:1.120083 3817:0.14604601 3818:7.2814641 3822:4.5091014 3831:1.72917 3834:3.8646367 3835:0.087627053 3836:2.0056963 3838:2.8178959 3846:0.44915903 3850:1.6368035 3860:2.0858853 3863:0.73648798 3871:1.6494628 3872:1.6111393 3873:0.71623993 3876:2.4986556 3877:3.1505215 3886:0.23904923 3891:4.7164187 3893:0.076360464 3900:1.0311346 3901:0.16645217 3903:1.2305591 3906:3.6191108 3922:1.4582319 3927:2.2422354 3938:5.5017552 3942:1.0211017 3963:1.4056482 3970:5.1043353 3974:0.54005837 3978:0.97608447 3980:1.5737072 3984:4.3783488 3988:5.3448229 4004:1.8155942 4008:0.46091017 4013:0.26452777 4021:4.5714388 4024:1.4806644 4032:1.4121534 4033:1.8259947 4036:0.50043064 4038:1.5417893 4055:0.043100059 4068:3.3779602 4071:0.66476488 4074:4.3400793 4075:5.568747 4079:1.1174388 4084:6.8105669 4095:3.7079067 
0.6607959728986533 12:0.81224632 15:1.0511575 18:1.6227036 19:4.0086799 21:2.705631 22:0.335334 27:7.1863623 28:3.0725491 29:0.091184288 43:1.6183357 45:1.1648506 57:1.1966853 72:0.21430336 87:1.8895719 94:3.6769116 105:0.77388895 108:2.6259723 110:0.87918639 115:3.4634774 122:0.021683514 125:3.6947222 145:1.8470519 154:1.3221344 163:1.3776907 166:0.67408228 180:0.60059601 181:2.724946 182:0.25348544 199:1.3124232 200:7.5910239 217:1.7352717 224:1.7697011 225:4.2757759 227:0.027051389 228:1.8008258 229:1.0796402 232:2.5031195 233:3.1003916 239:0.318771 240:2.9005556 241:3.8381939 252:0.33728796 258:3.1780167 265:2.8857355 279:1.4495136 283:0.36912984 287:1.4733298 297:0.34240663 298:4.5389929 315:0.83584154 324:2.5108151 328:1.9894704 338:1.7269084 340:4.0187821 342:0.028708525 348:5.8482971 353:2.6456623 361:0.22742477 364:0.24509892 365:2.3733585 366:0.089191377 367:1.5842367 369:1.2883408 372:0.52465135 375:0.52361721 377:0.38264215 385:0.7310766 388:2.4710815 391:0.35266626 393:4.4753642 432:2.328496 459:1.5326847 461:4.4527445 463:4.5567632 464:1.958377 472:2.6701887 473:0.54031944 482:3.52595 485:1.3021346 493:0.26477826 499:1.2287115 502:8.6872473 505:1.1400912 524:0.1995201 526:3.2941215 533:2.4359102 541:0.33807188 552:0.17742123 555:2.2654655 562:0.73114145 574:1.4148026 581:2.048655 586:0.601955 588:0.041154046 600:0.13919419 611:2.0969336 616:1.0573782 633:0.34730572 639:2.219213 641:2.8396478 646:3.0081966 652:1.6488698 664:0.89371109 667:0.56533855 672:4.2425995 679:2.7863882 682:3.1349688 684:2.5125208 688:0.87158084 691:2.8686824 698:2.8766267 705:2.1974564 706:3.2258329 717:1.0685016 720:4.9573979 721:0.92219412 727:0.13227588 732:0.28439474 737:6.3874874 739:0.19121951 748:1.2661623 750:3.3010223 755:3.3409779 774:1.9643441 788:0.12777475 795:1.3198721 799:4.3127694 810:2.5641954 813:0.20685151 814:1.1777782 830:1.0761441 839:3.6049321 840:4.4399552 847:0.80624837 851:1.0545427 865:4.9225712 866:0.74008709 868:5.3670044 874:0.6586532 882:7.5797701 884:0.81442201 889:5.2382135 890:3.0175548 895:0.26542205 904:0.69625139 905:0.48853728 918:0.65578222 933:0.41030535 941:0.07874009 945:0.070793837 947:2.5901349 953:4.7504559 954:1.620518 960:1.0278299 979:2.6090462 982:1.9640578 989:0.54213095 996:2.1753182 1010:0.42697859 1014:1.0434023 1016:0.30949396 1017:1.7482049 1018:6.0141311 1023:0.79842377 1024:0.031652626 1028:0.14355898 1041:3.0683618 1045:0.90018648 1046:0.32203704 1053:3.2073729 1056:1.8070769 1062:5.149961 1063:0.71658731 1067:3.7515407 1071:1.7232547 1075:1.3815622 1078:2.9082665 1084:1.1133615 1094:1.5140086 1095:2.3787158 1100:1.226155 1102:2.3996925 1108:3.2555368 1111:2.1441681 1125:1.8210392 1137:1.224401 1153:0.10751545 1163:0.027714014 1168:0.12883922 1169:1.0122954 1173:0.76991904 1176:2.5886323 1177:2.5088532 1182:0.17612942 1196:4.7645936 1215:1.285753 1216:1.945672 1217:0.14137125 1226:2.9577112 1227:4.0818839 1228:4.5991659 1231:0.065223724 1233:1.5406556 1234:0.99151385 1236:0.83432603 1253:1.4889855 1254:0.25428373 1279:1.5048678 1286:2.8374994 1287:0.0038603246 1291:0.31541646 1293:1.4756689 1295:4.2660336 1302:2.0289083 1314:0.20470935 1317:3.298517 1332:1.5601971 1336:0.24574061 1340:3.6544845 1342:0.53102434 1347:1.941281 1353:1.5069454 1357:2.5045545 1365:0.40300012 1368:1.1671836 1369:0.14101785 1375:1.8091896 1379:0.89968121 1385:0.85710609 1391:1.0502536 1396:2.1434069 1406:0.71905297 1411:0.89167917 1412:5.2672358 1416:1.3774419 1426:1.5488465 1432:0.85383856 1438:0.97194076 1441:1.2490823 1443:1.1915166 1458:0.051280141 1465:0.74582487 1468:1.7169346 1471:0.70395756 1476:4.1121445 1479:0.76535249 1484:7.1436548 1485:1.9442204 1488:4.3749189 1490:0.099226177 1491:1.0926034 1492:0.6640085 1513:0.68706769 1519:1.9408661 1522:1.2116239 1523:0.25605893 1525:0.030957699 1539:0.31506881 1541:1.7578738 1543:1.9966787 1547:1.0328813 1556:2.4217939 1581:0.40724868 1586:0.77316386 1600:0.44809911 1606:2.9336727 1613:1.3781092 1615:0.56803608 1625:1.7215182 1628:1.2416487 1630:4.508924 1636:0.96500969 1659:0.98228419 1661:0.82511461 1662:3.0577073 1664:1.2894733 1667:1.5090432 1678:3.3004422 1690:3.882133 1697:0.73878062 1698:2.4427495 1703:2.1889892 1706:0.99688822 1707:0.086263105 1710:1.1144904 1712:1.0613399 1719:0.18942732 1725:1.5986419 1726:1.2675482 1735:0.22316532 1737:3.9968381 1742:3.0144274 1746:1.025552 1750:2.3811457 1754:2.386852 1758:0.87648004 1759:2.2142124 1762:4.3306313 1775:3.1366708 1778:4.9465833 1792:0.069129914 1795:2.7973833 1804:1.7671649 1817:0.48744503 1825:3.7988918 1826:4.9743199 1837:0.4064391 1842:4.8143029 1851:4.6068821 1856:0.77185094 1857:4.7712741 1858:0.90938121 1868:0.29479849 1871:1.9183942 1872:3.2342472 1882:1.9166654 1890:4.0632935 1891:0.47170883 1897:1.5820644 1904:1.4827085 1909:1.2653978 1927:0.3007043 1928:3.8483555 1935:2.3347361 1937:0.51943088 1938:0.02896139 1943:2.8057184 1952:3.1439927 1955:2.2320499 1968:1.8416145 1977:1.0459187 1999:0.66954136 2000:4.4475479 2001:0.068256289 2005:1.3159713 2012:4.6752834 2019:1.0139077 2021:0.70007062 2042:0.35613844 2048:4.8448772 2057:1.573773 2069:0.13262293 2070:3.6342149 2083:0.058173835 2088:1.4344211 2105:2.3365395 2118:0.04525885 2119:0.43521386 2123:2.3905764 2125:3.9854727 2138:0.59762663 2148:0.62146294 2152:4.0538659 2153:2.8615758 2155:0.60376823 2167:0.56394362 2188:1.2612005 2193:2.3308234 2196:7.1249714 2203:1.3187577 2206:0.51777101 2224:3.8618093 2226:0.67502797 2235:0.10996017 2237:0.23443621 2239:4.9371762 2240:3.7824254 2246:1.231737 2253:2.0876136 2255:3.90378 2272:0.19273366 2284:0.37015599 2302:2.3488677 2303:2.9437947 2321:0.26217687 2322:2.5679402 2333:2.6869535 2336:0.11512119 2348:2.786154 2357:4.3429823 2360:1.1066475 2372:1.0370932 2400:0.38055867 2401:1.1570436 2408:1.5129267 2415:0.7024861 2417:1.7895094 2426:2.1206422 2431:3.6509564 2434:0.16140899 2435:2.8324134 2437:0.11013031 2443:1.034433 2446:0.24253325 2452:3.9304864 2457:0.57071173 2459:0.11738323 2474:1.2958252 2475:1.3110567 2476:1.8374448 2487:0.41776344 2488:0.30890521 2491:3.4676173 2504:0.48504338 2508:0.47873259 2509:4.1955004 2518:0.77454531 2519:2.4636199 2522:1.6541822 2526:1.8507742 2528:2.8768396 2529:0.18922158 2531:0.84022379 2533:0.2558428 2536:5.5548539 2553:1.9496638 2561:2.1102037 2571:0.67889452 2574:0.72251153 2578:0.06227668 2579:2.6805823 2583:3.6560218 2589:1.0665765 2594:3.8124835 2595:5.2448144 2596:3.7481189 2606:0.25996709 2634:3.5713794 2636:1.290508 2639:2.7160208 2640:1.9457558 2644:0.33435822 2652:1.3995461 2656:3.7573526 2658:2.5144398 2675:0.5252133 2687:2.3077331 2698:5.0643134 2701:0.49399745 2703:2.936763 2708:3.5188386 2713:3.7611761 2714:3.9074953 2715:0.51473099 2718:0.44056815 2719:4.9314647 2720:0.82437003 2721:0.42918101 2723:6.4099259 2725:0.68333411 2732:1.5644026 2740:5.2001781 2741:0.4766016 2752:0.72704107 2763:1.8592148 2766:4.1834946 2771:1.1879643 2774:0.38917109 2777:0.67326474 2778:1.8707528 2789:0.49879253 2793:7.2285495 2800:3.5788479 2804:0.19844246 2809:0.77663046 2818:0.49754721 2822:0.97271603 2825:0.39286348 2828:0.81041402 2829:3.0208004 2837:1.8279107 2842:1.9925623 2844:5.1819005 2849:1.4039394 2860:2.5994227 2864:1.9752573 2865:0.39691326 2873:2.945426 2882:3.4564166 2883:2.5202639 2887:0.6321618 2891:0.97747242 2894:2.9027164 2895:2.287761 2898:4.0992818 2899:1.0662802 2903:3.188653 2904:2.3411865 2907:1.309634 2909:1.0823138 2919:0.82036233 2926:1.4559692 2929:1.6736835 2937:0.029607385 2941:0.34204283 2949:0.39998811 2950:2.4088488 2952:1.59126 2956:0.6933831 2959:0.086928576 2962:0.078576803 2968:3.9654133 2980:0.3150399 2981:8.1536713 2982:0.58914077 2996:0.1863212 3000:0.084892124 3010:4.6881003 3015:0.41352484 3019:3.3306561 3033:0.6877085 3044:1.854906 3048:2.4393992 3056:1.08569 3060:0.46431357 3075:0.87540871 3081:4.8153882 3089:1.6378427 3105:1.248176 3117:2.8293743 3135:0.4921447 3140:1.8291901 3144:3.8048332 3145:0.58891141 3150:2.0824821 3152:3.5368559 3161:3.2499006 3163:2.3773792 3164:0.84608513 3179:1.2611809 3182:1.4517976 3200:2.7415607 3206:0.40587217 3210:1.2781478 3214:1.3369418 3223:0.15197851 3231:0.0448232 3232:0.4221454 3233:1.9955504 3245:0.20440766 3247:3.1898427 3256:0.71819949 3257:1.4163762 3258:0.07649827 3260:2.1194942 3274:0.071830541 3275:2.1040628 3276:0.79015666 3284:0.2999121 3286:4.3191829 3290:0.28396904 3293:5.9912715 3310:1.1477013 3324:0.90225452 3334:3.0042269 3344:1.6214489 3354:1.8339915 3359:2.1025701 3363:0.99897695 3365:2.0465133 3367:5.1668916 3370:2.2979739 3375:1.3860079 3386:2.0154097 3388:0.94044739 3390:9.5874071e-05 3394:1.5690007 3399:2.4222326 3413:1.1932874 3422:3.5608039 3428:2.7933764 3436:4.6837769 3444:1.2534312 3450:2.5678296 3456:1.8651279 3476:1.9843919 3478:2.7115853 3488:0.93401217 3489:0.8796885 3490:1.6460901 3491:0.48499888 3493:4.0652823 3494:0.84380174 3500:3.5786924 3507:0.75248408 3508:2.6172292 3514:1.7202576 3521:0.49986547 3539:0.16692115 3548:0.64662391 3560:3.4961815 3564:1.9853113 3568:0.14691329 3569:0.71859789 3582:0.13986778 3591:0.48773241 3598:1.1307269 3603:0.4355551 3608:3.3960702 3614:0.51922333 3615:0.064585477 3616:1.4864343 3617:1.3689115 3629:1.2284536 3630:0.43240723 3636:2.9817367 3649:6.3675389 3653:3.0375564 3660:1.2553961 3666:3.3122931 3669:2.5322754 3672:1.8280785 3677:2.916286 3687:0.16028264 3688:1.3875799 3690:1.8063796 3691:4.1342778 3703:4.6172147 3709:1.2702217 3710:4.7953725 3711:3.5449657 3714:0.97321451 3727:2.2846136 3729:0.9486407 3735:0.13763952 3742:0.19192049 3744:4.6004324 3745:0.79302305 3752:1.5593185 3753:6.6034861 3756:0.57721674 3758:1.3497175 3765:0.85344338 3766:5.3940859 3767:7.9624839 3771:1.8460863 3783:0.30147365 3789:2.0256109 3793:8.0861368 3795:1.5716251 3797:6.7420797 3806:0.53993297 3810:0.93216419 3812:0.92462504 3818:6.4978528 3822:3.4376278 3831:4.3386469 3834:3.4212627 3838:0.67212331 3851:0.88122177 3860:4.0153065 3863:0.045331091 3869:0.06205076 3876:4.4916191 3877:3.9154894 3881:1.5251393 3884:0.026211977 3886:3.2890184 3891:2.9437873 3893:6.3453407 3903:3.1419842 3906:4.6937432 3912:0.13162127 3918:1.3962469 3937:0.99938011 3938:2.3552639 3942:0.53008777 3957:0.9780044 3963:0.91520876 3970:1.72062 3974:1.6875019 3980:3.400702 3981:0.61520326 3982:0.1616513 3984:3.1711898 3988:1.9845775 4021:4.4259706 4024:2.3505466 4031:0.75650692 4032:1.5887412 4034:2.4230676 4057:2.5185673 4059:0.043852523 4071:0.25723088 4074:4.6065264 4075:7.7438588 4084:1.6780049 4085:0.30613232 4089:4.3011007 4090:1.2351371 4095:2.5264859 4096:0.86409724 
0.21193251659027 1:1.6447514 4:0.10553712 18:3.7134967 21:5.4169717 26:1.3811828 27:11.226249 29:3.9516449 43:1.4128646 57:3.7256796 58:0.4013136 59:1.3134934 68:4.5509853 84:1.153361 93:0.46023485 95:1.6858418 103:2.5673521 108:3.9551408 114:0.18615183 115:4.8838882 125:0.13439843 126:2.2030373 129:0.44892097 130:1.4145168 136:4.9650102 148:2.0606782 154:0.83014947 155:2.540323 156:0.19624892 163:3.8752656 166:1.4442468 181:0.93928933 199:3.1752887 200:7.644136 210:0.99229217 217:5.5871172 224:0.66555274 227:1.0311658 229:0.060404688 232:4.2457275 234:0.34391892 240:3.8970518 241:0.8950032 256:0.28692305 258:4.3061633 270:0.72756046 278:0.21736731 288:0.1279563 290:0.69747233 298:4.3605342 301:0.62716329 311:1.7881097 320:0.11829865 324:2.7900014 338:0.077773198 340:1.6044668 342:3.3919413 348:1.6902575 350:1.9612141 351:1.1755195 353:1.1291753 361:1.0785736 365:4.3748579 367:0.99719912 372:2.3236034 391:2.7581918 393:4.3569436 394:1.1276664 427:1.4382405 432:1.1283321 444:0.38967976 459:1.5303075 461:6.7726912 463:3.1124201 472:4.6550403 473:0.10023266 479:3.9578116 482:0.6607005 485:2.8687565 490:0.28139138 493:1.8154941 494:2.5985012 495:1.6953129 499:0.64813256 502:9.2308187 505:3.9896734 523:1.4751582 526:4.0023055 530:0.61934179 533:0.081972927 549:2.0140491 562:0.23903704 569:1.2808616 570:0.27288863 576:1.1446407 581:0.12878212 588:0.66391462 592:2.8153539 594:2.7708573 603:1.022642 607:1.2597717 612:2.3668125 616:4.2056432 617:2.4494252 629:0.80243504 635:4.6120758 639:0.53640676 641:7.4750471 646:4.6466784 657:0.48168087 669:5.2860303 672:0.56853861 675:0.76841527 682:2.6116483 684:3.7711065 688:2.3498743 691:2.4928622 697:0.92510843 698:0.18800169 706:0.032247245 720:1.4245207 723:2.0124381 724:0.78608763 727:0.66519165 730:1.2108102 737:3.3396423 738:1.7056774 748:2.3580649 750:1.0206592 751:0.17328486 755:3.2681222 760:2.5447719 768:2.7895966 774:4.6236715 789:2.2342494 795:2.3920364 798:0.39392295 799:2.7228703 813:3.8023996 819:2.3243814 820:0.12959188 830:3.5163841 840:2.073844 842:4.037571 849:1.9252361 855:0.95922226 857:2.1041114 865:1.8996727 867:3.8871155 868:3.9128089 879:1.1180849 881:0.34496078 882:4.1479568 883:0.61900717 889:1.6373961 895:1.3800815 905:1.381078 912:3.7977057 915:1.449433 918:0.44144312 922:0.30437392 924:0.11705431 934:0.21634373 938:0.77358246 953:0.34181482 954:0.21484886 960:3.3977888 968:1.2651441 970:1.4222704 979:2.5647042 996:1.6378715 1001:1.4017763 1003:0.29139477 1010:0.50578064 1016:3.730809 1018:5.5615077 1019:0.24895862 1023:3.585896 1025:0.4036122 1030:2.8748698 1045:3.5000463 1053:5.7447448 1056:2.3186853 1062:3.0973778 1064:0.0083759725 1076:3.1084013 1084:5.6503854 1094:5.4418902 1095:4.5253801 1100:2.4233208 1102:2.9880934 1108:1.3982929 1111:1.0438474 1133:0.85851181 1137:0.73780596 1153:0.0084591508 1163:0.28388518 1170:2.1309121 1176:2.6533566 1177:5.6669898 1182:1.0929446 1188:5.0295477 1196:1.7630439 1204:0.31185654 1215:3.1680105 1217:3.1047916 1221:3.2341919 1227:0.69816041 1228:5.6168609 1231:0.93103743 1234:1.5352648 1242:0.63920844 1253:0.54248583 1254:0.45926821 1255:0.96166563 1264:1.2363772 1274:2.9382422 1275:5.250299 1279:1.2598135 1286:2.8462832 1288:0.99123192 1291:1.8992881 1292:1.0098923 1293:3.0241175 1295:9.4205351 1302:3.5733049 1317:5.2768083 1319:1.7184882 1323:1.8038185 1333:0.87364024 1340:6.1070228 1342:0.27485007 1345:0.47898191 1348:1.0718244 1350:0.19503653 1356:1.1116225 1357:4.5222459 1358:1.9770986 1359:2.6101551 1366:3.3209221 1371:0.77986604 1372:3.5542629 1376:0.72009623 1384:0.56996465 1385:1.9238518 1396:3.0670967 1411:1.3162811 1412:0.3834092 1431:0.82800877 1432:0.39235434 1438:2.9545236 1441:2.9128423 1443:1.9923923 1458:0.010566503 1476:4.0054736 1479:1.4946109 1484:4.0933471 1485:0.33258137 1487:0.020585209 1488:5.8645144 1491:0.84367061 1492:0.21989539 1500:0.41729745 1509:1.3283825 1513:0.98020905 1514:3.6632535 1519:0.694664 1520:0.17494661 1522:2.8263412 1523:0.28170508 1539:6.1072454 1541:0.9624334 1543:1.6260475 1556:2.7282057 1590:2.0868392 1598:0.637456 1602:1.0696037 1604:0.92107767 1613:3.6725061 1618:0.56660235 1625:5.0659018 1630:0.27054679 1636:4.4566674 1640:1.8047367 1648:3.3722858 1659:1.7088032 1661:1.6192404 1668:0.26680309 1678:6.4712563 1687:2.0138552 1690:1.2011906 1702:0.2660464 1703:2.8696392 1705:0.33032039 1706:2.765434 1721:1.8963741 1725:0.90684342 1726:2.1029606 1735:0.35215065 1737:1.0012789 1742:3.6201019 1746:2.1062281 1750:0.21831834 1759:2.7736669 1762:3.6941812 1778:4.1905556 1779:0.017337501 1780:0.48572206 1792:0.2513628 1795:0.87012625 1805:0.92539167 1818:0.073520571 1822:0.25619444 1825:0.51846361 1826:1.0989876 1833:0.36094898 1842:2.9466472 1848:1.3841267 1851:2.8818285 1856:1.1244951 1857:4.1850872 1858:0.76040643 1870:1.1797782 1871:2.089139 1872:3.3523879 1874:0.79898679 1882:3.9776621 1884:0.55067831 1887:1.8180282 1888:0.9358744 1890:7.7303419 1897:0.76980901 1904:1.8524272 1909:1.8213966 1912:0.23480481 1928:6.155405 1936:2.0085506 1937:1.6134124 1943:7.6086326 1952:3.7302358 1955:5.0688071 1959:2.1982415 1962:1.0953449 1968:6.6919284 1970:2.5690258 1972:2.5992546 1975:4.0724058 1977:0.48291796 1990:0.0047638714 1992:0.56484061 1996:2.1618764 1997:0.89808309 1999:0.39278179 2000:0.8463726 2001:1.666252 2021:3.8472905 2030:2.569767 2032:0.34398839 2033:0.89885962 2042:0.59851378 2047:0.12953624 2048:4.3380885 2057:0.27910244 2069:2.4683874 2070:5.1789346 2080:2.4922662 2083:0.028957248 2088:1.6833546 2096:2.4784369 2105:1.3155046 2108:1.5712841 2112:1.7934941 2116:0.18365017 2118:3.3585877 2123:0.66936547 2125:3.5485125 2131:2.9430182 2139:0.60711575 2152:0.82282376 2153:0.18328607 2155:0.78080809 2165:0.066371933 2167:0.12765345 2172:2.3520224 2187:0.56593364 2193:1.1541051 2196:4.0802841 2203:3.0136492 2210:1.4287107 2220:0.69272149 2224:1.4330602 2237:1.9098022 2239:5.2795162 2255:1.4842844 2270:0.26838928 2272:0.16926503 2275:0.077896982 2298:3.8798308 2302:3.524539 2303:6.5215559 2313:0.38480607 2321:2.3604488 2322:3.8861492 2331:0.51194096 2336:0.073353231 2349:2.6798306 2353:2.438391 2355:3.8430798 2357:2.3649514 2359:1.0268388 2375:0.38798755 2401:3.4404762 2415:1.4787354 2417:4.7652078 2420:0.22941893 2431:5.2117419 2435:3.5808899 2437:0.89857894 2452:3.5837185 2463:1.6340793 2474:2.066179 2487:0.746876 2488:1.3670433 2489:1.0949056 2491:3.9951243 2501:3.4723914 2504:1.1339101 2508:3.5946598 2514:2.4954324 2516:0.99951786 2522:0.63811272 2523:0.34028888 2526:3.969501 2531:1.3643992 2535:0.12907457 2554:0.5235064 2561:5.165792 2563:2.3265672 2573:1.5788927 2574:0.91429764 2594:4.6879368 2595:2.0983129 2599:1.1984657 2601:1.3822476 2622:1.0068107 2636:0.37693575 2637:0.28202012 2639:1.5356947 2640:0.86345184 2652:5.7833142 2656:1.9916168 2658:0.0021522604 2660:0.44943595 2663:1.7589693 2672:0.76559305 2687:1.9287777 2698:4.0146375 2708:3.4279244 2713:0.92408073 2714:6.3852024 2715:2.6657803 2718:2.4884169 2720:0.88404834 2723:6.06919 2724:1.5652736 2725:2.2677798 2731:0.39004725 2733:1.3847202 2736:0.17300826 2740:3.9428389 2741:1.2531791 2752:4.4446611 2754:1.9399549 2759:1.1028892 2763:1.100269 2766:5.8873243 2771:1.9935081 2774:3.3030939 2777:0.32319951 2778:5.6277924 2792:1.141333 2793:3.4842973 2800:3.8759472 2804:0.0064139366 2806:3.9304264 2811:0.39462775 2822:2.430758 2825:6.1509962 2826:1.313252 2829:0.86920863 2842:0.081095055 2844:2.8192427 2856:0.80303955 2858:0.91520953 2860:2.4048266 2864:0.27500787 2870:0.76176655 2873:0.062320501 2875:0.7165609 2882:5.8183889 2883:5.3182349 2891:0.61717892 2898:1.2683127 2899:4.6022902 2903:1.1877569 2904:3.6241305 2907:1.266394 2917:1.0885534 2919:3.348227 2932:0.79194462 2937:1.1507674 2950:4.0036297 2958:1.101182 2968:2.4254327 2981:6.6272192 2987:0.095528975 3009:2.6839085 3010:3.3009689 3012:0.49082854 3015:2.5839415 3019:3.1857796 3021:2.5157666 3035:0.23225948 3044:5.4776254 3051:0.81437755 3056:1.3481076 3060:1.2595193 3071:1.3098041 3074:0.5423969 3075:1.9987667 3078:0.50091136 3081:6.827878 3085:2.6231942 3089:1.6933799 3094:1.1369812 3097:0.027891606 3099:0.20575857 3117:4.0946059 3120:0.8760646 3144:6.629467 3145:1.501399 3150:0.61404526 3152:4.5893383 3154:3.3968451 3157:0.093419746 3161:1.1244045 3164:2.2689319 3172:0.67942989 3182:0.34912354 3198:1.9128392 3200:3.4227462 3206:0.99145079 3211:1.8289196 3214:0.58102202 3219:2.4987433 3230:2.965502 3232:0.65674925 3238:1.1361799 3247:0.66706479 3249:0.71542597 3258:1.8139592 3260:1.6616427 3274:0.89636081 3276:1.5404075 3285:0.32981065 3286:0.36464441 3291:0.22306681 3293:3.0571363 3299:4.0593081 3310:1.9022415 3334:2.1786566 3344:0.46129856 3363:3.1907048 3365:2.9165995 3369:0.094274104 3377:0.95808309 3390:0.5180943 3394:3.4502358 3399:1.8951857 3403:0.37596121 3404:3.7107136 3413:1.7145962 3422:0.83096975 3428:3.7584019 3431:2.0445535 3436:0.74130005 3448:0.028115392 3449:0.1608147 3450:0.77078635 3456:5.8429136 3465:0.13307524 3478:0.90045905 3482:2.1614594 3489:6.7251263 3490:1.2583236 3491:2.0868592 3493:1.149848 3495:0.67850733 3500:1.2839441 3504:2.1010594 3508:4.7296748 3521:3.6912796 3526:1.9531869 3539:0.25903502 3548:1.235549 3549:2.4886749 3554:2.7698984 3555:0.66631764 3556:0.49624881 3564:3.4760237 3577:1.1767281 3582:4.088665 3591:3.0153332 3599:0.046112537 3603:3.0955236 3608:3.5546432 3614:4.2278452 3615:1.3973396 3616:0.3692874 3629:1.7869376 3630:0.60393167 3631:1.0796864 3649:4.7664475 3653:4.419394 3657:1.3859218 3660:2.239681 3666:3.2398131 3669:5.7914681 3672:2.5086932 3677:4.0610437 3683:0.3411912 3691:4.7299786 3703:1.696496 3710:7.4369907 3711:0.31235421 3715:2.1126864 3722:0.63244462 3723:1.4783581 3727:0.875947 3741:3.1993706 3744:2.6687098 3752:4.6231623 3753:7.7670732 3758:4.6501141 3761:0.92004579 3766:7.6170154 3767:2.8684154 3768:1.1398244 3769:2.0831282 3771:2.4093256 3779:2.085335 3789:0.15308711 3793:5.8043571 3795:2.5853281 3797:8.3233442 3798:0.088968635 3806:2.4894416 3814:1.1214113 3818:5.3347712 3819:2.8200092 3822:3.2613802 3831:3.4210901 3834:4.1630325 3835:0.30714399 3838:1.6761308 3860:7.3461971 3862:0.30389225 3863:3.3106904 3869:3.944139 3871:2.7902584 3876:1.6960183 3881:3.9752901 3888:0.084934682 3891:3.4285879 3893:8.1123505 3900:0.71776026 3903:4.0583625 3906:6.2677875 3912:0.10161582 3918:0.4783496 3935:0.65037704 3937:0.041981548 3942:2.9804409 3956:0.01615569 3957:4.8488479 3963:2.3016403 3969:0.99212611 3970:4.4949775 3974:1.6555982 3975:0.14662272 3980:4.2413788 3984:3.1701682 3988:0.17995718 3995:1.9007829 4017:1.56344 4018:0.2584492 4021:5.8791995 4024:6.3542137 4033:1.0115483 4036:0.65987456 4038:3.7667298 4039:1.6304976 4044:1.3665439 4055:4.1932678 4059:1.0864738 4063:1.0203851 4067:0.17741452 4070:0.75446618 4074:3.0500398 4075:6.5479722 4084:1.558302 4085:0.83682287 4089:3.4416258 4094:5.3719225 4095:0.46545672 
