svm_type c_svc
kernel_type rbf
gamma 0.000244141
nr_class 2
total_sv 88
rho 0.667239
label 1 0
probA -5.21038
probB -1.37849
nr_sv 32 56
SV
1 1:0.47591481 5:0.80947697 8:1.2692583 16:2.3484082 19:0.20484886 20:3.3231373 25:0.793284 26:0.45162654 27:2.7775919 29:1.7971191 32:0.21315044 34:0.64553374 39:4.2067146 43:1.5101757 45:2.3149545 56:0.40349153 58:0.44168937 60:0.36321628 61:0.73595124 68:4.0605888 69:1.4784234 71:0.93844575 84:1.1621021 87:1.1302171 90:2.5505443 103:1.0390372 105:1.1133549 106:1.0357397 110:0.046768367 112:0.88590705 113:2.1574543 115:1.8081321 123:3.6758988 125:0.7570709 127:1.2874053 129:0.63410091 136:0.7079851 140:0.91465712 141:3.6689219 147:1.9342383 150:1.2459472 152:0.36430246 157:0.36831495 166:1.8869979 172:2.379432 173:1.1927345 174:0.76694703 180:0.24701619 181:1.9725755 190:1.1295514 196:0.76355547 200:2.342303 204:1.6190997 205:1.2260624 210:0.95752531 211:3.402401 218:2.1511903 219:0.84514415 223:2.1162086 232:1.0115542 238:0.23769811 258:1.244293 260:0.3280372 262:1.7779652 263:1.0384346 269:1.9350631 272:0.54467744 276:2.9686785 282:0.62222743 283:1.7861383 288:1.6852925 292:0.16871122 293:0.74459505 299:2.9545779 302:0.42353287 308:1.5068647 317:1.1688144 318:0.46936122 328:0.038023323 333:0.6269238 338:2.2174771 340:0.040340245 342:2.4057968 347:3.1410429 351:0.60819817 353:0.15679899 365:1.7975988 372:0.76019663 373:3.3459592 382:2.4967377 390:1.3476001 393:0.012747183 397:2.2711036 398:0.9578203 404:1.3605697 405:0.71967417 414:0.061028749 421:0.55394089 426:1.0949817 432:1.8247668 442:2.7931833 443:0.51708329 444:0.32428461 449:1.8266631 450:0.18754664 454:0.12132335 463:0.54512799 466:0.50367159 472:0.22682108 473:2.8412857 482:0.6570338 483:0.9024266 489:0.21899456 491:1.7475792 492:0.92449081 493:2.3380568 494:0.47341827 495:0.82169402 496:1.7618635 499:2.9082611 502:0.29036692 504:0.11248204 507:0.82376051 511:0.60634196 514:0.040072456 515:0.65917426 523:0.17549022 526:0.10756162 527:0.29295862 533:0.18856511 536:1.8187039 538:0.2546261 545:0.37754038 552:0.30377311 555:0.39503139 557:0.064132027 561:0.029829413 565:1.4891329 575:1.3428735 578:0.7374776 581:2.7254987 584:0.32592016 586:1.7332946 592:1.4089186 596:2.2998974 603:0.98398137 609:0.99244976 612:3.7924886 615:0.44745281 619:1.7479001 635:0.71952856 639:1.7518785 640:1.1043977 641:1.7133691 642:1.8619124 651:2.0165253 664:1.3849887 666:0.53000677 667:0.0796002 671:1.4830011 674:0.14732695 682:1.8978055 688:0.054652065 692:0.55035186 702:1.7206341 703:1.5867856 705:4.6438084 706:2.8702674 711:0.56798989 720:0.41151017 721:2.3828349 723:1.6645393 724:3.6764393 725:0.10914977 726:1.7480891 728:1.4759688 734:0.45136619 737:0.076073498 739:0.36403733 747:0.26140648 751:1.9736973 753:2.0019858 754:3.4272404 760:0.69624549 766:0.74822748 772:0.28046909 776:1.0257244 778:0.0021041036 789:0.81262374 794:0.63427556 801:0.33945483 802:1.0931709 804:0.90252483 806:2.101979 807:0.81534886 814:1.3818141 820:0.63136673 826:1.5848575 830:0.19523457 831:0.88514638 838:0.62232077 839:1.749018 841:1.0590391 849:1.4753908 853:0.15597546 855:1.396126 865:2.4400291 866:0.57545352 867:0.56836396 868:0.35313639 869:0.2956537 870:0.062984258 871:0.86846387 882:2.4040802 884:1.5590593 886:0.85807133 888:1.7857517 899:1.2983676 902:1.2944565 904:3.6105163 908:3.0404005 910:1.7242421 915:0.10658088 918:2.9308844 923:1.0296485 924:0.80914551 928:0.24650049 935:0.42326117 937:1.6529951 938:0.62777287 945:0.17034838 951:1.6765667 954:3.8083799 961:0.61352855 963:0.36221236 965:0.7754212 966:0.24453068 967:1.0404894 968:0.66740882 974:0.40404004 978:0.17258945 980:0.29320478 986:0.10799564 988:0.65372241 989:1.0192928 996:1.4325458 998:0.79545408 1001:4.0779791 1004:1.8648421 1006:0.26796776 1013:1.7527213 1015:0.038579583 1018:1.2921515 1022:3.866272 1024:1.9576354 1027:3.5764256 1049:1.0828934 1053:3.0328319 1059:0.93368661 1063:0.26694557 1064:1.0709407 1070:0.026688516 1074:1.4948516 1075:1.2729067 1076:0.2100894 1077:3.1161821 1078:0.78607988 1087:0.38868269 1094:0.77644378 1095:2.0894525 1096:0.32202774 1100:1.3914411 1104:0.034603208 1105:0.058047295 1107:0.1741831 1140:3.0946517 1153:0.45127791 1159:1.7895796 1160:1.3869089 1163:0.44349116 1170:1.9253969 1176:0.56945729 1180:1.3199372 1181:1.7926502 1189:0.62596357 1192:1.4205478 1193:0.16876397 1195:0.50215417 1206:4.3831797 1216:1.1976373 1217:1.6385963 1219:1.2469591 1221:3.2996242 1228:1.7902045 1237:0.10133117 1239:0.40501624 1242:2.0704234 1243:1.5442677 1246:2.1343279 1257:0.68723762 1260:0.3093273 1265:0.17217246 1267:1.3222274 1279:2.4935215 1281:3.8639042 1288:1.5181999 1291:1.2298951 1293:0.5705753 1295:0.34249285 1296:2.0235636 1299:0.99998665 1302:2.7159038 1303:1.5522802 1305:1.3613096 1307:2.7079277 1313:2.4072621 1314:2.0634894 1319:2.3231533 1325:0.79417175 1326:0.35832727 1332:0.30252251 1335:0.66345251 1338:0.48041618 1339:0.71735847 1340:0.19303031 1342:0.72782159 1343:0.54482937 1344:1.4486606 1356:0.27586037 1357:2.0440474 1358:0.91485953 1359:3.9583991 1366:0.22305414 1372:0.21674828 1373:2.589581 1378:0.6423623 1385:1.0489353 1387:1.3436122 1391:3.1253178 1393:2.426322 1397:0.35896212 1404:1.9902645 1406:2.8835819 1408:2.517276 1410:0.13020286 1411:1.9456209 1421:0.73235059 1423:1.1827868 1424:2.4832613 1426:2.3031774 1428:0.23394221 1429:0.38391235 1430:0.41545463 1432:0.38347593 1433:0.49187663 1434:0.0065229386 1435:1.7930908 1438:0.00358734 1444:1.4288757 1445:0.68447703 1456:0.43390587 1458:0.026008219 1462:0.69638062 1470:0.99863678 1480:1.3360323 1484:0.60324913 1485:1.4199038 1487:3.6560097 1495:0.94212753 1500:0.6615268 1502:1.6147001 1504:0.58392924 1513:1.0644717 1515:1.6711752 1517:1.0858682 1519:2.1976118 1520:0.98345858 1522:0.79234612 1523:2.1249027 1526:1.2494676 1528:0.30615738 1537:0.87073767 1548:0.88450962 1552:0.6493243 1555:2.436491 1556:1.8027792 1558:0.18395028 1560:0.063145563 1567:1.9583883 1581:3.0147529 1582:1.1805391 1583:3.1079016 1587:2.4476478 1588:0.56655252 1590:2.1266763 1591:0.12556446 1595:0.36047363 1602:0.7353887 1604:0.1247739 1605:2.0658216 1606:0.66994828 1608:1.3629055 1613:0.59225029 1618:4.9698901 1629:2.7846103 1630:0.42067909 1635:0.12874961 1657:1.9721279 1658:1.3764036 1663:0.92668402 1667:1.1267705 1675:4.6107731 1676:0.041550666 1677:3.8326781 1678:1.0454066 1690:0.96207368 1696:0.34311396 1701:1.9213099 1702:0.59434998 1707:1.2157124 1711:2.0756989 1712:1.9965039 1726:0.59782684 1727:2.5694845 1730:2.8679059 1742:0.61920911 1745:1.1092844 1746:0.35087559 1749:1.8112336 1752:0.68607932 1755:0.21749835 1756:1.4561512 1758:3.1479673 1762:2.2700725 1772:1.8761786 1773:1.2572426 1777:1.1033785 1780:0.50109184 1781:2.5308442 1784:3.5456073 1786:1.9307349 1788:1.0505973 1793:0.76796871 1795:0.69060051 1796:0.40256974 1799:0.96190023 1804:2.4614787 1807:0.61396909 1815:0.97712737 1818:2.2282834 1821:1.9742054 1826:0.13917059 1828:0.016472727 1833:0.88847816 1834:1.0043186 1835:1.9961028 1840:0.17859694 1842:1.2874477 1844:2.2359853 1846:0.49236023 1848:1.971764 1849:0.13160068 1850:1.17808 1851:0.84769773 1852:1.1422566 1854:0.024801239 1856:1.0897366 1861:0.7909925 1865:0.68924093 1872:1.209963 1874:0.68494993 1881:4.2940359 1882:2.2678838 1888:0.2545636 1893:0.49108437 1895:0.44439131 1897:1.8704002 1898:0.62482584 1901:1.7493548 1904:0.092064545 1909:2.2631147 1915:0.20158482 1916:0.51936698 1926:0.062943906 1943:1.5382128 1950:0.88296551 1953:1.0334548 1955:2.9850068 1959:0.72374821 1968:1.0609976 1969:0.6063298 1972:0.59206343 1975:2.4958525 1977:2.833849 1982:1.334024 1991:0.46690708 1997:2.081567 1998:0.2612524 2002:2.0853233 2005:1.3228114 2006:0.56451815 2012:1.4326154 2017:0.74271739 2020:1.6271517 2021:1.3814303 2024:1.4741077 2030:0.94969654 2032:1.6735646 2042:0.71667475 2047:0.081457853 2050:0.81052458 2055:0.30658361 2059:1.809584 2083:0.73350853 2084:1.524766 2085:0.33928037 2088:1.1039959 2094:0.405931 2097:0.99624509 2105:2.5482831 2107:2.6773813 2110:0.40678674 2118:1.4972608 2120:0.31456321 2123:0.65315902 2125:4.3147449 2127:0.47337204 2135:2.7065406 2137:0.89041996 2139:0.55063981 2140:0.15379158 2147:0.020938605 2152:0.73721856 2153:1.880428 2155:0.76206207 2157:0.73724282 2160:2.0861268 2162:1.7766062 2163:0.93165255 2165:0.3540839 2166:2.3737409 2167:0.0035708249 2177:1.2902703 2180:0.37964475 2183:1.2908041 2186:0.81243122 2187:2.0412135 2188:4.5943475 2195:2.4295075 2196:0.93448138 2201:0.32347187 2202:1.0816277 2203:0.050998658 2204:1.1592803 2206:0.37447885 2226:0.048158377 2229:2.4869661 2233:0.80352503 2239:0.34007952 2240:5.554215 2246:2.0614951 2247:0.88750035 2249:0.42596564 2251:0.033270232 2257:0.090204328 2258:0.47159049 2264:0.48629946 2265:0.30545986 2267:0.68949252 2273:0.5201537 2275:1.3134091 2276:0.12010702 2277:1.3351057 2278:1.1996951 2281:0.94794393 2283:1.0117453 2284:0.0034372211 2296:0.20260274 2297:1.1082588 2298:1.6855953 2305:1.8544085 2307:3.3907766 2311:0.1697318 2313:1.3271254 2320:1.0425426 2321:0.39808697 2322:1.6285146 2327:3.0290668 2333:2.6274791 2336:0.84694135 2338:1.053692 2343:1.5049092 2344:1.2942127 2348:3.8728499 2353:0.066816032 2355:0.5402863 2358:0.061380699 2360:2.0368438 2361:2.2239165 2373:0.11789554 2379:0.98351562 2386:0.048987448 2393:0.20258197 2394:0.060605347 2420:1.5621616 2421:0.61215818 2430:0.076391548 2431:0.94371367 2432:0.74456501 2433:0.55676168 2434:2.2249343 2435:2.9054708 2438:2.0228238 2441:1.3958019 2446:2.3668077 2450:0.24826673 2452:0.89626777 2453:0.46658292 2456:3.1759293 2459:0.68423009 2463:0.36701131 2467:1.1952686 2470:0.49910638 2471:3.2921166 2474:0.23417956 2486:0.43988359 2490:0.12783867 2491:0.56036377 2501:0.29733986 2503:1.2642651 2506:0.88562417 2507:3.2458293 2508:1.0475967 2509:1.7474728 2512:0.061758846 2514:0.38590941 2516:0.68610811 2520:0.43922797 2523:0.63291109 2527:0.97380024 2528:0.57756054 2533:1.1989355 2535:1.1217885 2558:0.56305486 2561:4.9001813 2570:1.982478 2571:2.2770069 2573:0.55720621 2576:1.2526226 2580:0.46420604 2583:1.2120073 2589:1.6698644 2591:1.1123459 2592:0.2821323 2594:4.1521339 2595:0.35785395 2597:0.55142856 2601:1.4959862 2611:0.30639553 2617:2.0594392 2619:1.8612431 2621:0.51306742 2634:1.2537349 2635:0.054539464 2636:1.4645724 2639:0.45482188 2651:4.107523 2656:1.7719306 2659:0.2427986 2660:3.0918293 2676:0.022157781 2687:0.71979439 2688:4.1245661 2689:2.1037211 2690:0.96419549 2692:0.49054384 2695:0.44597253 2697:0.19013754 2698:1.2588871 2708:1.0127187 2714:0.59901881 2715:2.3913383 2718:0.26685861 2720:0.17493212 2727:0.23843434 2732:0.34571669 2736:3.2926931 2739:2.6868398 2750:0.71314234 2752:0.049071975 2754:1.9227818 2756:3.1399479 2766:3.6793282 2768:0.40054154 2769:0.29806599 2775:0.87981427 2778:1.8576813 2781:0.36994562 2783:1.0380106 2793:1.2415813 2795:0.1307791 2799:0.076591656 2800:1.3094307 2807:1.1330668 2811:0.014886081 2816:0.20681423 2817:0.77242374 2820:3.0589852 2821:2.2472446 2823:1.624898 2825:1.2166697 2830:0.72234416 2837:1.0964706 2840:0.79666764 2842:0.2710709 2844:0.12192994 2851:0.33909139 2854:1.8159355 2856:3.7176664 2860:1.9545981 2867:2.8356314 2873:1.2415538 2882:1.7703675 2883:0.123209 2887:0.30769405 2888:0.93597913 2891:5.063272 2894:6.2628689 2895:0.88392073 2900:2.5105243 2909:0.4751026 2917:2.4996433 2919:1.9884295 2927:1.9326074 2932:1.1285665 2934:1.8320065 2947:1.9434484 2950:3.7121787 2952:0.6404525 2953:0.43276155 2955:2.5063107 2957:0.84478056 2962:1.9622515 2970:1.675239 2973:0.67853498 2977:2.3099957 2979:0.21044576 2985:0.76445746 2992:1.8148752 3001:0.040096045 3012:2.625386 3013:0.55086243 3015:0.58772933 3019:3.1623282 3021:0.16094327 3032:1.9648069 3033:1.8466492 3034:0.24268246 3047:1.5012788 3052:2.0219395 3056:0.33052441 3059:0.54306412 3060:3.9402728 3063:0.26702517 3068:0.73432183 3072:1.3572402 3074:0.1333425 3077:3.4408996 3084:0.040634885 3085:1.309862 3086:0.54902112 3092:1.1099006 3094:1.3401299 3099:0.63747042 3111:1.6424432 3114:1.1636879 3117:0.83098966 3118:2.7901969 3122:0.91415453 3124:0.39408597 3129:3.7067704 3135:0.34962851 3144:2.6465576 3148:0.40905714 3149:0.11196971 3152:3.9972954 3155:0.4599216 3160:0.042415082 3163:1.9489019 3166:0.47962868 3172:0.53170288 3178:0.68516165 3184:1.6665584 3186:0.94526172 3189:1.0574768 3200:1.7413044 3206:0.86512578 3207:1.7544287 3220:1.8035097 3233:0.1012046 3249:0.75537539 3251:0.07030759 3256:1.1797657 3258:2.7305198 3267:0.87269163 3274:0.17185426 3275:3.2771909 3276:0.74756676 3278:2.6797321 3281:2.5553889 3282:2.5913744 3286:0.91204309 3290:3.1482091 3291:3.4500766 3293:0.49248728 3295:0.037650824 3298:1.055622 3307:0.46914339 3310:4.564816 3314:0.13929927 3317:1.2242564 3319:0.017223805 3321:1.054656 3325:2.2836776 3327:2.1686637 3333:0.089443207 3334:4.3382564 3340:1.3556206 3344:1.228889 3347:0.86270976 3349:3.4928982 3354:1.9713817 3355:0.016829573 3357:1.324756 3365:2.2192385 3367:0.7193377 3377:4.3573861 3378:1.1723568 3382:0.185606 3392:1.8086599 3394:0.24018049 3395:0.51064718 3396:0.21132541 3401:0.91442943 3402:1.505266 3404:0.1686969 3407:0.76768947 3410:1.0012932 3413:2.1713324 3417:0.013015866 3418:1.3142339 3420:0.86459678 3423:2.0149279 3425:3.6031747 3428:0.13522995 3431:0.386549 3432:0.66599679 3436:0.592565 3437:2.9980152 3445:0.98876595 3446:2.1264839 3447:1.2778894 3450:2.8457179 3452:0.048070356 3453:0.7131896 3456:2.6243768 3457:1.1208177 3458:0.15474227 3473:0.78065407 3475:0.20208102 3481:1.2147677 3485:0.7188496 3486:0.50381804 3490:1.4685179 3492:2.535686 3493:1.1538265 3494:1.0495807 3498:0.12706453 3505:2.2445827 3508:0.12860189 3512:0.95077157 3513:0.66297865 3515:1.8973947 3516:0.055913165 3521:0.70033705 3523:1.8602992 3526:0.12622577 3528:2.2311451 3529:0.92320389 3532:0.76710737 3535:1.5646713 3540:2.4175289 3548:0.91585362 3549:2.1670644 3554:1.5626284 3560:0.48323518 3564:1.4021403 3569:1.6013088 3577:1.4960324 3578:1.1676782 3582:4.2724891 3586:0.2425763 3589:0.083261788 3595:0.80198008 3597:1.8015025 3598:1.6111573 3601:0.63367242 3608:0.89755297 3616:2.3290739 3620:0.47560769 3621:1.5383971 3622:1.6488233 3623:0.39390701 3624:0.42079222 3627:1.4151285 3629:2.6569154 3630:0.54616797 3631:0.22426152 3634:0.11282259 3635:0.84079581 3636:1.1481739 3650:0.66796112 3653:0.72357255 3658:1.1745119 3664:0.085903913 3667:0.47028601 3672:0.88227856 3674:0.13702466 3686:0.34066245 3687:0.56031919 3690:1.4539251 3693:0.22803932 3700:2.3514011 3711:0.018331081 3719:4.7795339 3722:0.50523126 3724:1.7277339 3731:1.0657389 3732:0.91605663 3736:1.3428386 3751:1.0017788 3752:1.3663988 3753:1.9870183 3756:2.3262029 3761:0.82379973 3763:1.1568716 3766:1.9019479 3769:1.9060354 3771:2.1397088 3777:1.4806581 3778:0.70983148 3785:0.11006391 3793:1.3576045 3796:0.090266436 3802:0.18244931 3806:0.16955397 3808:0.28169659 3815:0.3126601 3818:2.3312161 3819:0.86425865 3822:0.82278681 3824:1.9696094 3833:1.1790316 3834:0.90727127 3835:0.94360268 3836:0.75295556 3838:0.13293993 3844:0.55941552 3845:0.12667504 3849:1.2294849 3853:0.63077581 3857:2.1632507 3860:1.9421661 3861:0.20859234 3862:2.4429357 3864:1.185241 3872:3.5472927 3876:0.060814917 3877:3.5281293 3880:0.29950625 3889:0.27636394 3892:0.10282007 3893:0.83582932 3895:0.81581444 3900:0.45233744 3901:1.4633249 3906:0.9195779 3907:3.2755225 3910:0.46911326 3913:1.9986691 3918:0.52664733 3919:2.4234443 3927:0.6977607 3936:0.33233356 3941:1.5471338 3948:0.44507205 3950:2.7993035 3952:0.16839321 3956:0.85197186 3957:2.0974989 3963:3.6018655 3969:0.5028944 3974:0.16448811 3980:2.3575387 3981:0.32063594 3982:0.087995365 3984:2.5317552 3988:4.0145922 3992:1.5600393 4000:2.4644442 4008:0.18687063 4011:0.52713609 4012:0.42877078 4017:0.12732656 4020:2.7123053 4021:1.2562202 4029:2.460701 4032:0.87340689 4033:0.95049876 4036:0.20276707 4042:0.6527341 4043:2.9987817 4044:0.96303725 4046:0.84738117 4063:3.3466382 4067:1.7734798 4074:3.4207325 4076:2.4222946 4079:2.0173223 4082:0.56952012 4084:2.5971539 4089:1.065063 
1 16:0.8700546 19:0.25778744 21:1.3989692 27:0.78183568 28:0.66503209 35:0.3733491 43:2.7198586 54:1.6680486 68:5.3690052 78:3.1814761 80:2.1950233 88:1.1499727 94:0.77581239 110:0.29017997 115:1.2174313 123:0.19006261 125:1.7022613 127:1.3542234 128:0.71484411 129:1.744216 131:0.35451829 140:2.6660414 145:1.6461827 147:3.4145198 152:0.95629537 155:0.71998537 157:0.79037714 163:1.690012 168:2.1444774 172:1.6964464 178:0.8071869 184:0.5711 186:0.060489714 190:0.36548033 194:2.9125674 195:0.11160418 196:0.069871128 199:5.6154289 200:0.34944949 205:2.4875853 209:0.24691513 214:1.0478373 221:1.291164 225:0.30203199 241:0.18752125 242:2.3963749 256:0.68893194 258:4.4807959 259:0.82358915 267:0.86366546 269:2.230612 279:0.64264506 282:0.069637567 288:0.23619083 290:0.31633013 302:1.4618483 319:2.5650613 323:0.8248626 324:0.15129375 340:0.20215407 342:4.0405416 347:0.61491555 348:5.6924458 349:3.841646 353:0.79830134 365:2.0858712 366:4.9687476 372:4.3511682 379:1.1560929 387:7.3956919 388:1.1064007 397:3.5869129 414:1.1263384 426:1.2474489 432:2.9486322 433:0.3041034 436:0.39888906 442:0.0028401762 444:2.787358 454:1.7500948 458:0.026590317 459:1.1728745 461:0.76731318 462:0.53853428 482:1.8484532 485:0.22389573 487:3.7422328 491:0.31200868 492:2.5918076 493:1.1968267 494:0.46787608 499:0.035826802 502:0.29433909 503:0.42450958 514:0.019104928 521:0.71831822 526:3.0092173 533:0.89636314 536:0.10663046 541:0.074725449 545:1.27991 554:0.74850672 555:0.23814693 557:0.65751755 581:1.4660439 601:0.21638085 611:0.53800702 616:1.2390021 617:2.1698303 626:0.85121012 635:1.6309299 639:5.084137 642:2.2847803 647:1.3288157 650:1.0483679 651:0.98561954 652:1.8504882 653:0.34301344 654:1.865016 659:0.14527459 661:0.36020148 664:0.88334596 668:0.31126812 671:1.9948971 672:1.2804184 673:2.1546943 681:0.40446758 684:1.7271051 692:3.2730916 703:0.46444792 705:6.2629156 717:0.73681188 720:3.3492577 724:0.30262551 725:0.20847875 750:1.43293 751:1.7928377 766:0.073469847 770:0.62988579 771:2.2290409 773:1.0042635 777:0.55186588 788:2.0983429 789:2.186321 791:0.95126081 794:1.4438137 795:0.23155308 798:0.62670362 799:0.18565977 804:2.4398921 808:3.6201172 813:0.0032012165 830:0.69224507 841:0.4475708 853:1.5727595 857:0.63777399 865:1.8603925 866:3.0287726 871:1.0037552 873:1.101634 874:0.023079947 882:1.3816735 896:0.95840991 909:0.019272283 916:1.822704 918:1.5669093 921:1.3722593 922:2.5664217 927:0.012880206 928:1.2239871 943:3.6889672 944:0.92141461 945:1.4238703 947:0.80370492 953:1.4843129 954:1.0801387 966:1.3282938 971:2.7864563 972:5.0803757 975:1.8745346 976:0.48761708 982:2.2975261 983:0.47680914 988:0.49714407 997:2.6679459 1004:1.591356 1006:1.0466909 1013:1.3746057 1017:1.1051803 1022:0.54733193 1024:1.0549698 1031:0.37830955 1032:0.41744837 1041:3.4286089 1043:2.5828791 1049:1.4708005 1051:0.49861783 1059:2.6734931 1060:2.2609558 1064:1.4009895 1067:0.57774317 1069:1.0588737 1070:2.3130462 1071:0.56739897 1075:0.80254185 1078:2.9790683 1081:1.9877634 1089:0.16790482 1095:1.1066519 1096:0.55003023 1110:0.85357612 1111:0.73487848 1117:0.010802239 1118:0.61506534 1125:1.7316639 1134:0.45985612 1140:1.7819202 1152:0.32889178 1159:1.5367813 1168:1.7033377 1170:3.838114 1173:1.0919232 1176:3.7689645 1180:3.4267669 1181:0.33602619 1182:1.748714 1186:0.14658561 1193:0.45071128 1203:0.26662973 1204:1.5387633 1206:0.57271987 1216:0.33060712 1217:2.2198656 1221:0.40730089 1223:0.38458237 1225:0.24623217 1226:3.3997576 1227:1.3244733 1228:1.1379504 1234:3.5679271 1236:4.503449 1249:0.10653478 1250:4.2148876 1258:0.068466008 1260:3.2383194 1261:0.04962378 1274:2.9792254 1279:3.0590415 1281:2.1216311 1297:0.71661222 1299:2.2818515 1302:2.4296513 1306:0.10261115 1309:2.2165818 1311:0.32382128 1314:3.8148725 1315:1.8933007 1317:0.59553838 1328:0.63218921 1334:0.23212974 1335:3.2164416 1336:0.017825432 1337:0.79138774 1340:2.0315077 1343:0.52006447 1347:1.8628492 1356:0.89074993 1368:3.3832254 1374:1.9922292 1375:2.0233574 1379:1.1475372 1386:1.2602274 1396:1.1260786 1398:0.16932295 1405:0.40693346 1406:3.3108356 1409:2.9576626 1410:0.10998026 1411:1.3993211 1412:1.7931302 1416:0.92715466 1419:3.2286305 1423:1.8926654 1429:1.0030591 1432:0.46469697 1433:0.55152678 1438:0.78463221 1444:6.6602449 1445:1.060076 1452:0.21722597 1457:1.2432436 1458:0.45257467 1467:1.7466444 1468:0.078294158 1469:1.4339305 1470:0.49435776 1471:3.1802368 1475:1.1047701 1476:1.0815336 1479:0.54025996 1484:1.7955112 1485:2.5775151 1500:0.26328048 1511:2.7645416 1513:1.8215225 1515:3.5227239 1519:3.2032459 1520:1.6552079 1522:0.77366513 1523:7.1326814 1525:0.60923016 1526:0.75687492 1533:1.3599639 1534:0.19875711 1543:0.81139416 1555:1.363425 1556:2.3264799 1557:0.34422654 1562:2.8418691 1573:0.50366199 1580:0.91964328 1586:2.2497432 1588:1.1347976 1590:3.9818666 1595:0.28647304 1600:1.2836407 1602:1.2098937 1604:3.44133 1613:1.0118992 1615:0.8771612 1618:2.1708338 1626:0.65975219 1629:1.8262033 1645:0.57636267 1647:2.3775208 1654:1.2089676 1661:4.0112448 1667:0.84678668 1668:1.0855032 1675:1.7521917 1677:0.6688447 1682:1.2289579 1690:1.3033692 1695:0.56888789 1701:1.3878926 1710:0.77542174 1711:1.7963679 1712:0.72193635 1713:0.86567551 1718:1.8533847 1723:2.6916018 1725:2.8645792 1726:0.039173216 1727:3.3236017 1730:0.28186041 1740:1.2197447 1749:0.56575817 1756:0.49125642 1758:2.4692881 1762:2.3084972 1765:1.2348324 1767:0.99304014 1768:0.83506894 1774:1.6540412 1777:4.9079762 1780:1.2607703 1781:0.30085236 1782:0.54564661 1789:0.92220902 1790:0.21599048 1798:0.50125706 1803:1.1816969 1804:0.85384583 1805:1.5022594 1817:2.6468797 1823:0.55439734 1825:2.8271918 1830:1.894163 1831:0.67391872 1833:2.5774856 1840:2.1636577 1842:2.1691093 1843:0.069746763 1846:0.19023916 1848:5.9716177 1849:0.62339604 1854:2.3448927 1862:0.5856868 1871:1.017701 1890:0.66542143 1895:2.6839199 1897:1.4994073 1901:5.0383725 1908:0.90627456 1915:0.72255242 1918:2.7215252 1921:1.3991718 1943:0.34651324 1948:1.2399722 1950:0.93230957 1963:0.37329653 1968:3.2098103 1973:2.5269737 1975:0.84567785 1976:2.2735379 1977:2.7777679 1988:1.1334928 1999:2.1080885 2002:2.0753286 2004:4.4677134 2005:0.0016865432 2011:1.3960514 2012:3.5202122 2021:2.7429299 2032:3.6210732 2039:0.14105156 2042:0.51906496 2048:1.5645339 2049:0.68138224 2051:1.053522 2053:0.89901888 2057:2.4984546 2058:2.492455 2061:0.4471671 2088:1.6124434 2095:0.33418092 2107:5.988152 2113:0.11936454 2125:1.5036263 2127:0.14042822 2132:2.8907497 2152:2.4510787 2155:0.45352703 2162:3.2817507 2164:1.2102113 2165:1.7364225 2167:2.2400711 2177:5.7666097 2179:0.40786666 2183:1.1942551 2186:2.556941 2187:5.245204 2188:0.10178544 2196:3.4942794 2202:3.1038811 2216:2.1073873 2223:0.76680708 2224:0.81514609 2226:1.2163409 2228:0.77445811 2229:4.2442603 2230:0.1754452 2233:2.3130603 2239:0.8774609 2240:0.69401556 2241:2.6397731 2253:3.3750167 2255:1.7044339 2257:2.6567745 2274:0.26309335 2275:0.25000492 2278:0.88554239 2284:0.16593044 2285:1.001292 2286:1.209532 2294:0.19656286 2310:2.319839 2321:1.2055936 2322:1.7973677 2337:0.027512033 2341:0.67465794 2343:0.0080863684 2344:2.0954516 2346:0.79667306 2349:1.7580019 2353:1.5936953 2355:1.8983948 2360:5.2186651 2374:0.17300019 2378:0.1283578 2381:0.17153955 2404:1.2032129 2405:0.99919915 2415:0.083296359 2417:0.36809516 2418:0.2837176 2420:4.1000938 2423:0.0080507398 2430:0.49397045 2431:1.2730436 2432:2.2344718 2434:2.1253002 2435:6.2069964 2442:0.86117578 2443:2.154407 2445:0.019909918 2446:3.2308853 2447:0.31022662 2450:0.4063791 2452:2.9336398 2458:0.8740983 2459:2.6639576 2470:1.181138 2471:1.9254128 2485:0.81832266 2486:1.0547928 2487:1.0043092 2507:0.38839719 2508:4.1243339 2509:0.047357813 2512:0.52548099 2514:1.0300654 2521:0.54691947 2526:0.69980365 2527:2.8764291 2528:2.7128296 2532:1.3997148 2533:2.0027418 2537:2.5993392 2561:0.1953705 2571:0.32524806 2576:4.0204582 2583:1.5622561 2589:0.56533521 2594:3.2530208 2595:1.717553 2598:1.4933429 2604:1.3261546 2610:0.51865184 2611:0.82659721 2626:2.359405 2632:0.63246262 2634:2.1923199 2636:3.8455496 2638:0.3325637 2639:2.3626246 2644:0.14085856 2647:0.41452017 2649:2.6657493 2651:1.1455848 2655:0.49962181 2656:1.7111576 2658:0.2089164 2660:0.095473051 2672:0.42627206 2687:0.034510255 2688:3.8225172 2689:3.2869544 2698:0.76329243 2702:0.11657894 2708:0.68158734 2719:0.71911967 2721:1.7067537 2722:0.18987074 2723:0.35198128 2724:1.5637718 2727:2.260478 2731:0.98509914 2732:0.10619199 2736:0.57001841 2739:0.1846652 2740:3.4359102 2742:0.51981747 2750:1.4986155 2763:0.36974004 2766:0.25917876 2771:0.52422929 2775:2.1209912 2778:0.71083677 2787:2.7128692 2789:0.81168377 2793:0.45401806 2796:2.3454027 2799:1.8515619 2800:5.0180459 2804:1.2896767 2805:1.1805788 2811:0.077719659 2820:0.52865541 2821:2.6933203 2823:0.058986753 2828:0.36250788 2833:0.19622155 2837:1.1443255 2838:0.51429141 2840:1.9701228 2842:5.8189254 2843:0.25235537 2844:0.87326682 2854:0.91008627 2856:0.13404387 2860:0.80332446 2864:4.8571301 2865:0.5852766 2867:4.3956265 2870:0.55151373 2873:0.13229099 2878:1.4713861 2891:2.0299003 2894:4.4439573 2913:0.14920756 2917:1.9409525 2919:1.4845519 2921:0.38556397 2925:0.55290574 2927:0.23795301 2929:2.5499949 2930:2.249902 2937:0.94942141 2947:0.044123471 2950:5.8083067 2953:0.1114412 2957:1.2229303 2962:0.45202658 2965:1.2856898 2971:0.10775779 2979:0.11410522 2985:3.5422592 2994:1.5354618 2996:0.83994901 3003:4.041636 3012:2.0299048 3019:2.3214226 3021:4.4532428 3033:2.3796864 3043:1.408993 3048:0.66873062 3051:1.1341386 3052:0.062344313 3057:2.4621696 3059:0.19001864 3062:0.0050227642 3067:0.31599244 3070:4.6861181 3085:0.0035049021 3087:0.11952086 3094:6.517952 3097:0.95648921 3101:0.50354141 3107:3.3209851 3114:1.1892333 3117:0.66876459 3118:0.61303115 3127:0.63901544 3129:4.1302629 3149:2.4641676 3152:0.52869451 3155:0.63964272 3161:0.6696465 3163:4.9886837 3168:2.8004797 3169:2.1810813 3170:2.6869509 3178:2.0443347 3179:2.5426264 3186:1.9710355 3189:0.40286267 3190:2.7011092 3192:0.3510313 3193:1.1810918 3195:2.4362183 3196:1.7434406 3200:4.9927845 3202:0.36459789 3207:1.6686238 3214:0.91174495 3220:1.6290045 3223:0.0077342987 3228:1.2250412 3232:2.5106118 3235:0.31305397 3236:0.6389302 3247:0.96380699 3252:1.0950129 3253:2.9639764 3256:1.4686198 3258:2.5489268 3272:0.92919081 3275:1.9805537 3278:1.8446288 3286:0.36985037 3287:0.017076671 3293:3.0696859 3294:1.4978279 3310:4.9140544 3311:0.72302741 3321:1.8257796 3327:0.9999488 3331:3.3923206 3334:3.1813061 3335:2.1851687 3344:0.47552538 3354:3.304286 3367:1.445004 3369:0.73983508 3370:0.016787261 3371:1.0743713 3383:0.8349936 3385:0.11626363 3387:4.5046806 3388:2.970644 3392:4.3872838 3394:1.5209472 3399:0.15762585 3413:0.77744788 3425:0.48737699 3436:0.25043944 3437:3.0524714 3438:0.54611939 3450:1.519343 3457:1.748836 3459:0.36308438 3465:2.3690524 3468:2.5703883 3471:0.23706925 3476:0.13368116 3478:1.5163766 3482:0.4365449 3486:1.5578815 3489:0.63566679 3490:0.66145515 3493:1.227067 3494:2.1705174 3497:3.6904519 3504:0.86465216 3515:1.3935235 3517:2.5876973 3521:0.93164754 3526:0.79205179 3529:0.59237701 3531:0.67908609 3537:6.1412215 3554:1.5535853 3556:0.46182871 3560:2.5031762 3569:2.8858995 3572:0.91527683 3576:0.35650516 3582:3.4342489 3586:5.8684793 3588:0.36504731 3589:0.28151536 3593:0.57925659 3598:0.31133866 3602:3.0108109 3608:2.1529858 3623:0.37705141 3626:0.6307376 3629:3.6201193 3630:2.6299131 3636:3.6572504 3640:0.22049925 3650:1.3813905 3654:2.8140228 3671:0.84503806 3672:4.4474506 3690:1.788991 3692:0.47974607 3710:2.1689122 3711:1.3049653 3715:0.088090494 3719:4.1417542 3723:0.41445208 3727:0.48371503 3731:0.45119837 3736:0.040761635 3745:0.98166752 3752:0.14673921 3756:0.31115085 3769:1.4912348 3777:1.1622915 3785:2.2663405 3793:2.8980379 3803:1.2508638 3808:1.5180525 3813:0.36675066 3815:0.50752753 3818:2.0292423 3821:0.57146084 3823:0.37160003 3824:2.3357806 3831:0.57455915 3837:1.7293322 3838:0.09759146 3845:2.0948052 3855:2.3365343 3860:2.5395713 3864:0.5174998 3868:0.2770111 3875:0.36573446 3876:2.4621131 3877:0.50869691 3880:0.13032758 3881:0.5919683 3882:0.53981203 3889:0.6313948 3907:3.3435028 3912:2.057806 3918:2.2377851 3919:2.1393149 3926:0.94031429 3933:0.055065155 3935:0.33323455 3936:0.97616673 3941:3.7444735 3943:0.03886658 3945:0.11253814 3951:2.8412628 3956:1.7497764 3957:1.565617 3963:4.3849936 3966:3.4198158 3972:1.1352409 3973:0.16610691 3981:4.4566741 3982:1.8063859 3984:0.46814853 3988:0.93419051 3990:1.0494487 3994:0.90829879 3995:0.37907714 4004:1.9720647 4005:1.1123317 4011:5.0928831 4012:1.0473232 4016:0.12872744 4020:0.99553382 4024:1.0798159 4026:0.35715985 4032:8.0230017 4043:1.697365 4050:0.21946806 4051:1.8106211 4059:1.5097152 4063:0.37338042 4064:1.0310845 4067:2.7830229 4068:0.58752793 4070:0.32039914 4071:0.53201956 4072:1.5937166 4074:0.88587999 4076:6.1329494 4077:0.7020185 4082:1.1477852 4084:0.093550801 4089:0.29299834 4090:0.84064227 4093:0.80233097 4096:1.4610577 
0.409914924030226 5:0.95417809 10:0.95993721 11:0.56537223 14:2.0397022 18:3.6467485 19:1.2162974 20:1.5533698 21:1.0451312 27:1.9939662 29:2.677006 60:0.1977286 61:1.567811 94:0.93428886 97:0.35814637 115:1.7610455 123:2.3747337 125:1.2548884 126:1.3993793 130:2.2298794 134:0.19590667 143:4.0920887 145:0.065082423 147:1.549144 148:4.0504222 157:2.6009707 161:0.7752924 163:3.1996264 166:2.0285089 174:1.4839375 181:0.98686671 197:0.3621946 200:3.4848228 210:5.7325158 216:3.846189 217:3.6376774 218:0.40891588 228:1.0053701 229:0.14089391 234:0.86321521 235:0.53761011 236:1.1926588 239:2.7122869 241:4.2622986 251:1.0132585 256:0.66958189 258:1.3721077 259:1.3065326 260:0.27608025 267:1.2823169 270:2.0587387 275:3.2111087 288:0.7273128 289:0.015843526 303:0.81802016 317:0.30531412 323:1.4485196 335:1.1188548 342:0.97783023 348:0.78908122 349:3.8227196 350:2.1479449 359:2.2235351 372:3.8965704 374:0.57848769 378:0.067598999 382:0.43297681 386:1.453456 391:2.0559833 394:0.098582931 398:0.038685158 412:1.5517223 420:0.48846391 426:0.80203426 434:1.4741037 440:2.3885102 442:2.9859877 444:2.4260638 454:3.1730919 459:0.71485889 462:1.2364929 463:0.036425471 482:0.71140778 485:1.7978086 489:3.0421958 491:1.0769054 494:1.7474521 499:0.43156192 500:0.59322953 504:0.94842935 505:5.3390679 509:2.5015728 521:3.4065919 526:0.36313424 527:0.40210834 530:2.418829 536:1.1160403 546:0.1643405 562:0.31023347 575:0.029455483 576:1.2398651 586:0.70668244 588:0.6563673 592:3.3382866 594:3.8816252 599:2.2739284 601:1.0231096 603:1.0279154 605:1.9520917 611:1.6511719 615:0.0028105974 616:0.92316163 625:2.0099802 629:0.95828068 631:0.67420048 635:8.1082869 638:0.57085049 639:2.9510596 644:0.99997401 646:2.3507586 650:0.64736879 651:1.8507172 657:1.1972544 659:5.9176731 661:1.3668208 662:2.4281478 664:1.4905488 669:3.0854757 670:0.2484206 671:0.45005077 672:1.9112556 675:2.3436699 681:2.8275504 684:0.42309323 692:0.22065127 694:0.52549994 697:0.25118378 705:1.8414731 706:1.4768562 723:1.5687418 724:2.1414094 738:1.1717459 740:0.0054433346 748:4.8925428 750:2.3197393 751:1.1885587 755:0.90297949 760:0.76697516 768:0.9020192 771:2.7176585 773:1.7604458 774:6.163599 782:2.7938805 785:1.5374808 788:5.0458851 795:1.3689905 799:1.4031327 811:0.023718521 820:3.5436053 826:1.3286667 842:0.57647729 848:2.3465357 853:0.92999923 857:4.0997891 861:1.2956026 864:0.71892756 865:3.1426616 867:1.075302 868:4.3051233 869:2.6083081 871:4.1736054 878:1.5442703 881:1.4886656 905:0.96826309 912:0.29449266 918:0.51548254 924:2.6714897 938:4.0756001 943:0.094960868 945:0.93630552 947:0.79557288 951:2.5410473 966:0.50163156 968:0.084658802 970:0.24176598 972:6.8264103 974:1.6297143 985:1.1257936 989:4.9188757 998:0.47441667 1001:0.41070163 1006:0.4541727 1010:0.19052625 1014:1.3441213 1018:3.5419872 1023:0.026145309 1046:0.29522544 1049:0.14354809 1053:2.4815209 1063:1.3152922 1080:1.2926842 1081:0.55767435 1084:2.3252521 1086:0.35310367 1094:4.4018469 1095:3.8915131 1102:2.9652219 1105:1.0335742 1106:2.2488918 1108:0.78289413 1125:0.47872978 1128:0.29780516 1138:0.23392832 1150:0.97732091 1153:0.80198312 1159:2.2245729 1170:2.3987811 1176:4.9118633 1177:0.55563468 1180:1.3049817 1181:0.085063472 1183:0.95680428 1188:7.0194745 1206:5.5750461 1213:0.67067081 1217:0.21471956 1220:0.84334677 1221:1.426271 1234:3.577177 1236:2.2887826 1240:1.9323955 1242:6.9716783 1243:0.61621547 1246:0.047411889 1250:2.0539997 1251:0.026512323 1277:1.772046 1288:0.63655901 1291:3.7550337 1295:5.7143755 1305:0.29368973 1309:5.8348889 1317:2.2274163 1319:2.705725 1329:1.4770641 1332:0.50579005 1335:4.5702953 1340:2.0623372 1342:2.3482711 1345:0.43047655 1347:0.13932228 1357:3.1984777 1359:2.1229601 1360:2.2631781 1364:0.18641442 1365:0.27477467 1368:4.9226618 1371:1.4388773 1372:3.1149545 1376:1.2330039 1385:1.8201581 1387:0.56408638 1402:2.6596303 1406:1.8127995 1409:3.297102 1410:1.4744722 1411:1.3081993 1412:1.1502212 1416:0.605488 1421:1.952072 1424:0.57124698 1428:0.73185301 1429:5.7039976 1430:4.1240087 1431:3.3349781 1432:0.77814448 1433:0.49490687 1439:3.0392287 1443:1.7633364 1450:3.1897643 1452:3.3150148 1456:0.70691931 1458:1.7059579 1465:0.73771501 1467:3.0720651 1470:2.866353 1471:0.077621102 1476:0.21829921 1484:1.6780274 1491:0.20207033 1495:3.4507253 1496:3.6012352 1513:5.6975131 1514:1.6507614 1519:1.648434 1520:2.9954896 1523:1.1226178 1525:1.3145213 1538:3.0113065 1541:1.1156119 1544:2.5570939 1556:0.41185352 1560:0.52856565 1562:1.7267737 1568:5.2436585 1580:1.4397088 1582:2.8373294 1586:4.1412773 1587:1.8005971 1588:2.346035 1598:0.28757668 1602:0.067305505 1615:1.85728 1618:2.1297989 1622:0.43970364 1625:0.35719758 1630:3.2974076 1636:0.15075372 1640:0.24465278 1643:0.084620893 1652:0.57669234 1659:1.0559616 1661:4.2521591 1663:1.1477823 1668:4.2664399 1678:1.0504303 1681:4.2983866 1695:1.4639063 1696:1.9989588 1697:1.8360546 1702:0.16270608 1703:1.1177721 1706:2.6154864 1708:0.61544895 1712:0.13923573 1715:0.76326591 1720:3.9852579 1722:1.1696991 1726:2.3811691 1745:0.0082656443 1746:4.5887947 1759:0.25662398 1762:4.4992595 1764:0.21248998 1765:0.67209029 1767:0.37865543 1770:0.079708666 1772:2.4554245 1775:0.32973155 1778:5.6795421 1780:0.056932896 1792:1.7408309 1794:0.87820554 1795:2.0990901 1804:0.59423411 1805:1.4649006 1822:5.0783238 1825:0.79762781 1826:1.2417367 1831:1.1926725 1833:3.0592523 1846:2.9808552 1848:2.0556455 1852:1.8160322 1857:1.3393189 1870:1.6453605 1871:1.4740115 1888:4.629282 1890:3.6866813 1896:1.2826425 1897:3.0610845 1898:1.9883472 1900:1.188352 1912:2.148685 1925:0.4126735 1938:2.1926079 1943:8.2779379 1951:1.5606925 1952:0.0060477853 1968:3.6829767 1972:0.076581955 1975:2.151315 1992:1.3366306 1995:2.3545978 1996:1.8237038 2004:0.17888643 2005:1.4669538 2011:0.26344654 2015:0.26366574 2019:1.8173327 2021:2.148699 2030:0.55875003 2035:2.2700613 2042:1.4977973 2048:4.2525134 2052:0.91696131 2066:1.1442714 2075:3.1638725 2079:5.4345469 2097:1.9363151 2112:1.326174 2116:0.9385258 2118:0.9929077 2123:1.98469 2130:0.56619811 2131:0.96944624 2137:2.733387 2144:1.3135717 2146:1.1870331 2147:1.0811886 2153:3.4619169 2154:3.9501038 2155:4.0821791 2172:1.7315954 2187:1.7163018 2188:1.0790327 2198:0.439558 2202:5.5806332 2203:1.7584388 2205:0.54849374 2210:0.38687861 2211:2.7939444 2216:0.17640254 2250:1.0153246 2255:2.556658 2257:0.62954545 2265:2.3368559 2267:1.6774106 2281:0.9929502 2288:0.53152043 2290:2.127672 2298:3.1662357 2304:0.51569474 2311:3.5324361 2322:7.2088141 2336:2.6663139 2338:0.13900107 2343:2.7214019 2348:0.86963892 2349:0.92875063 2353:6.4882841 2360:5.8570919 2362:1.9497968 2367:0.1967558 2372:2.6018257 2374:1.705857 2379:2.1062815 2381:1.3778816 2388:0.12338662 2393:1.6387762 2396:2.7162664 2401:1.559213 2402:0.25483057 2408:0.43270424 2417:2.430037 2420:0.70595342 2422:0.74213111 2425:1.4127834 2431:8.0872898 2432:3.2088683 2433:0.69932532 2452:2.4501326 2457:5.7198491 2458:0.086046994 2466:2.3782341 2471:3.2814364 2485:0.58095217 2487:2.0822172 2488:4.3629169 2501:1.4593853 2507:1.6767836 2508:1.9731215 2509:0.18734235 2514:2.9467335 2516:0.16430113 2520:0.29180044 2526:3.6185718 2527:2.3829944 2528:0.49046201 2529:2.2361228 2530:6.8478761 2531:2.5781941 2553:0.49941567 2558:0.14815778 2577:1.314664 2586:1.1734127 2589:2.4527376 2598:1.7686744 2601:3.3327565 2604:2.190922 2620:3.4448166 2621:1.1291397 2632:0.65268797 2636:1.1474837 2637:2.0926313 2639:1.0547305 2641:1.8939947 2646:1.3766879 2651:1.3819563 2652:2.8885112 2658:0.59543318 2672:0.56086278 2675:1.4382685 2695:1.2404941 2698:3.7458985 2704:2.8937073 2708:4.2976489 2710:0.78244197 2713:1.9429185 2714:1.6720469 2715:7.765758 2718:0.62391341 2719:3.4822671 2723:3.499351 2727:1.7143379 2733:0.46739057 2736:1.6938281 2740:3.2509131 2741:1.3001819 2747:1.728439 2750:1.8643937 2752:4.4531674 2754:5.1911273 2763:5.4821324 2765:1.9023881 2766:1.7542844 2777:3.618989 2778:0.28921038 2790:0.79085457 2793:1.4582033 2800:2.2939677 2808:0.40348384 2811:1.1000516 2816:1.9045539 2826:0.0066593289 2840:1.3016309 2842:3.7153738 2860:2.415168 2864:2.9271898 2875:0.48826456 2882:0.38604617 2887:0.40836161 2891:2.0421522 2895:1.7777548 2898:2.7206187 2903:4.1580749 2917:1.6047051 2919:3.026252 2931:2.8085058 2932:1.0752096 2946:1.5844668 2947:1.7270212 2950:5.1641068 2951:2.4977615 2952:1.9610313 2956:1.1130534 2958:0.370408 2968:0.17677629 2969:1.59513 2971:3.6948066 2977:0.22602397 2978:0.40070978 2979:0.41608498 2981:0.88327837 3003:0.8682813 3009:0.44881445 3010:0.82010996 3015:2.1414928 3035:0.84051609 3036:2.460444 3044:2.3009417 3048:1.8257759 3065:3.7259033 3067:3.870193 3069:4.0369673 3074:0.41057292 3075:2.2182016 3077:0.9246347 3081:0.75492501 3097:0.0088300109 3107:2.025368 3117:4.0408568 3118:1.6424983 3127:2.0524163 3141:0.42310941 3144:4.0997596 3145:0.11048672 3150:1.7740742 3152:5.0705009 3155:0.50440425 3161:1.5122445 3162:0.93487489 3163:1.0291417 3164:1.4123921 3172:1.3575355 3178:0.34605196 3180:1.9895254 3196:1.9191769 3198:0.7724635 3206:2.4663489 3220:0.80795777 3233:1.1984707 3235:0.48391789 3247:2.723166 3253:4.4687681 3256:2.4698677 3260:6.4917359 3276:0.066508949 3286:2.3173394 3287:0.35462102 3294:1.3698469 3299:1.6912825 3302:1.6500392 3310:0.24166143 3323:1.2562635 3324:0.8942591 3334:3.6723342 3338:1.2997909 3343:1.1981728 3344:1.0678881 3348:0.087871969 3354:0.1197556 3358:2.8443136 3361:1.4961534 3363:2.2700369 3365:0.92129397 3375:0.27379662 3394:0.050456434 3395:1.8426646 3402:3.0249987 3404:0.93048775 3413:2.5151949 3427:2.4895685 3431:1.245396 3437:1.5124352 3438:3.0995164 3443:0.0094393492 3457:1.4122752 3465:0.50322974 3473:0.40228349 3482:0.19550729 3484:1.7806206 3489:0.65179378 3491:4.0653663 3495:0.10640404 3496:3.5695641 3504:0.97572088 3512:1.1031697 3521:0.71559089 3526:3.3712814 3531:3.581953 3534:0.26499313 3536:1.3209603 3540:3.0709176 3543:0.31499916 3548:0.66085088 3549:2.2176194 3554:3.0788903 3556:4.24682 3564:3.8038828 3569:2.568532 3576:0.38658917 3591:1.795909 3599:0.44381028 3601:2.0203812 3603:1.1813941 3604:0.20942245 3608:3.0330095 3614:4.9206471 3615:5.416646 3629:2.0970223 3650:3.6191537 3653:2.4318388 3666:1.7251456 3669:0.49728641 3672:2.8568013 3676:0.67062628 3677:1.4108098 3682:0.12903941 3683:1.6864358 3684:0.36019793 3687:5.5002561 3689:0.26731265 3690:0.15362585 3691:5.30861 3695:0.25504887 3696:0.44342372 3700:0.57757759 3705:1.7835248 3710:1.7210587 3712:1.6708053 3724:2.03034 3752:6.3714242 3753:2.9346771 3758:3.1040192 3766:6.3364301 3769:1.0167971 3771:0.85370713 3777:3.3649209 3785:2.6933122 3789:1.8294995 3793:1.2614942 3795:2.9596148 3797:6.5667062 3798:0.1674906 3802:2.739531 3807:1.3967535 3808:0.77247322 3813:0.26852393 3814:4.1797366 3815:1.1196517 3818:5.8447013 3824:3.2042248 3831:3.0872843 3836:2.0030565 3848:1.5853643 3860:2.3988051 3867:2.7485197 3871:2.8292027 3874:0.1129853 3875:0.1827344 3877:2.0425339 3891:0.41537371 3893:4.4103289 3895:0.96950769 3900:1.093567 3937:1.845704 3942:3.2526217 3948:2.2651529 3952:0.43186718 3955:3.3434091 3956:3.5673795 3957:1.9730417 3963:6.2432337 3974:0.64214706 3978:0.08791104 3984:0.64999139 3985:3.049654 3988:3.2106204 4004:1.7474689 4014:0.4076438 4016:0.1781826 4021:1.3494291 4024:1.0368131 4032:0.76262569 4044:1.8972378 4058:2.4229789 4063:1.9640644 4072:1.0202651 4074:0.024045601 4084:1.4170256 4085:0.13536477 4087:1.4796154 4092:1.6471533 4094:1.841022 4095:3.1711051 4096:0.16728207 
0.9505478833462702 1:0.52817661 18:0.45996985 19:3.540019 20:1.0227391 27:3.437382 31:1.4503754 36:0.12034619 51:0.23398189 60:2.0296626 61:2.2944672 65:2.8529763 68:0.56737852 70:1.0930214 84:0.62135756 108:0.19051379 126:4.5453148 134:0.045431405 146:0.74894202 147:1.0077493 148:6.2534251 161:6.7086725 163:2.5313234 166:0.99843264 167:1.6026239 170:1.8326011 174:0.7206856 180:1.8020574 197:1.2229474 200:3.6648743 210:9.1779881 216:2.4505413 217:7.9454961 223:1.3466543 224:2.1924999 229:1.0314689 234:0.1161727 240:2.8104858 241:0.27950934 256:1.1460068 258:1.864342 274:0.042043753 288:1.1532907 297:0.52637905 301:1.473122 303:0.1241897 348:2.6674128 349:2.590342 350:3.2725945 351:0.50025654 372:5.1833267 386:0.1966067 391:1.6478317 420:3.1817622 432:1.6109778 434:1.1394403 440:4.9332614 442:0.34639007 444:1.1140896 450:1.7751496 452:2.538255 459:0.43541792 472:0.33760935 479:0.5712105 482:1.5149965 487:0.28660712 499:1.7929343 502:1.2335951 505:0.64916629 514:1.5979432 515:4.8667674 526:2.1690233 527:0.89036572 530:5.7450066 549:1.5133101 553:2.1134546 569:0.56928849 572:0.0016383529 575:0.26361319 576:4.5754352 578:3.887249 583:0.63878298 586:1.1361523 588:2.8161952 592:1.7092892 593:0.13274056 594:1.142573 595:0.6359973 599:1.0716213 601:0.9487716 603:0.72569543 605:0.081121296 612:0.22146107 616:0.51916456 625:1.7713525 635:4.8204241 639:1.2580464 641:0.62508798 646:0.72568834 657:2.2873323 659:1.147681 662:4.377265 663:0.021793753 664:1.4029361 667:2.5021863 669:1.6287074 672:1.6375053 673:3.5228708 682:0.076829314 694:1.4075301 697:1.6085634 704:0.53691673 706:2.2970471 711:3.1663537 717:1.1459073 720:3.2588124 723:2.4971333 724:3.9062304 737:1.4929136 748:3.9506903 755:5.1410728 757:1.4304981 759:0.72554982 768:1.2909975 771:6.8145714 774:1.70816 782:0.91809905 785:0.65073293 788:2.753803 789:2.4737637 798:0.71723211 803:0.014107555 813:0.69249797 820:4.539227 826:2.9329884 848:3.351614 857:3.3589013 863:1.2903354 865:2.5703149 868:3.5876734 871:0.52591187 876:4.9287372 882:0.1602629 889:0.19375211 908:0.059161097 912:1.0507362 915:4.050478 918:0.50670326 922:2.0133896 924:4.4066882 934:1.3477142 945:2.2490165 947:4.6395259 960:0.97583503 972:0.022853196 979:0.96634972 985:0.83167362 989:5.3071704 993:0.83307362 1014:0.43645236 1018:8.5905247 1019:3.9759555 1023:1.6335144 1030:0.33339307 1035:1.2724903 1053:5.0484743 1080:4.2544017 1084:1.1398302 1094:0.38011491 1095:4.9652195 1096:4.2241416 1102:5.8897896 1106:3.2051418 1110:0.66912186 1111:0.88662755 1138:0.18135971 1139:0.87898719 1153:0.39707291 1176:5.1150923 1177:2.5106456 1181:2.9461286 1183:1.9999851 1188:7.989388 1189:0.39856923 1198:2.1045856 1206:4.6996055 1217:3.0666509 1228:0.56485063 1234:0.091071233 1236:0.23007321 1240:0.77337646 1242:4.4597855 1254:0.1426017 1255:1.0703623 1274:0.3730706 1275:0.40984237 1277:0.89736396 1279:0.41597879 1286:3.9235287 1291:3.088068 1292:0.72219384 1295:7.1566343 1305:1.2080436 1309:2.3670073 1313:0.56027466 1314:1.5608777 1317:0.88918173 1319:0.10079247 1323:0.16914217 1337:1.0795774 1340:1.2479124 1342:1.4568143 1345:2.3712914 1352:1.0323119 1357:1.3010495 1359:2.2365959 1360:6.665401 1365:2.277998 1368:4.6853161 1371:1.5768013 1372:1.5562887 1376:2.534857 1384:0.099482238 1385:1.3815687 1386:0.19540441 1387:0.737207 1396:0.94335711 1406:2.3441713 1429:3.2647159 1430:3.1512899 1431:1.3913997 1435:0.51486206 1438:5.8187108 1450:4.5248046 1452:3.3549221 1458:3.5848517 1467:3.1513972 1471:2.1730208 1472:0.24172947 1484:3.7786171 1486:2.8817091 1487:3.3594396 1488:1.4538815 1495:4.5715108 1497:1.2524147 1511:0.32149634 1513:4.001658 1514:0.066885397 1519:1.8054863 1538:4.3114467 1544:0.2154395 1556:2.443531 1560:0.8356148 1562:0.28550249 1580:1.0447438 1582:2.810761 1587:0.12625161 1590:3.327193 1613:1.7274652 1620:1.6795056 1622:1.9632119 1625:1.1199937 1630:2.8910584 1634:0.21310908 1640:0.27002382 1643:1.4469596 1648:1.2769978 1657:0.26780468 1661:5.407423 1662:1.2156076 1664:0.0051986277 1668:3.6501803 1672:0.62615848 1675:1.9588815 1677:1.185318 1681:3.628839 1690:0.56015575 1703:0.71155602 1705:0.84229624 1706:2.8537576 1715:3.4812922 1720:5.3612061 1721:1.2549989 1726:3.208318 1746:4.2128496 1762:4.626883 1764:0.98310637 1772:2.8074415 1778:5.8976712 1779:0.46449363 1795:2.8983581 1806:0.72800195 1822:3.4853978 1833:0.41830415 1837:0.35659793 1844:1.0802643 1848:3.727134 1851:0.35408753 1852:1.3941773 1870:6.392375 1872:2.2231491 1874:1.0574195 1881:2.9578071 1888:1.7977196 1890:5.1070528 1896:3.8276076 1897:1.9473684 1904:0.20479904 1912:2.3517413 1922:3.743937 1928:5.1622295 1937:0.38761383 1938:1.3654532 1943:5.456677 1959:0.32374227 1968:2.5855155 1970:6.7818842 1972:3.453779 1975:1.8218346 1979:1.5874979 1990:2.0515888 1992:1.1695404 1995:0.28405949 1996:4.5128832 1997:4.9000907 2019:1.8373642 2022:0.97573721 2038:0.21727523 2042:1.1375587 2043:2.4460959 2048:3.4087079 2049:0.43866846 2052:2.206248 2070:0.098292321 2071:0.32966378 2075:3.5136089 2076:1.3301456 2101:0.36765257 2105:0.59260941 2108:4.0685759 2116:0.34909931 2117:0.1547381 2131:0.688407 2138:2.7350447 2140:0.36157212 2153:1.626712 2154:4.2555509 2155:1.201552 2179:0.39854896 2187:0.21003775 2195:1.6644769 2201:3.495672 2202:9.9268398 2203:4.4844441 2211:1.4159224 2253:0.10076031 2255:2.1040721 2257:3.8376238 2267:2.636394 2275:0.85160428 2290:3.128454 2298:4.7237797 2302:3.2949831 2303:0.76844072 2304:0.67138374 2311:2.8420722 2313:2.0515106 2322:5.8275609 2328:1.2839029 2336:2.3589106 2348:3.2168448 2349:0.060892209 2353:1.0099486 2355:0.045001417 2360:7.3838091 2362:0.069911033 2367:2.5977492 2383:0.30060664 2393:2.6830583 2408:2.1506782 2417:2.2126193 2422:3.3095858 2431:2.8956113 2441:2.3842797 2444:0.8054325 2446:0.20450152 2452:3.126653 2457:5.193223 2471:0.80780303 2472:2.063514 2477:1.9519666 2487:1.4177579 2488:7.5536375 2501:2.244566 2507:2.8853247 2514:1.5346216 2516:0.59907186 2526:6.0565128 2528:1.7445341 2529:1.9591169 2537:2.2545369 2568:2.8685393 2574:2.7508776 2589:0.29333964 2592:1.3849995 2594:0.40424472 2595:0.33787587 2604:2.2345319 2613:1.8177397 2618:2.0430765 2619:1.7122097 2620:6.0235848 2636:0.41417626 2637:3.4509015 2639:2.3759367 2641:0.078030437 2651:2.3023 2652:3.0128143 2658:1.5296474 2668:0.2969093 2669:0.72609532 2675:1.1234615 2680:0.28563604 2691:0.19368701 2698:2.5295899 2704:1.5713241 2708:4.2708521 2710:1.2951654 2714:3.8189104 2715:2.0315747 2718:2.1088605 2723:3.9304621 2728:0.82943821 2740:2.6398385 2741:1.06012 2747:4.9461923 2752:3.1276913 2754:4.5105777 2763:2.2041757 2766:3.0878179 2771:1.9938308 2774:1.9525108 2777:3.7980814 2778:2.5996168 2790:1.3197888 2792:1.0678669 2793:2.6967225 2795:3.7805734 2797:1.5933732 2800:1.9352174 2806:1.3147564 2808:2.7361369 2811:1.9621239 2814:1.3826858 2816:0.21712741 2825:1.267028 2826:1.7083492 2840:0.12665087 2844:0.98179013 2864:1.9431666 2875:1.5887561 2882:2.2736311 2895:2.5076783 2903:4.0548029 2907:1.4333754 2917:1.342665 2919:0.49997842 2932:0.23758322 2946:0.42248064 2950:1.8425879 2951:0.18803695 2964:1.2439119 2968:3.1665406 2971:0.51550794 2974:0.75710732 2976:0.31404784 2977:0.70644248 2979:1.1698486 2981:2.625412 2986:3.0361795 3008:0.43859318 3010:4.4697757 3015:3.4965196 3020:3.7707307 3023:0.2139217 3035:5.0991197 3044:1.8418924 3048:0.15743214 3059:0.20391268 3065:2.0535285 3067:2.6951642 3069:2.3708489 3075:4.2460208 3078:0.050261408 3081:2.9319339 3122:0.64009863 3133:0.76853496 3137:0.019271847 3138:0.34742874 3140:0.4684644 3144:1.4919614 3145:6.0421038 3152:5.3728619 3154:2.0186055 3157:0.75167584 3163:2.2451572 3164:4.467855 3169:0.92230034 3172:2.9337957 3179:2.0176241 3182:0.80996054 3185:0.017458763 3198:2.8775461 3206:1.136163 3230:0.1655196 3235:1.4727199 3236:0.19871369 3246:0.37930289 3247:1.288027 3252:1.3201818 3253:1.2704308 3256:2.8114362 3260:5.7557139 3267:1.6648104 3283:0.11089867 3286:4.4568152 3287:3.5586169 3291:0.11197281 3293:0.93314093 3299:1.2924284 3310:0.1540297 3327:1.7060239 3334:4.6011095 3361:1.7538044 3363:1.2095567 3388:0.77222651 3394:0.75898385 3402:1.2102187 3404:2.5732222 3418:2.4677229 3424:1.5825996 3432:1.974738 3438:3.0501621 3480:2.0222542 3484:0.35935009 3493:3.6261148 3494:1.1670123 3496:4.547576 3521:0.4860504 3526:2.750778 3536:1.186981 3540:0.5304693 3548:0.45601445 3549:1.1900924 3556:0.058215588 3564:1.7720921 3569:4.2892323 3582:3.8901663 3586:2.9094553 3588:0.20137411 3599:0.29425192 3603:0.87085766 3604:3.123183 3608:2.2404516 3614:6.0453258 3615:5.307322 3624:0.38036042 3629:4.3722863 3630:0.15704393 3635:1.7818654 3640:0.40038624 3649:1.2345914 3650:0.56506282 3653:1.6144533 3657:1.9451026 3666:3.0222976 3669:1.4748411 3678:0.23340383 3682:0.011006743 3684:0.98903096 3687:2.3190758 3690:0.6943261 3691:1.4420371 3696:0.34743586 3700:1.1395893 3703:1.8914211 3710:1.4634246 3711:1.5174937 3712:0.12582722 3729:0.047141314 3732:0.82557023 3744:0.70534194 3752:6.7619705 3753:0.27325186 3755:2.0116413 3758:0.2207337 3764:0.9710778 3766:3.6227136 3769:1.016921 3777:0.50219786 3778:1.7384908 3789:1.1369474 3793:1.4381777 3797:8.1926813 3798:0.89755899 3802:1.7287166 3808:0.42124912 3814:3.729799 3815:2.2487156 3818:4.9659367 3824:2.0390155 3829:1.5362077 3835:0.23113729 3836:2.175359 3837:0.3650755 3847:0.88045907 3848:2.4679468 3855:0.74077761 3856:3.3759148 3860:2.9459245 3864:0.16008042 3871:1.0251991 3875:0.36420822 3877:1.0128442 3881:2.0674379 3885:3.0971508 3891:2.9608309 3893:1.9916477 3895:1.2724245 3900:0.30955908 3905:0.60392141 3906:6.2575507 3923:0.045138426 3926:1.0647911 3935:0.20671088 3937:0.14366111 3942:0.29460108 3948:1.0606862 3955:3.2415838 3956:3.1044269 3957:3.6658361 3963:2.184835 3974:1.3004473 3978:1.3868515 3980:2.4831369 3982:3.6101894 3984:3.0778682 3985:1.8131368 3997:2.6831172 4014:3.5897956 4016:3.6956415 4021:3.5734735 4022:0.19940576 4024:0.69139707 4034:0.73405266 4044:2.7908633 4045:0.54366869 4058:1.5911043 4059:1.3721761 4063:1.3801849 4084:0.8109988 4087:0.36385649 4089:1.8544812 4090:1.8513876 4092:3.3458002 4094:0.56443107 4096:1.934063 
1 2:0.53722137 10:3.8689005 12:2.4378102 14:1.3676084 15:1.6353078 18:5.9088473 19:0.44870022 20:0.66704029 27:2.6601789 29:2.7829559 30:1.8003856 38:2.2262599 46:0.38864815 58:2.1625736 59:0.0056680441 60:1.1406825 68:0.27753609 80:0.77655786 83:0.090580717 84:2.0630114 85:0.24256244 94:1.9708451 97:0.15412728 122:0.17975286 123:3.7580829 125:1.2406718 126:2.3975122 130:4.1807485 134:3.4568169 143:2.6913188 144:0.19546568 145:0.6504057 146:0.1208411 148:1.0120281 157:0.92486823 161:1.9871041 163:1.3219711 166:3.2278552 170:1.3840213 174:2.9981997 180:3.7865949 181:1.8868076 199:0.48829752 200:3.149657 210:7.085485 217:4.9648323 221:0.17507155 223:0.98833025 224:2.5765738 234:0.49581659 236:2.9008088 240:3.9283419 241:2.9789207 252:3.1470213 256:4.1667514 258:0.59220213 267:0.82605493 282:0.43290228 301:0.42092907 303:0.70759404 317:0.63668549 329:2.4480953 337:0.1238815 340:0.8196727 348:0.64288962 350:1.1884912 353:0.013062745 378:0.26249897 382:1.8004045 386:1.9569042 391:0.60183448 411:2.3503203 420:1.7639272 434:2.3460906 440:3.3189154 442:0.19871603 456:0.062119193 459:5.0135636 463:1.031489 472:2.8916368 481:1.0302155 487:6.6668606 491:5.4954281 494:0.68772221 496:0.18180954 499:1.7648416 502:2.8296227 505:4.0412292 509:0.69726086 515:1.8859136 516:0.1433481 517:1.1738125 521:3.5819924 524:1.2402418 526:2.749285 549:2.081866 562:3.659797 563:0.19796999 567:0.28009886 573:0.64430934 578:2.2257488 586:3.1302812 588:4.5193963 592:5.9633169 593:1.5041252 594:0.28439474 595:0.21276441 601:1.2981544 603:5.5773554 607:0.50211096 614:0.40250111 616:3.3049104 629:0.88905144 635:6.4179459 636:0.6138922 637:3.1125093 639:0.12507477 641:2.373256 644:1.6697465 646:0.45079663 659:4.6736336 669:2.2205477 670:0.73878002 672:1.5768309 675:2.4962711 677:1.2490644 681:6.5931773 684:1.4779642 688:0.5773834 691:1.921309 702:2.8358133 704:0.9042486 706:3.5746474 711:3.1214921 718:0.39736429 723:1.7538731 736:1.6915853 737:1.2372648 748:6.1340785 750:5.1350942 751:1.172447 755:1.6953518 759:2.011688 760:0.56351382 766:1.3570459 771:0.13672891 773:1.6088043 774:0.42723858 785:6.8524127 789:0.95456851 798:1.0006084 799:2.282166 801:1.3561066 819:0.49197 820:5.2561135 826:1.158747 830:0.34368348 842:0.09539178 846:0.67459553 848:3.6678259 856:0.66913903 857:4.4728446 867:1.174734 868:3.2950058 869:1.6890165 871:0.58603835 872:1.0020127 876:4.3483787 878:0.51846379 881:2.5406816 889:2.2466145 900:0.72330856 902:0.11940554 904:1.5248761 905:0.21759388 908:2.0389938 912:0.0054349005 918:1.1595809 924:0.93543208 936:1.8043462 937:0.29315943 938:1.8073068 945:2.1795042 951:0.04681772 952:0.20924276 960:0.80821162 967:0.94264191 968:3.0163951 974:5.4612947 985:5.3262258 1001:2.5946229 1006:0.93041289 1010:0.27940917 1018:6.5189652 1030:0.092360556 1046:0.10057652 1053:2.9706922 1059:0.68344408 1063:1.4844246 1064:1.2441959 1072:0.36903286 1080:2.6759281 1083:0.40197346 1084:2.4209871 1094:4.5482764 1095:2.7425244 1096:2.7227664 1102:4.8653703 1105:1.0411572 1106:2.484056 1111:0.5932079 1122:0.85142356 1125:1.5746559 1137:0.10162777 1138:2.464401 1144:1.855458 1153:0.45491517 1159:0.64311683 1165:2.268409 1170:3.419239 1176:5.6752286 1181:0.15722349 1183:0.06311366 1188:1.9874787 1197:0.018264949 1206:5.245934 1220:1.4089814 1221:0.499053 1228:5.0684261 1231:1.0725634 1234:0.8778432 1236:0.28416631 1240:2.0829048 1242:1.7260008 1246:1.3467826 1248:0.21564913 1251:0.90353203 1252:0.42866415 1255:4.5022507 1258:0.28621691 1277:2.8996651 1286:2.7927737 1291:3.5788717 1292:3.0587955 1293:2.1762695 1295:8.7632494 1297:0.64396477 1305:0.66915274 1306:1.0227585 1309:3.761476 1311:2.8957558 1314:0.022603571 1317:5.9360318 1332:2.8935826 1335:2.1537716 1337:0.03804028 1340:1.4691885 1345:1.1992931 1349:0.72552592 1357:4.6686597 1360:1.8371147 1365:0.036161661 1366:3.4228337 1368:2.5729823 1369:0.8552202 1371:0.94955713 1372:5.2505836 1376:2.1324165 1379:1.0196531 1383:0.091612726 1385:3.7203355 1389:1.2694628 1396:1.1013155 1399:1.7153853 1401:0.85434902 1402:1.4944751 1406:1.344636 1413:0.06571117 1414:0.28945518 1429:3.1746383 1430:4.0341153 1431:0.38712797 1432:0.44917485 1435:0.091871217 1439:1.676517 1443:0.60324699 1444:0.29871249 1450:5.2217174 1452:0.75451303 1457:0.18657738 1458:2.6057634 1459:0.87927449 1465:0.34155041 1466:0.39473036 1467:0.10647736 1476:2.1265314 1479:1.2818633 1484:1.4188398 1487:1.3761066 1488:5.2180147 1495:0.68732256 1496:1.7674855 1513:4.7237678 1514:3.4070022 1516:0.045687497 1519:1.3463435 1522:2.4405437 1525:0.0020706058 1534:0.76102448 1538:1.6398187 1544:0.062169373 1547:0.61357021 1556:1.3309162 1560:1.389214 1568:1.1593139 1571:1.303013 1577:1.8304392 1582:7.078939 1586:3.0610876 1588:4.3719692 1590:0.9366442 1596:1.9052777 1613:2.0768542 1618:1.7147703 1625:3.2170928 1628:0.028181762 1630:5.0213156 1636:1.1555067 1640:3.0547822 1648:3.6053329 1659:0.34591633 1661:6.6306963 1663:2.2051294 1668:3.73244 1675:2.3167224 1677:3.9405739 1678:0.034698606 1688:0.39658913 1690:1.611223 1695:3.2601359 1703:3.1301908 1706:4.3461828 1707:0.68658787 1711:0.53560483 1712:0.97290242 1720:2.8754711 1721:0.84775043 1722:0.43160748 1725:1.7618754 1726:4.9700108 1733:0.78073949 1736:1.0738573 1737:0.25962502 1746:5.1104364 1756:0.013699198 1759:0.98181748 1775:0.4216572 1778:3.0761776 1779:0.8677001 1792:0.55857229 1795:3.4151838 1800:0.67201465 1808:2.0763967 1822:5.794004 1831:0.16961509 1834:1.5718259 1840:1.734702 1842:4.0048356 1849:0.97674155 1851:0.39986023 1852:1.2696234 1856:2.0554695 1857:5.4014945 1859:1.0240115 1864:0.30592972 1870:0.27304512 1872:2.2927756 1888:1.4335617 1890:4.3187599 1897:4.1171751 1898:2.1819365 1914:1.6898088 1927:0.25128719 1928:2.4921348 1935:0.61040568 1938:1.7546517 1940:0.39301938 1943:6.2176051 1951:2.783689 1953:0.9818033 1963:0.15308228 1964:1.4023914 1968:3.496294 1970:2.1007831 1974:1.9279011 1975:0.17804959 1977:0.22335702 1979:0.092498124 1992:1.0050077 1996:2.1898358 1997:0.45849648 2005:1.5540726 2011:1.1763953 2012:1.9605722 2019:0.80170578 2022:1.9628332 2029:1.0192327 2030:4.2433391 2038:0.35146466 2042:0.97042203 2043:2.4786093 2048:3.6065671 2049:2.1268225 2050:0.14470088 2052:0.36315832 2056:0.31152695 2057:0.85652262 2058:1.1618091 2065:1.3579093 2066:0.53443813 2070:2.6234403 2075:2.3864946 2101:0.51921743 2103:0.36479536 2105:0.35088086 2108:0.58329308 2112:4.0982475 2113:1.1322237 2120:0.51821488 2123:0.5119198 2131:2.9626336 2139:0.66043895 2140:3.0599861 2144:1.1717285 2147:0.27417395 2153:3.4748363 2154:1.6807458 2172:5.5415306 2177:0.45939705 2187:2.0729291 2188:1.5801395 2196:0.87934697 2198:0.1405744 2199:0.24388817 2200:2.3817973 2201:2.9183266 2202:3.9164984 2203:1.5178233 2210:0.57206762 2211:0.99822402 2239:0.20402858 2246:1.0706505 2250:2.5596898 2253:0.91095221 2257:1.7673621 2262:3.2081077 2265:1.945351 2267:1.7913568 2281:2.0265453 2290:2.6836047 2292:2.609973 2294:2.1139669 2298:2.8124952 2314:0.27521098 2316:2.7748609 2322:7.3007565 2328:0.44359905 2333:1.3072851 2336:2.6356335 2341:1.5541604 2343:0.24180491 2353:5.5895395 2360:4.3259845 2372:4.3229184 2374:1.9937651 2375:0.11671424 2393:0.93220258 2401:0.085665897 2412:0.58176452 2417:1.6888729 2422:1.0556834 2425:0.73544383 2431:5.4196434 2432:1.7036489 2437:1.062494 2444:0.18583292 2449:1.8132378 2452:0.3667354 2457:8.4455147 2458:2.4519744 2459:0.17437011 2466:3.1280882 2471:2.5812745 2474:1.3497126 2487:2.8396997 2488:4.5742493 2492:1.0756207 2501:0.91336656 2508:0.54671675 2509:2.2304153 2514:1.1762078 2516:2.1729403 2526:5.8707504 2527:3.3893015 2528:0.21307302 2529:4.5424895 2530:2.4558554 2532:0.21467529 2552:2.626698 2559:1.1447589 2561:0.82941145 2574:2.7257493 2577:5.7124605 2589:1.3804913 2592:0.33279908 2597:1.9107558 2598:0.52577406 2601:1.3351607 2604:3.3404377 2612:0.82142127 2613:0.13248971 2614:0.72030056 2619:0.87106115 2620:5.4759817 2621:0.32557705 2632:0.88414037 2637:1.2697316 2639:1.4656842 2641:0.079056829 2651:1.7556317 2652:3.779341 2654:0.18145263 2656:0.20750526 2657:0.3509478 2660:0.54152071 2672:1.597824 2685:0.86652559 2693:0.77431488 2698:2.2589386 2704:4.3353844 2708:3.9807565 2710:3.7721534 2713:1.5471585 2714:2.5871966 2715:2.2028897 2718:6.2905717 2719:0.72157896 2723:3.8479967 2725:1.8356476 2726:2.9201181 2727:1.3637246 2740:7.0331559 2741:3.1088176 2745:0.46569657 2747:0.37288061 2752:6.0508804 2754:3.1416738 2759:0.096974224 2763:6.0623755 2766:3.4057505 2771:4.2104874 2775:1.363112 2777:6.6111002 2778:3.4956326 2786:1.3147626 2790:0.94700468 2791:0.94346249 2793:5.5944233 2795:1.8707829 2797:1.3478513 2806:1.7971898 2808:5.6962976 2811:2.6044073 2814:2.1819041 2825:2.8860245 2826:0.45814842 2841:1.847254 2845:0.16221741 2857:0.0043306225 2864:2.0283625 2869:1.368403 2870:0.62456131 2873:1.2953014 2875:0.87865293 2882:3.5050745 2883:2.9880641 2887:1.0462414 2891:0.8937242 2895:4.8882928 2896:2.778995 2898:3.8109674 2903:6.1048069 2907:1.8560076 2915:0.21270353 2917:0.91718906 2919:2.3281794 2920:3.6638522 2926:0.93098563 2931:0.99390352 2938:0.43360838 2944:0.92063558 2946:1.0177566 2950:3.4187555 2965:0.73449075 2968:1.3481262 2969:0.948928 2971:1.4601725 2977:1.0703818 2978:0.0085757077 2979:1.4234414 2981:4.3846211 2984:0.12912443 3010:1.3112454 3015:1.7977921 3020:1.5451974 3035:3.9598861 3044:3.0865874 3048:0.72407824 3065:3.5754554 3067:2.6323848 3069:0.27045211 3074:1.1156576 3075:3.0529137 3079:1.7129164 3081:1.8562486 3105:1.9090846 3117:1.4196429 3119:0.36068547 3122:2.5841141 3144:0.34593451 3145:1.4088721 3147:1.7572745 3150:2.9749415 3152:3.0108676 3154:2.2334614 3157:0.1269149 3162:2.5016336 3163:1.482899 3164:0.71971881 3167:4.2189078 3169:2.207716 3172:2.0948122 3180:1.0376098 3183:2.1821985 3198:1.7835753 3206:1.6691505 3208:1.5993294 3211:1.1300333 3214:2.3455353 3219:1.1534538 3232:0.10120666 3235:0.72367889 3247:2.0548129 3249:0.054695122 3253:0.81976807 3256:2.4029965 3257:0.60616148 3258:0.97789627 3260:7.0334144 3268:3.7807593 3275:2.7300959 3286:5.9723473 3291:2.5201852 3294:0.24664834 3299:2.0087154 3324:0.052911282 3334:2.0504253 3343:1.1566958 3344:1.8091083 3354:1.4722927 3356:0.17275789 3363:1.4115311 3365:2.6958728 3402:2.9646409 3404:1.7214577 3411:0.47953159 3413:1.3603112 3424:1.6021259 3427:0.57702589 3431:0.67396104 3432:0.69216919 3438:2.4700248 3465:0.098769784 3480:2.2831199 3482:1.040132 3489:0.82385862 3491:2.6046793 3493:2.7193615 3494:0.73430026 3496:3.9733737 3500:3.2708001 3508:0.34506309 3512:0.44735366 3513:0.24519911 3521:2.3327909 3525:0.12303793 3526:2.2900419 3531:2.237546 3536:2.2627358 3537:0.094975531 3539:3.0268955 3540:3.9110065 3554:1.882724 3556:2.9767694 3557:0.91239941 3560:0.020795323 3564:2.2141216 3569:1.4340545 3576:0.18153015 3577:2.492954 3582:3.6213984 3583:0.15128693 3586:0.82211781 3588:1.6377008 3589:1.0373137 3599:0.038932443 3604:3.446847 3607:1.2602656 3608:1.1210537 3614:4.9238453 3615:4.0820909 3624:0.070645988 3629:3.4580679 3640:0.8464582 3650:0.6907236 3653:4.7532449 3660:1.6957517 3666:2.7291906 3669:0.13142443 3675:0.14244734 3677:2.3791826 3683:1.7999078 3684:3.0087166 3689:1.7626183 3690:0.8898502 3691:8.0085297 3695:1.2238625 3705:0.10575098 3710:2.8934085 3715:0.21408795 3724:1.2710757 3729:1.049809 3744:3.8051944 3749:0.10049349 3752:6.175561 3753:2.4079199 3755:4.1119995 3758:0.88350236 3759:0.67453289 3766:7.7773967 3769:1.7604432 3771:2.474098 3779:0.36716694 3793:1.9540203 3797:5.6288209 3806:0.31395432 3807:1.8058901 3808:1.9677238 3814:2.0629656 3818:6.9796467 3824:2.9946957 3831:3.3116889 3847:1.7970082 3852:2.7521651 3857:2.778126 3869:1.0177772 3872:3.4338446 3875:4.1398072 3877:1.8569374 3881:0.20155966 3885:1.3477126 3891:3.113306 3893:4.1890106 3895:0.24346544 3900:0.63213038 3908:2.2153411 3926:0.43866637 3935:1.0694861 3942:2.5835476 3945:0.15902428 3948:0.74495095 3949:0.9579224 3956:1.0012177 3957:3.1829088 3963:2.2132375 3970:1.2057494 3974:0.78860039 3980:1.5391531 3982:0.34445715 3984:5.2581673 3985:1.4214435 3997:0.49443263 4004:1.1812346 4007:0.52682698 4014:0.51436716 4016:0.88080943 4017:1.2098247 4018:1.4013002 4021:1.3691819 4022:0.058386952 4024:1.0253445 4038:1.7349161 4041:1.6215543 4044:2.4819043 4055:1.4497612 4058:1.6369631 4063:0.099072725 4071:0.18684348 4074:1.1848129 4075:0.18634297 4082:3.0290179 4084:2.3329508 4092:3.4360366 4094:1.4456953 4095:0.75894243 
1 1:2.2572556 15:1.9013411 18:2.5087774 20:1.7176121 21:0.5353595 27:3.0392745 28:0.84595543 34:0.46581122 38:0.72885442 54:0.91957378 58:0.22349328 60:1.9133124 65:0.75959748 80:1.159528 84:2.0710235 108:2.55059 110:3.8709574 115:2.6369326 123:0.67662561 125:2.8525963 127:0.054448336 134:0.38467589 143:0.96031708 147:0.94925803 148:0.94503176 156:0.25719091 157:0.052792042 161:0.75054264 163:0.93791586 178:1.1513151 180:3.0937908 197:0.6560629 199:1.8623251 200:3.2218535 205:0.26857749 210:3.4310031 211:0.87953115 216:2.3174088 217:0.36946782 223:0.17286903 224:0.97025377 225:3.7039402 229:0.65283167 240:2.7788444 258:0.33398056 260:0.57063854 261:1.0211861 270:0.0080660433 272:1.8085726 277:0.63738191 290:0.23699212 297:2.8310874 299:1.4386744 317:2.1889827 324:0.06306082 328:1.3629564 340:0.50930607 342:2.1935072 348:4.0492887 365:2.4331183 366:1.7969753 367:2.1595881 372:7.439261 382:1.3636023 386:0.010504849 391:1.2018932 411:0.42343169 420:2.2354107 424:3.4340422 426:1.5005546 432:4.5356369 434:1.9402018 436:4.0284848 440:3.5272512 442:0.83075213 450:4.4835525 452:2.9333363 454:1.2362618 459:3.5689006 481:0.078976631 482:2.7276242 484:1.9317552 487:6.0168934 492:1.4758821 493:0.34460312 495:0.52579618 499:4.0771317 502:6.4275875 505:0.74902123 515:0.68799472 526:1.7374635 527:2.190098 553:0.22076595 555:1.6084242 557:0.26652196 562:0.62736255 570:0.61033422 573:2.4307144 578:2.0412765 586:2.1388943 588:2.762594 592:3.1365407 594:1.1501229 603:0.45471174 616:3.2787669 624:0.71777785 633:0.37644342 635:2.3641224 644:1.6679769 659:5.6643229 661:1.1621534 662:3.579123 672:3.1250212 673:1.3248578 684:2.4001691 689:0.48029727 697:0.27288169 704:2.0340374 705:0.20515102 706:3.461278 717:1.0615848 720:1.2657747 723:1.7798421 727:1.1680882 737:0.39273548 748:0.65307736 750:2.4533625 755:1.6967452 759:1.2366804 766:0.097456276 771:1.8153502 780:0.10375899 789:2.1839595 798:0.61904299 799:3.4611216 803:1.7979838 810:0.85521275 813:1.0187415 820:2.3508897 822:0.83585656 826:1.5668597 840:1.5152763 848:1.1619163 856:0.31908605 857:1.8009584 865:2.7179918 867:1.2305318 868:2.5294864 872:0.20390356 876:2.1636267 881:1.8343741 889:1.6305894 902:2.1474965 905:2.1090064 909:0.61571729 921:1.4991515 924:0.37023315 942:1.2472234 945:2.8463826 947:1.2315047 948:0.35553223 960:1.8303807 961:0.20263037 966:0.51846647 972:0.02077502 974:2.9553461 979:2.5462005 985:0.77779806 989:2.192127 993:1.0472907 997:1.106284 1001:2.9021897 1004:1.3635876 1008:0.39634192 1012:0.11352532 1018:6.1292014 1019:0.072127283 1022:1.3553843 1032:1.3745724 1042:0.9408319 1049:1.2018328 1053:4.1454625 1059:0.67017758 1062:1.9742421 1063:1.0847677 1080:1.941752 1084:2.2553866 1090:3.7315054 1095:0.17984354 1096:1.7531767 1102:4.8191171 1105:2.1374378 1110:2.128861 1111:2.3663065 1122:0.1770241 1125:1.6784658 1133:0.052055627 1137:1.1281612 1139:1.4912481 1144:0.23270935 1159:0.45708123 1163:0.210888 1165:1.8486501 1168:0.6587761 1170:2.3330436 1176:3.8549798 1177:1.2427169 1181:4.8698478 1188:0.051692918 1189:1.5298667 1194:0.40042695 1206:4.1391487 1208:0.63339204 1228:1.5649703 1233:1.2578855 1234:1.5412124 1236:2.972753 1240:1.1457385 1242:2.4331598 1250:0.22075328 1254:0.39607096 1255:3.2635555 1274:0.6853798 1279:3.1514604 1286:3.1272759 1292:0.49462673 1295:4.8701305 1296:1.5235026 1302:1.0722849 1305:0.29762149 1309:3.5768828 1311:0.65469575 1313:0.24829096 1314:3.6092243 1340:4.5614262 1352:1.8860776 1353:0.36532503 1356:0.24690002 1357:4.1387219 1365:0.30198884 1368:6.8696513 1372:1.0388036 1384:0.2377305 1385:3.8264275 1387:0.90552026 1396:2.1914537 1397:0.073509276 1406:2.7284226 1411:2.14118 1414:0.5634945 1429:1.833896 1430:4.8264761 1432:0.44913688 1438:2.0951107 1450:3.4895513 1452:3.1796238 1458:2.9281566 1469:1.4950403 1470:2.0243912 1471:0.5332973 1472:0.6348815 1476:3.2021215 1479:3.3555202 1482:1.1713861 1484:2.4206846 1486:0.9289155 1487:0.20067784 1488:0.44204736 1491:0.14915577 1495:0.71012604 1513:5.2009029 1514:0.31107444 1519:1.3653702 1522:3.2639556 1538:1.593714 1547:1.6696219 1551:1.0379837 1556:4.0078077 1557:0.52656406 1577:2.0932372 1582:2.44646 1583:0.097143441 1584:0.11469436 1586:0.054429397 1590:2.8360991 1596:1.3122878 1598:0.26983714 1604:3.528753 1606:0.420151 1612:0.60463756 1618:1.6768953 1625:1.1740472 1628:0.10221857 1630:1.2978153 1634:1.0654402 1637:1.0296531 1640:2.565691 1648:4.5627689 1654:0.94425887 1657:0.37440842 1661:5.6173716 1662:4.5260897 1664:1.6224974 1668:0.044683985 1675:3.5825696 1677:5.3996902 1678:1.3922355 1689:0.54003012 1690:2.0824108 1697:0.38184488 1703:0.96106476 1705:1.3001024 1706:1.8560526 1711:2.7716618 1712:0.4330858 1720:0.33768073 1725:0.60393173 1726:4.8680534 1727:1.058853 1737:1.0333514 1740:0.32062012 1742:0.47029626 1746:2.6495652 1750:0.83430827 1756:0.41285264 1758:0.49602771 1762:0.70403045 1772:0.25075445 1775:0.60947597 1777:1.4713535 1778:1.2765932 1781:0.29723981 1792:0.57133704 1795:4.8358502 1804:1.0644104 1808:1.7568634 1822:2.4653342 1834:0.25673461 1838:0.65166914 1842:1.2947456 1848:1.6424198 1849:0.38831839 1851:1.3249416 1852:3.4583547 1857:3.3816006 1870:1.3665735 1871:0.41891265 1872:1.8130877 1881:0.12532219 1882:0.073429286 1888:2.6685116 1890:3.503907 1896:2.0180478 1897:5.6313987 1904:3.0677884 1914:3.0703011 1920:1.0343145 1922:0.60043895 1928:2.8199039 1938:0.53849077 1943:4.4634705 1959:0.52611333 1968:3.6612163 1970:3.1406963 1972:2.0001593 1973:1.3014473 1975:2.6155646 1993:0.52278119 1995:0.11956266 1997:2.3126445 2000:1.6238058 2002:0.43158042 2004:0.166013 2005:2.9347351 2006:0.54516113 2012:2.7044544 2019:1.7133174 2021:1.0858428 2042:1.1427022 2043:0.71322185 2048:4.2782145 2049:4.0908403 2056:0.70642644 2057:0.00076577067 2063:1.9162073 2070:0.0074642897 2079:1.5852649 2084:0.73183095 2088:0.48399898 2100:0.083866388 2101:1.7895536 2105:2.0476379 2107:1.3462511 2110:1.5385878 2117:2.4531898 2118:0.82259732 2131:1.219331 2138:1.7816393 2140:1.7915819 2144:0.68884397 2149:1.7989907 2153:0.64131385 2154:0.67119581 2167:1.2757357 2169:0.89747751 2172:0.77556586 2187:1.5615958 2188:2.5183649 2193:0.57224292 2198:0.73772621 2201:3.3191278 2202:3.8326285 2203:1.9959472 2207:0.27362087 2210:0.80110949 2214:3.4566383 2228:0.85759228 2239:4.3726449 2246:0.79099143 2250:1.4467126 2253:2.7676797 2255:1.4347959 2257:4.5174441 2267:0.65068012 2271:1.0395045 2274:0.35398501 2275:0.94225484 2294:0.58768237 2302:1.4434968 2303:2.2928512 2311:0.21781543 2321:0.5459187 2322:3.503232 2341:0.269178 2348:3.9906411 2349:1.0093666 2353:0.13831756 2355:0.44373468 2360:2.6336045 2393:2.8773153 2417:0.38378841 2422:1.7283511 2432:0.38372242 2446:3.6219952 2447:1.0503563 2452:0.5673272 2457:4.3010693 2459:1.4673884 2466:4.1765709 2476:1.7045724 2477:1.5659553 2487:1.5767164 2488:2.8011198 2490:0.56819665 2491:0.21448559 2507:1.1784306 2508:1.9833993 2509:1.1761231 2514:0.7314539 2522:2.4971895 2526:2.8639722 2527:0.37158054 2528:3.2817903 2529:3.5012982 2537:1.3352959 2539:0.98684984 2574:2.6052432 2577:1.0827602 2578:1.4691252 2583:2.101042 2594:3.3602593 2598:0.29247558 2607:0.62609941 2618:0.7525987 2620:1.8383617 2621:0.69522649 2632:0.2932092 2637:0.31902388 2639:2.4200428 2643:0.1172549 2649:1.1010375 2651:3.4227128 2652:3.2311177 2656:4.4550662 2658:2.1491382 2669:0.48719472 2672:1.8505703 2687:0.64792413 2688:0.92539859 2689:1.8420312 2698:4.5871415 2701:2.2222264 2704:0.40861776 2708:0.29317746 2710:3.6262624 2712:2.9828973 2715:1.5996954 2718:0.92847532 2719:2.7416365 2723:3.8278785 2725:1.4465328 2740:4.6049557 2747:1.8186256 2752:0.56061512 2759:2.2156556 2766:4.6135445 2770:0.48676395 2771:0.78937399 2774:1.0197783 2775:0.03477627 2777:1.2957548 2778:1.7470036 2790:1.7611696 2793:1.4476963 2795:3.1601784 2797:1.470057 2800:2.5265949 2806:0.10234031 2811:2.4339623 2816:4.5626726 2826:1.0030379 2834:0.37020105 2835:1.533808 2836:1.7967308 2865:0.58386338 2870:0.83312303 2873:0.54405785 2875:0.12891394 2882:1.235625 2888:2.622453 2891:0.65274173 2895:4.102232 2898:0.94394636 2903:1.2017076 2907:1.0928314 2915:0.15669537 2917:1.6160197 2919:0.91531694 2940:1.0379492 2947:2.7386279 2950:5.3210974 2965:2.562875 2968:0.63325852 2970:2.0733576 2972:2.3523633 2974:0.4109832 2979:1.6701705 2981:1.4473864 2986:1.6029441 3010:3.252501 3015:2.2671032 3020:5.1398964 3035:6.114368 3036:0.86724293 3044:3.1722684 3048:1.8699312 3057:0.19267163 3059:0.59049588 3060:1.2947117 3065:2.1718004 3067:2.1244049 3074:0.13800508 3075:2.5014794 3081:3.5749936 3089:1.8550553 3094:1.1510798 3117:3.3749158 3122:1.2066536 3129:1.9445984 3140:2.4275374 3144:1.2654082 3145:4.5760531 3150:1.1913385 3152:3.141901 3154:0.40776646 3155:0.95520902 3163:3.8533382 3164:6.4886909 3172:0.53385425 3179:1.444737 3181:0.1248692 3182:1.6589551 3195:0.003148675 3196:1.7816393 3200:2.5963068 3206:1.1233405 3208:0.84326184 3211:2.1374032 3222:0.47196195 3228:0.12327838 3232:1.5512807 3235:1.323622 3245:1.2047867 3247:5.160759 3249:0.26551831 3251:0.41315779 3252:1.5882919 3253:1.1095201 3256:2.0040319 3258:2.8379855 3259:0.3853808 3260:2.5331962 3268:0.15170985 3275:2.3224568 3278:0.73530006 3286:3.0999966 3291:1.9290048 3293:5.573473 3334:4.4873934 3359:2.5391331 3361:2.2800474 3363:2.9680543 3365:4.5881934 3367:0.51234508 3377:0.6909048 3388:2.4111743 3392:2.2785063 3402:1.8767138 3404:1.7660379 3409:0.9606514 3413:0.20186165 3420:0.87658465 3424:0.66081119 3428:0.024766564 3438:0.59858495 3443:0.60824722 3471:1.7194611 3475:1.605304 3478:2.1190615 3480:2.8566883 3482:3.3205404 3484:2.5321741 3493:2.3552885 3494:4.8033962 3496:1.5744745 3504:1.1116011 3505:0.49060667 3508:1.4997735 3513:0.87184954 3514:2.3530905 3526:1.5982345 3531:2.5419388 3536:2.2835362 3540:1.1021296 3548:0.81294608 3554:0.56229669 3556:1.0618039 3564:0.88152707 3569:2.9281433 3576:1.8443848 3582:2.2917297 3586:5.7154822 3588:0.45161116 3589:0.30247697 3593:0.6399135 3608:1.9153606 3612:0.36957628 3614:2.6731069 3615:1.6960623 3617:0.9265151 3622:1.1733181 3624:1.9507539 3629:2.2559984 3630:1.2256662 3640:1.8023447 3649:0.29121438 3653:1.7641572 3657:1.4828029 3660:0.53105074 3666:2.7357783 3677:0.19463718 3684:0.3483797 3689:0.40187374 3691:1.3485165 3692:0.23682037 3703:2.1394012 3705:0.50174886 3710:2.1345828 3719:0.6794771 3724:1.5740185 3729:1.3662958 3744:4.0440979 3745:0.6284833 3749:1.6286423 3752:3.3499041 3753:1.3339238 3755:0.47154698 3756:0.35086706 3758:0.95219731 3766:5.2147355 3767:0.90958405 3771:1.9277787 3789:1.60278 3793:3.6545556 3797:9.8420763 3802:0.61973983 3808:2.8931167 3814:2.399018 3818:5.3249092 3822:3.1274333 3824:1.560945 3831:3.9184682 3841:0.34599692 3856:1.2578875 3857:1.4528593 3860:2.5830693 3864:2.7326276 3874:1.6788963 3875:4.6487284 3877:2.1026924 3881:2.5055656 3891:1.35141 3893:2.4440658 3895:1.350281 3900:2.2509952 3906:6.2641501 3912:0.80637455 3926:1.2919075 3935:1.8684483 3942:1.9075319 3945:2.2797596 3946:0.68387914 3955:1.3855556 3957:2.8152027 3960:2.0281019 3963:0.23907429 3974:1.3181934 3978:0.92411709 3980:1.9917384 3982:3.5348454 3985:1.0441101 4001:1.7518154 4011:0.39741698 4013:3.1229169 4014:0.61731803 4016:1.476993 4021:1.5047574 4038:0.72899872 4044:2.0706339 4045:0.2145023 4055:0.10424536 4057:0.62359369 4058:1.7636578 4063:2.2255645 4067:0.020610675 4073:0.013529569 4075:1.1675508 4082:0.91760814 4084:0.32937044 4089:3.7718871 4090:1.7392995 4092:2.3250699 4094:0.66266596 
0.9105159381685118 10:0.092374951 18:4.111371 20:4.3266406 23:0.57144833 26:0.6357941 27:1.8869867 29:1.0641418 43:0.53610098 45:2.0623209 48:0.13562125 49:0.81169045 58:0.65711284 68:0.0062221885 69:0.72059351 70:3.462904 80:2.2736607 83:3.1894827 84:4.3135853 105:0.068610609 108:5.5411463 111:0.088079095 113:0.63565022 115:0.31592542 123:2.2950816 125:0.62353075 126:1.8613269 129:0.74243379 130:2.2286212 133:0.078067303 134:0.3158066 145:0.52995151 148:1.5640736 161:0.46995869 166:0.43790951 180:3.8643541 181:2.047754 199:0.537884 200:6.5684175 205:0.56694013 210:3.8355474 216:0.50064182 217:3.5190217 223:3.089252 229:1.9050521 232:0.072470963 234:1.3325877 240:3.4091783 241:2.8944325 252:1.2021272 260:0.58869016 290:1.0501323 301:2.288352 311:0.10093164 314:0.18051296 315:0.23776677 317:1.9576215 318:0.32719716 324:5.509933 340:0.57027018 348:1.2306015 351:2.3907685 353:2.4729421 365:0.54508424 420:0.89158607 430:0.51949245 432:3.9156537 434:1.3083993 447:1.0948551 459:4.3571167 463:2.7147565 474:0.39274904 479:0.50159705 482:4.325316 487:0.63152528 493:0.95343667 494:1.266979 495:0.50537813 499:4.4903407 502:5.6376071 515:3.8871181 516:0.74838054 517:0.20358275 523:0.6537258 524:1.5325574 526:4.4700046 533:0.0023836792 549:0.11663446 562:5.1645346 569:2.3004088 573:0.72243851 575:0.066982985 578:2.4216945 583:0.38104269 588:2.3914664 592:4.0847974 594:0.6507014 601:1.4806899 603:3.0506907 612:0.97855186 616:0.40219268 639:0.8835789 641:1.0516154 644:1.4061873 646:1.5620565 659:1.8943543 662:3.0201809 664:0.77228892 667:2.705559 672:0.14120919 674:3.0002072 681:0.022647806 684:2.2795229 688:0.55272937 698:1.5538028 702:1.0453786 706:4.0166426 711:3.1576803 717:0.94895697 723:3.2892895 724:1.4259393 727:0.31870979 735:0.5605942 737:0.94906354 738:0.47590742 748:1.0321454 750:4.5762758 751:0.45575964 755:0.59490585 759:0.44712657 760:1.3110815 765:0.29356816 773:0.53586578 774:0.56936675 789:3.7965372 798:2.6220767 799:1.6916699 803:0.046382934 807:2.3688819 813:0.93589103 820:0.4438794 826:2.6440351 830:1.1783642 839:0.76763517 846:1.1335905 856:0.67532158 857:4.5298195 865:1.5715448 867:3.4091246 868:4.2017007 876:3.3263597 879:0.49475953 882:3.4701102 889:4.0520449 891:1.2014396 900:1.0652891 904:1.948853 905:2.4049931 908:0.51397455 912:2.1322317 924:3.0673168 936:1.2957351 940:0.37447196 945:3.5376008 965:2.8600039 967:0.092068315 968:2.1716447 974:1.566112 979:3.0323319 985:0.39943579 989:1.5014236 1001:1.8314743 1004:2.5664623 1010:1.5897695 1015:0.99501884 1016:0.69486791 1018:6.9510865 1019:2.3909588 1022:2.1134357 1023:0.59393537 1032:0.023860663 1035:1.3407278 1046:0.40432221 1053:3.63766 1062:0.55343676 1063:2.2646155 1081:0.083759278 1084:4.8165221 1095:1.9482508 1096:2.2369812 1102:3.9460211 1105:0.95417255 1111:1.437768 1139:1.2720836 1144:1.4407409 1153:1.3671916 1157:0.64955962 1165:2.9833708 1169:0.29189542 1170:0.63350588 1173:0.51689696 1176:5.36338 1181:1.7186654 1183:0.85945857 1186:4.3253007 1188:0.88075924 1189:0.73128176 1196:0.66579169 1197:1.1482544 1206:3.0445449 1215:1.3974605 1217:0.26454747 1218:0.94697171 1228:4.5006862 1234:1.4485383 1236:0.33308882 1240:1.2865866 1251:0.63259244 1253:0.15986222 1254:2.258142 1258:0.71511739 1286:2.0547833 1291:1.1030777 1293:1.6346807 1295:3.5967135 1302:0.6876927 1307:1.1639311 1309:0.5333184 1314:1.8805159 1315:0.066402227 1317:0.12100601 1319:0.2775946 1332:1.0806327 1335:1.7709081 1340:4.0727744 1349:0.83804595 1357:1.9537733 1366:3.0679274 1368:1.1778932 1369:2.2324727 1371:0.12326902 1372:0.49615645 1373:0.27160072 1377:0.065246403 1378:1.0286708 1379:0.98418713 1385:3.1110435 1396:3.4672151 1397:0.68622291 1399:1.3914142 1401:0.13202327 1406:4.8124423 1413:0.16170827 1426:0.4494881 1428:0.067632616 1429:1.5428851 1432:0.88957679 1438:0.91303152 1441:0.33874005 1443:3.2851684 1450:1.9963577 1456:0.24713773 1458:1.0399377 1469:2.8396597 1471:0.4868632 1476:2.5902696 1482:0.29157776 1484:2.5056427 1486:0.21591988 1487:4.6849561 1488:5.5801468 1499:1.3830125 1503:0.12998696 1508:0.53780526 1511:0.60105979 1513:3.8092346 1519:1.9598283 1522:2.3694739 1525:0.24652103 1538:1.5999179 1544:1.9976766 1548:0.076856375 1551:3.2393608 1555:0.047176525 1556:0.86804026 1569:2.5290987 1581:0.53646427 1582:2.6632674 1588:0.4125509 1590:1.3039804 1600:0.97169876 1604:1.8070159 1612:0.030425578 1613:3.3069906 1618:2.9197199 1625:2.0262988 1628:1.1759362 1629:2.0410302 1630:1.8552542 1636:1.369174 1637:0.71690571 1640:1.3028133 1648:3.3834462 1661:2.0191801 1662:0.2396386 1668:2.9922276 1675:3.6157687 1677:3.8607273 1678:3.1232653 1681:1.1786875 1686:0.085646972 1703:1.4625926 1705:0.56713605 1706:1.2355137 1710:0.44671202 1711:0.72240412 1712:0.51311797 1715:0.20492068 1719:1.0479732 1720:4.2990561 1725:0.33780456 1726:1.7896028 1739:2.1412747 1746:1.829286 1758:0.34363109 1759:1.5514102 1761:0.26124936 1762:2.9291966 1772:0.0038091242 1778:5.0752406 1779:1.2352316 1780:0.097392559 1781:0.083134711 1795:0.38711604 1800:0.6007641 1804:1.2736235 1812:0.37389648 1822:0.85945547 1824:0.67785847 1840:0.74306381 1842:2.4684021 1848:0.39624208 1851:1.4356017 1852:1.2086089 1856:1.0877455 1857:3.4444411 1862:0.059492454 1869:0.38894689 1872:1.6319963 1882:3.1626301 1888:1.0835199 1890:2.3836246 1897:2.8532069 1904:0.86649227 1922:3.6962767 1927:0.50723636 1928:6.4155474 1930:0.53695756 1943:6.4289103 1953:2.2022567 1964:2.2838333 1969:0.27362734 1970:2.1619339 1975:2.424221 1977:1.4959111 1996:1.973778 1997:1.2240791 2002:0.32551765 2007:0.46422702 2012:2.1007311 2019:0.57520974 2024:0.94516033 2028:1.357795 2031:0.94461244 2042:0.93537766 2047:1.309551 2048:2.6493192 2057:0.67415774 2063:1.8940115 2070:2.3900323 2079:0.18360251 2083:0.59804952 2084:1.0323757 2085:0.94142646 2100:3.1225855 2101:2.202775 2105:2.6249139 2107:0.35818705 2112:1.3751881 2118:1.6132364 2120:0.86938417 2129:0.18422483 2139:1.0572758 2144:0.49472797 2153:0.44925302 2154:1.2539792 2160:0.086948037 2167:0.65398937 2172:1.0408814 2187:0.8577556 2188:6.2153769 2194:2.9495506 2196:1.3988692 2198:0.11417168 2199:0.17098302 2201:0.53392625 2202:3.8968241 2203:3.3122098 2210:1.3310151 2211:0.89708948 2214:1.4121556 2223:3.3588107 2239:2.0331476 2250:2.0383868 2253:1.5180999 2259:1.0147045 2274:0.94848835 2275:1.8971817 2294:1.2710294 2298:3.0119691 2302:0.74348807 2303:1.1015383 2317:0.28439146 2322:5.6186213 2336:1.7720919 2341:1.7731276 2348:1.1110089 2360:1.1641966 2372:0.15644565 2375:2.2069595 2393:0.39165941 2404:0.16781539 2407:0.19816899 2417:1.4232075 2431:0.85724723 2434:1.0041317 2435:0.67318016 2441:0.83123374 2446:0.76038766 2452:2.9400465 2457:5.4408078 2459:0.69755161 2466:0.280191 2474:0.42345142 2479:0.09387362 2487:1.8633767 2488:2.5832007 2490:0.069423169 2491:0.73690885 2503:0.17797795 2504:1.5004199 2508:2.845861 2509:0.0088745952 2514:0.029085308 2516:2.102464 2520:0.41390723 2526:0.61170077 2528:0.66645396 2529:2.9025855 2537:1.2709016 2539:0.71349388 2561:0.58263117 2568:0.83948874 2571:2.3033538 2574:0.57689655 2578:0.79966497 2591:1.4528714 2592:1.9132435 2594:3.4037263 2595:0.23589751 2604:1.4172692 2618:0.50239486 2619:2.4621844 2620:1.0678327 2632:0.9014411 2636:1.7796624 2637:1.3060962 2639:3.2157829 2640:0.64730495 2647:0.20501742 2651:1.5324004 2654:0.10474843 2656:0.95146084 2658:0.044979859 2660:0.5065878 2688:2.0334902 2698:3.7901001 2701:1.4283582 2704:0.15522817 2708:0.62732631 2710:4.12638 2714:7.087203 2718:7.8479981 2723:4.2344809 2725:0.84429628 2732:0.19322115 2740:4.4089069 2741:2.6789036 2745:0.50059998 2747:1.8384947 2752:2.209754 2759:0.0079651475 2763:2.9724586 2766:6.8665943 2771:2.1373487 2774:1.502259 2775:0.28326935 2777:5.8047681 2778:1.950984 2786:0.43140775 2790:2.3286791 2792:1.3561759 2793:4.9362693 2795:2.7254479 2800:0.86303258 2808:0.54131502 2811:1.7674141 2814:1.1138314 2818:0.31127462 2823:1.7529082 2825:1.4858106 2826:0.14782292 2828:1.4339911 2831:0.031046808 2840:0.15872276 2844:2.9050708 2849:0.83248734 2856:0.16779068 2857:0.96592903 2870:0.51877135 2873:2.4831176 2882:3.9610524 2888:0.3339293 2891:1.2849537 2895:2.9748948 2896:1.1671075 2898:1.3193371 2903:1.7367811 2907:1.688241 2909:0.10803062 2917:1.7061505 2920:0.55399996 2929:0.18827176 2931:0.28319612 2940:0.46897271 2950:4.9764395 2952:0.57827473 2964:0.45732731 2970:1.2108003 2973:0.59404576 2977:1.6043484 2979:0.97465038 2981:5.3157754 2986:4.2290673 3009:1.0045596 3010:1.7938299 3015:3.2012343 3020:2.34254 3033:0.44655088 3035:5.2606587 3044:1.8301723 3065:0.50032121 3067:2.9639165 3072:0.54988587 3074:1.7611138 3075:2.5708408 3079:0.82786483 3081:4.9747629 3108:1.0589355 3122:1.0675701 3129:0.57762456 3138:0.37850153 3144:0.20736317 3147:0.71586609 3152:3.6671033 3154:3.1510501 3163:2.5278587 3164:2.3781309 3172:1.2702093 3179:0.30333835 3182:0.020300224 3189:0.3213546 3200:1.3770758 3206:1.5001841 3208:2.4829068 3211:1.2042221 3214:0.52759302 3230:0.35905027 3232:1.8622022 3235:1.9983327 3242:0.44800264 3247:1.6848835 3256:2.5607536 3258:3.3152747 3260:3.4076366 3272:1.2619677 3275:2.0767145 3278:0.90869617 3286:2.8517938 3289:1.0725522 3291:4.9858074 3293:5.270978 3299:1.9614978 3310:1.2204134 3332:0.53254998 3334:4.1029382 3344:0.32263032 3349:0.67210472 3359:0.14190435 3363:1.7472306 3365:1.0844868 3367:1.7265464 3392:0.5587163 3395:0.22091168 3399:1.6858242 3402:2.3973408 3404:1.1759803 3413:1.0751621 3417:0.70694691 3418:2.1102564 3423:0.042773753 3424:0.18617016 3436:2.9972889 3443:0.63301772 3449:0.88785511 3456:0.43482181 3482:4.1034136 3491:2.0459638 3493:4.8351159 3494:2.5071597 3496:2.0021288 3500:2.2536893 3504:0.9400689 3508:4.3771195 3514:2.9956644 3526:0.2003597 3536:1.7506049 3539:3.5871522 3540:1.5637636 3556:0.6325655 3560:3.9420962 3564:2.0933118 3569:1.4901683 3577:2.8225126 3582:2.763087 3586:3.4149556 3588:1.0909712 3589:0.44039136 3603:0.7948851 3604:2.0442848 3608:1.4925717 3614:2.8225014 3615:2.626255 3616:0.09006986 3621:0.51381695 3624:0.011413395 3627:0.10626458 3629:2.0974507 3634:1.9170059 3635:1.2020845 3638:0.19331439 3640:0.87100363 3643:0.3409408 3644:0.66400504 3649:0.21978194 3653:0.22977902 3657:2.2356572 3666:3.7983723 3669:1.0966374 3677:1.3358672 3684:4.004653 3686:1.1388628 3689:1.1944432 3700:0.19685861 3703:2.5197332 3705:0.43302619 3710:0.64489484 3711:0.71242011 3719:1.5139728 3729:1.4299145 3741:1.4609001 3744:1.7725712 3752:4.0127883 3753:3.3470497 3763:1.129212 3766:6.6850829 3767:3.8699424 3768:1.6008508 3769:1.2031679 3771:1.1468222 3776:1.8297566 3783:0.40774065 3793:3.8310347 3797:4.9312973 3806:1.5266527 3808:1.1438892 3813:0.32307333 3814:1.0679057 3815:0.41519508 3818:4.4756856 3822:2.2308946 3824:2.6703753 3825:0.14261547 3831:2.3094625 3833:2.202703 3834:2.4444647 3836:0.19398633 3847:0.14020292 3852:0.91766769 3860:2.0577695 3862:1.2905281 3875:1.488322 3881:1.6101917 3885:2.9146762 3886:0.025548905 3888:1.245172 3891:3.6275647 3893:2.7315171 3895:0.40739834 3900:0.0075497031 3903:0.78593731 3905:1.8739917 3906:4.2361279 3910:0.14281756 3919:0.47424087 3923:1.2784694 3926:1.944335 3935:0.32533908 3936:0.47979146 3938:1.7107667 3957:1.0501374 3974:1.3909688 3980:3.0158715 3982:0.8314054 3984:2.1263635 3985:0.1718913 4014:0.12437814 4016:4.0743318 4021:2.9978423 4032:0.73784399 4036:2.1080122 4038:3.0057116 4044:1.2820897 4045:1.8977108 4059:0.74182695 4063:1.0353795 4067:1.3721404 4074:0.75244117 4075:1.6075525 4082:3.5085235 4084:3.3240707 4092:3.3019083 4096:0.96723318 
0.2436434979795966 4:1.8584396 10:0.28579143 15:0.13440734 18:1.591153 19:3.1478856 27:2.0424266 70:0.38472077 84:0.38214046 94:3.7571425 102:3.9838202 105:2.7580025 108:2.2901716 110:1.5443205 134:0.62814975 143:2.7128305 144:0.30909485 148:3.0821462 161:2.207829 166:0.5931083 167:0.93715137 180:5.3975406 181:1.0277913 186:0.74629378 200:3.821996 210:4.0433908 217:4.8107014 223:1.1777682 224:0.19390446 225:0.95714056 232:2.4362333 234:2.0624025 239:2.4241445 240:5.7785783 241:0.87227023 256:0.031194419 258:0.94465637 265:2.4989326 274:1.5285083 275:0.2756457 279:0.61091578 288:0.10527572 297:1.9060795 301:1.9819862 311:1.6329521 324:1.374608 326:0.42789945 329:0.083368957 342:0.57269585 347:0.29348862 348:0.66128737 350:1.7925248 365:0.29236946 372:1.1508049 374:1.6989555 378:0.49899668 391:1.7615108 420:1.2872697 432:0.29314798 434:1.4533808 440:0.531299 442:0.12144159 452:3.5395973 459:2.339798 474:1.1378245 479:2.0451286 482:0.8781296 487:1.4288293 493:1.1088012 499:4.3931694 502:1.2954044 505:0.64741957 526:6.5998778 549:1.3459456 555:1.1607275 562:3.6950862 569:0.013524145 573:0.34802568 575:0.16481364 586:0.75599718 588:2.8579431 592:1.9712123 595:0.26159275 601:3.6311083 603:1.7214116 635:2.2178571 636:0.99222094 637:1.0565683 641:2.3402505 642:1.2736439 643:0.8736608 646:1.5404148 659:2.4364517 662:3.2392426 667:0.98588252 670:1.6549314 672:2.0732603 674:1.89184 675:0.63498831 679:1.896952 681:4.4292698 684:1.1005331 689:0.23129246 705:2.3476517 706:4.0854869 711:2.2711232 717:0.48013625 720:1.1847708 723:2.361582 724:0.27493322 736:2.220768 737:1.2597409 748:2.5321383 750:4.7562122 756:0.094060257 759:1.3945689 760:1.2647142 771:4.3288136 775:0.16393501 788:0.76119924 789:0.34723049 795:1.3469548 798:2.0241213 799:1.5723023 811:1.1402925 820:3.6606112 825:0.39382285 826:0.34936982 842:1.1552633 848:3.5916672 856:0.047835827 857:5.2576642 860:0.66261715 863:0.14130849 867:1.638292 868:3.6700764 876:3.0706129 881:0.52204651 882:1.6006163 889:3.8519673 895:0.51956385 902:0.090850025 904:1.9654229 905:0.88809866 912:3.6481042 922:1.6901131 924:3.5217321 941:0.34530529 945:4.5553813 947:0.93282402 960:2.1581376 968:0.1394383 974:3.2160194 976:0.13862711 979:0.54266262 985:0.3056207 997:1.9056286 1001:1.3592719 1004:0.22578207 1010:1.264782 1014:1.6682023 1016:0.18276425 1018:4.9332108 1019:1.2520826 1062:2.121172 1063:0.24389288 1067:0.77969873 1094:1.0555373 1095:5.3712854 1096:4.6955867 1102:2.5070314 1105:1.5862916 1110:0.85491991 1125:0.21524519 1137:1.2652287 1139:0.5447486 1144:0.41076142 1165:1.2058519 1170:3.0169096 1176:5.5591397 1180:0.12941697 1188:1.1983402 1189:1.4435802 1196:0.86231637 1198:1.2187381 1206:2.8441834 1208:1.3782051 1217:0.08279115 1220:0.78186381 1228:1.1817565 1234:2.439904 1236:2.3072071 1240:1.1523529 1242:1.2097709 1251:1.2240821 1252:1.1523063 1254:1.4693192 1260:1.4467924 1273:1.580554 1274:2.0648313 1277:0.25636163 1286:2.8608103 1288:1.5116978 1291:2.7564993 1293:2.0575614 1295:3.9884884 1302:0.52209091 1306:0.12983012 1309:4.3286476 1314:0.42845288 1315:0.14061692 1319:0.67399341 1324:0.65398514 1335:5.792408 1337:0.85456544 1340:0.69116735 1342:0.94495881 1345:3.5502682 1347:0.32265687 1357:1.543499 1366:0.70768052 1368:3.7875209 1372:1.2507479 1376:2.3720493 1380:2.0346992 1386:0.18841553 1389:0.4453879 1396:4.5952969 1397:0.42819703 1399:3.9831729 1402:1.2373343 1406:0.76986092 1410:1.1991196 1411:2.7399101 1419:0.4433462 1426:0.54503453 1429:2.0566101 1430:3.5751355 1431:0.0037390292 1432:0.42421982 1438:1.5699478 1439:0.40993053 1450:0.91292948 1452:1.0703731 1456:2.6844184 1458:2.2314095 1465:2.6056662 1469:0.18027203 1471:1.8007181 1476:0.90151793 1486:0.08912012 1487:1.0601095 1495:1.6539745 1513:3.8008764 1538:4.6638112 1541:0.32188469 1544:0.060640633 1551:0.3888697 1555:2.0335023 1556:1.505929 1560:0.025728986 1580:0.8015821 1582:2.7925057 1587:1.2093322 1590:2.3525579 1606:0.39913779 1612:0.15017217 1613:1.5950856 1615:4.3338652 1625:2.239485 1628:0.48034388 1630:1.2639978 1640:2.5704029 1648:1.0595354 1657:1.0255144 1661:5.1002955 1667:0.31667 1668:4.0975089 1675:2.389806 1677:0.030458868 1681:2.01355 1703:3.0093901 1720:0.7665894 1721:0.20061976 1722:0.56241548 1726:3.2307777 1742:1.0905465 1758:3.2201433 1762:2.1417429 1775:0.74627727 1778:3.6982594 1780:0.75789607 1792:0.59057188 1795:1.7404441 1804:2.0534117 1808:0.804546 1813:1.0162849 1822:1.0058693 1824:0.1447891 1832:3.6515937 1833:1.0526326 1846:1.2007995 1848:4.1920691 1851:0.86897469 1852:1.0271897 1856:0.62113512 1857:3.745254 1888:0.78241158 1890:4.1251416 1896:1.622134 1897:0.49662915 1898:0.4260805 1904:0.79936671 1912:0.25228667 1917:0.53031647 1922:1.7474178 1927:0.27651122 1928:5.2677631 1938:0.20817569 1943:4.1007457 1951:0.74320471 1953:1.312543 1964:0.15199079 1970:0.88534182 1975:1.364149 1990:1.0907989 1995:0.0091911256 2000:0.044689447 2012:0.70756197 2019:2.2629704 2022:0.11559489 2031:0.78451532 2038:1.5226206 2042:1.6116128 2048:4.4483452 2050:1.2087424 2057:2.9038038 2058:0.24032499 2070:1.4508481 2075:5.3415966 2086:2.0178444 2099:0.34129909 2100:1.4599078 2105:0.033715084 2107:0.020193189 2108:2.4252708 2115:0.77588594 2117:1.6733423 2120:0.32182854 2137:0.20448911 2138:1.9767284 2140:0.73814619 2144:1.9904621 2153:1.8414347 2154:1.5872262 2172:2.6236191 2188:4.9971848 2196:2.0420585 2202:4.5746584 2203:2.0692656 2210:0.704009 2211:1.3474082 2214:4.1538229 2223:1.2503828 2246:0.86634755 2253:3.8116567 2255:2.6203384 2262:0.416237 2270:0.77915686 2271:0.43529463 2275:0.61028057 2294:1.9535545 2298:1.3613291 2302:2.0424042 2303:0.59936154 2311:4.1330714 2314:0.074714661 2317:0.6145997 2322:3.4432654 2329:1.2112328 2348:2.8232908 2349:0.029185817 2355:0.52383637 2357:1.3825088 2360:3.305548 2375:1.3073626 2393:0.29666653 2408:3.3158927 2416:1.9293426 2417:0.9198153 2422:1.5721456 2425:0.60589719 2431:4.7534208 2452:1.3697457 2457:2.1962922 2471:0.52728045 2477:0.6012553 2487:2.0951648 2488:3.5903449 2489:0.73990291 2501:0.18699948 2504:3.1738074 2508:0.78833914 2516:1.0480325 2526:3.6621504 2528:0.81808358 2529:1.1146421 2536:0.80420423 2574:2.773874 2592:0.018565774 2594:0.43268356 2595:1.136305 2599:1.2818952 2603:0.2939415 2604:2.4622467 2613:2.8176153 2618:1.7383268 2620:1.5617745 2632:0.86533916 2636:2.1389546 2639:4.8480577 2651:2.1822505 2658:1.7443151 2675:1.0353352 2690:1.6829491 2698:2.6559398 2701:1.3331047 2704:4.6534762 2708:4.1387019 2710:0.5996716 2713:1.1002547 2714:3.4951146 2715:3.6751897 2718:3.696804 2719:2.0876141 2723:6.4626784 2724:3.4165497 2733:0.53379178 2740:0.72816443 2743:0.43057477 2747:0.68624187 2752:1.0921391 2763:2.5652125 2766:4.5727606 2771:0.72960937 2777:1.0259097 2782:0.84650379 2790:1.1506157 2792:0.96348757 2793:2.7584844 2795:0.71324444 2811:2.4828146 2814:2.0425406 2826:1.0836792 2834:0.94868815 2838:0.760728 2840:0.55729169 2841:0.86254966 2844:2.1128521 2848:2.0135627 2849:1.6093113 2873:0.39035651 2882:3.7301197 2883:1.3582669 2887:0.43572125 2891:0.053468913 2892:0.075061783 2895:4.2318087 2898:1.6850412 2903:2.1395881 2907:2.5696712 2917:0.41475815 2919:2.2866423 2929:0.0005197525 2931:2.1889083 2950:1.7829229 2965:0.55361211 2969:1.5442324 2981:4.1264744 2986:4.9569821 3013:0.96224612 3015:1.6638701 3020:0.43778646 3035:5.1765027 3036:2.9145637 3048:0.65932381 3050:0.7777645 3059:0.83916795 3074:0.61146307 3075:2.7806787 3079:0.85952675 3081:4.846715 3138:0.11290547 3139:1.6956568 3144:1.8358463 3147:1.4110395 3152:3.9621158 3154:3.9603567 3157:2.6096673 3163:0.93419832 3164:1.280612 3169:0.48748621 3172:1.6593558 3179:1.1814866 3182:2.2472489 3196:1.3313361 3206:1.7558888 3213:0.67254907 3232:2.3685093 3235:2.1611943 3242:0.33579522 3246:0.38530886 3247:5.5303783 3256:3.2162859 3260:6.1609373 3275:0.20768118 3285:0.93344307 3286:1.7115377 3290:0.86732584 3291:1.9469051 3295:0.341667 3310:1.8620193 3334:5.6591954 3344:2.5902109 3359:3.68365 3363:0.8823632 3364:0.656793 3386:0.062289372 3395:1.7324053 3402:1.9206009 3411:2.1546156 3413:0.44111899 3424:0.41525412 3427:0.17446546 3438:0.19636002 3444:0.26147142 3449:0.39667016 3471:1.0110832 3484:2.0730529 3491:1.4201047 3493:2.3221922 3494:2.8362665 3496:2.6612113 3498:1.1322203 3503:3.1886826 3504:1.097946 3508:1.0888104 3526:2.874685 3531:2.6080651 3536:0.97925889 3540:0.86848986 3548:1.3480726 3549:0.7856636 3556:2.0145459 3564:1.6876822 3566:0.22771117 3569:1.0606318 3576:1.6835871 3582:1.8579524 3586:1.068437 3588:3.4250693 3589:0.20788431 3601:2.5923145 3604:3.1395621 3608:2.713568 3614:3.1023576 3615:5.7826896 3624:2.3268349 3638:0.031263709 3644:3.5909615 3649:0.10394284 3650:3.1975248 3653:6.2136717 3666:3.9648945 3667:0.0050354898 3672:0.97234178 3677:1.1582597 3684:2.3998227 3689:1.1226788 3690:0.96544433 3705:1.1037526 3710:2.3035917 3711:2.4864428 3729:0.17314625 3741:0.22708657 3749:0.44442484 3752:6.5934916 3753:4.35887 3758:0.6393252 3759:0.43780801 3766:4.8490915 3769:3.2637274 3771:0.26919067 3776:2.1353316 3789:1.2569247 3793:5.5490851 3797:3.8209453 3798:0.48043525 3802:0.66047645 3814:3.2867842 3818:2.6706514 3824:4.273448 3831:0.28139573 3860:2.1774025 3872:0.38187012 3877:1.640969 3881:1.3916421 3885:4.6330628 3888:0.4677591 3891:3.2221639 3892:0.28925398 3893:4.8152065 3895:0.55292612 3903:0.39693889 3906:4.8676095 3908:2.4297972 3935:0.44324398 3942:0.34031814 3952:0.07214649 3957:3.9721196 3974:0.28536403 3975:0.24838871 3980:2.5932012 3982:1.3636957 3984:3.4551258 3985:1.4073129 3997:2.4124236 4002:1.0210109 4004:4.0904741 4007:0.56523365 4016:2.7100596 4021:2.1604404 4032:1.237094 4036:2.873234 4038:1.3556232 4044:1.139107 4057:1.1126009 4063:2.3152809 4074:0.77055156 4079:0.18715042 4084:1.442816 4089:0.28880927 4092:4.5964432 4096:1.2491844 
