svm_type c_svc
kernel_type rbf
gamma 0.000244141
nr_class 2
total_sv 72
rho 0.502564
label 1 0
probA -4.42658
probB -0.392782
nr_sv 32 40
SV
1 4:2.5459623 5:2.2839172 6:1.5958841 8:0.84854931 9:0.6338228 14:0.40258378 20:1.8780882 21:1.6863996 23:1.4615798 25:1.484051 30:0.054352552 32:3.6531174 38:1.5531147 39:0.57359785 40:0.83429271 43:3.4381232 54:3.4299736 56:0.27332485 61:2.6718636 66:0.68040711 68:4.2816143 71:1.1450558 77:0.30430365 78:1.8360579 84:0.0092068017 87:0.43335727 95:0.0822469 109:0.53501654 113:2.8523564 115:1.0125164 127:1.4633359 130:2.6318243 131:0.49283957 136:2.8125556 137:0.3467477 140:0.12811545 141:0.92905056 143:1.0032043 146:0.28933847 147:4.1575246 152:2.0038631 159:0.1028419 163:3.0614486 166:1.1524436 171:0.31581166 172:2.208729 173:2.7448435 174:1.2301486 178:4.7311649 180:1.6210846 190:0.60465062 195:2.4571965 200:0.37365443 202:0.37221694 204:2.6886039 209:1.1922847 210:1.7735536 211:4.1903934 221:2.9949059 243:2.9199488 259:1.4691588 260:0.70308375 262:3.6784306 263:1.31274 272:4.7523336 276:0.69343233 282:1.6911658 288:0.061266631 290:0.95571709 299:2.5769682 300:0.93451202 308:3.5254018 312:2.3780093 315:0.61828518 317:3.4509764 318:2.1080568 321:4.2347536 323:0.46762952 342:0.63632137 349:2.3412311 353:2.3069057 356:0.22167388 363:7.790236 365:2.2741904 373:0.7199856 382:1.9346111 386:0.78418899 389:0.57474256 390:3.1292248 392:0.20574637 397:4.4525566 404:3.672456 410:0.93583673 412:0.63579226 425:0.045373499 426:0.13019115 432:1.1522837 444:0.078928247 449:3.0366864 450:4.2791481 453:1.6255319 466:0.26381248 473:1.8800187 485:0.26318368 487:0.33545354 488:1.4727339 489:0.49475157 491:2.2927856 498:0.38741046 499:5.4297299 500:0.61355078 504:3.1726956 505:0.16287309 507:0.037928537 511:0.29307514 515:0.09920235 517:2.0002508 529:2.268827 538:5.1831789 545:3.0937934 547:3.2743175 553:0.38608316 559:1.4857581 560:1.8392446 561:1.7578634 565:2.0223212 567:0.69074118 571:1.2828864 572:0.0012389719 575:2.0313461 580:0.61421371 584:0.45866418 592:4.287425 596:1.1924229 603:1.2866176 605:3.6278894 609:1.5325876 610:0.88552797 627:2.7375271 635:1.3423467 639:0.68181503 642:4.5671277 647:0.064121664 650:0.23733702 651:0.55069697 654:0.35928273 655:0.7532413 656:0.65246189 661:4.4646049 664:3.7225745 666:2.1107755 671:3.0552478 674:0.29051048 675:4.0018878 677:2.5179815 678:0.88814414 682:0.24782369 684:2.2272646 687:2.9593232 692:0.0041432977 702:1.9893746 705:1.1377888 706:1.2224935 711:4.6957002 717:1.2295033 721:4.6772428 722:0.30079505 723:2.319056 724:1.721369 725:0.70400929 726:2.7878916 731:1.1301142 741:1.3020999 742:3.8384106 746:0.20028339 749:3.4075196 750:2.0845056 751:0.85852051 753:3.2582181 754:1.7753642 762:0.20873085 763:0.74595964 764:0.89476538 773:1.6032656 776:0.36012712 777:0.94419861 778:3.8435988 780:0.41367376 788:0.0084162652 792:0.3353264 795:2.5567296 796:0.86272466 798:3.6158473 799:1.6031121 801:3.9115558 804:0.85805303 806:0.29926839 817:0.1126931 820:0.4705047 826:1.6927741 830:0.11788022 831:3.7947443 838:0.50146091 841:1.3762054 842:1.6021309 845:0.93302673 853:0.52796322 855:2.2981803 857:0.29056641 861:1.9493279 866:0.35729754 867:0.81722021 871:1.7652249 873:0.13669854 874:4.4368644 877:3.0791163 881:1.5605803 882:0.55732065 883:2.11815 888:2.3284135 889:2.1875358 895:0.28009003 899:1.5872784 900:3.7182143 902:1.7676046 908:5.1190448 909:0.23847517 911:0.52080595 916:3.8769758 918:1.340067 919:0.61093622 923:0.80635411 928:1.6714869 937:0.90080309 938:0.52157432 945:1.0442765 951:0.39417282 953:2.0870535 958:0.36238012 961:1.1979835 966:3.2125831 968:0.44733623 972:0.27698255 974:4.6395459 978:0.76131582 988:2.324013 989:1.3076242 992:0.87470198 998:0.49516383 999:2.8249173 1001:2.972482 1002:1.0377543 1004:0.18079886 1007:3.7062447 1013:3.1022649 1018:2.6105845 1022:3.7676859 1027:4.0179334 1030:0.24803755 1034:1.1578565 1039:0.1930833 1042:1.2253617 1049:2.3579621 1050:0.37224239 1054:0.42841834 1062:1.0688361 1063:1.8224541 1064:0.89711201 1070:0.90935266 1074:3.1838422 1077:1.283911 1081:3.4032083 1086:0.11158779 1087:3.4975576 1094:2.5630116 1097:1.9691887 1100:0.23931384 1104:0.12596703 1107:1.7899996 1109:0.97892487 1124:4.0635791 1131:3.1597805 1134:0.048105121 1139:0.80611497 1140:2.3996456 1150:0.65683991 1153:0.98806804 1157:1.0895205 1159:1.6136708 1170:6.812819 1173:0.25253198 1175:0.69622511 1192:1.2029011 1193:1.5115314 1197:0.43394721 1206:2.3911083 1216:3.2251832 1219:2.1185513 1220:1.5052732 1221:4.1817822 1223:2.3339179 1232:0.94085127 1235:0.83710063 1237:2.2351654 1242:3.3932486 1243:1.3305153 1246:0.91656303 1249:2.4676404 1250:0.23157096 1251:0.088363767 1256:1.0250728 1259:1.106815 1265:0.80997205 1274:1.788119 1279:2.8721037 1281:0.11965272 1287:0.93043768 1291:0.45199043 1298:2.6459076 1299:2.9347186 1302:0.62901551 1303:0.74166596 1304:1.8395417 1307:2.2341304 1309:4.7179227 1313:1.1210942 1314:1.5133829 1318:0.1376974 1320:2.9141417 1325:0.81389749 1332:5.6004076 1334:0.28413618 1335:5.5803318 1337:1.3362863 1340:2.6364677 1341:3.2692733 1342:0.411865 1343:3.3142939 1344:3.3274362 1349:2.2576408 1354:1.0059887 1356:1.1386225 1357:3.4690025 1359:2.5268366 1364:1.5738901 1366:0.080982536 1368:1.362281 1371:0.01641643 1373:1.875284 1375:2.0812252 1379:1.7412728 1385:0.67874533 1391:0.75659919 1393:3.51967 1404:0.25470892 1406:1.5469577 1408:1.4251127 1409:1.2238867 1411:2.4024365 1416:0.88758236 1417:0.072460979 1419:0.48580429 1421:2.2631607 1426:2.7481565 1428:1.6845729 1429:0.32171133 1430:2.6551936 1432:0.3377113 1433:3.2400527 1435:3.1769576 1439:0.7108798 1441:0.94264579 1444:0.44054395 1445:0.97153807 1448:2.3722122 1462:3.5487633 1463:1.8753438 1467:0.86504745 1470:3.8365164 1471:0.34348148 1475:0.95711935 1480:0.76029932 1483:0.059738755 1484:1.1846008 1487:0.41249335 1496:1.2200202 1499:1.490443 1502:1.1712594 1504:0.54592144 1506:3.9377096 1509:2.2006621 1513:0.90447891 1515:5.7186599 1517:2.5741928 1520:1.2294731 1522:2.925632 1523:0.026962578 1525:0.056620002 1526:0.74097115 1527:1.5441012 1546:0.43040341 1547:1.4681526 1548:0.42087746 1552:0.047606081 1555:2.6920133 1557:0.65144342 1558:2.151299 1563:0.1423268 1568:3.3221292 1582:2.1874583 1583:5.1361771 1587:1.226855 1590:0.92282122 1597:2.6492531 1602:1.9448702 1604:1.8540173 1605:0.19231218 1606:0.49235561 1608:0.84542382 1616:2.1898899 1618:2.047785 1622:1.0080955 1629:3.3744388 1633:0.28669506 1636:3.0217123 1644:0.54117548 1647:1.3100005 1650:0.11408556 1658:2.2195079 1659:0.86021727 1663:1.9380666 1665:0.22912191 1667:1.3006749 1668:1.4194341 1669:1.3105266 1675:0.30576068 1677:4.1274505 1679:0.35045397 1682:0.76631832 1688:0.22303787 1695:1.1243588 1702:0.52108788 1711:0.59181035 1712:2.5641122 1714:0.22081871 1721:0.5335201 1722:0.26402128 1723:0.4871951 1727:2.2622392 1728:3.6353459 1730:1.1743574 1733:0.33735126 1741:1.8114468 1752:2.8487942 1756:1.6231487 1761:0.65652055 1763:0.97388119 1764:0.58861101 1772:3.796752 1773:0.84772551 1774:0.22060081 1775:0.27662796 1780:0.42438918 1784:3.1332529 1785:2.0092633 1788:3.6725755 1793:1.2172477 1794:0.90412927 1795:2.424139 1800:0.57354015 1804:0.94343299 1806:1.3836015 1807:1.6667936 1818:0.62109005 1821:4.4583178 1824:0.2098709 1825:0.25744647 1830:1.3847497 1833:2.598402 1834:1.2427266 1840:0.83778721 1841:0.56509066 1842:1.2222359 1844:1.8019819 1846:1.1387042 1849:0.98982209 1850:1.5674679 1852:1.0098263 1854:2.0765476 1856:0.39910764 1859:1.1979014 1878:0.52009535 1881:2.2763569 1882:3.6526904 1888:1.3433057 1891:0.53755319 1893:2.6927586 1895:0.94665956 1897:1.2121067 1901:0.65887839 1904:3.2530138 1908:2.1589193 1912:1.5367935 1926:0.020331591 1933:1.8434837 1943:1.5934035 1950:0.33399105 1958:0.66819632 1959:0.25442493 1960:2.5906045 1966:0.86786425 1972:1.0624927 1974:0.55938959 1975:0.080023885 1977:3.2279997 1984:4.5867195 1990:0.79268038 1991:0.51301324 1993:2.4626076 1998:0.016736582 2000:3.513402 2004:1.8772031 2005:1.9281284 2006:3.3349791 2018:0.002868861 2020:0.11978462 2030:0.47955737 2032:1.1453007 2033:0.38028717 2038:1.8330353 2042:0.83127755 2043:0.93663323 2044:0.73828661 2046:0.36456755 2050:0.37033641 2052:1.6509174 2053:2.9214571 2057:1.4120766 2068:0.35568029 2083:0.073965907 2084:4.5075593 2085:0.25295687 2094:0.92924869 2100:0.8134383 2101:0.34835598 2107:3.3626015 2110:0.30409619 2115:0.6576705 2120:2.0914624 2125:0.27584702 2135:1.4819822 2140:1.5467062 2141:0.56804937 2144:1.0954373 2153:1.7426171 2157:2.307704 2160:3.0395622 2162:3.4633527 2163:1.4341091 2164:0.093833059 2166:5.1711893 2172:1.2721041 2177:2.6562366 2179:0.44577312 2180:1.7788038 2183:0.27850109 2184:0.59626007 2186:2.6949565 2187:2.071687 2188:0.84382993 2189:0.11875914 2194:2.9969249 2200:1.9015309 2202:1.195531 2205:1.1665218 2214:2.4653258 2217:1.033352 2226:2.9566915 2229:3.8640678 2230:0.99153417 2231:1.5332425 2233:4.709281 2240:2.3013964 2241:0.9432745 2249:0.59946167 2250:1.0156657 2257:4.7340665 2261:1.3468461 2263:0.71491241 2264:2.9497681 2265:2.5283599 2274:1.3524287 2275:0.9559167 2281:3.2438529 2286:1.9550666 2287:0.085509062 2291:1.8342199 2292:0.50036252 2294:1.3054473 2296:1.4757683 2297:0.71909487 2298:1.9231184 2305:2.5588348 2307:5.3173676 2310:0.090474844 2313:1.6188654 2317:2.9694021 2322:4.0986352 2329:5.4606652 2338:1.2796907 2342:1.863129 2343:3.1078489 2344:2.6516275 2348:3.6178446 2353:2.1532195 2360:4.6039138 2370:2.6985168 2389:0.49687567 2409:1.6177399 2416:2.7963176 2420:0.59850496 2421:1.6890023 2424:1.2881259 2431:0.54225683 2434:1.3470757 2435:4.3514285 2436:0.67186803 2446:5.3251457 2452:0.039178014 2453:0.17908537 2455:3.3040712 2456:3.6443093 2457:0.16804379 2458:0.4459964 2459:1.4356179 2470:1.672989 2471:0.15790167 2474:3.4276931 2485:0.0051510707 2487:1.6843636 2490:0.7692495 2499:0.31187174 2503:0.61236912 2506:2.1198094 2507:2.4027882 2508:1.2020485 2509:0.34204745 2514:3.2016845 2522:1.4047403 2523:3.9845381 2524:1.4753778 2525:0.93592381 2527:1.4259919 2530:4.2507453 2535:1.1311908 2561:7.4351006 2562:0.71631444 2571:1.3270344 2578:0.048876662 2583:0.46281409 2592:1.6053326 2594:4.1503615 2596:1.8039441 2597:3.0166073 2599:0.19391222 2601:0.13468394 2610:0.67932987 2611:1.1032896 2616:1.0202267 2619:1.1707916 2621:2.240665 2623:0.0041228533 2634:1.6149451 2635:0.54555899 2636:0.91699588 2638:1.0664599 2643:1.9168687 2644:0.66929674 2646:0.79754829 2651:3.5792425 2652:0.6148929 2655:1.8505099 2656:0.7779758 2660:4.5359092 2676:0.18922365 2678:1.1258079 2688:2.6387534 2689:2.3744411 2690:3.2433178 2693:1.2674963 2694:2.5441508 2698:0.73658991 2704:0.93722332 2714:0.66439956 2715:2.545332 2718:1.0900828 2721:2.6853187 2726:0.0088989176 2727:3.339211 2735:0.496012 2736:6.569551 2745:0.9200514 2750:2.0218196 2760:1.2829796 2769:1.425343 2773:0.14323613 2775:2.9659076 2777:0.8281076 2781:1.0360459 2785:0.28276345 2786:0.95547372 2787:0.90348291 2790:1.2513635 2792:1.5170394 2798:0.024984539 2799:1.9362062 2800:5.0291834 2807:0.75922716 2812:1.4982177 2814:1.4081734 2820:0.066192746 2821:4.042562 2823:1.9450362 2837:1.2184895 2838:0.85305244 2840:0.35142821 2852:0.55400074 2853:0.57666254 2854:3.4651666 2856:0.064944446 2857:0.73709673 2859:0.93073356 2866:1.8683295 2867:2.8340797 2873:0.25290862 2881:1.3045906 2882:4.1343946 2885:2.780129 2887:0.62756467 2888:2.6439199 2891:3.9174213 2892:1.6645119 2893:0.048125118 2894:3.5357707 2896:6.1651297 2907:0.88832855 2915:1.3118162 2917:1.1467736 2919:4.0851879 2920:0.92140657 2927:2.7508698 2928:0.33393592 2933:0.7042287 2934:2.5300426 2937:3.1330807 2940:0.030745864 2947:1.314954 2948:0.25577474 2950:5.1918306 2952:3.2429185 2953:0.54269075 2957:3.9297078 2965:0.2174809 2967:0.48586589 2977:2.4410534 2982:2.9418979 3000:0.64348876 3012:1.8235269 3019:2.3790293 3020:1.5968227 3021:0.058660895 3027:0.038429081 3034:0.93247873 3037:1.9162595 3043:0.27173504 3047:1.5272866 3049:3.2424605 3051:1.2741244 3052:5.0775094 3059:1.1016847 3060:0.39940915 3062:3.1951985 3063:1.9955928 3068:0.82671356 3070:0.54097915 3072:1.1632354 3077:4.5806108 3085:0.11391172 3092:4.0932698 3094:2.7960665 3110:0.03189227 3114:0.80732775 3118:2.0112743 3119:0.92669016 3120:1.0522299 3121:0.59871817 3122:0.011972249 3123:0.35468152 3125:0.14703247 3127:3.9256227 3129:3.2048602 3132:0.51054162 3144:1.8101411 3145:0.26374605 3150:0.82404983 3152:0.36581469 3154:0.66956192 3155:0.59824783 3159:1.5730811 3160:3.2908816 3163:1.0008088 3168:0.94432652 3169:0.089948356 3172:1.7596333 3183:2.8581362 3189:1.9767548 3200:1.0629274 3231:1.0221691 3233:3.8248384 3234:0.13243818 3235:2.8327386 3246:1.4787101 3256:2.6539536 3257:0.29732597 3258:1.0210997 3259:1.402909 3260:0.99721098 3267:0.94598281 3270:3.4665813 3275:4.6371531 3281:0.94433713 3282:3.8017793 3286:0.29563263 3290:2.0114753 3291:2.5092711 3293:2.8900993 3294:0.70962274 3296:0.30731297 3297:0.68843913 3302:0.030581668 3309:0.23561847 3310:7.1438174 3313:1.1930162 3314:2.1023693 3319:1.3883328 3321:3.7244313 3325:2.445775 3333:0.4018485 3334:2.8178031 3342:2.5556688 3348:1.5202099 3349:4.7217374 3351:1.5593604 3355:1.3118527 3360:1.9015287 3365:2.5818968 3370:0.43072698 3373:2.7043645 3377:3.4544408 3382:6.40658 3383:0.51009923 3390:0.86210632 3394:0.29586321 3407:1.4339405 3409:1.5304077 3417:0.64336419 3422:1.9354343 3423:0.48375836 3425:0.043713182 3427:1.420159 3431:3.1929653 3437:0.51285195 3440:0.22486937 3442:1.175547 3445:1.3678188 3446:4.6198721 3447:0.36860132 3450:0.82305175 3452:3.4330008 3453:1.1990545 3457:2.2449729 3465:1.2813463 3468:0.17634171 3469:0.49976891 3471:0.33080181 3475:1.8062758 3482:1.8844515 3492:0.30553025 3494:4.0297709 3495:2.2970109 3496:3.3969193 3501:1.4040463 3504:0.66844636 3505:2.5664308 3513:2.0148783 3515:2.1861415 3521:0.22692248 3522:0.11049807 3528:0.86738837 3532:0.74866307 3537:1.6086135 3539:0.38192686 3540:1.7823896 3548:0.10881305 3554:0.68580103 3557:0.513587 3564:3.7700934 3569:1.2588735 3572:3.5657849 3576:1.0168942 3578:4.611671 3580:2.5007837 3582:4.3301897 3586:0.3715032 3591:1.4081057 3592:0.53660059 3601:2.7200973 3604:1.8519962 3606:2.0113564 3608:3.2238741 3615:1.3101641 3618:2.8894634 3619:0.1598627 3620:3.4229829 3621:5.1435175 3623:0.00364393 3624:5.7580194 3626:0.62301582 3627:1.104589 3630:0.12358338 3631:1.0348454 3634:1.9368078 3636:0.96348977 3638:1.4163773 3648:0.55997229 3650:2.8452079 3652:0.81081045 3654:0.71966112 3664:1.1778183 3672:3.7037027 3680:0.074388415 3686:1.6146175 3690:0.16031516 3697:0.14192033 3705:0.38116965 3710:1.7542163 3712:1.2681229 3713:1.548789 3719:5.8480463 3724:4.298264 3728:1.8674326 3731:0.26109517 3732:1.7246428 3736:0.086343601 3747:2.8710494 3749:0.14809608 3751:0.7996074 3752:0.19337803 3754:0.20390421 3757:2.3607717 3763:2.4997928 3766:2.7603087 3771:0.31770369 3774:2.3571405 3775:0.85688794 3777:0.05701831 3778:1.8610822 3785:2.3381498 3787:1.824147 3796:0.64379954 3801:1.2075787 3802:1.6102533 3804:0.080527842 3806:0.72655785 3811:1.7583849 3815:3.0778048 3818:1.0861695 3826:0.18021472 3833:0.69536328 3835:1.8304054 3838:2.2309771 3842:0.0070158243 3844:2.5630839 3849:3.3115535 3853:0.48201245 3857:1.566299 3864:0.13930707 3867:3.4869151 3868:1.3757417 3872:2.1877494 3875:0.50342041 3877:1.4109182 3882:1.6288131 3889:1.0054104 3901:2.278203 3907:7.0475545 3908:2.4504545 3913:0.11237937 3917:1.3945049 3919:0.61434209 3921:0.41632441 3923:0.90077513 3929:1.5119017 3936:0.82826269 3941:4.4157352 3943:0.031942934 3950:2.418097 3951:2.2645218 3952:0.86281532 3963:4.5585279 3973:1.9479198 3974:0.27116072 3988:3.1587064 3992:1.7548752 3994:2.004421 4000:4.1382675 4003:0.22681859 4004:2.6480126 4008:1.4227479 4011:0.82804209 4016:3.56568 4020:0.72261572 4021:2.1123481 4023:1.6352959 4029:0.037675411 4030:0.99459648 4032:0.85338914 4033:1.0106755 4041:1.9082835 4043:0.15189821 4058:1.5124097 4060:1.3211906 4063:1.2831053 4067:2.4267669 4070:2.0704494 4074:0.47580048 4076:4.833849 4082:5.0265307 4083:0.089162052 4084:2.4147882 4085:0.29762268 4087:0.58671021 4090:2.3150809 4094:0.5540117 
1 5:0.945454 6:1.5610908 8:1.4484744 9:1.601709 14:2.9896519 19:0.56628203 20:1.4993368 21:1.5856303 25:2.5870807 27:0.27080536 29:0.067279577 32:1.6917949 36:0.20100886 39:2.4062204 41:1.1670201 44:1.3774719 54:2.6024246 58:0.30229342 66:3.0091529 68:0.3089956 71:3.7300684 77:0.59522563 78:0.30851185 84:1.1498437 90:2.8452473 103:2.4613953 115:1.4862463 123:2.5148547 125:0.81882268 127:2.7068806 130:1.1271888 131:1.0567753 141:2.5532653 143:4.0248847 144:1.218869 146:1.577628 147:2.5825841 150:0.68570459 154:0.42878062 157:2.6359243 163:1.3654907 166:2.6648922 172:0.71584129 173:0.26774901 174:0.53712225 180:1.7289779 188:0.057312727 190:1.1519773 202:0.65838158 209:0.97446877 210:3.3472452 211:1.19991 214:4.1215963 216:1.495446 221:0.40185422 223:0.13066006 242:1.6039107 243:1.4437101 247:2.0398784 253:0.064045906 255:0.50905311 262:1.8384483 263:0.43763629 272:1.3508317 282:1.3894103 283:2.5981474 296:0.90324378 297:0.00041770935 299:1.5476303 300:2.5963914 308:3.262315 312:2.0452666 315:0.38900903 318:0.46611381 321:2.1464367 323:0.56377417 326:1.2828324 336:1.240819 349:4.5492125 353:1.1799031 356:0.22534093 359:1.7839737 360:0.011538118 363:6.2818141 365:1.4766834 382:1.7033085 384:1.1200423 390:3.238162 391:0.55927336 393:0.018534392 397:6.3984451 405:1.2432656 410:0.0048812926 412:4.1231956 420:1.5276548 421:2.5841856 426:4.3491883 433:1.1782601 442:0.79807585 444:1.0228641 449:0.061624914 450:3.5270655 453:1.0541875 454:1.1353858 462:0.65928006 463:0.31741852 466:0.3774811 473:4.6168242 483:1.1586382 484:0.74442172 485:1.312808 487:2.2327564 489:1.4115911 491:1.764129 492:0.28223816 493:1.6532111 496:2.3862741 504:3.7613204 507:1.2223585 514:0.90495098 517:1.0750449 526:0.12421879 529:1.3789272 538:3.8956623 539:0.92497349 545:1.3493538 547:2.4814215 555:3.306741 559:4.6129756 562:0.50442725 572:0.40767112 575:0.50247467 580:0.9775542 581:1.0465459 584:1.1440557 586:0.56931192 592:1.4070172 593:2.3345253 596:1.1623926 605:4.5279512 609:1.8395333 616:2.4231174 618:1.2370872 619:1.8575808 635:3.9158192 638:2.2918508 639:1.8529631 640:1.2295574 642:2.4286358 644:1.7463604 647:3.1926155 648:0.15817207 657:1.5271337 660:1.5531063 661:2.0594013 664:0.2603558 666:3.0223937 671:1.806906 675:2.5839708 682:0.470276 687:2.7155492 701:0.19661677 702:4.3409052 705:3.5026379 706:1.4616094 710:1.8891997 711:2.1543596 717:2.1556892 719:0.47335222 721:2.5782399 723:1.8024502 724:4.0202084 726:4.8396873 728:1.8817281 731:3.2208903 739:1.8224771 747:0.18076292 749:1.2520809 750:2.9813352 751:2.4360526 753:1.7528155 754:2.9661078 759:0.16466343 763:0.60008824 764:3.5399296 765:0.80516374 766:0.42156813 767:0.097617179 776:1.5097736 777:2.0625703 778:0.20429111 782:1.2593973 788:1.0299996 795:0.86913562 796:0.47053322 798:1.0858437 799:0.69948637 808:1.6708131 811:0.38903803 812:0.29752609 818:0.84911942 820:2.1134958 823:1.7217157 830:0.20831725 831:1.4310199 838:0.072790742 849:0.50050318 855:4.076715 857:2.5156333 864:1.1500957 865:0.94475722 867:2.2350464 871:2.5803943 874:1.2873147 877:1.8504031 878:1.4900129 881:0.026196927 883:1.2468281 888:2.2815342 889:1.4278061 899:0.87223959 902:0.64131916 905:0.80678779 908:4.0406699 911:1.4596854 915:0.19312987 916:0.69248974 918:1.9390981 921:0.2445443 922:0.5222984 923:2.9387381 927:1.1606097 928:2.5282271 932:0.60501289 937:2.5351758 943:3.5847979 953:0.78808999 958:3.0094042 966:4.2282743 974:3.583236 976:1.5218363 987:0.10192591 989:0.096847743 992:0.77609789 998:3.4034181 999:1.4803331 1001:2.8626099 1002:4.4020033 1007:0.56423706 1013:3.1982889 1014:1.1951191 1022:0.97336012 1023:0.66417909 1027:1.5893873 1042:2.5699601 1049:1.2409225 1054:0.24817593 1060:0.25960433 1074:1.3927768 1077:0.60762966 1081:0.36736512 1087:2.7609911 1094:1.7908069 1095:1.8044446 1096:0.32761428 1097:0.84170318 1103:3.1113205 1107:1.04842 1124:0.67968333 1131:0.35963055 1140:1.2526944 1150:0.96715784 1155:1.7192014 1159:2.7737827 1168:0.26399058 1170:2.5596557 1173:0.93091118 1188:0.82862771 1192:2.5745389 1206:0.77421463 1213:0.63347644 1216:1.6566575 1217:0.81248528 1219:4.5206995 1220:4.2097278 1221:4.6449528 1223:1.304177 1235:1.5784923 1237:3.2243929 1242:2.3560274 1243:1.5102265 1246:0.99027681 1248:0.98535025 1250:1.1261702 1259:2.4369893 1260:0.091598861 1274:1.0438532 1278:1.2029289 1279:2.5123644 1281:0.22137538 1288:1.2122321 1295:0.63647801 1297:0.88977087 1298:1.0054243 1299:1.8684289 1303:1.0757525 1304:0.59944308 1305:1.236604 1306:0.69597864 1309:1.512553 1313:3.2383761 1314:0.21099806 1315:1.1175961 1318:0.79454619 1319:3.0534203 1320:0.66743934 1325:1.0936393 1326:1.3810937 1332:3.1000111 1335:0.68420136 1339:2.6793878 1341:1.2136416 1342:1.9094298 1344:1.0781772 1349:3.3444266 1354:0.32282484 1357:2.322598 1359:2.2580144 1361:0.59615761 1363:0.0069474578 1368:4.0463309 1372:2.9131143 1373:2.5093369 1375:1.5398076 1379:3.5296125 1385:0.24742541 1386:2.686193 1387:0.86628515 1393:2.4766736 1395:2.5181439 1406:2.9439995 1408:2.3012536 1411:3.7822521 1413:0.42294085 1419:0.49930841 1426:1.0004051 1428:1.9881334 1430:3.2352033 1432:0.2515991 1433:3.4773271 1439:0.98403239 1444:2.441334 1445:2.8424406 1454:0.014687359 1457:1.2656242 1458:0.43355495 1459:0.1907911 1463:4.0019021 1465:0.23945308 1470:3.1595321 1479:0.69981921 1483:1.0970519 1484:0.12032937 1485:0.01950565 1487:0.6050216 1489:3.4559815 1496:0.036438346 1502:3.7824633 1506:0.59032774 1509:0.56470442 1510:0.64634275 1515:4.1828332 1517:7.1580105 1520:1.4202807 1522:2.8895464 1525:0.60871136 1526:0.91640019 1548:0.77088881 1550:0.5127123 1555:1.1340928 1556:1.2499397 1563:0.036233723 1568:3.6611695 1573:1.2424983 1577:0.32192081 1582:3.1782227 1583:0.98612249 1587:0.74234843 1588:3.8030021 1597:1.9538015 1602:3.3411191 1604:0.94072813 1605:0.14631145 1618:1.9535853 1622:1.1159204 1624:0.76237649 1625:0.18876459 1629:1.343068 1633:1.8389447 1653:0.074981391 1656:2.2202265 1657:0.22634935 1658:4.3353782 1659:3.3596129 1663:2.801511 1667:0.19056763 1675:1.5202585 1677:1.8301456 1679:1.4416971 1680:0.85959601 1690:0.56513971 1691:0.30794516 1695:0.68125808 1697:2.0744333 1701:1.1863377 1704:0.40058002 1711:0.43529746 1712:2.3071256 1714:1.0704616 1727:3.7841523 1728:1.720366 1730:1.038435 1733:1.6958166 1746:1.176847 1750:0.79272914 1755:0.4737156 1757:0.29758704 1758:1.7880147 1763:1.3940625 1767:0.55779725 1773:2.0454574 1780:0.3963632 1781:0.72135705 1784:3.309665 1785:1.7430909 1788:1.4384854 1794:1.8740389 1795:0.38552722 1796:1.0485697 1804:0.053579807 1806:0.62492347 1807:0.70445943 1815:0.62241465 1818:0.71638954 1825:1.0963073 1829:0.085675269 1830:2.6900322 1832:1.2357796 1833:1.6025341 1834:1.8569605 1844:1.7790544 1846:2.3571203 1849:2.8720434 1850:0.84376031 1852:2.2332864 1853:2.8731494 1854:2.1039877 1857:0.43096578 1860:1.5644056 1881:2.6921196 1888:2.872014 1890:0.53385907 1891:0.045247316 1895:1.1368952 1904:2.6838961 1905:1.4053888 1908:1.7893382 1912:0.79975581 1918:1.541689 1923:0.78018951 1924:0.81782639 1925:1.9020437 1926:0.35591099 1932:0.26845789 1938:2.5910256 1943:1.0096012 1948:2.0250411 1950:0.73057002 1951:0.117737 1958:0.062505186 1960:2.1211288 1966:2.0723441 1982:0.59670997 1984:1.6333799 1987:0.99563307 1990:3.8420773 1991:0.94524246 1997:3.3666251 1998:0.26963729 2005:4.2122679 2006:5.6551805 2020:0.013177603 2021:2.0776906 2026:1.9867622 2030:1.316129 2032:1.7595314 2042:1.2276193 2043:0.69317514 2051:0.19795795 2052:0.56399131 2053:2.2044733 2058:0.60445964 2059:1.3510681 2075:2.4169216 2084:1.9653137 2094:2.7503262 2097:0.52235377 2102:0.75405508 2103:0.78194934 2107:1.4968281 2115:1.0394105 2128:0.068203881 2139:0.7267679 2140:2.6079583 2141:0.35925388 2150:1.947349 2157:0.11618236 2160:0.48278785 2162:4.9296803 2166:2.6501608 2170:1.0357388 2177:3.9809277 2179:0.6700685 2184:0.29260421 2186:1.6128031 2187:2.0638437 2188:2.7991915 2190:0.023923367 2194:3.3513389 2198:0.57385254 2200:5.6246204 2202:0.041721165 2203:0.046520084 2214:1.4596448 2217:1.0832098 2226:2.3947711 2229:1.3315254 2230:0.070871443 2231:3.2032518 2233:4.1619062 2241:0.58674139 2250:1.2040622 2255:0.94771785 2257:1.6408029 2262:0.4427138 2263:0.97966588 2264:0.87764561 2265:1.9989083 2267:0.38403273 2270:0.88172424 2273:0.15255201 2280:2.0026107 2283:2.3153481 2285:0.57461953 2286:1.9337875 2290:0.77732331 2292:1.6533539 2298:2.4296193 2302:0.44163537 2305:1.9598067 2307:4.3551474 2311:1.6871387 2322:2.9596567 2324:0.26627651 2329:1.3656636 2337:1.6355767 2340:1.3140637 2343:0.44727975 2348:2.6379468 2353:0.43986842 2355:1.2404647 2358:0.1369886 2360:3.781836 2364:1.6758444 2372:0.79734582 2377:3.1463931 2378:0.14499998 2379:0.103245 2381:0.71599448 2388:0.65606427 2389:3.2278175 2390:0.049291372 2393:0.46651873 2396:0.7085765 2405:1.0263819 2406:3.6580777 2410:2.5885677 2416:1.9263147 2420:0.23022455 2424:0.079393893 2428:1.7148271 2435:0.90807247 2438:0.073926121 2441:1.079926 2444:0.52825999 2446:2.1122878 2453:2.0074673 2456:0.67682433 2457:2.0164983 2459:1.0367234 2466:0.06101194 2467:2.9609902 2468:1.0927062 2471:4.894907 2477:0.029269785 2487:0.59456807 2490:0.16926974 2503:1.7387183 2506:1.8097126 2507:3.9261062 2508:2.391746 2509:0.034708068 2511:0.14961427 2512:2.5839512 2516:0.32009545 2523:0.84425771 2527:3.7567086 2528:1.7963676 2535:1.6695373 2558:2.7988217 2561:1.7520182 2562:0.72633189 2563:0.23366061 2566:0.077113986 2589:0.36718392 2594:2.5475619 2598:2.3240271 2599:0.76788187 2600:1.1855016 2601:2.0694852 2614:0.73253864 2617:0.46246877 2621:2.9017444 2628:0.36308962 2629:0.41960919 2630:0.69236982 2634:3.7698617 2636:1.1476277 2637:0.32969889 2638:0.51739204 2639:0.24125618 2643:1.2149708 2646:2.0557294 2654:1.7905185 2655:0.30668068 2656:1.9097487 2659:1.8115449 2660:2.5139117 2667:2.7766714 2669:0.95983291 2687:0.93311715 2689:0.5368371 2690:2.7923586 2693:1.3309972 2704:1.0433164 2708:3.7084718 2715:1.9028878 2718:0.13604861 2720:0.78100967 2721:0.68354261 2726:0.71177071 2727:2.5219824 2736:3.9658082 2746:0.19425172 2750:1.0495498 2754:0.86232781 2756:0.26992777 2761:1.0602869 2765:1.5689332 2775:2.50735 2778:1.2002496 2785:0.76623726 2787:0.35047147 2792:3.610378 2800:1.9195582 2802:0.35966927 2807:3.3898056 2808:0.64571804 2811:1.3995675 2812:0.77092481 2814:0.49196076 2820:0.85673308 2821:0.66268158 2823:0.70675278 2826:0.60475928 2831:0.074217796 2837:1.8616406 2838:0.71057296 2842:2.967334 2849:0.061364591 2856:2.8115587 2860:1.2864147 2866:2.3178155 2867:1.7115083 2869:1.2730157 2880:1.8912048 2881:0.63360596 2882:1.4368492 2885:4.1487317 2888:3.6022451 2891:1.1241465 2892:0.042100146 2894:5.0300884 2896:3.5940833 2898:0.2085107 2901:1.5222667 2910:1.6446518 2912:1.5843327 2914:1.0077754 2917:0.31123284 2919:2.4775753 2921:0.29776961 2927:0.13773644 2934:4.3260717 2937:0.71872771 2940:0.85299379 2947:1.1301286 2949:2.1982932 2950:1.3382463 2952:1.0839665 2953:0.70628864 2955:1.8099848 2957:1.8217096 2960:1.2112145 2971:0.98133749 2976:0.0073617697 2977:0.99247646 2978:4.0703802 2982:0.58801806 2985:1.4497271 2992:1.8286697 2993:2.1518536 2994:0.76263916 3012:2.0339222 3027:2.888236 3037:0.71406865 3043:0.0068004727 3047:2.7410624 3049:3.6612167 3051:0.95726466 3052:1.3718464 3058:0.95884609 3059:1.3898611 3060:2.7233851 3063:0.23190099 3073:3.1198096 3075:0.6867097 3077:1.6753573 3085:0.96952832 3086:1.1626621 3087:0.19477083 3092:1.991022 3094:1.744699 3099:1.0523974 3118:2.2974703 3119:0.7915411 3120:2.8900669 3121:0.18152896 3123:1.4255731 3124:0.9444077 3127:0.14586553 3129:2.2505102 3133:0.27454668 3141:0.42048293 3144:0.45056009 3149:0.57660043 3152:0.35709611 3161:0.84003234 3162:0.85080832 3163:1.2000017 3167:0.75211418 3172:0.28498244 3183:0.014490411 3186:0.31994715 3187:0.8625136 3195:1.7270741 3198:0.12300625 3200:1.9604309 3206:0.64795285 3209:0.52047461 3216:2.5745251 3220:3.2656369 3227:0.50736451 3229:2.0025101 3234:1.8970329 3251:0.31429109 3256:1.5143595 3258:0.29235604 3267:0.44700035 3270:3.4067125 3282:0.58691078 3284:0.20384085 3285:1.2660154 3290:4.0677819 3291:2.8055437 3294:0.23188326 3298:0.6606397 3302:0.41399312 3305:0.81898165 3309:0.45559296 3310:6.1702137 3323:0.54607892 3325:2.8216522 3333:0.63736635 3334:3.6796627 3342:1.9857123 3343:1.309599 3344:2.445219 3345:0.29195738 3347:0.57097548 3348:3.2436931 3349:0.60469365 3360:2.2303674 3365:2.7065828 3375:1.0658727 3382:3.3970351 3383:0.92564869 3387:0.76503551 3394:0.28064603 3397:2.7285123 3407:0.38050288 3409:0.82156813 3413:1.5297765 3416:0.0073288083 3423:1.9754143 3424:0.55788177 3425:3.1585712 3427:2.4895561 3436:0.62091351 3437:0.28471702 3438:3.5661218 3442:3.3297813 3443:0.79322839 3445:4.3794036 3446:4.0875368 3448:1.450555 3450:3.389308 3453:0.6538868 3457:0.99538362 3465:3.4382539 3471:1.0160871 3475:1.4678674 3478:0.23964076 3481:0.84493798 3485:0.16478363 3486:0.94121861 3493:0.54961812 3494:2.3101449 3495:0.75677645 3496:2.1499903 3501:0.1372124 3505:1.1867454 3507:0.2590811 3512:0.63314527 3513:2.4835711 3517:1.0456287 3521:1.6988716 3523:3.2023857 3537:3.6996496 3540:2.9551871 3548:0.7616452 3551:2.3665195 3554:2.3724494 3556:0.50279546 3557:0.33357897 3564:2.1471474 3569:0.94729996 3578:4.6232138 3580:1.145937 3582:0.24436551 3586:0.2681376 3601:1.2545098 3608:4.7254138 3612:1.5835644 3618:1.8131144 3620:0.36449152 3621:0.51855582 3623:2.9788287 3624:1.791456 3626:0.11418815 3627:1.4988471 3631:1.6637866 3632:0.11318246 3634:0.43269372 3635:2.1331601 3636:0.62326574 3643:0.60564423 3644:0.51662463 3647:0.16499832 3648:0.84140098 3650:4.7400451 3653:1.9618796 3658:0.82514846 3665:1.6470606 3671:1.8814371 3672:1.9648534 3677:0.12699777 3680:1.4304429 3690:0.14426571 3696:0.58127666 3697:1.7922908 3699:1.4246531 3712:1.8056253 3719:2.398808 3720:0.7555213 3721:0.040902913 3724:2.3119116 3729:1.9443501 3732:0.73286504 3741:0.78559589 3747:3.4682245 3751:0.23769563 3756:2.8060253 3758:0.90257585 3761:0.53626657 3766:1.1267035 3769:0.30093807 3773:1.0726451 3775:1.6237842 3778:1.4088022 3785:2.8425014 3793:0.87151176 3795:2.4271133 3796:1.8223273 3802:0.24993427 3806:2.4296637 3808:0.53902376 3815:1.5283904 3835:0.64601821 3838:2.235548 3845:0.21630734 3848:2.826062 3853:1.7515898 3857:0.14174524 3864:0.99136543 3867:2.8183863 3872:1.91195 3877:0.2201471 3880:0.034222424 3882:2.511122 3888:1.9131595 3889:3.6212342 3899:0.033589244 3900:0.10273302 3907:6.8355398 3910:1.5848891 3919:0.27601981 3929:0.9026469 3935:0.61035788 3936:3.6183965 3941:2.576812 3947:1.4855704 3948:0.70812798 3950:4.3508906 3951:0.41632378 3952:1.5486965 3955:0.090441883 3957:1.1414131 3962:2.1422827 3963:4.4779558 3968:0.47671837 3973:1.3603859 3974:0.81956828 3979:0.498752 3988:4.5052314 3990:0.93696535 3994:2.5874496 4000:3.2659988 4001:0.5670467 4004:0.69243979 4005:1.5296757 4015:0.49698359 4017:2.343703 4018:0.010304689 4020:2.0691841 4021:4.2010016 4024:1.3448796 4030:2.5712574 4032:1.6658767 4033:1.0238236 4046:0.24913517 4059:2.9830043 4068:0.62217873 4069:0.62574124 4070:3.378175 4074:1.6529913 4076:5.386312 4077:0.34803998 4079:0.38219857 4080:1.3524002 4082:0.78150833 4084:0.1631071 4085:0.47638929 4087:1.2112825 4088:2.4903474 4094:1.3980187 
1 4:0.82077122 10:4.6066265 18:3.8003931 20:5.1460066 26:0.87585485 29:3.1431558 34:1.4472601 44:0.78231764 45:0.58676553 46:0.10728876 58:1.5969185 60:0.8010779 61:1.7301459 69:0.89283746 70:1.4403288 80:0.47608039 82:0.94676828 83:3.7837527 84:1.3939584 94:2.0697424 97:0.18353792 103:1.8230417 105:0.31102857 108:1.3563155 110:0.68554199 112:0.11927271 113:0.82872105 115:1.0294601 123:4.1485066 125:2.711561 126:4.3932257 130:1.6179204 134:1.6717691 135:0.23233369 143:0.72183788 144:0.95000648 148:1.3881139 161:2.0150094 172:0.93475211 174:1.8071568 180:0.86908531 181:3.2711549 190:0.74023104 200:4.9944415 205:0.20102529 210:3.1713798 216:1.3607748 217:0.81978941 221:1.7214255 223:4.573122 237:1.6354051 241:2.9024456 243:0.49530628 248:0.22683203 251:1.215627 260:0.76898074 267:4.7661633 297:0.80291903 299:0.6984334 301:2.412992 308:2.0065906 317:0.84454149 323:0.28597227 335:1.2859893 342:0.99038392 347:1.1675905 348:1.8365854 353:4.0668788 372:1.7322359 378:1.6437619 379:1.0430453 382:0.93377078 383:0.84481382 386:0.071068235 390:0.38273314 391:1.7060926 416:1.0764859 421:0.047944814 434:4.1240063 436:1.7274324 440:0.78166747 442:0.96717477 454:2.6341939 456:0.60792744 457:3.5531726 459:1.814906 463:0.09687674 466:0.62070125 472:0.8926248 482:2.3022661 485:0.76273155 487:2.1577501 491:1.3814436 493:1.6844857 494:2.70522 496:0.95651257 498:1.5776627 502:6.138978 505:3.5348499 507:1.6939436 509:2.7273278 514:0.78532612 517:0.9846589 523:0.10204893 527:1.071173 542:0.82185292 546:0.46855283 557:0.48519811 560:0.081378192 562:4.3699036 563:0.036325373 573:0.14574772 576:1.1838021 578:2.7821646 586:0.89526677 588:0.71277905 592:5.8652878 593:1.4886068 594:1.7635765 601:0.48603067 603:1.8920294 605:0.66751647 607:2.0530572 616:4.347847 618:0.19863695 624:0.17999676 629:1.2356616 633:1.4437379 640:3.1956656 644:3.5176544 651:1.6713011 656:2.7386081 659:2.5470521 662:0.13595715 664:0.82920253 669:0.21202464 672:2.7032344 674:0.59500766 675:0.27741274 677:0.9457196 681:4.9646406 684:1.7854872 690:1.5868914 691:0.38891983 702:4.9084725 706:2.2432625 717:3.0377946 722:1.1281258 724:1.8847448 726:0.63605386 727:0.16657829 728:2.421737 736:2.4023366 751:0.98468637 754:0.12320948 759:6.027379 773:0.46535304 776:0.21521723 780:0.13386938 789:0.43397838 796:0.7794683 799:0.31355602 801:1.6901677 802:1.0743613 811:3.1202681 812:2.7011795 820:3.532866 826:1.6810162 838:0.22829327 841:3.1553342 853:1.9567667 854:1.0221372 857:0.35445687 865:2.157505 867:0.71092755 868:1.9052243 869:5.2256937 872:1.282414 878:4.0578961 882:1.8328377 888:0.19704399 904:1.6929975 905:1.4359586 908:1.2654045 912:4.528213 917:0.068387032 918:2.8021312 924:0.77633512 929:0.79902458 936:4.0317278 938:0.5707562 945:0.30964217 946:2.4923875 951:1.6148137 959:0.48721758 965:4.1698275 967:1.3924086 968:1.2938466 974:2.2012541 978:0.39622077 985:4.0951061 986:0.076079674 989:0.16462794 996:0.40865123 1001:2.9587038 1006:0.74361706 1015:2.1617932 1018:8.2961311 1019:0.58958703 1023:2.2883339 1027:0.85009003 1029:2.7712307 1037:0.59905052 1042:4.6588135 1053:0.95324367 1059:0.90565407 1063:0.45271093 1064:1.2029235 1087:1.0210384 1095:4.4101901 1096:0.96950448 1097:0.53935343 1102:6.2424903 1105:2.0688376 1108:2.0930097 1124:0.56139278 1131:0.78717411 1159:1.2886752 1163:0.36621606 1165:2.8508282 1170:2.4849284 1176:6.0403786 1177:1.8281446 1179:1.5969428 1181:4.3322787 1188:2.2892039 1196:0.61358547 1206:2.1771166 1212:0.27343631 1221:0.12309094 1225:0.34256464 1228:3.6137276 1231:0.2763975 1234:3.1517711 1236:1.8420502 1240:2.8458076 1242:4.6457014 1243:2.1228013 1246:2.41149 1251:1.9668632 1254:0.54800111 1255:0.70496786 1260:2.055094 1277:1.1603056 1291:1.0708538 1292:1.7189 1293:1.3489182 1295:3.0918596 1297:0.020159096 1309:2.6701326 1313:3.0079851 1314:1.6413958 1317:2.7610421 1329:1.6866422 1338:1.1171165 1344:1.761066 1349:1.2331663 1357:5.7698445 1364:0.12690616 1365:1.4112287 1366:3.0870106 1372:1.669049 1374:0.015992045 1376:1.866856 1385:0.6629833 1387:1.5086305 1388:1.1683977 1389:0.83558136 1391:3.5830295 1396:0.97908062 1406:1.079392 1408:0.60411721 1410:0.75418997 1416:1.0017015 1417:1.3077581 1421:0.63135433 1424:0.66553217 1428:0.81732857 1429:3.0301046 1430:4.0471859 1431:4.6848245 1432:0.24713597 1433:0.46749821 1435:2.7625122 1439:1.0018067 1443:0.60328227 1444:2.4282379 1445:0.60424793 1457:2.2385533 1458:0.028572083 1465:0.79035974 1469:0.56954676 1470:0.40444729 1476:1.4258863 1479:0.021094948 1484:2.680917 1486:0.5614928 1487:0.26937214 1488:6.6455851 1490:0.5656895 1495:2.7782967 1496:2.7187331 1502:0.33503088 1503:1.4041116 1508:0.26196256 1511:2.3625877 1513:2.6944849 1514:4.7884488 1519:5.0707531 1538:3.0369992 1543:1.4088219 1556:3.4650135 1568:0.2209436 1571:2.1564476 1581:3.0802503 1582:5.4205523 1583:1.8402263 1584:0.491615 1587:0.0067023886 1588:2.0340199 1596:0.35609621 1600:0.34312472 1608:3.3634038 1611:0.37891921 1613:0.31357336 1616:1.6271764 1618:1.4878501 1630:3.0311458 1633:0.63507926 1636:2.1140389 1637:4.8196406 1640:0.54395914 1641:0.85009706 1644:0.041396849 1648:0.26445031 1654:0.48696679 1656:2.5574944 1657:1.8560109 1659:1.6847626 1663:2.5543237 1664:2.5253179 1668:1.4674867 1675:3.1010652 1677:2.4039314 1680:5.3734159 1681:2.2024565 1697:3.640466 1706:7.1290908 1708:2.5971589 1711:4.3417387 1712:1.0193899 1714:1.209059 1720:0.77273071 1725:1.3056233 1726:1.8441541 1727:0.53797716 1730:0.76511294 1733:3.9331205 1736:3.3369088 1737:2.1208029 1739:0.15261531 1746:3.0801191 1747:2.4565287 1754:0.0055517554 1758:0.72497147 1761:0.75354946 1762:2.3422096 1767:0.45678407 1774:1.4693207 1778:0.83613491 1780:0.26120323 1789:0.22081514 1792:0.22573456 1795:0.88431287 1800:0.022452816 1805:0.80484068 1807:1.0904939 1814:1.1452096 1822:4.7724648 1834:1.703516 1842:0.64602375 1845:1.6512103 1849:2.1569028 1850:3.2826126 1852:2.2797279 1856:0.62494069 1862:1.6342882 1874:0.8275829 1877:0.15492862 1881:2.0588455 1882:0.682491 1890:0.71240777 1894:3.1826942 1897:3.2146528 1898:0.15581456 1900:0.79705173 1904:0.720559 1926:1.4703263 1928:4.1184149 1943:4.5482669 1951:2.5301757 1952:0.20774144 1953:0.52488649 1964:0.96905166 1968:1.7999594 1970:0.14846805 1974:1.3960191 1977:0.48270765 1996:2.9506955 1997:2.0452442 2004:1.2102325 2005:0.25299799 2006:2.3639863 2009:0.073704489 2012:1.622097 2021:2.2006106 2027:0.64439851 2029:1.5501487 2030:0.65644395 2042:0.47882879 2043:0.5085395 2047:0.23119789 2048:0.47282159 2049:0.3230058 2052:2.4303064 2057:0.40504199 2063:0.68910062 2065:2.3309121 2079:3.1309667 2083:1.7729115 2084:1.2131075 2100:0.35630119 2105:3.4714851 2112:4.2648582 2118:0.95457405 2123:2.6243019 2130:1.3338088 2131:1.0339977 2132:1.1158125 2140:3.6814852 2144:0.48022062 2150:0.6308918 2153:3.079932 2155:1.4493278 2163:2.645606 2165:1.742385 2172:1.1696233 2180:0.6494559 2187:2.5923891 2188:2.7788053 2193:0.35169914 2194:0.80918938 2196:0.53754437 2198:3.467432 2199:1.5780208 2201:0.2934837 2202:0.8958087 2203:4.2614717 2204:0.45605561 2210:0.55769557 2212:1.391454 2216:0.62588024 2217:0.23473313 2223:1.0520259 2239:0.29927155 2246:2.1179748 2250:2.1477079 2265:0.98144388 2267:0.21760476 2275:0.23889452 2281:2.7611101 2294:0.17244101 2301:0.12610611 2303:1.3745241 2317:0.24351531 2322:3.5443442 2333:2.0312166 2336:1.2544167 2341:1.115917 2346:4.2750955 2348:0.38311562 2349:3.4531951 2353:6.3585987 2360:0.12835595 2361:1.1541477 2372:0.081344187 2374:0.047223091 2375:2.4536717 2406:0.5310024 2418:0.99089396 2422:2.0175283 2431:7.8497062 2441:3.7131379 2449:0.18715075 2452:0.69732696 2453:1.4340565 2457:6.2545958 2458:0.78890431 2459:0.03393811 2463:0.80042392 2466:0.30724299 2471:1.8127686 2472:0.3352772 2487:1.303663 2503:2.5593486 2508:1.6142418 2514:0.66873336 2516:2.9268985 2520:1.8271533 2527:2.1125085 2529:3.6770537 2533:0.96719164 2537:0.069061399 2539:0.28887361 2558:2.3251026 2561:1.0033294 2570:0.14055079 2573:0.32794601 2577:2.9650056 2578:1.5483961 2580:1.1357011 2592:4.1450348 2598:0.63063216 2601:2.1416254 2604:3.27773 2612:1.4461582 2614:0.7419762 2619:2.8980629 2620:4.6799588 2632:0.81251919 2637:4.8377819 2639:2.2417028 2641:0.39047781 2658:1.1777747 2660:1.1225669 2666:1.0190655 2669:2.577606 2672:1.3216623 2688:3.5365086 2689:0.22134674 2695:4.3752837 2701:0.40888503 2704:3.5731699 2707:0.78818673 2708:1.0125231 2710:2.4550207 2712:1.2830487 2714:0.16870177 2718:6.3780036 2720:1.3872125 2723:3.595386 2724:0.63572693 2726:0.8015942 2732:3.8987443 2736:2.0387497 2740:0.15338705 2741:2.95455 2745:6.1943645 2752:4.6483412 2755:0.8436619 2757:0.2860373 2765:0.47748572 2766:3.5103328 2775:3.4069266 2777:0.098672867 2778:5.6738582 2786:0.27273422 2790:0.37785572 2793:1.2487789 2800:2.2077799 2805:1.6882585 2806:0.73877263 2814:3.4758542 2821:0.27262476 2823:1.0878969 2826:0.076609552 2844:0.23212934 2845:0.4133051 2849:1.0060165 2857:0.4408907 2860:3.4489052 2873:2.3223588 2882:3.1439586 2883:0.068536401 2885:0.051190436 2888:1.0293639 2891:0.0071478486 2895:4.0471325 2898:3.3689675 2899:0.49223003 2903:5.4301109 2915:0.66693699 2917:0.4684079 2919:0.42267942 2920:1.2291518 2931:3.0761068 2938:0.76055932 2950:5.4184961 2953:0.63958967 2958:0.098753989 2960:0.097110391 2965:1.7138753 2968:0.2681343 2971:0.31803441 2974:2.5515552 2977:1.0732492 2978:1.6704299 2979:0.41075763 2981:1.730934 2986:3.1316566 2992:1.4894261 3009:0.66886055 3010:0.55920285 3025:1.2402698 3026:1.2245942 3033:2.4443142 3038:0.40077206 3047:1.0405846 3052:4.5534263 3060:1.7063963 3065:0.34780356 3067:3.5905352 3069:0.13405713 3077:4.4502125 3105:1.1918092 3117:4.3882751 3129:0.89014411 3144:1.8743936 3149:0.57274354 3152:0.48222566 3154:1.6039374 3161:3.5113499 3164:2.3303845 3167:0.52800703 3169:2.1328897 3172:2.4502842 3179:0.85289562 3183:0.61392939 3185:1.1686316 3198:2.0059726 3206:2.1902626 3208:1.8096254 3211:2.1866474 3214:0.23939849 3226:0.043520272 3231:1.8754405 3232:2.9497471 3235:4.2444134 3247:1.8790869 3249:0.44246113 3256:1.8695531 3257:2.2086098 3258:1.6000315 3260:5.3065305 3267:1.7990093 3268:0.38493547 3275:0.41107941 3286:1.4095083 3291:1.0521694 3295:2.1088872 3299:2.066793 3310:1.0782493 3334:0.411695 3344:1.592124 3348:0.62311471 3351:0.2287429 3354:2.3679578 3356:2.4837103 3358:0.40114844 3363:3.5409167 3365:5.5813203 3385:0.69148993 3402:4.483469 3404:0.18769228 3413:6.4354792 3418:1.8810463 3420:0.82034177 3424:2.9429638 3428:0.80817109 3436:2.2698901 3437:0.5610702 3438:4.5145059 3457:2.4831274 3474:0.044787303 3475:0.9653675 3481:0.3350783 3482:0.40815067 3484:2.3514769 3491:1.9278181 3493:0.2168372 3494:3.7774453 3496:3.8132794 3498:0.29703557 3500:1.4731674 3505:1.7244446 3508:2.3288984 3512:2.6921692 3521:0.93887269 3525:0.0063811541 3526:4.0421257 3531:3.2966182 3534:0.60038179 3536:1.2273242 3539:0.9643631 3540:4.3099771 3545:4.5392432 3554:2.7726593 3556:3.5955377 3560:0.63229448 3564:0.45920095 3569:4.2174416 3570:0.86803943 3576:1.3469648 3577:1.2814763 3588:0.13955039 3604:3.9534254 3608:0.30204606 3609:3.5080297 3615:1.4561805 3616:1.5556914 3621:1.3766572 3624:0.24805313 3627:1.4989157 3629:4.0095448 3632:0.43563268 3638:0.53918207 3639:0.94950593 3640:2.0832126 3642:0.27477315 3649:0.71187973 3650:2.4394035 3653:2.56639 3657:1.0935644 3666:1.4574113 3667:0.08562991 3669:0.72783124 3677:0.91163093 3683:3.0262244 3684:2.1893556 3689:2.2410541 3690:0.28006631 3691:3.6126692 3692:0.33609903 3695:0.54697549 3703:2.2223344 3710:1.4886513 3719:0.7865895 3722:0.54430461 3724:0.89258993 3729:0.72872156 3732:0.61197412 3749:0.62679768 3752:3.4838624 3754:4.1997204 3755:1.6710759 3757:2.3293543 3766:7.8796039 3767:3.5354285 3771:0.29986456 3776:1.7797498 3793:2.2731366 3797:4.0715513 3802:0.46185991 3808:1.0061466 3812:1.3017191 3814:0.078262843 3818:2.190711 3822:0.70802104 3825:0.093531504 3836:3.6256433 3841:0.42941552 3849:0.12772992 3850:0.50015503 3852:0.19824582 3857:4.8091273 3872:1.6444679 3875:2.9498115 3877:0.048066914 3885:2.0134406 3888:0.53350139 3890:0.464017 3891:3.7080128 3895:1.5332196 3900:0.50829643 3908:2.298914 3919:0.36317122 3926:2.3824892 3927:1.5947151 3933:0.88315582 3936:0.57439095 3938:3.1974096 3942:0.45855767 3945:0.093861029 3951:0.59518367 3952:1.2499743 3963:0.83607829 3966:2.7330987 3974:1.2492628 3980:2.4991593 3984:1.6902765 3985:1.466471 4001:0.018324539 4004:1.936103 4005:1.9631065 4013:2.5231724 4014:2.333307 4044:2.2951288 4058:1.8065815 4063:0.2763021 4072:0.64935106 4084:1.6918724 
0.9171057333800067 10:2.5516524 14:0.86925375 15:0.11053705 18:3.9988248 20:1.8426255 26:0.032117695 27:0.75843561 34:1.1126975 58:1.1417521 60:0.49183637 61:1.7453001 80:0.92890245 83:4.0381913 84:1.2338202 103:0.59077579 105:2.8474464 108:3.0185003 110:0.81084669 115:0.14163449 123:2.7775245 125:0.80227107 126:3.8471599 127:0.953125 130:0.96590632 134:1.37784 136:0.92591172 145:0.99305338 147:2.1934791 148:0.95858037 161:0.90457952 163:2.4620585 180:3.1863203 181:2.4840255 190:2.4176531 200:3.4063976 210:7.0428309 216:0.84137404 217:2.3697071 219:0.36274743 223:2.6053243 224:2.0562601 225:2.1899617 237:1.3061655 240:0.98493481 241:4.6708627 252:1.506459 261:0.51694697 267:3.8898211 290:0.039369047 297:2.2881744 301:3.2209804 311:0.65358073 312:3.1928916 314:0.23281205 317:2.4606202 328:0.47565567 347:0.98977506 348:3.5390258 353:4.7926617 367:1.1708629 371:0.77009714 372:0.74033117 374:1.1181941 382:0.07515499 384:0.66378671 391:3.7992332 393:2.3028097 397:0.77262384 411:0.89615786 421:0.28605103 426:0.045953393 432:2.0304098 434:1.6097025 436:1.2067264 440:0.57192135 452:1.0011756 454:2.2935176 457:2.2327642 459:3.0818677 463:0.85524487 472:1.5005419 473:0.076830328 482:4.2749524 485:1.4735031 487:1.0471945 493:1.2325485 494:1.766939 496:0.17439777 499:3.647372 502:4.5878849 505:2.0392745 509:0.69202942 514:0.27373877 515:1.9411777 517:1.7593573 523:0.20899409 526:3.2214258 538:0.4705022 557:0.29717097 562:3.5859823 563:2.0216923 569:0.70329314 570:0.95864141 576:0.48482591 577:2.0188689 578:1.4660478 588:1.4095142 592:3.9513083 593:1.073245 594:2.0317271 595:0.073360473 601:0.23710123 603:2.0517969 605:3.2518985 607:0.41525894 611:0.70703596 616:4.0686436 624:3.3545537 633:0.2963371 639:3.1756332 642:0.015010744 644:3.8513739 646:0.46360108 651:0.9410345 659:1.9396206 662:2.0022631 664:3.6368923 669:0.56353378 672:3.2639806 675:1.12271 681:3.7765274 684:0.78703278 690:1.5934199 702:2.9966075 706:3.6697903 711:1.2090325 717:3.7063799 720:2.225261 723:1.3091104 724:1.9582491 727:0.87763071 730:1.5805385 739:2.2902324 748:1.3066735 750:2.7256136 755:0.32906342 756:0.31451124 759:2.8902645 780:0.34537506 789:1.7020857 799:1.5585479 801:0.75052571 811:1.880345 820:4.0966816 822:0.53020674 826:1.1787142 832:0.24897486 839:0.53565478 841:1.1100793 848:1.7149645 857:0.57939768 865:1.8693211 867:0.50955182 868:5.3041797 869:3.8655713 872:0.21958393 878:1.6833534 881:1.6522605 882:0.31722221 889:0.35768437 905:2.5508785 908:1.7770733 912:3.5016999 918:0.52887189 924:2.8944945 928:1.0488536 936:1.3824246 937:1.3452272 945:1.6734462 946:0.19003963 947:1.8078916 948:0.33056712 951:0.95701873 965:2.6457126 966:0.92718017 967:0.083836704 972:0.54463714 974:1.2590969 985:2.5829754 989:2.022845 1013:0.22880048 1014:0.6704765 1015:0.41964835 1018:8.5982485 1019:2.4051387 1023:2.0174651 1046:1.1423622 1053:2.4706824 1056:1.9368334 1062:0.30417144 1063:0.80506337 1080:4.9936886 1087:0.95002955 1094:1.014294 1095:3.3841193 1096:2.6856315 1102:4.7396183 1105:2.1514969 1108:3.0389609 1128:0.21901676 1153:0.8795386 1159:1.0425436 1165:0.87195706 1170:1.2071794 1173:0.88670319 1176:5.1217613 1177:1.1746303 1179:1.0133961 1181:4.1213861 1186:1.2476056 1188:3.1721008 1206:2.9965351 1220:0.78710467 1225:0.44583142 1227:0.78298867 1228:1.9247392 1231:0.58714306 1233:2.7929275 1234:2.5847521 1236:0.63793707 1240:2.9760442 1242:3.9219956 1243:0.22792321 1246:1.6559138 1250:0.23958021 1251:1.9523474 1254:3.7872434 1255:1.3940282 1277:2.0154176 1279:2.5200696 1286:0.80665481 1288:0.17532447 1291:2.5593979 1292:1.3816721 1295:3.7633352 1297:2.9090586 1302:0.088811755 1309:4.2976627 1314:1.0497563 1317:0.688555 1338:0.54818928 1340:0.99108386 1342:0.57546616 1347:2.1018794 1354:0.36082515 1357:3.3001711 1359:0.30811313 1360:0.4726204 1365:3.5496771 1368:4.7114291 1369:1.991253 1376:0.53373098 1385:2.8557014 1387:1.333868 1389:1.6075027 1396:1.7280504 1401:0.96617949 1406:2.1880479 1412:0.61133862 1416:1.3658733 1417:1.1496937 1424:0.84687454 1426:1.1546483 1428:0.40063974 1429:3.3850701 1430:3.203372 1431:0.79599559 1432:0.57739884 1433:0.67342949 1435:3.2831259 1438:1.4111723 1439:0.0047178119 1441:2.1470065 1443:2.3370917 1445:0.091810167 1450:0.4856568 1452:1.0507871 1458:2.1521938 1465:1.4124668 1470:2.4995778 1471:1.0242071 1484:0.86199689 1486:2.4657075 1487:1.0895855 1488:6.4833651 1495:3.2305319 1496:0.11585417 1511:0.28587508 1513:5.8859897 1514:3.2442243 1515:1.3391371 1519:2.206461 1520:1.0366676 1522:0.20861478 1525:1.1677622 1538:2.7748516 1556:4.2633371 1560:1.239982 1569:0.33588657 1580:0.20630223 1581:1.0523679 1582:4.838624 1584:1.1291481 1587:2.7089286 1590:1.0062795 1598:0.073041707 1600:0.74988151 1608:1.9961892 1612:1.2967616 1613:0.34528875 1618:0.38233531 1622:0.22614765 1625:2.4500082 1628:1.3500545 1630:3.4022579 1636:3.269402 1637:1.5184495 1650:0.65110946 1654:0.95375973 1659:2.812686 1661:0.49634346 1662:1.3768938 1663:2.7440777 1664:1.4440259 1668:3.6158171 1669:1.0739858 1675:3.3557181 1677:5.3656611 1680:3.1154037 1681:1.2342477 1690:0.61566812 1696:0.35073736 1697:2.3672178 1699:0.36408645 1703:1.4003946 1706:3.7739844 1712:0.25730264 1714:3.118988 1715:0.10133788 1726:2.2008364 1730:0.6146946 1733:1.6408529 1736:0.9332751 1737:2.2204499 1739:0.81032443 1746:1.2657244 1747:0.10275716 1758:0.26309353 1762:1.2409048 1767:0.44319493 1772:1.2726179 1778:1.8542902 1779:0.6386894 1783:1.7212151 1794:1.8314031 1795:3.2707217 1808:1.4734704 1822:4.041801 1833:2.7200146 1837:1.5790577 1844:0.21732986 1849:0.052569509 1852:1.6449283 1855:0.28470606 1856:3.404938 1857:3.2910166 1862:0.79937649 1872:0.024275884 1874:0.99606246 1877:0.59050751 1881:0.8424077 1882:0.012268335 1884:0.15705097 1888:0.84507376 1890:0.55052221 1891:0.014147401 1894:0.43804219 1897:2.0334198 1898:1.2288094 1904:1.4538184 1922:1.4709082 1925:0.043199271 1926:1.6355735 1928:4.9026108 1943:7.3942142 1952:1.167406 1964:1.7447147 1968:1.3554878 1970:0.19010004 1972:2.3474946 1975:0.20117143 1979:0.31562161 1990:0.94354963 1996:1.2121508 1997:3.3990219 2004:0.12694162 2005:1.023083 2006:0.75885332 2009:0.47694623 2011:0.16251948 2012:0.73254645 2021:2.3578882 2022:0.12474722 2027:0.4267883 2030:3.2849755 2031:1.0039883 2034:0.77479064 2042:1.0550408 2043:0.74055904 2047:2.2095399 2048:1.3284931 2049:1.093001 2052:0.7926048 2056:0.33809227 2057:0.6437223 2060:0.60855895 2065:0.7326175 2075:1.4011047 2079:1.5988216 2083:3.291326 2084:0.87410533 2100:0.2833966 2105:1.2568194 2112:2.6174455 2118:2.4430406 2122:0.20335776 2123:1.1312006 2130:0.75152117 2140:2.4146097 2144:1.7233467 2153:1.0009565 2154:0.51782209 2165:0.094396576 2172:2.0708117 2179:0.72122359 2181:1.2765007 2187:4.0840111 2188:1.5658224 2196:1.0046129 2198:2.5537438 2199:0.79397655 2201:0.71711075 2202:3.7452672 2203:5.8793874 2207:0.39520836 2210:1.5750325 2214:3.5418699 2216:2.1273496 2240:1.0484954 2246:0.30763137 2250:0.74672771 2253:2.7093744 2255:0.14382789 2267:1.0467376 2275:1.9741001 2286:1.1467793 2290:0.89657217 2294:1.5102803 2303:1.8976693 2304:1.8718703 2311:0.60351115 2317:1.5606236 2322:4.5720196 2328:0.64454097 2346:2.8744867 2348:2.6739419 2349:1.1048552 2353:3.1684902 2360:0.60035753 2361:0.26053345 2372:0.45663321 2374:0.59556049 2375:0.32714975 2401:0.88002831 2404:1.0281528 2406:1.2796129 2417:1.8422681 2422:1.4296062 2431:5.7100325 2437:1.2327771 2441:3.1908486 2446:1.4619011 2452:2.069689 2457:5.8919897 2458:0.24450982 2459:0.18238831 2466:0.79192483 2471:2.7021041 2477:0.04576245 2487:1.7119153 2488:2.2379031 2503:0.61008668 2506:0.42912561 2508:0.63842922 2509:0.87290114 2514:1.1711538 2516:1.9588339 2520:2.0080414 2522:1.1803722 2526:1.5459538 2527:0.079265907 2528:0.17559409 2529:1.002201 2530:1.6193262 2539:1.1969086 2561:2.0102632 2562:2.2246935 2574:0.6535722 2577:2.1583922 2578:1.3039037 2583:0.33866951 2592:1.5943561 2601:1.505649 2604:3.0837948 2619:0.95012701 2620:5.9712405 2630:0.47864044 2632:2.4702396 2636:0.19281593 2637:4.142056 2639:0.1000506 2641:1.8089484 2651:1.6282541 2652:1.2987508 2656:1.8558139 2658:1.7303545 2669:2.9225845 2672:0.56311041 2674:0.01443202 2676:0.086820178 2684:0.19647184 2688:2.9328103 2695:2.0388358 2698:0.7801398 2704:1.1464801 2707:4.4008818 2708:0.80881846 2710:3.5007346 2714:2.1588867 2718:4.2619095 2723:6.6655269 2724:0.20064195 2725:1.0906241 2731:1.6463466 2732:1.229452 2736:0.67039293 2740:3.4931564 2745:2.0457027 2752:3.6413274 2763:2.0532713 2766:1.5295863 2774:0.85998213 2775:3.482532 2777:1.9581597 2778:6.0060186 2786:1.1464663 2790:0.8597585 2792:1.2738651 2793:4.0945864 2795:1.4760542 2797:0.10211751 2800:4.370573 2805:1.2560488 2808:2.0701232 2811:1.8830433 2814:0.063204423 2825:1.4667637 2826:2.3547502 2828:0.63281894 2831:1.3247981 2834:0.3457945 2840:1.6694262 2844:0.83751321 2860:1.7639363 2864:0.98771268 2873:2.4828706 2882:2.7200308 2883:0.49535227 2888:3.8035696 2895:3.7896752 2898:1.9578743 2903:4.86729 2917:0.46025103 2920:0.43785962 2931:1.6570851 2932:0.18062043 2950:3.8035524 2964:0.60286313 2965:1.7900537 2968:0.47369185 2969:0.62914717 2970:1.3150283 2971:0.65038049 2974:1.3774643 2979:0.65309525 2981:4.4973307 2982:0.37500849 2986:3.2744155 3009:0.49669856 3010:3.5253696 3033:0.41875589 3035:0.29685774 3048:2.5128834 3052:2.2854872 3060:1.2786437 3065:1.6891165 3067:3.289238 3069:2.3175192 3075:1.8613811 3077:2.1935661 3081:2.032069 3087:0.28277594 3089:0.65826672 3105:2.0172424 3117:2.9498956 3122:0.84180486 3129:0.7187385 3135:0.12031275 3144:1.1123961 3145:0.57745135 3152:5.616693 3154:3.076251 3161:1.5527604 3162:0.50491577 3163:2.7290659 3164:1.8458059 3167:0.29162216 3169:3.6927969 3172:1.506758 3179:1.3390238 3182:0.32688236 3183:0.03359206 3198:2.9377182 3199:0.0038705766 3200:1.9266783 3206:0.96759641 3208:1.7405238 3211:0.23169625 3214:1.4680588 3231:2.9076171 3232:2.7775903 3235:4.5119786 3245:0.68615961 3247:2.2444463 3251:0.07395041 3253:0.653534 3256:1.2518231 3257:0.86585289 3258:2.2062011 3260:3.3698173 3267:1.0891361 3276:0.078833103 3286:1.9411956 3291:3.1030657 3294:0.35292393 3299:2.5856557 3302:0.746544 3310:0.47098985 3334:1.397365 3338:0.14552648 3341:0.15078229 3344:2.0339823 3348:1.2756417 3351:0.029534101 3354:0.43134186 3356:0.24130622 3358:2.7976506 3363:4.2372952 3365:1.5153708 3367:0.061170712 3373:0.28712231 3388:0.96796161 3402:2.040273 3404:2.0869613 3413:4.2752786 3418:2.5925128 3420:0.20320117 3424:2.25442 3427:0.8026585 3436:2.4163115 3438:3.1085877 3457:1.332984 3474:0.65916508 3482:0.41468763 3484:0.87832034 3491:1.0264511 3493:3.2437749 3494:3.2333484 3496:6.2493806 3500:1.6152027 3505:0.50484711 3508:4.3432226 3512:1.3499026 3526:0.97065401 3531:3.5600359 3534:0.97892016 3536:2.3658438 3539:0.47230479 3540:2.141026 3548:0.92445779 3554:0.63377935 3556:0.39885151 3560:1.115624 3564:3.0207729 3569:5.212461 3577:0.76752394 3582:0.42934704 3583:0.047743708 3585:0.39005926 3586:1.1393986 3589:0.18509132 3603:0.32411361 3604:2.1637068 3608:0.86598396 3614:1.54763 3615:2.725266 3616:0.0026012957 3624:1.2884295 3627:0.43098637 3629:3.4905043 3635:0.52659786 3640:1.0500901 3650:1.4165542 3653:0.017676547 3660:0.11937994 3666:1.3204269 3667:0.043873996 3676:1.5026727 3677:3.1201339 3683:1.7599744 3684:3.7503719 3687:1.2153213 3689:0.1866942 3690:2.0598176 3691:1.6998043 3703:1.5872495 3710:2.1857452 3711:0.44738486 3717:0.059165508 3724:0.21872896 3729:1.9166011 3744:0.13385996 3752:3.278707 3753:0.37674379 3754:1.0106504 3755:0.42373535 3765:0.70099807 3766:6.0310612 3767:4.2563472 3768:0.59806764 3769:0.62012988 3771:1.8423342 3783:1.0278505 3793:2.9516144 3797:6.6012697 3802:1.7019663 3808:1.6105801 3813:0.10142183 3815:0.63739079 3818:3.0853701 3828:0.58294725 3831:4.2993636 3833:0.70803434 3836:0.7526772 3850:0.92918968 3855:1.2681291 3856:1.5514555 3857:3.0760927 3860:2.4132633 3864:1.4753366 3875:1.502908 3877:0.12183985 3881:0.06428206 3885:2.8183055 3886:0.054054528 3888:1.7165174 3890:1.4024845 3891:6.9718866 3895:0.87969077 3900:0.71420342 3906:2.7165842 3926:1.5874488 3936:0.99630123 3938:3.1756692 3942:0.069982029 3955:0.091935664 3974:0.31180599 3980:2.4145737 3984:0.42438993 3985:1.471199 3988:0.22848156 3997:0.79451406 4001:0.43018579 4004:0.89407903 4005:1.1255738 4008:1.3643788 4013:3.6045082 4014:1.9708681 4021:1.5788846 4024:0.83797371 4032:1.0365257 4038:1.105412 4044:1.169855 4058:0.53647673 4082:0.12725192 4084:1.8532908 4090:0.17348945 4092:0.24728993 4094:0.26896083 4095:1.2222877 4096:0.86991167 
0.3327086305327569 10:0.40213636 14:0.23660716 15:1.7064942 18:3.7929831 20:1.2881255 27:2.5506465 29:1.3168051 69:1.0810308 70:2.5244322 80:0.35515034 83:3.8651142 84:0.29899445 94:2.4417601 105:0.60858774 107:0.17016354 108:3.0438523 113:0.2662403 115:3.4664586 123:5.8980222 125:2.9371405 126:2.9144406 130:1.2915434 134:0.22331929 143:0.22977287 144:0.8064661 145:0.7122255 148:2.4543602 156:3.0462103 161:0.48532119 163:2.754683 167:1.9615569 181:0.67165512 190:1.3226629 200:5.6455245 210:6.4879766 216:2.326014 217:3.4924033 223:3.3314495 224:0.388675 229:0.78570467 232:0.018796623 240:0.41686916 241:3.4172235 251:0.65134412 252:0.51844513 261:0.089089334 267:8.2012424 270:1.4414701 297:2.6201708 298:0.10960494 301:1.1790445 311:0.55133545 314:0.50086856 317:2.3433428 335:0.5045799 342:2.3110948 347:0.61900169 348:2.5803909 350:0.78159118 353:4.5201926 361:0.88374144 371:0.85980785 372:1.1938452 377:1.1184939 379:2.2252543 385:0.92174196 391:4.6672206 393:0.55218619 397:1.7637148 425:0.35179353 432:0.39003623 436:0.54368949 440:0.19710732 442:0.95718104 454:6.1980944 457:1.0083072 459:3.4842224 463:0.22476804 472:4.2674623 477:0.45391002 482:2.5473542 485:1.8349733 491:0.44219548 493:0.19551855 494:0.79971015 495:0.66878295 498:1.6653781 502:4.790307 505:3.5265753 509:2.1857846 515:0.027506396 517:1.2345295 526:0.47358146 546:0.91118383 557:0.94520891 562:3.0644345 573:0.49984366 576:0.32399637 577:5.0847173 578:1.930485 586:1.077391 592:2.8698683 594:2.783623 595:0.18941095 599:1.9161832 603:1.2912472 605:0.75429761 607:0.42593765 616:3.36219 624:0.74070823 629:1.1455947 635:1.9461946 639:1.7118907 644:1.3599122 651:0.60405672 656:0.68370199 659:3.6519101 662:2.8914983 664:2.6579351 669:3.6042912 672:6.2616363 675:0.20997351 681:3.7072821 682:0.55266559 684:0.983464 690:0.7839129 691:2.0567579 696:1.1305972 702:1.8528354 706:0.45561045 717:5.6100807 720:1.4745409 721:2.8947763 724:1.0239823 727:0.18341833 728:2.656013 730:0.73146248 739:2.3148658 748:1.6876421 750:1.2302184 759:4.7590904 774:1.4607342 799:2.686532 810:0.7557081 811:0.77565593 812:3.9145794 820:3.8567352 826:0.98932052 830:0.069464438 832:0.25638801 849:0.63402814 851:0.25594193 857:2.3758471 865:4.6029186 866:0.09561497 868:6.0404706 869:4.8449788 872:0.92299813 878:3.5805597 882:1.5836104 888:0.54134846 889:0.77959323 912:0.31958145 919:0.97596532 924:2.0552502 934:0.1480048 938:0.046545684 940:1.397099 946:1.4563005 951:0.20839587 965:2.7364106 969:0.36391145 978:0.31356642 985:1.3399209 989:3.0618579 992:0.16271506 1001:2.25594 1008:0.3317768 1015:2.2580562 1017:1.6728836 1018:6.7766652 1019:0.20424592 1023:2.7274239 1029:1.3934749 1032:0.45765892 1037:0.79792786 1042:0.050748825 1053:3.9546578 1059:0.66132474 1062:2.2940943 1064:0.47388339 1065:1.9025921 1071:1.767338 1078:0.67232871 1080:6.0170217 1087:0.98970866 1090:0.2707563 1094:1.2676677 1095:1.9370847 1096:3.4701779 1100:1.1474148 1102:5.6349525 1105:1.0022556 1108:2.2286577 1125:1.8469386 1163:0.077716976 1165:4.6569729 1176:2.12414 1177:2.9358089 1178:0.5935744 1179:0.32513082 1181:5.0548387 1188:5.9425311 1196:1.1416698 1206:3.2386866 1217:0.42817602 1224:0.01904887 1225:0.34310746 1227:0.33712146 1228:5.9683795 1231:0.9402535 1233:2.5406332 1234:2.5091667 1236:0.12246433 1240:3.3992422 1242:3.5476184 1243:0.16578704 1246:1.3256999 1248:1.692956 1250:2.8233426 1251:1.419101 1254:0.015417561 1255:1.3377346 1277:0.030915922 1279:1.43396 1291:1.9439226 1292:1.0470349 1295:0.90940648 1309:3.8107233 1313:1.5642371 1317:2.8195567 1329:0.49780536 1332:1.4262203 1340:3.053896 1342:1.1650082 1344:2.7872424 1357:7.1486917 1365:2.5931528 1368:2.0847292 1369:1.1886126 1385:1.3491666 1387:1.8873954 1391:1.3165709 1396:0.88500404 1399:0.85992199 1402:0.2431922 1406:2.3333385 1408:0.62824792 1416:0.54446906 1429:0.83976823 1430:2.6977093 1431:5.2706032 1432:0.087309182 1433:1.279492 1435:0.29733288 1439:0.22507261 1441:0.35990882 1450:0.52965313 1456:1.5341618 1463:0.58898288 1465:2.721704 1467:2.0005305 1469:0.10005014 1470:1.9938294 1471:1.6577208 1476:1.8355356 1484:3.2339261 1486:0.46361288 1487:0.47928169 1488:7.2659121 1495:0.61794508 1502:0.70450354 1511:1.9749393 1513:4.2027669 1514:6.1566482 1519:5.7667828 1520:0.56224483 1525:2.0004625 1538:0.65744251 1541:0.77452743 1543:1.143414 1556:3.9411449 1560:1.2141491 1571:2.0555396 1581:2.6988659 1582:1.4917209 1583:1.3135629 1586:1.3969902 1588:0.78630948 1598:0.66604257 1600:2.2986104 1608:1.8975577 1618:0.27505147 1625:4.5076823 1630:3.1171365 1636:0.83665013 1637:1.9626094 1640:0.19459203 1648:1.2263423 1654:2.5733316 1657:1.541985 1659:4.0235925 1661:2.7996511 1663:1.7172519 1664:4.918138 1669:0.89129221 1675:3.148001 1677:3.9602807 1678:2.5103858 1680:3.338973 1681:1.8098787 1690:1.7080024 1697:4.5400472 1703:1.1515684 1705:1.2154285 1706:7.8920059 1707:2.3059371 1711:1.7735972 1712:2.3946214 1725:0.86798376 1726:5.4029889 1733:1.1988478 1736:1.775052 1737:4.2774792 1742:0.72741157 1746:1.6580803 1754:4.7751818 1759:1.0785162 1762:5.8350406 1774:1.5546411 1775:1.0914701 1778:3.8191683 1779:0.39719599 1783:1.1199219 1792:2.7058861 1794:0.63534045 1795:3.185478 1805:1.0898296 1808:0.24528873 1822:4.7223763 1826:0.25387323 1834:1.1494199 1837:1.0243732 1840:0.49363145 1842:2.1315207 1848:0.53480625 1849:3.3714404 1850:0.065231889 1851:0.045591354 1856:1.4525396 1857:1.8253994 1862:0.064207569 1874:1.5989459 1881:1.3205689 1890:2.3620367 1897:2.9898851 1914:1.0351837 1920:0.40439555 1926:1.716584 1928:5.5842047 1936:0.67233324 1943:6.5137095 1952:1.8448114 1968:4.7496185 1972:4.7976727 1975:2.7480831 1977:0.83862996 1996:0.5650565 1997:1.5011575 2004:1.0536933 2005:1.5002241 2009:2.4084466 2012:2.7672353 2021:1.1321092 2027:0.37112987 2029:0.14211184 2030:0.10343504 2031:0.31537348 2034:0.52042395 2043:0.70583332 2047:2.1604128 2048:1.9060905 2049:3.9598618 2052:3.679033 2056:0.52857542 2063:1.053226 2065:0.55305493 2069:0.63317424 2079:1.7941065 2084:0.28605121 2101:0.2153734 2105:0.8121199 2108:0.19331485 2112:1.9996405 2118:1.5441753 2120:0.73315662 2130:1.0831743 2131:1.2947942 2140:2.4631584 2144:0.42814547 2146:0.7842629 2152:1.528708 2163:3.2403681 2172:3.111562 2187:4.5681195 2188:3.8693461 2193:1.5047717 2198:0.6233443 2199:3.3981485 2201:0.33496287 2202:4.4416037 2203:5.1285176 2204:1.1174281 2211:1.5282604 2216:1.5975486 2239:1.4183009 2250:1.7798989 2253:4.4519892 2267:1.8275249 2275:1.4153526 2286:2.4759507 2290:0.55521697 2294:0.28904396 2303:0.51945913 2307:0.56229234 2311:0.30592284 2314:1.2750624 2317:1.2908506 2322:5.5792937 2333:1.1779239 2336:1.0078545 2341:2.4118431 2346:3.2226079 2349:2.1640294 2353:6.4789028 2356:0.61512357 2360:1.743546 2364:0.24532881 2372:4.5058551 2374:1.0908377 2400:0.71304822 2401:0.05184342 2426:0.27266875 2431:5.2556939 2437:0.09278971 2441:0.34989056 2444:0.053324014 2446:2.5553074 2452:5.7046533 2457:5.3059502 2458:1.2429252 2459:0.27963975 2463:0.50354385 2466:1.3086966 2487:0.90859985 2488:3.0460248 2503:1.7536669 2506:2.3827786 2509:0.1933533 2514:3.5350735 2520:3.5243776 2522:1.9526801 2526:2.4723668 2527:2.0953507 2529:3.0145366 2530:3.1469126 2533:2.3663127 2535:0.30338657 2536:1.2904359 2539:1.3765941 2553:0.75878894 2554:1.4642597 2558:0.68281001 2574:0.96434617 2577:4.5276904 2578:2.4676981 2580:1.4380001 2592:1.9703405 2601:2.2629158 2604:1.1319075 2614:1.0140576 2619:3.0630546 2620:4.6142707 2629:0.064613283 2637:5.4753413 2639:2.4410167 2641:3.5117238 2651:0.67230266 2652:2.0113163 2656:2.0166912 2658:0.11034939 2660:0.11820173 2669:2.1500483 2672:4.3100238 2688:2.2532241 2695:0.51593632 2698:1.4653068 2701:1.2533883 2704:2.5393896 2707:2.1870718 2708:0.48653951 2710:5.299614 2714:2.2874186 2718:4.7737355 2719:5.0811844 2720:0.86345518 2723:6.8409467 2725:1.5831943 2728:1.0858953 2729:0.65859818 2731:0.23364908 2732:1.8460491 2736:0.052855313 2740:2.4055057 2741:4.5217028 2745:0.57211208 2752:7.0580616 2755:0.80505806 2759:0.41347739 2763:4.799047 2765:2.0829942 2766:5.6658697 2774:1.4131503 2775:5.2348986 2777:0.57899964 2778:6.3736529 2790:2.6094351 2793:4.5510144 2795:0.49316254 2800:2.2890649 2805:1.14214 2808:0.15123798 2809:0.39150092 2811:0.36237478 2823:0.23783764 2825:0.42588386 2826:0.78666538 2837:0.59444088 2844:4.287385 2845:4.5991735 2849:3.9653997 2860:4.6533484 2864:3.227998 2873:1.8907213 2882:1.7765553 2883:0.20338917 2885:0.034131825 2887:0.55272514 2888:1.5728816 2894:1.9779453 2895:0.81061924 2898:3.5218434 2903:8.2333717 2907:1.0373343 2909:1.9658234 2915:1.711632 2917:1.7495966 2920:1.1745942 2926:1.2595456 2929:2.6026025 2931:1.647615 2932:1.682453 2938:0.98147619 2941:2.0283976 2950:4.2451315 2953:0.22390783 2959:0.5592075 2965:1.5405378 2968:4.2540355 2971:0.27384794 2974:2.4937351 2977:0.74893045 2981:4.9422517 2996:0.75061077 3009:0.4419786 3010:4.5299735 3015:0.75873458 3033:2.9076734 3047:0.36657745 3048:2.7411025 3052:1.8709919 3060:0.046259116 3065:2.6337345 3067:6.8393869 3069:2.0308828 3077:0.23850901 3081:2.6674385 3089:0.28819323 3105:3.0910864 3117:4.3624706 3122:1.6060648 3144:3.7888596 3152:3.7094769 3161:4.957345 3162:1.5254965 3169:3.5000763 3172:0.15763918 3179:1.504564 3183:0.33616161 3196:1.1860478 3198:2.4934013 3199:0.7265383 3200:0.98463631 3206:1.8496449 3208:0.71512955 3214:1.3997165 3228:0.73776692 3231:2.3290129 3232:2.0902801 3235:3.1921892 3245:3.1871033 3251:0.90021932 3256:2.0523047 3257:5.0619736 3258:2.4581861 3260:5.7843118 3267:2.4825754 3276:0.85450101 3286:3.2508075 3293:0.42507634 3294:1.9336277 3299:4.0623703 3324:1.2622447 3338:2.1817458 3344:0.88334084 3348:1.9701102 3349:2.0843291 3351:1.5210711 3363:5.9318914 3365:2.5231957 3367:1.5098039 3370:2.1620426 3375:0.15166456 3377:1.5943134 3385:0.54070121 3388:0.38261461 3402:2.6990113 3413:4.9994168 3418:1.3756104 3420:0.39480612 3424:3.1640704 3427:0.64231485 3428:1.1758186 3436:3.7142656 3438:2.4062738 3440:0.56624711 3449:2.3758636 3457:1.1222061 3480:0.51215005 3482:1.5455019 3484:1.4940555 3489:1.4904556 3491:3.0693789 3493:2.6784246 3494:2.8404727 3496:5.608006 3500:0.6526745 3505:0.72145104 3508:4.0464582 3512:0.54675114 3526:3.6651433 3531:1.5212138 3536:0.75646096 3539:2.4800475 3540:1.0269378 3545:1.134535 3548:0.13146928 3554:2.2105021 3556:2.324456 3560:4.6723862 3564:3.6046965 3569:4.2929893 3585:1.5369097 3586:2.9236588 3588:1.0570015 3589:0.44594121 3599:1.157681 3603:1.6304928 3604:1.7260814 3607:0.054056555 3608:0.82083738 3614:0.52285695 3615:1.0678952 3627:0.77352679 3629:3.8726497 3640:3.404717 3653:3.9689233 3666:2.8040795 3667:1.7786633 3669:1.5335832 3677:2.7770579 3683:2.514281 3684:3.309721 3686:1.6736299 3687:0.35963175 3690:0.41563588 3691:3.9123621 3695:0.55619055 3703:1.4708914 3709:0.92579991 3710:2.456054 3711:1.5389539 3714:0.52974045 3717:1.1512622 3729:0.66847962 3735:0.24330831 3752:5.7977829 3753:0.79001462 3755:2.54844 3757:0.59079748 3759:1.6297228 3766:6.245101 3767:3.3398299 3793:5.2460952 3795:2.6760254 3797:8.5263863 3808:2.9051144 3813:2.716923 3814:3.3445358 3818:6.7573333 3825:0.97804904 3831:5.9907503 3836:4.5029945 3847:2.2093282 3850:3.1247168 3851:1.7598678 3852:0.090388477 3857:3.5569384 3864:0.1965539 3871:2.1857963 3875:2.9122486 3876:0.46079758 3877:1.7138259 3891:8.113903 3893:0.86812353 3895:0.27689955 3900:0.010012686 3906:0.27928168 3908:0.91763771 3914:0.25636166 3915:0.56259143 3918:0.19674763 3923:0.82213914 3926:3.8176806 3927:0.035024241 3936:1.2033343 3937:0.44331944 3938:4.761291 3942:4.3443027 3954:0.99665582 3957:1.4411701 3963:1.6355572 3974:0.12472817 3978:1.2790976 3982:0.21596472 3984:0.029949538 3985:2.4466438 3988:2.7433403 4001:0.31531799 4008:1.1581876 4013:0.13311972 4014:0.80264193 4021:1.6433532 4024:1.0819278 4032:2.3545392 4038:0.368523 4044:1.1796458 4055:1.6197851 4058:1.1328759 4061:1.7675153 4068:0.72447026 4072:1.0037243 4074:1.6707777 4075:0.9309535 4082:0.42848325 4084:0.49041605 4094:2.1715748 4095:0.17892753 4096:0.19987613 
1 4:0.048947006 10:1.1817211 15:0.76379991 18:3.2352042 19:1.7301624 20:1.6958696 26:0.096431151 27:1.5468205 29:0.7079311 31:0.047782764 45:2.6109993 46:0.25137371 57:0.037050813 60:0.24378586 69:3.1062677 80:0.62285608 83:4.7780027 84:0.7324996 94:0.37282416 103:0.027573109 105:0.83693171 107:1.2995036 108:1.6133978 113:1.2432463 114:0.17947263 115:2.6003387 123:4.85776 125:2.3032236 126:2.0209537 127:0.16683334 130:1.4369223 143:2.0036533 145:1.1583946 161:0.2056832 163:0.70069563 172:1.7057846 173:0.25627208 174:1.1398661 180:0.26761425 181:1.0063673 190:0.78888202 191:1.743795 200:6.8023105 205:0.1571499 210:7.5691848 217:1.1311483 219:0.37163687 221:1.4449886 223:3.7830753 234:0.70966542 235:0.99089766 240:1.5644535 241:4.7619753 244:0.036918089 252:1.835323 267:2.7139008 282:2.0702221 290:0.036072493 298:0.43039668 301:3.2131312 307:1.7681947 311:1.0023327 312:0.40163767 324:0.52799273 335:1.3572271 342:0.66681969 347:0.42089152 348:1.3679628 353:1.6939691 361:0.93182534 371:0.12430379 373:0.55549097 374:1.3583848 378:0.99890918 379:2.7211773 386:0.352346 388:1.3285904 391:2.2821083 393:1.077585 397:0.11784816 432:2.0993834 434:2.00161 440:0.58003855 442:1.7825023 452:1.0743468 454:5.9382362 457:1.1166879 459:1.4275826 463:2.5807285 472:1.4293959 482:6.0237451 493:2.1987112 494:2.5373607 496:2.0274644 498:0.035919726 499:0.61504364 500:0.040135443 502:4.3067513 504:0.47108376 505:0.33366686 509:1.0186758 512:0.28704697 514:0.69667292 517:2.1523192 526:1.8170757 527:0.56653631 542:0.93084145 562:3.525686 569:0.02578637 575:0.034546107 586:1.3819156 588:1.2121359 592:5.0008144 594:4.5719638 601:0.63565612 603:1.9738826 605:0.40448076 612:1.3685107 615:0.87218165 616:4.1140084 619:1.4410943 629:0.39755264 633:1.9734638 635:0.91587734 639:1.6484574 641:0.21272877 642:2.1902976 644:1.9960756 646:0.44738689 651:2.2897735 656:0.43696406 657:0.6763851 659:5.4825153 661:1.8217636 662:2.982661 664:2.7834072 667:0.060995653 670:0.67848659 672:5.5259032 681:3.1865847 684:2.1474328 687:0.038044587 690:0.44930002 691:0.1947614 698:0.039227605 702:4.1075039 705:0.11556876 706:2.9068389 711:0.54495299 717:2.7438264 720:0.44479167 722:1.0100791 723:2.7835026 724:2.3957791 726:1.0996196 728:3.7459788 739:0.04622829 748:2.4484842 750:2.586937 751:0.19081505 755:1.1335149 759:4.163269 773:1.781589 774:0.27871472 779:0.015975177 785:0.027364418 789:0.75465614 796:3.8331304 798:1.25384 799:2.249547 802:0.47690338 811:0.42268434 812:0.90449131 814:1.0542759 820:0.3221994 832:0.45577556 838:0.52427638 839:0.93449801 841:1.0779529 857:4.1010652 865:3.4437823 867:0.42306367 868:6.3984866 869:1.0652449 878:2.1620166 885:0.39659607 890:0.90661025 904:1.9276365 905:2.6943798 908:2.1136787 912:5.5660992 919:0.89064837 924:1.735718 928:0.88578254 937:0.78981763 938:0.68734699 945:3.2775016 951:1.2415487 965:4.0002589 967:0.50895953 968:0.34159222 974:1.8532541 979:0.44147289 985:0.96382034 989:0.734882 996:0.75122106 999:0.18114233 1001:4.0631242 1002:0.15973915 1014:0.22284079 1015:1.8689848 1016:0.88641387 1018:5.1476283 1019:1.1950359 1027:0.90886366 1029:0.42377797 1032:0.92981708 1042:2.1629982 1053:2.4462836 1056:1.1439186 1059:1.0667775 1062:3.7090142 1078:1.9676247 1080:1.1690761 1087:1.4211329 1095:0.11349347 1096:3.7467921 1102:0.73750073 1105:3.7768972 1106:0.029259145 1108:2.3499625 1116:0.37657058 1125:2.1625972 1131:0.79148245 1140:1.4344535 1159:0.46142358 1165:1.6268195 1170:1.007375 1173:0.047130793 1176:4.1198444 1178:2.1890841 1180:2.6794415 1181:4.3596387 1186:0.31907392 1188:0.90324372 1192:0.16450676 1206:3.7303734 1220:0.01124905 1227:1.6999003 1228:4.8957248 1233:0.56996632 1234:2.8292642 1236:1.017701 1240:2.922003 1242:4.3670797 1243:0.84346628 1246:1.3554816 1250:0.10174495 1251:2.6722159 1255:0.85691988 1277:1.2987586 1278:0.37731698 1279:1.1054714 1281:1.9642825 1288:1.0085063 1291:1.816784 1292:1.4501321 1295:4.0128908 1302:0.80640578 1305:1.0488993 1306:0.0062200725 1309:1.9988583 1314:1.0558381 1317:2.0199223 1319:1.7442462 1333:1.7137687 1335:0.1427806 1338:1.4309176 1340:2.07511 1342:1.4184916 1344:0.081755415 1347:2.0661497 1349:0.54326361 1357:3.7592347 1359:1.0018711 1365:1.8560457 1366:0.21055004 1368:5.0734859 1369:2.2581801 1372:1.4886425 1376:0.91565669 1385:0.27339679 1387:1.5875754 1389:0.94573969 1391:0.64211977 1399:0.062314332 1401:0.16225225 1404:0.39553511 1406:3.9945352 1410:1.7861347 1411:0.23122218 1412:0.94534713 1416:0.55274963 1421:1.4390284 1424:1.316806 1426:3.6133232 1429:2.6967022 1430:0.0506742 1431:1.5644071 1432:0.43431047 1433:0.42882422 1435:0.90494615 1441:1.3304455 1443:2.5332112 1445:0.042763889 1452:1.8563931 1456:3.3983595 1457:0.42042339 1458:1.9222112 1463:1.4000609 1465:2.5269079 1470:1.6729758 1471:0.3462823 1476:2.2200274 1484:3.6666288 1486:0.45322403 1487:1.5307474 1488:3.6922727 1491:0.391776 1495:1.7928021 1502:0.90835518 1511:1.4539459 1513:4.9839787 1514:1.9642956 1515:0.36073798 1519:2.7230029 1522:1.2694741 1523:1.011024 1538:0.97169209 1541:0.084043413 1544:0.16886842 1556:1.543466 1560:1.12093 1569:0.29787755 1580:0.16107857 1582:1.2543237 1583:0.89785147 1587:2.5361578 1588:2.0890744 1590:0.42279136 1600:3.4232261 1608:0.13605094 1613:1.7993946 1615:1.3208368 1618:3.3533816 1625:3.9355905 1628:0.89567155 1630:3.7583632 1636:1.0814079 1637:2.0117414 1640:1.2972051 1650:0.12183809 1657:0.038768709 1659:2.7287374 1661:2.8780718 1662:1.3242826 1663:2.0008912 1664:1.9588521 1665:0.58114642 1675:2.2451432 1677:4.0312462 1678:5.1052747 1680:3.988652 1681:3.9582071 1695:1.5133883 1696:0.27319446 1697:2.3084161 1701:0.93605053 1703:1.3849175 1706:3.2064388 1707:2.7491131 1708:0.98609626 1712:1.1467929 1714:0.23201278 1720:0.29589784 1722:0.045782685 1726:4.6861291 1730:0.63115054 1733:1.2898595 1736:2.3852162 1737:2.362663 1742:1.0496386 1756:0.15456003 1762:4.7093773 1767:0.57391292 1772:2.3527131 1774:0.30984765 1778:2.1215432 1779:0.88195932 1792:1.1972945 1795:1.3135072 1804:1.13252 1805:0.51129466 1807:0.089118421 1822:2.3091066 1824:0.015879899 1825:0.5744791 1826:0.3731603 1837:0.094039947 1842:3.1508322 1844:1.160871 1845:1.5647948 1848:1.6951332 1849:0.98123181 1852:0.053941008 1856:3.5045288 1857:0.98068559 1872:0.15589203 1881:2.3301606 1888:1.0198108 1890:2.240469 1894:0.85315073 1897:2.0477476 1898:4.6213222 1900:2.3322992 1904:0.89744377 1928:4.7916212 1935:0.12646586 1938:1.8164536 1943:5.833425 1951:0.59239256 1953:1.0864745 1964:1.584578 1968:0.68152475 1972:0.79901421 1975:1.6062053 1977:3.0407004 1979:1.3532307 1993:0.9517836 1996:0.48892766 1997:0.57247847 2005:0.63265824 2009:3.8593035 2019:1.0289276 2021:2.2183628 2024:0.35597527 2028:0.74899191 2030:1.4868573 2042:0.77899289 2047:0.085227787 2048:4.9676075 2057:2.394289 2066:0.21507296 2075:0.299393 2079:1.9406304 2082:0.57836008 2083:1.7884169 2084:1.3461971 2097:2.2331583 2105:2.499495 2107:0.12996712 2112:0.82105416 2117:2.4925575 2118:0.30593014 2122:1.3675828 2130:1.2818377 2132:0.17339057 2140:1.4565871 2144:0.90233427 2146:2.1310241 2153:0.78372777 2154:2.028677 2160:0.78882265 2165:0.9546532 2172:2.9209154 2187:1.4388986 2188:4.239881 2194:0.041103721 2196:0.56408989 2198:3.0102696 2199:0.76832259 2202:3.9236929 2203:3.9515994 2204:0.48882115 2210:1.8913345 2211:3.8122039 2214:1.7858248 2220:1.6348171 2224:0.32447371 2226:0.20584658 2231:0.23471665 2239:0.46340874 2250:2.9456615 2253:2.0430565 2255:1.0348626 2262:0.30177343 2267:2.506496 2286:0.64331108 2290:1.294637 2292:0.18836561 2303:1.0008403 2311:4.3174396 2314:0.63734317 2317:0.99022013 2322:3.242322 2337:1.661365 2343:1.0652945 2346:1.2911006 2348:0.99387741 2349:1.1476419 2353:1.2552083 2358:0.3654089 2360:1.1631161 2372:0.64462906 2386:0.94802523 2390:0.23867413 2393:1.2833912 2400:2.9884672 2401:0.24806382 2406:0.87297332 2417:2.2667832 2425:0.081760257 2431:6.492342 2433:0.15044053 2435:2.8847115 2441:2.9484577 2452:2.0165315 2453:0.37315434 2457:5.895472 2458:0.29944324 2470:0.5186733 2471:2.4686708 2475:1.3026439 2477:1.2786207 2487:1.586436 2488:0.8843354 2491:0.72282577 2503:3.5405061 2504:0.094060034 2505:1.0023987 2507:1.5445145 2508:0.98890573 2509:2.4946103 2516:0.77929753 2520:0.44823796 2526:1.562312 2527:0.63001966 2528:0.52722108 2529:3.3052208 2530:3.8826928 2531:0.60890388 2533:1.2246351 2536:0.36030352 2539:3.0928645 2541:0.47615242 2553:1.6076704 2554:1.0579042 2558:1.045979 2561:3.0802391 2574:0.22367835 2577:2.1925461 2589:1.0967453 2592:2.2693479 2594:0.11449137 2597:0.58897603 2601:3.6697032 2604:4.1032395 2612:0.83457434 2619:0.71406198 2620:1.8698316 2629:0.6180293 2636:1.4467475 2637:6.5575919 2639:0.3106207 2641:0.013632923 2652:0.31117874 2656:0.77543527 2658:0.60064876 2660:0.27235401 2669:0.5103187 2675:0.32715577 2688:2.9629059 2689:0.050594777 2695:0.72947192 2698:0.2434434 2704:1.7099397 2708:4.0199332 2710:3.2771945 2714:2.2202775 2715:2.1772013 2718:5.5125213 2719:4.9037232 2720:1.5814859 2723:8.072216 2724:1.7478467 2732:1.6711233 2736:0.93712455 2740:4.1281948 2745:3.2680702 2752:1.9253927 2759:1.0789511 2763:1.5850041 2766:5.2607546 2771:1.5733844 2774:0.65626431 2775:4.0471268 2777:2.7585855 2778:1.828383 2792:2.7169452 2793:3.9600637 2795:2.3896487 2800:0.23892111 2811:1.550607 2814:2.2697186 2825:0.94011092 2826:0.72057879 2828:0.19364433 2834:2.5420232 2844:2.0122185 2845:2.1387196 2848:0.4296205 2849:2.3421357 2860:2.4004295 2864:2.2080555 2873:0.71945453 2876:0.45756721 2882:2.7781744 2883:0.49291164 2885:1.4217284 2888:1.9229753 2895:2.2828133 2896:1.1471745 2898:2.8250721 2903:6.3119602 2904:0.69296551 2909:1.5048764 2917:0.40529001 2919:0.77407813 2920:0.55653328 2929:0.15781289 2931:1.6518755 2932:0.55599374 2938:0.36061093 2947:0.62261379 2949:0.6010766 2950:5.9018955 2951:0.89340383 2964:0.54040533 2968:1.1105881 2969:0.002899766 2971:2.3104658 2974:1.1047573 2977:1.3593134 2981:5.0301471 3009:0.89395785 3015:0.67302299 3033:1.6664392 3035:2.5630488 3048:0.51168352 3052:2.2975209 3060:1.3561305 3065:0.1440336 3067:1.8539171 3069:0.95760965 3072:2.5376303 3075:1.3378389 3077:0.70048743 3079:0.56582344 3081:3.4987757 3089:0.11115712 3094:0.91513634 3105:3.8606477 3107:0.76989031 3111:0.98268616 3117:4.6904111 3118:0.61311889 3124:1.3387936 3129:0.14539266 3133:0.40336645 3140:0.43248236 3141:0.48320001 3144:0.98296052 3152:5.2980065 3154:1.1274989 3161:1.9050976 3163:1.4486189 3164:1.9989679 3169:0.15063974 3172:0.96469927 3179:2.4108944 3180:1.7379229 3183:3.0955074 3198:2.7900233 3199:2.5218284 3206:2.6220312 3214:1.1977985 3232:1.2245729 3235:1.2250798 3242:1.5478122 3245:0.075806409 3247:1.0742558 3253:1.3953372 3256:1.2810438 3257:3.0506995 3258:3.7572632 3260:4.5492125 3262:0.066426247 3268:1.8547361 3275:1.0134227 3276:0.36109936 3278:2.4201295 3286:2.1464696 3291:2.1390853 3293:1.4422783 3298:1.0997143 3299:4.8727531 3302:1.2655443 3310:1.66151 3334:3.9076955 3338:2.2657611 3344:2.4144261 3348:0.47854298 3349:3.8388131 3354:2.0556688 3356:2.4471464 3358:0.67406052 3363:4.0700212 3365:1.7631695 3367:2.0691011 3375:0.25446594 3377:1.7792845 3395:0.044732869 3402:2.9446013 3404:0.16276753 3413:5.3646169 3418:5.3781977 3420:0.24964201 3422:1.0138764 3424:1.8169205 3427:1.7021673 3428:0.22336811 3436:3.3224213 3438:1.9622087 3449:0.99653774 3456:1.1438817 3457:0.43337768 3465:1.0887738 3482:0.92377466 3484:2.3381882 3490:1.023443 3491:3.3217666 3493:1.9810147 3494:2.7511878 3496:3.9283698 3500:1.4411019 3504:0.92022812 3505:0.24014461 3508:4.9675641 3512:1.9708154 3513:0.96031332 3526:0.87411141 3531:1.8403169 3536:1.2453098 3539:0.82069838 3540:3.7037578 3548:0.39262676 3554:1.0813334 3556:3.8661709 3560:1.6899111 3564:2.6458013 3569:2.4733591 3576:1.3734761 3577:0.17455634 3582:0.92973727 3585:2.7214239 3586:3.6357627 3588:0.35420561 3589:0.76936805 3591:0.49285442 3598:0.70998889 3599:1.4482875 3601:0.25693059 3604:2.0221391 3608:3.7417462 3612:0.84646475 3614:2.0864861 3615:1.3357714 3621:0.39695251 3624:1.0475028 3627:1.0070122 3629:1.8741511 3642:1.2081195 3644:2.6508765 3650:1.3984743 3653:3.7123859 3666:2.9653955 3667:0.26046616 3669:2.1397333 3672:0.02144745 3676:1.6401639 3679:0.22466317 3683:4.6742744 3684:2.1198702 3687:0.47718665 3689:2.1055961 3690:0.82893366 3691:2.1618533 3692:1.3725748 3693:0.9859001 3703:2.3972421 3710:1.5286928 3711:0.75475144 3724:0.22529753 3728:0.48634142 3751:0.24823457 3752:5.4927063 3753:0.14360344 3754:1.5944657 3758:1.148873 3765:0.63814616 3766:4.907414 3767:3.7105935 3769:1.8462641 3771:0.15976709 3776:0.03368707 3789:0.72221613 3793:4.3366723 3795:0.94677496 3797:5.8640308 3807:0.71873796 3808:2.309762 3813:0.65180075 3814:0.51773053 3815:0.19802827 3818:3.3095622 3824:1.5806454 3831:2.0182846 3835:1.0737815 3836:2.260437 3847:0.6329264 3848:0.007142812 3851:0.58161694 3857:3.4771061 3860:1.1124299 3875:0.35652381 3877:1.5583898 3880:0.8778435 3885:1.570706 3891:9.5523338 3893:0.36414456 3895:2.5443327 3900:0.45962435 3919:1.0236387 3926:2.5929558 3936:0.35544303 3937:0.095885217 3938:5.1009889 3942:1.7389398 3955:0.41832772 3957:4.5953612 3963:1.4061568 3974:0.99890161 3978:0.21446255 3980:1.1337118 3984:2.1109853 3985:2.0896626 3988:1.3637682 4000:1.1853812 4004:0.76534444 4008:0.62999475 4013:1.2847724 4014:1.3152034 4021:4.3730407 4025:0.28182888 4032:0.11652449 4036:2.3591983 4038:1.8495128 4044:1.3407974 4058:1.4528997 4061:1.6868995 4063:0.76857913 4067:0.64035088 4071:0.57290745 4074:0.87850356 4079:1.0692447 4084:3.7917373 4089:0.58203763 4092:1.1752938 4095:0.15549402 4096:0.48246023 
0.6656500098404103 10:2.7785425 14:0.19034603 18:3.7021484 27:0.68253064 29:0.34899902 57:0.86623478 69:3.2514935 70:1.4429407 75:1.1522992 80:0.1926682 83:3.5707395 94:4.9665465 103:0.6058284 105:0.62412524 107:4.4756317 108:2.3371046 115:2.8291206 123:5.8307939 125:1.251821 126:3.6014051 130:0.93451858 143:2.66099 145:1.0100169 148:3.7676373 156:0.77779055 161:0.14510766 163:0.53481162 164:0.61130786 167:1.6467917 172:1.6444236 174:1.3725889 180:0.04935772 181:1.2100601 190:1.5389267 191:1.877678 200:5.9576163 210:7.3957686 217:2.4342566 223:3.6375194 236:0.51938528 239:0.076137006 241:3.5385966 248:0.53944457 251:1.0788262 252:1.523627 254:0.067389548 267:5.5943627 270:1.3793879 280:0.022097319 282:0.33255896 294:0.51650226 297:1.4171343 298:1.5938623 301:0.90840864 307:0.29125541 311:0.097785316 329:1.6473509 335:2.6937551 347:0.13799357 348:0.76074946 349:0.77891111 353:3.2243316 361:2.4842968 371:1.2708827 378:0.11894155 379:4.3966093 385:2.831672 388:0.37549621 391:3.9694188 393:0.89764112 397:3.9096797 412:0.27108467 432:0.44802004 434:4.5074315 440:0.24100029 442:0.87995654 452:0.97744375 454:7.6698809 457:1.6860714 459:1.9755501 463:1.6057848 472:3.7185287 482:3.5679109 485:1.1243389 493:1.2880208 494:2.4042151 495:0.15196294 496:0.38473564 500:0.031392485 502:2.2218637 505:0.62288934 509:1.4429474 514:1.0276114 517:1.385522 562:6.1382227 563:0.077087589 573:0.55011076 577:2.4595447 578:1.4411973 586:1.9190159 588:0.033035878 592:3.0738223 594:2.2722456 595:0.02402851 601:1.779488 603:2.0895457 607:1.8460191 612:0.19886781 615:0.11278731 616:2.9774663 619:1.2578337 629:2.0066438 631:0.62574434 635:1.6240823 639:2.4754026 642:0.033484846 644:2.3926425 646:0.66695821 651:1.561976 656:1.5104675 659:1.9626671 662:1.8223881 664:3.3984404 669:3.1373098 670:0.94315624 672:4.6848569 675:3.702054 681:4.4723845 682:0.62964582 684:3.0029998 690:1.9139701 691:5.097064 696:2.4284918 698:0.78978992 702:4.0686727 706:1.0081211 717:3.2217395 721:0.077419162 722:0.083229572 723:1.4028612 725:1.0457274 726:0.28452802 727:0.73251855 728:4.4680047 730:0.063084528 736:3.6507869 739:3.4987314 748:2.1703568 750:3.2178693 751:0.35984543 755:0.082347527 759:6.0042472 760:0.14990477 773:0.85098791 776:0.33654588 796:1.7616962 799:1.993486 811:0.62190211 812:2.7136979 820:0.17578644 832:0.89859021 839:0.89393282 841:0.8279646 854:0.52592456 857:2.094902 861:0.17242649 865:1.6184769 868:7.9482098 869:2.7993243 878:5.4465971 881:0.52883601 883:2.1384008 890:0.51173019 903:0.77363694 904:1.7092967 905:1.3820453 912:4.9687662 919:2.1313274 924:0.62375939 928:1.684834 933:1.6099182 934:0.17474177 937:0.93181586 938:1.1512129 940:0.84891856 945:1.4121277 965:3.7071126 970:0.037546739 974:0.46553239 980:0.010152221 985:2.0167568 989:0.74175233 999:1.2859893 1001:5.2837334 1002:0.49714053 1014:1.6247064 1015:1.6533732 1016:2.3064678 1017:1.3911091 1018:5.0986729 1019:0.42738718 1027:0.53899074 1029:2.5063403 1032:0.012071997 1037:1.0248966 1042:0.9207257 1053:1.0099175 1056:1.731748 1062:3.9540951 1065:2.6065364 1078:3.5585032 1080:1.9756615 1087:1.1732376 1094:0.69560498 1095:2.8232553 1096:1.9650693 1102:2.5958271 1105:2.9183002 1108:2.4627855 1137:0.83621454 1155:0.19211459 1163:0.20359045 1165:2.7997298 1170:0.68371767 1173:0.37648767 1176:2.296243 1178:3.0246203 1181:2.2941365 1188:0.72425997 1197:0.16385049 1206:0.55235857 1208:0.30579945 1215:0.18017215 1225:0.70319235 1227:1.6376276 1228:3.4490356 1231:0.32133815 1233:0.067663223 1234:1.0150965 1240:2.5929399 1242:2.924886 1246:0.68980664 1248:0.11695728 1250:1.1863937 1251:4.3922315 1252:0.81090915 1255:2.1408496 1264:0.27445096 1277:1.7268525 1278:0.95186996 1279:0.42062604 1291:1.8968118 1292:1.9824381 1295:2.4099462 1309:3.4827051 1317:3.6682975 1333:0.24386762 1340:0.48838693 1341:0.895504 1342:1.4130466 1344:2.1564996 1347:0.38776881 1349:0.32984439 1350:1.6042016 1357:5.1034212 1359:1.1713094 1365:1.1308506 1368:3.5561047 1371:1.147841 1383:0.038747549 1387:4.0319095 1391:1.6973971 1396:0.87571657 1401:1.1531144 1402:1.3310598 1406:1.0457168 1410:3.3649867 1411:0.49970335 1412:0.84885043 1419:0.7359283 1421:0.21712494 1422:0.24833067 1426:0.53139412 1429:0.66704398 1430:0.15612595 1431:4.8019447 1432:0.37614003 1433:1.7123777 1439:0.10820468 1441:0.26627827 1443:0.30605263 1452:0.25246125 1456:1.8340893 1457:3.732348 1458:0.64116687 1463:2.0399327 1465:4.5730352 1467:0.13883503 1471:0.7928949 1476:2.5783687 1479:0.081779718 1484:0.9699617 1486:0.023686588 1487:0.84509373 1488:5.8377533 1490:3.490252 1491:1.0277917 1492:0.033173531 1502:1.5933795 1503:2.3099999 1511:2.954524 1513:3.3350835 1514:4.685358 1518:0.61958504 1519:3.7421842 1523:0.088061094 1538:1.8926632 1541:0.50789165 1556:0.36331958 1562:0.069687575 1569:1.8722271 1571:2.2288251 1582:1.5278225 1586:0.99768311 1588:0.85082841 1600:2.3845489 1602:0.10488945 1608:1.3720877 1613:3.2186856 1615:0.55266792 1618:0.8234458 1625:4.9376078 1628:1.1635494 1630:2.0765679 1636:2.0452249 1637:3.3280859 1640:1.7371165 1653:1.6059978 1657:0.46724084 1659:4.1228504 1661:2.314539 1663:3.4586303 1664:1.0162201 1675:0.20181133 1677:3.2569876 1678:2.9701467 1680:5.7955561 1681:2.596998 1683:0.81274915 1688:1.6092077 1691:2.6296439 1695:2.7562478 1697:4.456141 1701:1.0449631 1703:1.369983 1706:5.598846 1707:2.7016761 1708:1.298094 1712:0.24785173 1726:5.1086502 1733:5.9017539 1736:3.1300683 1737:5.5185065 1742:0.70904607 1746:0.29789397 1754:2.7979672 1762:6.4990888 1767:0.28491569 1775:1.2486875 1778:1.0289416 1779:0.70444125 1783:1.85313 1788:0.93344188 1792:2.5869539 1795:1.4188733 1805:1.8792652 1808:1.5413961 1812:1.4642982 1822:4.8758187 1825:1.0983396 1833:0.634866 1837:0.74874401 1842:0.37682134 1845:1.4987459 1847:0.78435528 1849:2.3709943 1850:0.88174069 1852:0.050461944 1856:2.4665124 1862:0.16678698 1867:0.07940203 1884:0.54060745 1890:0.48388094 1894:1.6578937 1898:3.0002844 1900:0.74562848 1904:0.067777351 1912:1.6267784 1926:0.4808993 1928:4.6442137 1936:1.580073 1938:0.18146646 1943:5.6677756 1946:1.4791344 1951:1.8519377 1952:0.3053416 1953:1.3588284 1964:2.1298525 1968:2.9914818 1972:3.3778408 1975:0.49281648 1977:1.3478986 1980:1.1786805 1996:1.3146992 2004:0.63222396 2005:0.052401811 2006:1.3266975 2009:3.0319641 2021:3.9240277 2030:2.1070971 2034:0.34403163 2046:0.5344162 2047:1.1551208 2048:3.0835469 2052:0.13349664 2057:0.67860287 2065:1.1299706 2066:0.76893562 2070:0.85737574 2079:3.7790003 2082:0.56279004 2097:1.0012872 2105:2.2896364 2112:2.4675102 2117:0.90292966 2118:0.37458402 2120:2.9966376 2122:2.3918149 2130:0.46884131 2131:0.54596841 2140:2.6021626 2144:0.68805015 2146:4.3487959 2154:1.5237291 2163:0.10272008 2172:4.1830201 2187:1.357138 2188:1.1039407 2196:1.2530843 2198:2.6951036 2199:1.5233176 2200:1.0500625 2202:2.6181123 2203:5.8559251 2204:1.2736995 2211:4.0506296 2214:1.7924395 2220:0.53802228 2231:1.7777977 2239:0.042177152 2250:2.0715137 2253:2.6900215 2262:0.50394404 2267:0.58564866 2275:0.43963307 2286:1.7682437 2290:0.45016545 2306:0.5028969 2307:0.090461731 2311:2.7786589 2314:0.5429638 2316:0.19890666 2317:0.67897737 2322:3.177278 2337:0.73646891 2341:0.14010051 2346:2.0324812 2349:3.8077459 2353:4.0303154 2358:1.6993021 2360:0.74086404 2372:2.6336029 2386:1.5016053 2395:0.93978888 2400:3.5672708 2401:1.8938355 2406:1.6421005 2425:0.11943948 2426:0.052725501 2431:5.9952402 2432:0.67588097 2435:1.5907073 2436:0.47672948 2437:1.3535204 2441:1.0496839 2452:3.2262466 2453:0.13885742 2457:4.9324713 2458:2.558387 2466:1.0294487 2471:2.2609186 2475:0.46194181 2477:0.3084982 2487:1.1099782 2488:3.3746319 2491:0.26142561 2503:3.7341144 2505:0.13127881 2508:0.42644235 2512:1.6977981 2520:2.8480041 2526:2.9699936 2527:1.9641325 2528:0.81040603 2529:1.2263358 2530:2.4592619 2531:0.41456658 2533:1.6352339 2535:2.8080943 2536:2.3041997 2539:3.7851038 2545:1.8764409 2547:1.3627282 2553:1.6518306 2554:4.1015553 2557:0.76274472 2558:2.2449272 2561:0.9062615 2577:1.8444273 2578:0.14790298 2586:0.031984746 2592:0.8137958 2601:2.5043163 2604:4.705965 2617:1.4114205 2620:2.896023 2622:0.25890017 2637:7.7738695 2652:2.0919969 2660:0.3586027 2669:2.8700414 2672:2.7079666 2674:1.6593153 2688:0.43552309 2689:1.1132711 2695:3.1909807 2704:3.99473 2708:4.5389771 2710:2.2897618 2715:1.7231462 2717:0.11606692 2718:8.5554914 2719:5.0204878 2720:1.4780103 2723:7.2013602 2724:3.8560936 2725:0.27112234 2728:0.10816196 2736:0.011438072 2740:3.2935889 2741:0.83481723 2745:3.2648785 2752:8.0877018 2759:0.48878688 2763:4.0592198 2766:2.3242142 2775:5.1440825 2777:0.88682067 2778:4.594173 2790:1.2572068 2792:1.626313 2793:3.8189311 2800:2.3832138 2808:1.2413161 2809:0.20397815 2811:0.55968082 2825:1.1050538 2826:1.1122209 2831:0.089315474 2834:2.7986326 2844:0.36002511 2845:2.1214075 2849:5.7220697 2853:1.1252242 2860:2.2572944 2864:3.0144999 2873:0.57444203 2876:1.7687068 2878:0.44827375 2882:4.0449805 2883:3.0444472 2885:2.2131119 2888:0.49989861 2896:0.04801926 2898:3.8597121 2903:7.2759919 2907:0.82655072 2909:3.4065666 2920:1.0837586 2926:0.87824571 2929:2.595602 2931:5.0078197 2938:2.3780601 2941:0.97060263 2949:1.7983704 2950:5.4353037 2951:0.34063575 2958:0.005758103 2968:0.9629783 2971:4.6169381 2974:3.7828262 2981:4.2491422 2989:0.39700183 3009:1.4842423 3010:2.068934 3033:0.79983872 3036:0.58033001 3041:0.091853619 3048:0.38320833 3052:1.6516063 3067:3.4015782 3069:0.68025935 3075:0.18171488 3081:1.8843532 3087:0.58583486 3089:0.67862654 3105:3.501754 3107:0.09896785 3117:4.0568056 3118:0.55705893 3124:0.85492265 3133:0.81964844 3141:0.85106915 3144:1.1879923 3152:4.4275193 3161:5.0434923 3163:0.24782135 3167:1.3023264 3179:1.9575078 3180:0.51162583 3183:3.4858568 3198:3.2951531 3199:1.4034628 3206:1.2830681 3214:2.1191738 3219:0.068810791 3232:1.6296911 3235:2.9983239 3236:0.043925673 3245:2.537292 3256:1.4082077 3257:3.7510924 3258:1.6072755 3260:7.4354529 3268:2.3334737 3276:0.01420176 3286:0.55217779 3291:1.0452032 3299:5.5680122 3325:0.58776736 3334:0.13536322 3338:3.295579 3344:4.6584916 3348:1.6607301 3349:2.7719765 3356:0.70823669 3358:2.3548727 3363:3.1452248 3365:1.3590877 3367:0.47115892 3370:1.3002548 3375:1.2767057 3402:1.9181075 3413:4.5290647 3418:3.2036109 3422:0.052305892 3424:3.4991295 3428:1.7102406 3436:4.6371903 3437:2.1413848 3438:4.4476795 3443:0.08764708 3448:0.23951909 3449:1.2350024 3456:0.58332497 3482:0.024567664 3484:3.7078555 3489:0.96767324 3491:2.5763304 3493:2.974112 3494:2.5077276 3496:5.8756585 3500:3.3736453 3504:0.1724264 3505:0.46919501 3508:5.5107913 3512:0.90149248 3526:1.9017719 3531:3.7723365 3534:0.17059362 3539:0.083812855 3540:1.0098933 3548:0.51029205 3554:1.6838046 3556:4.6674285 3560:0.21652408 3564:2.9375632 3577:0.98978937 3585:2.8229511 3586:2.2228229 3588:0.2325114 3589:0.31093863 3598:0.073700905 3599:1.8719022 3603:0.20828545 3604:0.64379746 3607:2.7544539 3608:2.0169091 3609:1.7675574 3612:0.56801432 3614:3.5508664 3627:3.0649402 3629:2.5772831 3632:0.28119922 3640:0.035106808 3642:2.0914547 3644:2.9751499 3649:0.11593559 3650:1.284771 3653:5.8104925 3657:0.50473464 3663:0.38494143 3666:0.24966693 3669:1.1854657 3672:0.6128127 3679:0.26023787 3683:4.7080021 3684:1.4645821 3689:1.7236421 3690:1.8394959 3691:2.4852502 3692:0.073340476 3693:1.2126968 3703:2.7297947 3704:0.4805097 3709:1.6823807 3724:0.84912091 3728:1.0841529 3752:3.9170179 3759:1.0668249 3766:3.7819276 3767:1.51341 3776:0.34751201 3789:0.0083921254 3793:3.9864225 3795:0.2228002 3797:2.2649546 3813:1.119482 3814:0.58661211 3818:2.4845977 3824:1.2455591 3831:3.3403952 3836:2.9320838 3847:0.29783326 3848:0.50838673 3850:1.0541954 3857:1.6475748 3859:1.2154263 3871:0.56056678 3877:0.064060926 3885:1.230026 3888:0.099427313 3890:0.11672014 3891:9.0781708 3895:1.9853777 3900:0.16817328 3908:1.566023 3909:0.81228757 3915:1.4534434 3926:3.486968 3937:0.69135559 3938:7.1844869 3942:4.6977153 3952:1.3637369 3955:0.78299236 3957:2.3469203 3963:1.2590353 3980:1.4825298 3984:1.221562 3985:2.6402025 3988:2.726459 4000:0.60277712 4001:0.97260451 4004:1.7173946 4007:1.5526904 4008:0.6556989 4013:0.65729356 4014:1.0563803 4021:3.695714 4032:2.1220813 4036:0.97400826 4038:2.3919291 4039:0.20539227 4044:1.6831753 4052:0.40659988 4058:1.6589382 4061:4.1004057 4065:0.97227937 4068:2.3906283 4071:0.030764073 4072:1.4086552 4074:0.45617333 4084:2.547313 4085:0.036570609 4095:0.83249485 
