svm_type c_svc
kernel_type rbf
gamma 0.000244141
nr_class 2
total_sv 85
rho 0.0441879
label 1 0
probA -5.16529
probB -0.637786
nr_sv 37 48
SV
1 1:0.69820321 3:1.8508644 5:3.2832074 7:0.039279073 9:0.64480567 19:3.8833659 21:0.13429712 37:4.518466 43:1.2603893 54:3.9564929 60:1.008214 68:2.1053624 71:2.0472159 74:0.3286472 78:3.7718186 87:1.4461133 90:2.5719702 97:0.15920331 103:3.7862589 123:0.39797583 125:0.016699165 127:0.51054549 129:1.0342692 130:0.94469082 132:0.19228417 136:0.47475913 139:0.13426751 146:0.50470352 147:3.1532254 150:2.2321084 152:0.78575218 153:3.640245 155:4.0735545 157:4.4239402 163:0.40007952 168:1.043505 173:0.24504629 184:0.16875172 185:1.1410155 194:6.1883135 195:4.3309784 199:4.2085581 214:0.90555686 216:0.86744797 221:3.6893048 237:4.7785316 241:1.0025091 242:5.3685002 258:3.9294574 259:1.3256098 262:0.048042178 276:1.5765791 282:4.7272158 288:6.3546858 289:1.1114628 291:0.081050083 293:1.6203899 298:0.081580237 299:0.24572119 308:1.1254133 310:0.59821689 319:2.3366902 325:0.059759207 340:3.2177823 347:0.60879612 348:1.7673501 349:7.4142914 350:0.48555821 360:0.39791206 361:0.3926506 366:0.78568876 367:2.4191129 370:1.5751792 372:2.8605626 373:0.35972041 377:3.3046958 382:1.6436322 387:5.631794 391:2.0212128 397:4.3764081 398:1.6838913 399:0.75271863 404:0.35100618 405:1.4379035 414:1.9509118 420:0.3722519 421:0.44884521 427:0.64062691 432:3.468667 433:4.2704959 441:0.41894254 444:5.4025154 450:3.8167701 461:2.0938604 477:0.82996547 478:0.5589118 483:0.31916559 485:0.93476516 490:0.07049334 492:4.1693053 499:0.4308264 502:0.76186639 503:0.29544473 509:0.31452745 514:2.8108149 517:3.0289922 521:3.4522781 527:1.1491859 534:1.2976136 536:1.2479664 539:1.0622084 540:0.63461137 545:4.6391697 546:2.5011368 547:1.1156452 559:2.0682609 561:4.7627797 562:1.8582523 565:1.5514989 566:0.43489435 578:1.0754989 581:0.78802538 586:3.135232 589:2.3032753 596:0.32477689 611:0.42269987 612:0.36051399 616:0.94003326 625:0.89119208 626:1.0442214 635:5.7546425 639:7.6653299 647:1.2613947 661:0.82012111 668:0.28311729 671:8.8704967 673:4.8667841 692:0.7600168 697:0.34111756 703:5.4892926 705:0.35302651 713:3.3311777 717:0.79302752 718:0.32882634 721:0.36748493 730:0.635719 731:1.2610637 748:0.34898999 750:1.2253207 751:1.1821318 753:2.0824137 767:0.96065974 768:1.7267776 771:1.2294781 772:1.6704643 780:0.25273073 782:1.2835637 788:1.2749739 789:3.7480502 791:0.18310392 794:3.6461327 795:1.968653 804:0.46994299 806:3.2892709 811:1.2685416 820:1.7358874 830:4.1542459 849:1.179274 850:3.4351501 851:0.87847149 854:0.14988315 857:0.10920814 865:1.9442805 871:2.8020236 874:0.22764592 884:0.5228709 908:3.149735 909:1.3096826 915:1.5091375 921:4.2450256 928:0.75625908 937:0.11614958 943:1.5573115 946:1.6699752 951:2.2066014 954:1.2196341 963:0.68569463 966:3.8075435 972:11.42637 973:0.9930585 974:1.7569892 975:2.9715641 978:0.98791659 986:1.4211003 990:0.12545159 1022:4.2348776 1026:1.2296931 1031:2.9409168 1032:0.77311194 1039:2.4616761 1041:3.6308627 1049:2.6951551 1053:3.5903542 1059:3.3905976 1064:1.2237184 1070:2.5863743 1073:5.7101049 1075:3.8742826 1076:0.87747651 1094:2.1599758 1095:4.6789885 1098:2.6024363 1106:0.32626316 1110:0.049276352 1111:3.0673854 1117:0.80627406 1118:1.2886992 1119:2.386445 1122:0.886783 1126:2.3987703 1128:0.2768341 1130:2.9314103 1131:0.89238918 1140:2.7861352 1152:0.5380736 1154:0.24486342 1160:0.85824454 1168:0.18082914 1170:3.3066144 1173:1.0648639 1177:1.6207447 1180:1.3273537 1181:1.2489656 1193:5.1080236 1199:1.8829099 1206:4.2487373 1217:2.8309312 1220:1.7081693 1221:0.13207282 1226:0.73608351 1235:0.012094855 1236:0.98757517 1248:0.43015844 1250:0.58776408 1257:1.5488807 1274:1.4714411 1279:3.5253401 1280:1.4714712 1281:2.6725135 1287:1.5082417 1291:3.3009171 1293:1.3376756 1299:1.2446541 1304:1.6011548 1307:1.1523694 1309:5.2614312 1311:0.63307929 1313:7.4671769 1314:0.96255457 1315:0.64062601 1317:0.4987115 1319:0.43149048 1328:1.1972271 1332:3.6970248 1334:0.67500865 1335:0.059526742 1337:1.2417414 1341:1.3019006 1352:2.3413541 1368:2.4875178 1373:0.26050672 1377:0.058695614 1383:2.432971 1385:2.4693098 1394:2.299613 1396:0.2201519 1398:3.8321574 1406:4.4546385 1408:3.0752552 1409:6.7348742 1411:0.2558538 1416:0.19623405 1430:0.59623766 1432:0.09401679 1444:4.3152957 1445:0.19138891 1449:0.83205497 1450:3.5624173 1452:2.5964305 1457:0.20480376 1458:0.48379153 1467:1.1003736 1469:1.3451394 1470:1.4962438 1472:2.6252689 1475:0.41766381 1484:2.5815217 1485:4.1536651 1487:3.9977894 1504:0.14290299 1507:0.50075829 1511:0.2371769 1515:5.1809015 1519:1.5389754 1520:3.6660488 1523:3.3766394 1534:0.45119387 1544:0.27662984 1556:0.54149103 1558:1.7037064 1563:0.033343166 1573:2.9269841 1576:1.9220488 1582:0.51938778 1583:2.482578 1588:3.2618122 1590:6.9878788 1596:0.57780248 1604:1.5624797 1608:0.25403544 1618:6.1635866 1620:0.20185778 1626:0.76556522 1627:3.4770713 1629:2.8585582 1644:0.42974246 1645:1.2281723 1647:1.877019 1654:3.8711207 1658:0.33440587 1661:0.80553555 1663:1.3987026 1664:0.37341157 1668:0.77007848 1669:0.51888907 1670:3.3638494 1675:0.92783684 1677:0.16456383 1690:2.3135557 1710:1.0971844 1711:0.95563745 1712:0.68833065 1718:2.0393975 1723:0.43077591 1725:0.64828831 1726:1.296201 1727:0.82278371 1731:0.17305055 1732:2.629678 1746:0.82256293 1748:0.147085 1749:2.1943376 1750:1.4288256 1752:1.355631 1756:4.1448355 1760:1.5753559 1763:4.2633233 1767:0.72714764 1772:0.98803973 1773:1.7948388 1774:1.1866668 1775:0.46796688 1780:0.91099751 1781:0.5562641 1782:0.019979728 1786:2.3295591 1793:1.4847097 1794:0.034421146 1795:0.83740401 1798:3.0613074 1803:0.58618021 1805:1.1868398 1817:1.0566043 1823:0.18989646 1831:5.7128973 1833:0.75015616 1836:1.2622734 1840:1.7554175 1842:0.10706478 1848:3.3819129 1859:2.7162342 1860:1.8192315 1862:1.5689386 1869:0.58259439 1870:1.708342 1871:0.10934398 1881:1.5008315 1882:1.7820204 1891:0.65957415 1893:0.9107455 1895:3.5850413 1897:2.2893405 1901:3.4334874 1912:1.5204184 1918:2.6447158 1921:0.08270818 1923:3.8987596 1926:0.034388095 1948:4.296411 1950:2.7305598 1955:3.168839 1963:1.8663305 1968:0.13355662 1969:0.33508319 1973:2.4891229 1974:2.6721003 1977:0.99939299 1978:2.7342176 1988:2.1470222 1999:1.3881581 2002:3.927145 2004:6.3345366 2012:1.8910835 2020:3.4073184 2030:5.0662613 2032:2.221683 2035:2.9141967 2037:0.64734381 2038:2.0087907 2051:0.23947296 2053:1.1793529 2057:0.067259192 2061:1.2175355 2072:1.1258307 2079:0.20522673 2087:0.19787881 2088:0.12108341 2110:0.94204283 2125:1.8309627 2130:0.71499205 2132:0.48013136 2137:1.9705882 2145:0.30450812 2153:0.56559467 2162:3.6638575 2164:0.29562888 2167:1.1457188 2170:0.80264282 2172:0.19678256 2177:5.9960818 2179:0.062170029 2183:2.8538923 2186:2.4404013 2195:0.17055833 2198:0.48753425 2202:2.1705482 2205:2.008831 2206:0.76117301 2216:3.8110673 2224:0.1654627 2226:2.8551605 2227:1.2114309 2229:7.2406425 2233:3.7166269 2240:1.7238612 2246:0.27142668 2249:2.0844183 2251:0.036200628 2255:1.5704217 2257:2.4850647 2267:2.2075393 2273:3.8219321 2276:0.17467132 2280:0.20305336 2284:2.657434 2285:0.037993342 2286:4.002418 2290:0.28673011 2298:3.1461186 2307:2.1299191 2309:2.2511792 2313:1.7610341 2322:3.2924495 2328:1.2087293 2331:2.0731981 2333:0.11437666 2341:2.4385719 2343:3.0068276 2347:2.365087 2353:2.7351055 2360:3.1892805 2361:2.1308603 2379:3.3633065 2381:1.2559938 2394:1.2966244 2395:5.3914566 2407:1.9147683 2417:4.6670833 2420:3.1528442 2432:0.60014236 2435:3.7959769 2439:1.9953249 2443:4.620255 2446:0.85594362 2453:0.0054932833 2455:4.1830521 2459:0.90640193 2466:0.64326471 2468:0.15849715 2485:2.4191003 2487:0.82043588 2492:0.057970598 2501:1.2870237 2507:5.4266162 2508:4.4997787 2509:4.2476072 2512:1.5761555 2514:1.9010837 2521:1.9807963 2525:1.1427673 2526:1.1498039 2527:4.9856567 2528:2.5554292 2531:1.1551428 2537:3.1948671 2538:0.080316156 2549:1.6830177 2552:3.5158165 2557:0.53381491 2576:7.6047626 2577:1.2943286 2583:5.9653349 2588:0.95157242 2589:0.90208912 2594:4.6850295 2610:0.36778525 2621:1.4367528 2632:1.6048506 2634:1.5302467 2636:0.10532349 2639:1.8468602 2644:0.027299613 2653:0.24809277 2656:3.1887739 2687:0.39294621 2688:1.893793 2690:2.6312826 2692:1.1406909 2693:1.5456305 2726:0.27726197 2727:7.6916137 2732:0.76539379 2733:0.24692523 2736:0.96578807 2738:3.6162331 2740:5.340095 2750:0.66873235 2751:1.0836618 2756:0.10219646 2761:0.76606393 2766:0.081147492 2770:0.12852971 2778:3.5384724 2786:1.6086483 2791:1.6120608 2793:0.91944903 2799:1.1161367 2800:1.1166552 2803:0.60437125 2805:0.35651821 2811:0.029274404 2816:3.7998605 2817:2.8200173 2821:0.61755741 2822:0.46370071 2834:0.87927479 2835:1.2061939 2838:0.17855501 2842:2.9769597 2844:2.8223958 2854:2.792937 2856:0.33102617 2857:0.71318603 2860:2.006057 2864:2.1079304 2867:7.8383923 2888:0.59169334 2891:3.4330652 2894:1.2637615 2896:1.8206937 2910:0.58858764 2913:0.59150803 2915:0.43529999 2917:2.8594716 2919:3.6973219 2920:3.2949941 2930:0.91338688 2934:1.9170394 2936:1.2309353 2937:3.0263157 2941:1.125579 2950:3.4530783 2952:0.065649807 2953:0.85260671 2956:0.51582742 2962:3.0305543 2967:1.2277536 2968:3.0634437 2977:1.6163429 2985:4.9293165 2991:1.0673642 2994:1.360953 2996:0.08446008 3003:2.6302302 3006:1.5444776 3012:2.8743992 3027:1.4380856 3051:3.4371579 3059:0.23051314 3062:1.2419341 3065:5.6515517 3067:1.5731767 3070:2.8939717 3094:3.5668309 3101:0.91633797 3107:3.1013656 3114:1.3988755 3117:2.1788316 3118:1.299136 3129:1.529264 3141:1.3398602 3144:1.117141 3149:3.268117 3152:1.3168006 3154:1.0068803 3160:0.23175812 3163:0.090452909 3164:0.81230944 3168:1.3974127 3170:6.1937814 3172:3.2376614 3178:0.99078077 3180:1.3400252 3184:6.3099351 3192:4.8174109 3193:1.1602858 3195:4.5602317 3196:0.42680237 3200:6.6034708 3207:4.1421309 3215:1.0335484 3216:1.9395972 3228:2.5034325 3232:0.79414856 3236:1.0025964 3252:3.4446743 3253:2.5269051 3256:1.0083996 3275:6.5427103 3277:0.33554596 3278:1.4672419 3285:0.056861907 3286:3.1994581 3287:0.13395905 3297:9.8074799 3310:3.058717 3319:1.8464575 3321:2.234679 3327:6.7363677 3328:0.26856047 3331:3.0085609 3334:0.5528211 3335:2.0608363 3347:2.5640807 3354:4.0785112 3364:0.87102705 3365:2.5808172 3369:2.1371522 3371:1.8885419 3387:4.7600951 3388:3.3645077 3396:0.35194594 3409:0.53592563 3413:0.15011284 3422:0.65870661 3425:2.8024659 3437:2.8594797 3445:1.6482395 3447:0.33572191 3465:4.2870555 3471:3.3927047 3478:4.5530143 3481:1.470434 3485:1.4207635 3490:0.69475234 3501:3.7092211 3509:1.9528902 3515:2.3833408 3521:1.7296156 3525:1.2955631 3529:0.11741544 3532:2.7251816 3535:2.7635052 3536:0.066686213 3537:3.715436 3538:1.9024328 3545:4.8599505 3548:0.221479 3554:1.3633193 3556:0.66243666 3569:3.519886 3572:0.94662327 3577:0.4532395 3578:6.7852793 3582:4.4735599 3586:5.7385817 3589:0.027140319 3592:0.71942341 3595:4.3170891 3598:0.78151155 3620:0.62787932 3621:0.34488511 3622:2.3276398 3623:2.0998988 3629:3.5033565 3630:7.72684 3631:0.44423872 3632:1.3017604 3635:0.18948025 3648:2.4336338 3650:0.25812173 3672:0.19664744 3682:1.1597383 3687:4.8643556 3690:0.52931941 3695:0.97032213 3696:0.66105419 3697:0.52622759 3698:0.57008755 3710:1.2776722 3711:0.62029177 3715:3.9728041 3719:1.295697 3724:0.062869877 3727:1.3145211 3728:1.4210218 3735:0.99477202 3737:6.604713 3745:0.017413143 3749:0.34600204 3756:0.31731212 3758:0.20107615 3765:0.20174885 3769:5.515491 3775:2.9138558 3777:3.7565322 3779:0.92412889 3785:2.8626437 3799:1.0778806 3811:1.4511071 3815:2.0465248 3818:2.4926493 3819:0.044091463 3824:1.7867485 3829:2.7316895 3831:0.77555317 3845:1.9398706 3849:0.86533248 3855:5.0375667 3861:1.6856955 3872:1.2260195 3877:1.1137712 3888:0.0053705871 3907:0.55197638 3919:0.68461031 3925:4.8598161 3927:0.14790808 3935:0.22533453 3936:1.9853315 3941:1.1971654 3948:2.0871601 3956:0.42063627 3957:7.7421269 3962:1.3735681 3963:6.0888095 3973:3.0073349 3981:2.9757462 3982:2.3227947 3984:0.49796987 3988:1.1096927 3990:0.43187171 3994:3.9244134 3995:0.26430064 4000:0.80826139 4001:0.29528564 4004:0.40093568 4005:4.6876755 4011:2.1346176 4015:0.0056678057 4016:0.63639259 4021:1.0583503 4024:0.7372638 4029:0.43852752 4032:3.3642616 4033:2.3586521 4045:0.040392011 4059:2.4265606 4064:1.0581679 4067:4.0549421 4074:1.0039839 4076:7.123723 4077:0.90310037 4080:0.065910518 4084:4.0397568 4085:3.4964657 4096:1.0304766 
1 5:1.5256134 9:6.6938572 19:4.1952772 23:0.32561743 28:0.3630845 29:0.92117107 37:0.73415792 40:1.2685618 54:3.8293715 60:1.1594758 68:4.2843261 71:1.610604 78:2.8682666 85:0.04604074 90:1.3969619 103:3.098475 113:0.58092576 123:2.0861735 125:0.3093507 128:2.5606344 131:0.33764264 150:0.584059 152:2.8400137 155:0.45411232 156:1.5450376 163:1.0480036 167:2.564899 173:1.4423168 178:1.4461653 185:0.98343885 192:1.2124771 194:5.6749163 195:2.7273333 199:0.49996233 217:0.13036379 221:2.6777349 237:3.1116288 241:2.4182138 242:1.3369637 252:1.3837144 258:6.0069337 259:1.4024811 262:3.7465372 267:1.408658 272:0.34996659 277:0.05564034 282:4.3128748 288:7.267643 289:2.8039434 293:5.5572042 300:1.3085017 319:6.2659245 335:1.5053782 340:4.8888764 342:0.85160774 348:1.2196965 349:10.252828 350:2.4860289 351:0.58873558 354:0.33756101 363:0.10475558 365:3.3743658 366:0.18262443 367:4.4643612 370:1.7626462 372:2.9495256 373:1.5523052 382:0.91308117 387:5.1821632 390:0.64459467 398:1.3337824 399:1.278335 404:0.52383369 405:1.5435373 414:1.0495942 421:0.68324405 422:0.14154997 431:2.0516219 432:1.1938527 433:3.3180737 441:1.1492949 444:4.0686131 446:0.92652833 450:4.8498912 487:0.63124502 488:1.9325894 491:2.036952 492:1.6849566 499:1.9212506 500:1.0837846 514:1.6341316 515:1.4076811 524:0.90867656 527:3.0729799 529:4.0453134 532:1.9372015 536:0.07712765 539:1.0480076 545:4.6693401 546:8.3821964 559:1.4876051 561:0.45128658 562:2.1000135 565:0.32994038 566:3.4009986 572:0.11145094 578:0.18651295 584:2.8745906 586:2.1246226 589:0.30528045 607:0.5775004 614:1.5282432 625:0.67278695 626:0.83400965 635:6.6475306 638:0.31476933 639:5.5879202 642:0.30028215 651:0.94190699 661:0.38303941 671:7.7187233 673:3.3847833 687:1.5037775 692:2.044431 697:0.75060165 705:0.80891502 721:3.4383633 728:0.16477323 748:5.4787421 751:5.3151951 753:3.5965257 764:2.5544629 768:0.084214509 772:4.3450742 775:0.47027987 782:5.4102077 785:1.4221298 788:0.18830165 789:1.4495158 794:1.935176 816:0.84139609 830:4.1926889 841:1.7260909 842:0.55991805 845:1.1243486 849:2.1178818 853:3.321229 854:3.3726332 856:0.68752331 857:1.4493968 858:0.55682731 871:5.8340244 876:1.8879107 878:1.0100244 896:3.9277551 902:0.63871408 908:7.367579 909:2.7093091 915:2.8113155 916:0.23116034 917:1.3574172 921:5.2587018 927:0.18193066 932:1.6416322 938:0.59376633 943:0.53617525 945:0.74181819 946:1.5408207 951:0.36355317 966:4.5418348 968:1.7186066 972:5.4493933 974:1.6170542 978:1.2250243 986:1.2213976 995:1.017332 1001:2.9629147 1004:4.7425423 1013:0.0049520731 1022:9.8545609 1026:3.7104893 1039:0.32376736 1041:4.613894 1047:4.060009 1049:2.9604065 1053:0.65635413 1064:2.8711274 1070:2.8430305 1073:3.7214098 1075:4.0366187 1080:1.5613852 1095:6.0425868 1111:2.1086683 1117:1.0796759 1118:0.84891522 1126:0.74838853 1128:0.21792424 1130:2.4392354 1134:0.49675602 1154:1.5699161 1170:3.1909482 1181:5.0526862 1184:2.9000955 1188:0.64426851 1193:9.6913652 1196:0.73383182 1199:2.745661 1206:6.7799969 1208:0.62737131 1217:2.5378618 1221:2.1854227 1226:0.21588099 1235:3.4416475 1236:1.0732138 1242:2.9488218 1257:1.5031056 1274:1.2351252 1279:0.9282034 1281:0.58850455 1290:2.7208171 1291:2.4516876 1293:3.7590227 1298:0.72824603 1304:0.75925362 1306:0.39863396 1309:2.4343147 1310:0.28573331 1311:0.20550165 1313:8.7619495 1314:3.021188 1317:0.5758884 1328:1.3221881 1331:2.0563316 1332:6.9433479 1335:4.359108 1336:2.78197 1337:3.0848799 1341:0.68263137 1352:4.8161287 1372:4.5157452 1385:4.3556023 1395:0.370202 1398:2.4174464 1406:4.0351162 1408:4.3929367 1409:8.3503561 1411:2.0744407 1416:1.1005194 1425:0.25725183 1431:0.017294347 1450:2.3714716 1452:2.4159434 1466:0.20007101 1467:4.5239682 1469:0.26129153 1472:5.2876015 1475:0.85989177 1476:0.88760376 1484:5.1310196 1485:1.8368249 1487:6.4653921 1499:2.3318748 1503:1.8336298 1504:0.15356804 1505:0.42314884 1507:0.53165114 1515:0.45748657 1519:0.82837892 1520:2.2984934 1521:1.589044 1522:0.65187967 1523:1.6388474 1526:0.17702273 1534:1.7225479 1539:1.4864967 1544:0.64619035 1545:0.20280853 1555:1.8585718 1558:3.635386 1571:0.070344731 1573:0.69647235 1576:1.6002188 1577:1.8078622 1586:4.0153737 1588:3.9551883 1590:5.9287395 1596:0.038954616 1604:1.4267368 1605:2.0942357 1615:1.1839298 1618:6.8720703 1627:5.3271275 1629:0.84587997 1645:2.3246346 1647:4.1487117 1654:4.2156506 1656:0.42870244 1658:0.12399581 1661:8.6148701 1663:0.10392961 1664:0.023038775 1667:1.0190675 1668:0.98150241 1669:0.97844756 1675:2.7512467 1677:0.34875685 1690:4.8082871 1691:3.4410634 1698:2.0488081 1701:0.99727106 1711:0.1161164 1712:2.1212752 1718:3.0103934 1720:0.55108905 1723:0.78529716 1724:0.068195581 1727:2.7218697 1738:1.4286736 1746:4.3793626 1752:0.71620655 1756:3.4257543 1762:1.6861479 1763:3.9758818 1768:1.8718061 1773:3.3025055 1782:0.079250351 1786:6.6047788 1795:0.42511305 1798:0.27279401 1800:2.0946302 1805:0.77841884 1817:4.1830029 1831:5.4216204 1842:0.011444598 1848:3.0068181 1852:0.065637499 1859:1.1541821 1860:6.7841063 1870:1.0495263 1871:1.3637649 1881:4.3304811 1882:1.5504991 1891:2.5072618 1893:2.5637155 1895:0.069753885 1897:2.5969608 1901:2.0667636 1911:0.95002484 1912:1.6370373 1915:0.87143546 1916:0.51399606 1918:3.0998912 1923:2.3434093 1947:0.54185271 1948:2.3621306 1965:1.1527497 1968:0.072183207 1972:3.1221638 1973:2.0487163 1974:0.42373496 1984:2.8574002 1999:1.8365616 2004:5.82619 2012:4.7233438 2015:0.049838066 2017:0.15887871 2021:0.086891532 2026:2.0125995 2030:3.6625857 2032:1.6810025 2035:2.2632282 2038:5.1006522 2051:0.056510061 2052:0.64183676 2053:4.2827334 2076:1.1906941 2081:0.098681971 2088:1.2896049 2094:0.61171895 2101:3.5554266 2130:0.40288427 2137:2.8247125 2153:2.3063579 2162:1.1704612 2164:1.649412 2166:0.52292836 2170:0.025378108 2177:8.0391417 2187:5.0350041 2188:0.69207215 2202:0.32456443 2205:1.6822255 2211:1.2469181 2216:0.51954442 2226:1.3560519 2229:7.6519847 2233:0.40459383 2241:0.96694666 2251:0.22777241 2257:5.3232307 2267:6.9842978 2273:4.6255188 2281:1.3766129 2283:0.9302963 2284:1.1755676 2286:4.0014696 2290:1.4231601 2294:0.80070859 2298:1.1187727 2305:3.1249728 2307:1.1865536 2309:4.6655898 2312:1.7634312 2313:2.903496 2316:1.4824585 2320:0.77950382 2322:2.6447668 2329:2.6290698 2331:3.2408156 2333:3.1794391 2336:0.20282859 2341:0.51634753 2343:3.7192481 2346:0.86076415 2353:1.699068 2355:0.08441624 2356:0.70890194 2360:5.4889379 2361:1.5566192 2395:7.6370692 2404:0.9378705 2407:0.17191494 2417:2.852242 2420:0.77303183 2423:2.8157454 2432:3.2572157 2435:2.0200388 2439:2.4602742 2443:3.1909916 2446:2.6827457 2455:0.071691066 2459:0.76670957 2466:4.7040601 2482:0.78557664 2487:0.088547409 2490:0.70112175 2493:0.33843762 2507:6.1048193 2508:4.4943981 2509:7.7986617 2514:2.4871075 2515:0.065413684 2520:0.026783913 2521:4.6011629 2525:5.0883207 2527:2.9205754 2531:1.8947551 2537:2.0933518 2538:2.0813923 2551:5.4035835 2552:2.1489761 2558:0.90952522 2560:0.17491269 2561:6.558763 2576:9.2744579 2577:4.6567593 2580:1.5511359 2583:5.5198555 2588:2.7094483 2594:6.0188518 2600:2.0302556 2601:0.50353479 2610:2.9494278 2611:0.98442787 2621:2.5102069 2623:1.1220777 2639:0.66169775 2649:2.1075428 2653:0.057426333 2660:2.5092282 2679:2.9035683 2688:1.5243373 2689:0.27707738 2690:7.0499964 2693:0.031169504 2695:2.1653478 2698:0.0035990775 2702:0.89637363 2710:0.095881045 2712:2.9825492 2726:1.4153889 2727:4.454051 2732:1.4205906 2738:5.3125777 2740:4.7584715 2745:2.6890223 2747:0.18605873 2751:4.2568526 2756:1.3817906 2760:0.060479224 2766:0.12584978 2786:4.160048 2787:3.0329566 2791:0.13815078 2793:1.140347 2803:0.64204401 2811:0.42101768 2816:2.7667029 2833:1.1336265 2834:2.3652706 2835:0.46310443 2840:1.4838829 2844:1.1500514 2854:0.32492444 2856:1.6152167 2857:1.4109188 2865:0.15309435 2867:10.558303 2888:0.64267635 2891:3.4459293 2894:2.4245992 2895:0.0057801604 2896:2.6845908 2910:5.2141986 2913:2.4492571 2915:2.5444481 2917:0.8026402 2919:1.4182549 2920:3.3215702 2927:0.15843946 2930:3.1512845 2934:1.7008961 2941:1.2669131 2946:2.6598356 2947:4.0735221 2950:4.4959211 2953:2.5212851 2958:1.490082 2962:2.5797291 2977:2.7616999 2985:2.3402016 2991:3.3774965 2993:3.0652912 3003:0.22192885 3043:5.0474138 3048:0.51413262 3051:3.3813806 3059:0.56169528 3065:3.8262122 3067:1.2368796 3070:5.7479305 3075:1.0600582 3085:1.356063 3094:2.1965308 3095:0.60874349 3101:0.96473986 3102:0.10335661 3105:0.5312463 3107:2.4404881 3114:2.0443354 3116:0.20221408 3117:1.2722864 3127:2.0870166 3141:0.38425475 3144:2.3940253 3145:2.8218827 3148:0.80446845 3149:2.3393273 3160:1.0346575 3163:3.3666162 3170:4.7431645 3184:6.0310726 3190:0.29272255 3195:6.3962336 3207:4.0082941 3215:2.0149813 3216:3.6466682 3220:0.3849476 3235:5.3995638 3236:2.0204396 3252:5.8341475 3253:1.9500459 3256:2.9375882 3268:2.1968679 3269:0.85514396 3275:5.4739943 3278:0.51446092 3286:1.6171045 3291:0.52791977 3296:0.24797675 3297:5.6173863 3310:2.1531112 3321:3.8806581 3327:1.6455934 3331:3.8342564 3347:2.4733696 3365:3.594368 3369:1.8073931 3384:0.71503609 3387:3.5226328 3388:0.93469363 3396:2.3031008 3402:2.6006162 3425:2.9234819 3431:1.4153224 3438:0.23875386 3445:6.9020424 3446:0.5965547 3447:2.2967138 3451:0.071377799 3452:0.59991628 3457:2.5985048 3465:2.5811248 3471:1.4668123 3478:6.2782969 3485:3.5285296 3496:0.26501605 3501:1.9455141 3509:1.3801823 3513:0.60117674 3515:2.3511949 3521:3.1210957 3525:0.15072814 3528:0.99675035 3529:0.78882074 3532:1.2075899 3537:3.9551601 3538:0.57369053 3540:2.0657234 3545:1.4605627 3554:0.28541738 3556:0.29029033 3569:0.13747799 3572:0.08362554 3578:5.1528983 3580:5.4832458 3582:5.7609968 3586:4.7762518 3589:0.33546391 3595:5.0899386 3602:3.3046513 3621:7.548738 3629:1.3727621 3630:4.6499157 3632:2.7169955 3638:2.3305044 3650:3.5402999 3657:3.2006502 3672:1.3697195 3680:2.512779 3682:0.81162107 3686:0.37750876 3687:2.0781405 3695:0.96888602 3711:0.90319133 3712:0.21706554 3715:4.7803645 3719:1.4236214 3728:0.41529241 3732:4.613317 3734:3.4491727 3737:5.0930085 3749:2.5243688 3756:0.37911206 3758:0.1679374 3765:1.0209303 3766:0.8301959 3769:2.72033 3773:2.167798 3775:5.2188077 3777:2.2464578 3778:2.0163209 3785:4.393333 3794:0.20732221 3808:2.2411366 3811:5.8679099 3815:1.8195807 3818:3.1725121 3819:1.468153 3826:0.059039861 3829:3.402384 3844:1.0793722 3845:1.5757761 3855:1.8532717 3867:1.2174196 3872:7.0993948 3877:2.4623885 3880:1.3971897 3881:2.0644569 3882:1.0670847 3888:0.4808999 3893:1.1303017 3907:1.2496908 3919:1.0948247 3922:1.6214843 3923:2.4509799 3925:4.1958923 3927:0.81639385 3929:1.3971215 3935:0.049644291 3941:2.5124397 3948:3.0592241 3956:2.7361746 3957:4.2540383 3962:0.74622977 3963:5.1261077 3966:1.7859288 3970:3.5811789 3973:2.6486304 3982:0.0011714548 3984:2.1309266 3988:4.7856455 3990:0.17690718 3994:3.5291228 4000:0.21651924 4004:0.46382236 4005:0.18955989 4011:1.3178744 4016:5.5929909 4021:0.25196719 4029:3.7565269 4033:3.6515429 4037:1.4974284 4043:2.7740183 4062:2.3432713 4063:5.1991553 4064:3.5403051 4067:3.2319269 4073:0.0023042262 4074:3.9096105 4076:5.6436853 4080:3.0706339 4084:1.4884028 4085:1.9558659 4087:1.7530813 4093:0.11734149 4096:1.045655 
1 4:0.010240108 5:0.90821081 9:0.56889772 19:1.1567222 27:0.79143012 38:1.3264148 40:0.38526303 43:1.531517 44:2.4785039 45:0.029711276 68:2.5904725 103:1.2192061 115:0.26477823 116:0.83676529 123:3.3647833 125:1.1554474 126:1.4179293 130:2.7317536 140:1.0994129 145:0.068269216 147:1.8415339 152:0.051378787 155:0.17683849 163:2.3813257 164:0.20916924 170:0.71849555 172:1.9381123 173:1.7441424 178:0.73807317 180:1.597672 194:1.2266591 195:0.42252547 199:0.32163411 200:6.271626 210:3.8418171 216:0.90352023 217:0.56952178 218:0.75794673 221:1.9894767 223:0.93033874 237:0.26216814 240:0.96485436 241:5.4022856 242:0.12250274 243:0.57676113 247:3.597563 252:4.7598257 256:3.908052 258:0.22894758 259:0.64352655 262:0.88206536 266:1.6098087 267:0.61455786 269:0.80952311 278:0.88591397 288:6.2245069 300:1.5684412 303:1.0705057 313:0.12215695 319:3.7320898 321:1.3251531 324:4.199522 335:1.6367769 342:2.9029541 347:2.5287573 348:4.599195 349:0.08751002 350:1.0212955 353:2.0252383 359:4.2938895 365:1.5786896 366:1.1030341 367:1.4278843 378:0.0062032938 379:2.9108419 382:2.8129842 387:5.0547009 390:0.20400402 391:1.015678 393:1.8776584 394:0.11857765 398:0.22226392 412:3.242152 414:0.70924699 432:3.6949091 436:0.14347875 438:0.23698832 454:0.20318294 459:2.1050262 463:0.38206872 472:0.75531125 482:3.9631631 484:0.14168775 485:0.57074583 487:5.571414 491:2.0748565 498:0.50375706 499:3.2043447 500:1.3421519 514:2.4865429 517:1.696617 519:0.46258029 524:2.9532647 526:0.064008355 527:0.92505157 529:1.7934196 532:1.2406329 542:2.7011077 545:2.3131309 562:0.85180247 565:1.0598302 567:3.6020517 571:0.38102344 572:0.097102851 575:2.1297362 576:0.1742817 577:1.9047004 583:0.72647029 586:0.77358282 589:0.53037202 592:1.3657266 593:4.12534 601:3.5336103 605:0.81573796 616:2.1827707 624:0.16395292 625:1.1572759 628:1.1556972 635:2.5279493 639:3.9812524 641:0.47284529 642:0.17369494 644:2.5911086 645:0.63587248 651:0.99526542 654:2.4935613 657:3.1223435 664:2.8607798 670:0.62745863 672:3.5347338 676:1.005448 687:0.81977022 692:0.75163364 702:3.5478649 705:3.3209381 706:1.4520601 711:1.8510308 723:2.8397357 724:1.6502714 725:0.50919396 726:2.8648193 734:0.5820241 742:1.4615479 749:2.1108418 754:0.51690722 759:0.67442405 773:1.7191998 774:1.6895262 782:0.20004883 785:0.6069085 788:0.33284104 789:1.2940806 795:1.9801762 798:0.87262201 799:0.97634822 801:3.0958381 804:0.57255161 812:2.2506323 820:3.3592939 829:0.023138344 841:6.318193 842:1.1121368 848:2.1450851 853:1.8921769 854:4.3558159 857:2.8360219 865:1.634915 868:4.2296386 871:0.23855087 873:1.0012919 878:0.64550483 882:2.2144814 889:0.70886695 891:0.18955153 895:0.13138239 896:2.0461462 902:1.3173473 908:2.68134 912:1.1900535 918:1.8350382 921:1.6685585 928:0.2696473 929:0.89093554 936:1.0619872 937:0.49297288 938:3.3510745 943:1.0603535 945:5.2602019 966:1.1170194 967:3.2557154 972:1.9082227 974:3.2265215 1001:1.7622942 1004:4.386869 1013:3.9237957 1018:0.94839567 1022:2.4467764 1024:0.76990753 1032:0.59504938 1041:4.3830614 1042:1.531848 1049:0.72567534 1053:0.34767097 1060:2.933244 1064:3.7635262 1067:0.97674942 1070:1.3794215 1072:0.7742483 1075:4.7536263 1081:0.98734474 1082:0.39459163 1094:1.6990242 1095:4.9072018 1096:3.85184 1097:1.2480788 1102:0.31288385 1105:0.82303613 1111:1.509209 1117:0.4024407 1130:1.4619738 1137:0.15325654 1140:0.41273993 1159:0.54661769 1163:0.4686684 1166:0.28473213 1168:0.38476861 1170:0.30146202 1176:3.5466616 1181:3.8932543 1182:3.572263 1186:0.90049899 1188:3.7459083 1189:1.7485185 1206:3.0996418 1217:0.92681652 1220:2.77601 1221:1.2932779 1223:5.0245948 1227:4.0375109 1228:1.4898192 1231:0.32537135 1234:1.9011329 1242:1.7470773 1250:0.79548246 1255:0.087037086 1258:0.12914562 1260:3.0008779 1274:3.1196852 1278:3.9949799 1279:0.53172481 1280:2.3594251 1282:0.27814868 1291:3.3328822 1293:0.01186049 1297:1.2554727 1299:0.12174323 1309:2.3769472 1313:0.24949002 1317:1.8972949 1331:0.029887795 1332:1.2005292 1335:0.73375356 1336:0.8292076 1337:0.35652024 1341:0.37354028 1347:2.9943542 1349:0.28016311 1352:0.46333903 1357:0.96759993 1363:0.34877253 1365:3.1318672 1366:1.3918527 1368:1.5768942 1369:1.7007991 1372:6.1952677 1374:3.0518615 1376:0.015026435 1385:2.3606939 1396:2.0951488 1400:1.6334012 1401:3.3112855 1402:0.35562029 1406:10.110206 1409:2.9304557 1410:1.586235 1414:0.18732978 1416:1.1337334 1429:0.77388144 1431:0.19773847 1439:0.81259739 1444:1.5959589 1452:1.3123674 1456:0.32994092 1457:1.4155798 1458:3.9680047 1467:2.60219 1470:3.9718661 1471:1.1645045 1476:1.7247003 1479:4.8754883 1484:2.8251781 1488:4.2135334 1496:2.6868882 1503:1.2891283 1511:2.5435319 1520:1.288686 1522:2.0348215 1523:5.249784 1526:1.0002626 1544:0.90740013 1546:0.044930279 1554:0.72544992 1555:0.3384611 1556:0.36568409 1566:2.0832641 1567:2.2955225 1569:0.73092878 1573:0.61763275 1574:1.5445323 1577:0.23228532 1582:1.7807338 1583:0.74612707 1586:5.2680459 1588:3.9499176 1590:2.7315648 1600:4.8957572 1601:2.4867966 1604:0.76013744 1605:2.4088392 1613:2.3998404 1616:0.57070243 1618:3.0133386 1622:2.3101873 1625:1.3781992 1627:1.5044155 1629:0.69230235 1638:0.54253793 1647:1.1787549 1648:0.11098924 1654:0.059570849 1656:0.50829196 1657:1.2422385 1658:0.058022946 1659:2.0441692 1661:4.2746468 1665:0.48225179 1667:0.32890028 1668:4.1561513 1675:0.69316345 1676:0.5572679 1677:3.3541503 1690:2.1703711 1699:0.31372887 1701:1.2670312 1710:1.1951487 1712:0.34989512 1714:1.0149626 1718:0.64687586 1725:0.81154692 1726:2.3352091 1727:0.13732295 1730:0.85368341 1736:0.47037932 1737:0.16472906 1744:1.5367415 1758:2.7463977 1762:3.3781865 1766:2.0440865 1768:1.3306199 1772:0.25524953 1774:0.53683764 1777:2.1117406 1778:1.9588878 1780:0.92760217 1785:3.2298794 1789:0.30572367 1795:0.075123876 1796:1.7613795 1804:0.8764742 1813:1.0379169 1817:3.0878592 1818:1.7664346 1825:4.1093116 1830:0.80825895 1831:2.5645299 1844:0.23740816 1846:3.758482 1847:0.26814622 1851:1.1208489 1862:2.1968572 1870:0.70142448 1877:2.8949041 1893:4.3540897 1895:2.0598886 1896:0.5471651 1897:2.6122873 1900:0.74768364 1904:6.553658 1912:0.095538646 1918:3.2570171 1923:0.096429884 1925:2.8745732 1928:0.39141753 1938:0.62737149 1940:0.012199074 1943:1.8749617 1959:0.11449692 1963:0.62826049 1968:4.5447865 1973:0.20077406 1974:0.83394802 1977:1.2727637 1980:2.1964705 1991:0.6449399 2005:1.1200008 2009:3.2609565 2011:1.3596607 2012:4.8990746 2030:1.8598818 2032:2.7732739 2048:1.4317305 2049:0.40434366 2055:1.122635 2057:1.5192716 2058:2.1836987 2070:0.61625868 2079:2.7269223 2081:0.2634666 2085:3.3919547 2097:2.7642632 2102:1.4098624 2105:1.5480179 2107:3.0803449 2130:0.24487701 2131:0.2507081 2132:0.65605438 2144:0.75588012 2153:4.6797118 2154:0.41339251 2155:1.8930984 2160:1.3096737 2166:2.8373778 2167:0.54639602 2177:3.1950977 2180:0.39143497 2186:2.0338771 2187:5.8065338 2188:0.39577222 2196:0.064765036 2200:2.0073576 2206:1.5175984 2212:0.6551255 2216:1.7813374 2224:0.37370065 2226:0.031487882 2228:0.15257068 2229:2.2061665 2233:2.59551 2240:0.7385959 2246:0.37552008 2250:0.74496615 2257:3.0366664 2259:0.18078813 2262:1.6872523 2267:2.4118752 2275:1.3775316 2276:0.25498977 2278:3.2975614 2280:0.89649057 2281:1.9707953 2292:0.40470695 2298:3.5204978 2314:2.0322082 2316:2.4675388 2322:3.5803857 2333:2.4726434 2337:1.1153549 2343:4.4383063 2344:2.5810368 2346:2.6399357 2353:3.6540589 2360:2.1547632 2362:0.94866288 2374:1.6946518 2390:1.9883462 2404:3.0174279 2405:0.30815715 2406:3.0496521 2413:0.25377285 2416:1.6159618 2418:0.57210058 2423:4.3070822 2425:4.4181352 2430:0.95300794 2431:3.9745519 2432:3.6028709 2433:1.522586 2435:7.3479385 2443:0.93403983 2453:2.7478235 2457:0.48469722 2458:1.1731129 2459:1.9420915 2466:0.36746287 2470:0.92412353 2471:2.8234916 2477:2.6379926 2488:0.77608073 2496:0.14283441 2503:1.2462733 2508:5.5519037 2509:5.1399617 2514:1.8069398 2520:2.0351696 2521:1.5652471 2552:4.05023 2558:2.7315936 2561:5.0394936 2566:1.1008645 2570:2.5977383 2576:2.2594526 2594:3.1739039 2604:2.4993155 2607:0.64131135 2619:0.42201307 2620:2.9447992 2621:1.4403372 2634:1.8058741 2636:2.9085484 2637:0.09506698 2639:0.16389287 2642:0.81046355 2649:4.8102136 2656:3.1228676 2659:1.6010225 2666:1.3966154 2667:0.43848062 2688:5.3698854 2689:2.9598722 2692:0.4801445 2695:1.5444143 2704:1.2431694 2707:0.095705166 2714:0.90484506 2715:0.13947625 2718:2.0890961 2723:1.5823729 2726:1.4315251 2727:2.8059988 2732:1.521059 2737:0.12243363 2738:2.594707 2740:4.360661 2741:3.217906 2745:0.50891066 2750:1.729502 2754:1.1355397 2763:0.17726767 2766:1.065397 2771:1.6263984 2777:2.5779667 2778:2.7316055 2792:0.2106463 2805:1.413043 2816:2.9747221 2828:2.7673144 2833:0.64611131 2834:2.7702212 2837:0.48846373 2840:2.5840194 2842:2.1281803 2859:0.6596719 2866:0.092729211 2867:3.2936778 2870:2.8400614 2878:0.5183816 2882:3.1193948 2887:0.25379944 2888:0.31837964 2891:2.7345371 2893:0.8081764 2894:3.1526918 2895:2.2514014 2904:1.1707342 2910:1.1843801 2912:0.085630983 2915:0.74039811 2917:1.9425385 2920:0.75145721 2926:0.14020024 2932:1.5110874 2937:3.1704397 2946:1.5287199 2950:5.0311379 2952:0.25748968 2957:2.0093186 2958:1.0187632 2963:0.2125119 2965:1.9329022 2966:0.33377177 2972:0.79224664 2973:1.2486153 2977:1.1969379 2980:0.38547599 3005:0.24472567 3008:0.78584862 3012:0.76781642 3018:0.92857575 3020:2.1002476 3021:2.8484864 3029:0.032337248 3033:1.7619283 3042:1.0058166 3043:1.5080149 3047:1.3131174 3050:0.83950961 3051:0.83558065 3059:1.3534656 3061:2.9598448 3066:0.63533652 3068:0.24199775 3070:1.9382281 3075:1.578994 3077:0.01637277 3079:1.5385368 3085:0.030289382 3105:3.0313203 3107:4.9516397 3116:0.1846198 3117:1.7152369 3121:1.0215195 3122:0.036870301 3129:4.8958306 3136:0.36503756 3145:1.7223325 3146:0.66972983 3152:3.4668629 3154:3.4281347 3159:1.9189354 3162:2.3805261 3163:2.3398941 3169:3.5244286 3170:6.0900636 3176:0.21377718 3179:1.3430204 3180:0.049349774 3182:0.73577023 3184:4.5434937 3192:0.0012650192 3195:1.0960174 3198:1.735992 3199:1.7486209 3214:0.62814784 3216:1.808931 3223:0.14649232 3232:1.3381311 3235:0.032788888 3242:0.72233647 3247:1.9896804 3249:3.9856908 3256:2.2393029 3258:0.65960026 3267:3.5360272 3275:0.2830188 3276:0.71495265 3286:1.4655758 3291:1.0879599 3293:3.4795158 3298:2.4757507 3299:2.9750512 3310:2.6776812 3321:2.2776618 3334:2.6111457 3363:4.1456366 3367:1.4751583 3384:2.9212878 3399:1.3785343 3402:0.73921913 3404:1.9216349 3413:1.0082273 3431:2.3546121 3436:1.112828 3442:0.63774812 3445:0.044796646 3449:0.99874133 3452:0.8138321 3457:3.7522528 3468:0.13282478 3478:2.7127547 3482:2.4362144 3490:0.81935024 3491:3.1870992 3494:3.1976328 3496:3.2312136 3503:0.76221585 3504:0.80145556 3512:2.4397078 3513:0.26672414 3521:2.9551101 3536:3.6251078 3539:1.8165444 3540:2.755455 3547:0.096178114 3548:0.72483557 3549:1.9647603 3552:0.15148515 3553:1.4386533 3554:0.27024379 3556:0.02458024 3560:0.028833129 3568:0.95743644 3569:2.3177993 3570:0.19027364 3572:4.136096 3576:2.1285236 3578:1.0877106 3582:4.606667 3591:0.22891973 3593:4.6997461 3602:0.44293165 3604:3.1955762 3606:0.82572085 3608:3.4026895 3614:1.9202882 3616:1.2179627 3618:0.42380264 3619:1.0872163 3620:0.32650709 3626:0.097757757 3629:0.50187832 3633:0.56076187 3636:2.5648503 3644:0.33168679 3650:1.8450626 3653:0.82260156 3669:0.20229343 3676:0.019595921 3677:1.7372839 3679:2.2826653 3681:2.123441 3684:0.32550088 3687:1.3779489 3695:0.1111756 3698:0.26085585 3715:2.3925805 3717:0.14710316 3727:2.0705354 3732:0.48543876 3744:0.10101232 3751:1.8881142 3766:3.1514144 3767:4.3166327 3768:2.2699373 3769:0.3313722 3783:1.6399534 3789:3.0414348 3793:1.5136182 3797:1.7453221 3806:1.8161471 3808:4.855073 3811:1.0119849 3813:2.1034427 3815:1.4630401 3818:4.3965573 3824:4.0669632 3826:2.1178529 3831:2.4771395 3836:2.5011091 3838:0.12275919 3841:0.88900763 3845:0.33308911 3852:0.17717248 3857:1.053871 3860:2.8407454 3865:0.10128757 3871:0.16081649 3872:1.2051142 3875:1.7393688 3876:1.8997728 3880:2.1678944 3881:2.3462825 3886:0.043481618 3889:1.0727427 3890:0.91139001 3891:2.7746413 3893:0.5056771 3896:0.32551146 3907:0.93675166 3910:4.2265215 3923:1.5216988 3925:0.8710376 3926:1.0741998 3927:2.1638935 3933:0.50510961 3941:0.76133823 3945:1.1679988 3948:3.4318628 3957:1.5932132 3963:1.0731058 3966:1.1844126 3970:1.6625744 3972:0.72763675 3988:4.4119697 3995:1.9074522 4000:1.7817121 4001:0.70096773 4003:0.58344424 4004:2.3026621 4005:4.2830019 4008:1.4985123 4015:0.68959063 4016:0.40421975 4018:0.078397334 4031:0.060279846 4033:0.90249616 4038:3.0491886 4058:2.1908109 4067:2.8321865 4071:3.6108727 4084:1.9625689 4085:0.5978235 4092:1.0004505 4093:0.86448234 4096:1.2880242 
0.3348309365423328 10:0.36554363 12:0.91787064 18:2.5884445 19:1.6415761 27:0.3434256 28:0.53872257 30:1.9511596 38:0.48876104 54:0.97328925 62:0.13115174 69:1.1369114 70:1.5580082 77:0.5577423 94:0.80207694 103:0.064434111 108:0.84672761 115:2.0119867 123:1.8426411 126:1.9869282 127:0.60505092 130:1.846004 145:2.1584117 147:1.625805 155:0.53603423 156:3.3230078 161:1.5877882 163:2.1544137 167:0.21812397 170:1.6401176 179:1.0099318 182:0.41145366 184:0.89305961 189:1.0275655 199:0.019500196 200:7.3426704 210:3.3662372 217:1.0047213 221:0.40109164 222:0.47472739 224:3.6585679 225:0.47234571 229:0.0075733643 234:0.044745088 240:2.1513252 241:4.5621648 246:0.15200323 247:0.61558592 252:4.0392413 256:3.1525712 261:1.9403722 267:4.2642555 282:0.9739027 288:1.5241175 290:0.43401471 297:3.7865813 314:1.8561664 317:1.1422962 319:3.2941191 324:0.19551325 328:2.6360054 340:3.5008094 342:1.6496942 347:0.72071218 348:3.2360334 350:1.4262995 353:4.7708864 354:0.66584015 361:0.70901084 365:1.5713 366:1.2248704 367:1.4657859 373:1.2017599 379:2.024693 382:1.2591865 385:0.077091724 386:3.4872909 388:0.79450303 391:1.694809 393:1.1971905 398:0.48894602 411:1.4778985 424:1.7521144 427:0.33696061 432:0.94391012 444:1.1664326 452:1.0251511 454:0.13655901 457:2.0574837 459:2.8141961 472:3.8795252 477:0.42685705 481:0.60379773 482:1.6777178 484:0.40676451 485:0.97394091 487:1.9672046 490:1.0085565 491:1.0646588 498:1.844414 499:2.8876636 502:3.3164883 505:0.28923929 515:4.1141391 517:2.9579661 524:1.2982904 526:1.4288688 532:0.14854604 542:0.36989361 545:0.34693831 549:1.9750735 557:2.0264862 560:0.57540971 562:2.2451069 565:0.81389552 567:0.63847017 576:1.9040425 577:3.0807221 578:1.9816792 586:1.2314405 592:0.55745924 593:0.055485912 595:2.3441248 601:1.3437285 603:2.1450551 607:2.1374831 611:0.47755289 616:3.1672649 624:3.0319047 629:0.36227787 639:4.480504 644:2.3291292 645:0.14477371 657:1.7609444 661:0.49136019 664:4.1597433 669:0.30106342 672:3.9455907 673:0.69600618 681:0.93325341 691:1.3475673 692:1.6010242 697:2.3955524 702:2.7408633 706:2.2750373 712:0.54208702 717:3.6818779 720:2.4558537 721:2.6215868 722:0.84924901 724:0.36095163 730:1.3567151 737:1.0147526 739:1.4672003 742:0.014619626 748:1.7242463 750:0.56824702 752:0.49968496 759:2.5331879 776:1.1478318 796:0.22002915 798:1.2759243 799:3.0812407 801:2.3407059 812:2.9632769 820:2.1044977 822:0.75216162 829:0.41390914 830:1.3272755 842:1.7817426 854:0.15535456 856:0.90800047 857:1.1686161 865:0.74659377 867:0.65489328 868:5.4787936 869:0.08824417 876:0.079463333 878:1.8838823 882:3.3133621 889:2.1805651 912:0.81572902 915:0.2743783 916:1.4196848 917:1.6424202 919:0.6313715 924:2.0048862 928:0.44856697 936:0.194666 938:2.7702796 945:2.0539844 951:0.25582638 952:0.59905469 967:0.58395159 972:3.0177128 974:2.8043249 985:4.6851411 989:1.2264242 1001:1.1189115 1008:1.7411153 1013:0.012488723 1014:1.2519768 1017:2.0406816 1018:7.5981803 1019:0.83032674 1023:1.4286244 1029:0.76179564 1032:2.6990192 1035:0.3670519 1039:1.1758275 1041:1.1243205 1053:1.3385522 1059:0.53398299 1062:4.9481072 1064:1.8254249 1070:0.28282124 1071:3.9333241 1075:1.1359897 1080:4.2588649 1082:1.7437277 1084:0.65096903 1094:1.0736624 1095:5.1180134 1096:4.0610752 1102:1.5659574 1108:2.3740873 1111:3.0858114 1124:2.2488909 1125:1.0054618 1130:1.9786981 1163:0.44130304 1168:1.5065477 1171:1.0498536 1173:0.80303091 1176:2.1849611 1177:0.81298268 1181:4.9653449 1188:0.19376399 1193:1.3293526 1194:0.27826607 1206:4.1955199 1214:0.90998638 1222:0.7344985 1226:1.5305517 1228:4.5922165 1231:0.080871046 1233:3.6543446 1234:0.36991894 1240:3.5087132 1242:2.6268811 1249:0.053073078 1250:2.1544564 1251:1.1484048 1253:1.7493266 1258:0.042024761 1260:0.1452992 1269:0.68262374 1273:0.27283219 1274:1.5164529 1277:0.14315167 1279:1.3713217 1283:3.5445147 1286:1.6251504 1291:3.3478503 1292:1.6423732 1293:1.7182066 1295:2.0134645 1297:0.40935925 1309:3.9388347 1314:2.8543591 1317:4.2058306 1323:1.7736659 1332:1.3111185 1333:0.2862466 1340:3.6441126 1342:0.25637928 1349:0.11794856 1357:3.0090423 1360:1.167482 1365:5.3247871 1368:1.7370121 1371:0.87039149 1372:1.1023552 1374:1.2168492 1385:2.3602676 1391:0.034053456 1393:0.78124404 1395:0.3767831 1396:2.6938007 1406:3.6932497 1409:0.66622686 1412:2.0760684 1414:0.034595981 1428:0.1635021 1429:1.7735528 1431:3.3454959 1432:0.54845309 1439:2.0726027 1440:0.1021619 1442:0.123642 1446:0.30514967 1450:0.21735688 1456:0.27426478 1458:4.5436568 1462:0.13417482 1465:0.55193716 1467:5.6443348 1469:1.320767 1470:1.2808256 1471:3.3137803 1476:1.9236367 1479:1.5004692 1482:0.96057165 1484:4.525332 1486:3.4397922 1487:0.52204275 1488:6.0656986 1496:0.72815955 1503:0.76788098 1511:0.26076484 1513:3.2716644 1514:2.1108184 1519:1.2945962 1538:2.3742635 1541:0.31001553 1544:0.64202374 1545:0.55279815 1547:1.4290998 1556:0.71354854 1566:1.5314488 1569:0.81835407 1580:0.23907959 1582:0.63482708 1583:0.98403347 1586:0.8384698 1587:1.1350693 1588:1.1581712 1590:1.3764478 1600:4.7021337 1608:0.429694 1612:1.2301415 1613:1.4952993 1616:0.74320579 1618:1.715364 1622:1.8136121 1625:2.1804149 1628:0.518022 1630:1.5608896 1634:0.4098103 1638:0.5955317 1645:0.0092176199 1648:1.3346148 1654:1.4878881 1656:0.17316678 1657:0.22706598 1659:0.35307097 1661:2.8936698 1662:0.70650959 1663:1.556758 1664:2.9939759 1668:1.396857 1675:0.35374528 1677:4.6447883 1683:0.26642728 1690:2.4608579 1697:1.1623871 1698:0.22305048 1699:0.52400243 1700:1.3959759 1703:0.11642671 1706:2.6718471 1707:0.39534277 1712:0.47796464 1713:0.48263744 1719:1.8262281 1721:1.6024079 1725:0.83505458 1726:3.9250166 1737:3.7453496 1746:1.0444059 1752:0.62535894 1754:1.7885585 1762:2.5408494 1772:0.38633528 1774:2.1166468 1775:3.1402702 1776:0.76591599 1778:0.4826881 1779:0.56674933 1780:0.5540086 1783:2.5559683 1785:0.97040367 1789:1.2526761 1794:1.7741429 1795:4.898313 1817:0.061202802 1822:0.59593153 1829:0.34336218 1830:0.4084923 1831:0.45719489 1837:1.1754956 1840:1.1116771 1842:2.1029265 1844:1.6666451 1846:0.45053422 1848:0.52046639 1849:1.2254926 1852:1.7888099 1855:2.2909198 1856:0.97489148 1859:2.8110349 1862:1.259667 1867:0.43393451 1868:0.098773479 1870:2.9229395 1876:0.25189906 1877:1.9852438 1881:0.55183423 1882:1.3823727 1897:2.689774 1904:3.62939 1906:0.20435554 1911:0.32437053 1914:0.44781226 1920:0.32224962 1922:0.75933838 1923:1.4853704 1925:0.65353477 1928:4.4873123 1943:0.43249866 1953:0.79651487 1963:1.7862968 1968:2.0652421 1970:2.0911901 1972:1.4019785 1974:2.0126069 1977:2.2789514 1992:0.18100244 1993:0.11879177 1996:0.4508006 1997:0.61547911 2000:1.4096584 2009:0.59867167 2012:3.6790056 2019:1.916378 2029:0.95976502 2030:1.3814409 2038:1.7310773 2042:0.47835827 2043:0.82592827 2048:2.1485381 2049:2.9802513 2052:2.4074905 2053:2.0433755 2056:0.62822521 2066:0.031314202 2070:0.49063903 2076:1.7318103 2079:0.56408751 2084:1.5627185 2085:0.34071523 2097:0.50230515 2100:2.2405879 2105:3.4883499 2112:0.95832765 2117:0.35641277 2118:2.238965 2130:0.88216615 2131:1.1960458 2140:0.84828222 2144:1.2831483 2153:4.7911372 2154:1.3547833 2168:1.4479895 2172:0.098536581 2184:0.11759707 2187:5.8882561 2193:3.8919263 2198:0.15611917 2201:3.2583997 2203:2.1362009 2216:3.1997437 2226:1.3328478 2237:1.9527907 2239:0.92611557 2240:3.5506663 2246:0.46969947 2249:1.1608746 2250:2.0035155 2253:1.2644838 2257:3.069396 2262:0.016732201 2267:5.2033725 2275:3.6293964 2281:0.35762924 2286:1.0234751 2290:1.5297624 2294:4.4680705 2307:0.8861115 2314:1.1839242 2316:0.94259858 2317:1.0559683 2322:4.8455882 2328:1.579808 2331:1.0901151 2333:0.39693823 2336:1.7575302 2341:2.3988984 2346:3.4734275 2349:0.65657508 2353:3.6585 2356:0.069184616 2360:3.1718409 2364:0.63133216 2372:1.0845184 2374:0.80648708 2392:1.2536442 2395:0.28535706 2401:0.65694368 2404:3.0161459 2407:0.70384479 2408:1.4957988 2431:3.2146173 2432:1.0927823 2435:2.0452936 2441:0.71341407 2442:0.25845698 2443:0.50020152 2444:1.4430293 2446:0.23644762 2452:2.4375794 2457:2.7383251 2458:2.3364582 2459:0.57193887 2474:0.59578222 2476:0.053524703 2477:2.005811 2480:0.18933655 2485:0.96587431 2487:0.74957347 2488:3.7194657 2491:0.30955982 2499:0.29608977 2503:0.25418761 2509:4.9200301 2514:1.5006056 2518:1.6407585 2520:1.0275668 2521:1.1251717 2522:1.7485906 2524:0.708269 2526:1.330193 2527:0.38401037 2529:2.626415 2530:0.31479871 2533:0.071789742 2536:3.887347 2538:1.4442483 2543:0.43149751 2552:0.6887486 2553:0.41031352 2561:4.8071818 2562:2.1734686 2566:1.4280887 2574:1.7539983 2575:0.070543975 2577:2.7543304 2578:3.1249602 2583:1.2459583 2586:0.98985648 2592:0.15019652 2594:1.5735967 2604:3.4874754 2607:2.186723 2614:1.6875943 2619:0.89151549 2620:6.2696462 2641:2.9428773 2647:1.2099413 2649:1.7754185 2651:0.19561195 2652:3.3095124 2656:2.7145016 2658:0.8952871 2660:0.031244159 2666:0.67132914 2669:1.4461527 2672:0.72621822 2675:0.98007458 2684:1.7410461 2688:1.6965091 2689:0.13214087 2695:1.9466158 2698:0.10240278 2701:2.838728 2704:3.284915 2707:1.659415 2710:2.3581927 2714:3.3346136 2718:3.2637606 2719:1.6324328 2720:0.085389584 2723:2.4577637 2725:1.1283901 2726:1.648937 2732:1.4239306 2737:0.37578598 2738:0.85270894 2740:4.6943192 2741:4.2261362 2745:3.1413083 2747:0.87860012 2750:1.9297838 2752:4.0132322 2763:0.55799639 2766:1.1046313 2771:2.1272018 2774:1.0972776 2775:0.06770277 2777:3.4915876 2778:2.5433006 2789:1.3301222 2790:2.9609115 2793:4.3344636 2798:0.95745033 2800:1.4249215 2802:0.29238158 2803:1.3451309 2805:1.4186559 2808:0.98598605 2811:1.2524621 2816:1.3385477 2825:0.82169491 2826:0.13393098 2828:2.6327906 2834:3.6986594 2837:0.20367447 2840:1.7204256 2844:1.6603425 2849:0.32208341 2857:0.31229296 2859:1.5221565 2864:1.4426012 2865:1.5463402 2867:0.40957892 2873:0.92190778 2882:3.3550935 2888:2.3491023 2891:0.88860607 2894:2.4024026 2895:0.042199492 2896:0.6831584 2903:3.3462496 2904:0.3805033 2907:1.1966401 2909:1.2211976 2910:3.6095724 2915:1.7321072 2917:1.674922 2920:3.0181377 2926:1.9579939 2937:1.2105718 2949:1.1614532 2950:7.6949453 2957:0.74016893 2965:2.158793 2968:2.4644113 2969:1.4032195 2974:2.471873 2976:1.8024075 2977:1.8540339 2981:3.805315 2982:0.65227592 3003:0.13908403 3005:1.7185053 3008:2.8132939 3010:4.3375764 3019:0.42314643 3020:0.85980707 3025:0.097815424 3033:2.4607038 3035:2.1010005 3036:2.1110349 3040:0.29067412 3041:1.362727 3042:0.65842378 3044:0.38656291 3048:2.5982659 3056:0.83420414 3060:0.30461174 3065:1.5099297 3067:3.0409946 3077:0.87585747 3078:1.4661589 3081:0.36059022 3089:0.15460238 3105:5.4535861 3107:0.94965291 3116:1.3025135 3117:2.353497 3122:4.762506 3129:0.85779262 3140:0.20166621 3144:2.1816907 3145:3.4543355 3150:2.9167149 3152:7.7377124 3154:2.8074429 3159:0.22614869 3160:2.5804114 3162:2.7712629 3163:0.75427997 3164:0.051552653 3167:1.8022628 3169:0.8976419 3172:0.13293615 3179:1.0051355 3182:1.4815127 3198:1.3411577 3199:0.28433022 3206:1.1051334 3209:0.054944336 3214:1.2761908 3216:1.547927 3222:0.20345078 3223:0.71774817 3230:0.8699531 3231:4.3137736 3232:3.8722568 3233:1.7488151 3235:3.3127906 3246:1.2688257 3247:1.5382627 3249:0.26248705 3252:1.4814062 3256:2.8265767 3257:2.4214845 3258:0.86756742 3260:0.92152286 3267:3.1423731 3275:3.0506215 3277:0.77579939 3286:3.9447424 3291:0.39053506 3293:4.3364859 3297:0.044192448 3299:3.5677559 3310:1.572945 3334:0.86956835 3349:1.911801 3351:0.34691748 3355:1.3362359 3363:3.6140141 3365:0.57960176 3367:0.95224684 3370:3.3336413 3377:0.076518536 3388:0.9163 3399:3.0470455 3402:0.071901381 3413:0.65007287 3415:0.74334669 3424:0.87001902 3427:0.50083798 3428:0.091065854 3436:0.15013641 3438:2.634577 3449:2.8772693 3457:2.0034454 3478:0.61543584 3482:2.7729936 3489:0.25295246 3491:1.1130569 3493:2.441808 3494:2.3874612 3496:5.4449477 3508:1.3582971 3512:0.058540881 3513:0.10116717 3514:1.8701415 3521:3.1891103 3525:0.18424404 3534:1.0822868 3536:3.1776037 3548:0.38485545 3560:2.7782946 3564:1.1799166 3568:3.5130193 3569:2.2225685 3576:0.41026402 3582:1.0904704 3586:2.9823198 3592:0.98308462 3593:2.9248891 3597:0.59596944 3604:2.8945584 3614:2.9905756 3615:1.6704662 3616:1.8877226 3617:1.4748378 3620:0.2550064 3624:0.59790957 3629:3.0847654 3630:0.12503642 3636:0.059593972 3643:0.35062152 3649:0.76857799 3653:3.496526 3657:0.63616991 3666:2.9475935 3676:2.8960416 3677:1.2864623 3678:0.46764776 3679:2.798645 3683:0.31889507 3684:2.2177379 3686:2.3663914 3687:3.2840271 3690:3.3861604 3691:0.8569932 3698:2.0194974 3703:1.5520079 3709:2.3450027 3710:0.47551733 3711:2.7881827 3715:2.0699861 3717:1.3546066 3718:0.77334118 3725:0.27507988 3727:1.6324294 3729:2.4122868 3732:1.2559953 3735:1.8127459 3744:1.2215847 3749:1.1879289 3752:1.6249199 3753:0.84734529 3757:1.062025 3758:1.8400545 3765:2.3355291 3766:3.6605806 3767:3.4079163 3768:1.0350188 3769:0.13387233 3771:0.016262174 3783:2.2244973 3789:0.96312833 3793:1.9541323 3797:4.5843287 3808:0.82788122 3812:2.6438103 3813:2.060689 3814:1.3141892 3818:3.8343709 3819:0.26552629 3822:0.51478386 3824:2.375396 3831:3.3388283 3833:0.13101451 3837:0.43175122 3847:0.15055417 3852:0.6203168 3856:0.37560508 3857:1.8259553 3860:4.594594 3875:0.56620097 3876:3.2221758 3877:4.172122 3880:1.1843735 3882:0.57957393 3890:0.58979732 3891:4.7331839 3893:0.48816288 3906:0.74153244 3908:1.2695376 3923:0.69517142 3925:0.69846308 3926:2.9462888 3927:1.5433648 3938:1.5741198 3942:2.6382937 3945:0.60944057 3948:1.0939302 3955:0.79964483 3956:0.18510687 3957:2.3491962 3960:0.5483039 3963:2.214736 3966:1.6667975 3970:0.086175784 3972:1.3515275 3974:0.73358256 3980:0.53371823 3981:0.14603114 3982:0.76499385 3984:0.34937268 3988:1.5136763 3994:0.44482416 3997:2.00981 4001:0.30862361 4005:2.0961962 4008:2.2462983 4010:1.8129163 4014:0.89557993 4018:2.2978418 4021:0.58345562 4024:1.7916706 4031:1.8474123 4032:1.8363882 4033:0.99639708 4034:0.49353135 4038:1.7331706 4044:1.1739004 4045:1.0962613 4055:1.6729977 4058:0.61839074 4067:0.11813276 4071:3.6293693 4075:0.9627943 4082:1.6061728 4084:1.798879 4090:2.4996452 4092:2.1551015 4095:2.0550117 4096:5.5612364 
1 10:0.56322479 12:1.3703175 18:4.0307093 19:2.3068137 27:2.2875144 29:0.90668046 38:1.183182 45:0.094406851 48:0.32992694 54:1.7064955 60:0.0062639713 68:0.44507733 69:0.98633027 70:0.41429004 83:0.74745017 86:0.93235898 94:0.93548191 108:1.5793937 115:3.6653745 122:0.18554348 123:1.7263952 126:1.9255022 130:1.1404077 145:0.12055492 147:0.31806862 148:0.16879803 155:0.50210476 156:1.209356 161:1.6502954 163:1.7867063 167:0.8079136 170:4.2550449 180:0.43450212 181:0.60611856 189:1.7961864 190:0.21598142 197:0.27082652 200:6.2235031 210:6.0615149 217:0.93547261 222:0.64833164 223:3.4709735 225:2.0977471 240:0.63046074 241:4.068675 247:0.64896864 248:0.69130194 252:3.0747023 254:0.58725697 256:1.166398 258:0.29723781 261:2.2084587 262:1.208784 267:1.7416098 282:2.2682037 288:0.47030321 290:0.22496378 297:3.9411008 301:1.6406517 302:0.12141243 311:1.328342 314:0.76148736 319:1.3424091 340:3.5540316 342:1.6295694 348:4.0852566 349:0.069890231 350:0.66652399 353:2.8703356 365:1.6263602 366:0.24123168 367:1.6999856 371:1.1411901 372:1.6257845 373:1.2071216 375:0.29661644 379:2.3396022 382:1.9265959 386:2.0561266 389:0.33996707 391:0.41695738 393:0.47344369 397:1.3814983 398:0.24561666 424:0.87563574 432:1.9303213 434:1.7151256 447:0.95654905 454:3.0691552 457:0.93565249 459:3.6159191 472:3.224673 477:0.15120861 481:2.3726988 482:2.6795838 485:0.6456269 487:3.5969503 494:0.24366966 498:1.8243005 499:2.5801926 502:4.7274985 505:1.2686505 514:1.4513328 515:2.4063702 517:3.1675518 524:1.3374898 526:2.285311 553:0.013713419 557:1.3492949 562:3.1628132 569:0.1177837 573:0.55800855 576:0.77628821 577:0.9071933 578:1.629056 586:1.0561624 588:0.94965941 592:1.7521188 595:1.8166561 596:0.10746692 601:2.1569004 603:1.5318912 605:0.68184197 607:0.63046819 614:0.25823268 616:2.7956903 624:1.050405 635:1.1636175 639:6.0517607 640:0.21378347 642:0.68005359 644:1.2758102 651:1.1589129 657:0.49094301 662:2.860456 664:3.6704302 672:4.5551686 681:1.6980522 684:1.5175664 691:2.4684749 697:2.1220977 702:4.5685859 706:3.302721 717:3.4412391 720:2.1607602 721:0.059847951 724:1.6296734 739:0.22809935 748:1.6177315 750:2.4735134 755:0.94546908 759:3.2232652 766:1.8957298 768:1.090023 776:1.0116396 785:1.6007476 796:1.7530395 798:0.011267275 799:2.9756436 802:0.22981223 810:0.26533622 812:2.4781351 820:1.0367674 830:0.65081179 838:0.037116826 840:0.59021121 841:0.040653586 842:2.1814325 857:2.1712615 865:2.4485018 868:5.9987817 876:2.9370534 878:3.1956553 882:1.3353373 885:1.056355 889:0.85545337 891:0.084391415 904:1.2562542 908:2.0873036 912:2.1843009 915:0.19941226 917:0.82730508 918:0.36494794 919:0.048106708 924:1.2828156 928:1.4395593 929:1.0094347 937:2.3820117 945:3.5608935 951:0.17572084 965:1.2533343 967:0.21270525 974:2.6684701 985:4.5602837 989:1.2696284 1001:2.0289795 1013:0.74105072 1018:7.8388991 1019:1.8590384 1023:0.46841744 1029:2.0789435 1032:0.59517169 1041:0.87851822 1053:1.4117515 1059:0.48197946 1062:2.5441117 1064:0.76697218 1071:2.8004248 1080:5.0042362 1083:1.0560234 1091:0.88924336 1095:3.8474834 1096:5.6478 1102:1.90904 1108:1.689597 1110:0.22738031 1111:2.2406743 1124:1.4244304 1125:0.30880517 1130:0.85335428 1163:0.45937452 1165:0.9639796 1170:0.19668111 1176:0.34456617 1177:1.9751107 1178:0.02160871 1181:4.7224431 1182:0.0022567213 1206:3.9052534 1226:0.31612527 1227:0.66221678 1228:4.629468 1231:0.71678638 1233:1.2409782 1234:1.9667926 1235:0.026123762 1236:0.23097572 1240:2.4557543 1242:3.4579303 1250:0.53942287 1251:2.2253079 1255:1.8974916 1274:0.18503921 1283:1.1697469 1286:2.983357 1291:0.086633801 1292:4.3276825 1293:0.35207427 1295:3.1526802 1297:0.5398795 1304:0.19468352 1306:0.038832664 1309:4.3980517 1314:2.1870253 1317:2.7349925 1323:2.2308571 1324:0.28232959 1332:0.093729019 1340:2.7648933 1342:0.33919585 1347:0.64172924 1349:0.35516411 1357:4.8515902 1359:0.056258693 1365:2.7222636 1368:3.7535028 1371:1.9119105 1375:0.56284392 1383:0.60576463 1387:1.1585314 1391:1.9668424 1393:0.49682951 1395:0.31772098 1396:2.0522528 1406:3.1562865 1410:0.65118599 1411:0.36655375 1413:0.38734803 1426:1.6732141 1429:2.3352122 1430:0.298444 1431:1.4876542 1432:0.69811428 1441:0.94211864 1450:0.285501 1452:0.85559183 1456:0.45889762 1458:5.0896964 1465:1.2194403 1467:4.6588907 1470:2.0059929 1471:1.6674068 1476:3.5163305 1479:0.40722898 1484:4.4766974 1485:0.0074585676 1486:1.0341716 1487:2.4884763 1488:2.8801358 1495:0.16902518 1502:0.93875307 1503:1.8692511 1513:3.1705911 1514:3.9576778 1519:4.1962104 1520:0.17649227 1526:0.076610804 1538:1.1325125 1541:0.49715775 1543:0.51439083 1544:2.2692375 1551:0.45621753 1556:1.952929 1560:0.80077362 1566:0.12857942 1569:1.8800182 1582:1.4859188 1583:3.1031618 1586:1.5703803 1587:1.0885943 1588:0.39871946 1590:1.2348826 1600:5.1192584 1604:0.21566442 1608:2.0956516 1613:3.7461836 1616:0.011216491 1618:2.1829195 1622:1.7568051 1625:2.2942898 1628:1.1270404 1629:0.19991162 1630:0.82196617 1636:2.5560088 1648:1.0400496 1654:0.82667434 1657:1.1334634 1659:1.3242089 1661:6.1850328 1662:1.241008 1663:1.9892563 1664:1.9744477 1668:0.37884939 1675:1.894627 1677:3.4356108 1678:0.28319013 1680:0.85723221 1683:2.3242066 1690:1.7693249 1697:3.8379653 1703:0.83453816 1705:1.4583242 1706:4.2596693 1707:2.8621461 1712:1.4611217 1721:2.4497864 1726:3.5547903 1733:0.93740529 1737:4.2840385 1746:1.671703 1754:2.1046371 1762:3.4834106 1774:0.092742108 1775:1.9360452 1778:1.5166769 1779:1.0256879 1780:0.25825202 1783:1.5513926 1789:0.19868675 1792:0.22146919 1794:0.68434387 1795:3.3402371 1804:0.48845041 1807:0.14145631 1808:1.1077629 1822:3.0942259 1830:0.041716367 1831:0.19083989 1837:1.683736 1840:0.10614526 1842:1.2308018 1844:3.3385839 1846:2.11128 1848:0.95020401 1849:3.0122583 1852:1.0217153 1855:2.3328395 1856:4.8078451 1862:0.72035086 1870:1.2331592 1872:1.2395936 1881:2.0468149 1882:2.0607357 1897:1.1379991 1904:1.4116971 1911:0.052244082 1912:1.1080995 1923:0.11450016 1928:4.7907715 1935:0.11301334 1936:0.81424296 1938:1.028571 1943:3.9453135 1959:0.84847534 1968:2.4019589 1970:1.1220002 1972:1.6711287 1974:0.7796737 1977:2.494771 1996:0.99355453 1997:1.5970495 2004:0.21541542 2005:0.92362738 2006:1.3360875 2009:1.5333892 2012:2.0789795 2019:1.5693526 2030:3.6393299 2032:0.9245044 2038:0.83810937 2042:0.3249104 2047:1.3355676 2048:2.3786852 2049:4.4014373 2050:0.06842266 2053:1.4590307 2056:1.5294063 2061:0.60027134 2070:1.8221569 2076:0.43066084 2084:0.7834177 2085:0.040546648 2088:1.345145 2097:0.77688599 2100:2.1229968 2105:5.0757003 2117:1.4514478 2120:0.96259546 2130:0.8353461 2131:1.7941431 2132:0.20845005 2140:0.95193934 2153:0.98252058 2154:2.0957565 2163:0.67327797 2172:1.1776071 2179:0.23834038 2187:4.1711621 2188:1.2319771 2193:2.85886 2198:0.72570884 2201:2.3118904 2202:4.1776428 2203:3.4650176 2204:0.67272234 2210:0.77726007 2211:0.24986953 2214:1.2970243 2216:0.63544047 2226:1.8909589 2239:1.2394675 2240:0.86478835 2244:0.04219839 2246:0.87489831 2250:0.93077135 2253:2.3255908 2255:0.45790657 2257:1.5286279 2267:1.626184 2275:1.6095757 2281:1.2462457 2284:0.10719755 2286:2.3945572 2290:1.1118857 2294:2.8816881 2302:0.66112077 2314:0.3788496 2316:0.77084142 2317:0.48777515 2322:2.8370137 2328:0.20395929 2333:2.2079129 2336:0.94306821 2343:0.9256531 2346:1.1051325 2348:0.94793296 2349:1.8944596 2353:0.39636675 2358:0.45443857 2360:2.321394 2372:0.27813512 2392:0.03430713 2393:1.4151099 2400:2.0864358 2404:1.0186616 2408:1.2196243 2416:1.1508776 2428:0.14022629 2431:2.4743233 2432:0.79285419 2435:2.1591597 2441:1.3258164 2443:0.26296413 2452:1.8778822 2457:4.8355851 2458:1.7955232 2459:0.28687608 2466:1.6381454 2471:0.6033811 2473:0.0020532906 2477:4.2609053 2487:1.4794011 2488:4.0639582 2501:0.42739797 2503:1.7503353 2509:3.7480831 2514:0.72038591 2518:0.62798756 2520:0.35899144 2522:0.34655941 2526:3.1395965 2528:0.37587476 2529:2.2199211 2530:1.1158326 2533:0.54767126 2536:4.5163393 2539:1.7897464 2540:0.16043586 2553:0.91349381 2561:4.7522364 2562:0.60456216 2566:1.3557944 2572:0.12018153 2574:1.4764876 2577:1.3988906 2578:2.6192029 2579:1.1630679 2583:0.35961536 2586:0.63282508 2589:0.67707938 2591:1.4313043 2592:0.42865247 2594:1.7992446 2604:2.6141198 2612:0.024613529 2620:5.3339276 2629:0.16656095 2636:0.16966784 2637:2.0771065 2639:0.95240521 2641:0.10238135 2643:2.2423069 2649:1.255475 2652:2.2478638 2656:2.3032894 2658:1.0006607 2660:0.99544132 2666:1.1716508 2669:2.4180255 2672:0.19977318 2688:2.0806248 2695:2.0297656 2698:0.16120312 2701:1.656729 2704:3.4977331 2706:0.35441718 2707:1.1978281 2708:3.4207656 2710:1.2154288 2714:3.0999215 2715:0.18582313 2718:4.4488912 2719:2.0455775 2720:1.4422003 2723:4.708436 2725:1.211859 2726:1.3665937 2732:1.1512679 2740:4.7095551 2741:1.0243058 2745:1.6945856 2747:0.77986455 2752:3.9344687 2763:1.0470655 2766:3.1899488 2771:2.8285162 2774:1.3778722 2775:2.5693684 2777:2.2146263 2778:2.7089715 2790:0.86815482 2792:0.18159932 2793:4.4623914 2795:3.0297244 2800:3.2792761 2802:0.18144399 2805:3.347086 2808:2.5697887 2811:1.4762359 2814:0.1911961 2816:1.5390391 2821:0.44804719 2825:2.1237104 2826:0.80011231 2828:1.7031657 2834:4.4900947 2837:0.55123711 2844:0.091165662 2849:2.9708536 2860:1.154887 2864:3.3372765 2867:0.37612575 2873:1.3872707 2882:4.1360102 2887:0.11557648 2888:1.0379819 2891:0.52980173 2894:0.98609442 2895:0.80567998 2903:4.6367412 2904:0.83473456 2909:1.2555571 2910:0.94582808 2915:0.97799122 2917:2.0200837 2919:0.17142379 2920:1.7846446 2922:0.33404952 2926:1.5579937 2929:0.609734 2932:0.0061275959 2938:1.0137028 2940:0.20989993 2946:0.5943296 2949:2.1782055 2950:5.4530439 2960:0.094153285 2965:1.4726033 2968:2.5387266 2969:0.72307533 2974:3.1309617 2976:1.0524169 2977:0.51880497 2981:4.8807549 2982:1.7509013 3010:5.4327054 3015:1.3544186 3020:0.8637231 3033:0.8634401 3035:2.5722141 3036:1.8082492 3048:2.8231821 3060:1.8060583 3065:3.1019111 3067:2.4603028 3075:1.0217586 3077:0.25971997 3078:0.38712558 3089:0.40446103 3105:2.2045491 3117:2.4018126 3118:0.54326344 3122:1.9371252 3133:1.1946415 3135:0.36549923 3140:0.22085162 3144:0.6919418 3145:3.7297199 3148:0.27987665 3150:0.56569993 3152:7.024075 3154:0.49406832 3160:0.39648002 3162:1.1075281 3163:3.3444662 3164:0.51209593 3167:2.9023895 3169:0.66188574 3172:2.1005292 3179:3.711688 3195:0.61727959 3198:3.0915298 3199:2.1798265 3206:0.21676219 3214:1.1180463 3216:1.1725132 3222:0.66369015 3228:0.1141831 3232:3.6341872 3235:2.0427577 3246:0.46268454 3247:1.8480192 3249:0.89364827 3256:2.550297 3258:2.1560435 3260:2.3175952 3267:1.0323501 3268:0.92707378 3275:1.9836484 3276:0.36246106 3286:5.1005931 3287:1.3182691 3290:0.1352289 3291:2.2923307 3293:4.0473347 3299:3.3057587 3310:1.9111974 3324:0.7007404 3334:2.7020617 3338:0.043819383 3343:0.87144399 3344:2.8093731 3348:2.5386655 3349:3.0522358 3351:0.081727535 3354:0.19352883 3355:1.8334006 3356:0.87645292 3363:3.2204893 3364:1.2364582 3365:1.4559081 3370:1.7946954 3377:0.12269092 3388:2.1174152 3399:0.059018433 3402:0.40098721 3413:1.8589759 3415:0.67802596 3418:3.9206879 3420:0.065400153 3422:1.1152914 3424:1.3020252 3427:0.19023481 3428:0.33928111 3436:1.5483975 3438:3.6046567 3449:3.6596045 3457:1.1915582 3465:0.71695876 3471:0.28357151 3478:1.611358 3480:0.037863165 3482:0.80606556 3491:0.7925635 3493:3.4343581 3494:3.1398311 3496:5.1667433 3500:1.508626 3508:2.3459044 3512:1.6077073 3513:0.077057064 3514:1.0761744 3521:3.0416369 3531:1.1976329 3536:2.051713 3540:0.14263594 3548:0.82028741 3554:0.76550156 3556:0.49066439 3560:2.3058224 3564:0.61951125 3565:0.48818091 3568:1.0393605 3569:1.4082317 3577:0.86392045 3582:1.9003494 3586:2.1036885 3589:0.26922426 3593:0.82602364 3596:1.3489158 3599:0.27449715 3603:0.01226363 3604:3.0967331 3608:0.42802247 3614:4.8047051 3615:1.8689785 3623:0.10703981 3624:0.73331892 3627:0.71209776 3629:3.2817945 3643:0.13987564 3644:0.2988821 3653:4.4853482 3660:0.64523685 3666:2.3165567 3676:0.80160272 3677:1.4570601 3679:0.58298749 3686:0.68339425 3687:0.36337864 3689:0.78787094 3690:1.9445899 3691:1.8232186 3703:2.0457072 3709:1.5373747 3710:2.0859964 3711:2.7722371 3717:0.070028454 3718:0.41159341 3722:0.47662956 3727:0.11944563 3729:2.1379476 3732:2.0094194 3735:0.090801358 3744:2.3071613 3748:0.29652628 3749:0.60669714 3752:1.4860117 3753:1.1052527 3755:0.98691726 3765:2.2552371 3766:4.9955387 3767:4.3316464 3769:2.1659117 3771:1.0930843 3776:0.19204403 3783:0.7796613 3789:1.3449274 3793:4.0620766 3797:4.6875854 3808:1.6874248 3813:0.65123022 3814:0.21859446 3818:2.6552517 3822:0.79707849 3824:5.1480823 3831:3.8301547 3836:1.1112894 3837:0.11596781 3847:3.1368229 3856:2.1855617 3857:2.1895041 3860:6.3788939 3871:0.34911811 3872:0.87028146 3875:0.13669848 3876:0.26436338 3877:4.7849941 3880:0.75879753 3885:0.3230983 3888:0.054418415 3891:6.4356403 3893:1.733338 3906:0.42504814 3923:0.075640865 3926:2.1235862 3929:1.6781027 3938:2.266686 3942:2.7554686 3945:1.3290124 3957:3.1045854 3960:0.28196293 3963:1.9244394 3980:0.43341976 3982:1.2626405 3984:0.30196324 3985:0.34321761 3988:1.5892307 4000:0.53343821 4001:0.63467568 4004:0.4020927 4005:3.2861564 4010:1.0441583 4014:0.23169512 4016:0.95690972 4021:3.5036492 4024:1.6117873 4031:2.203774 4032:2.6886616 4034:0.28320682 4036:0.58567744 4038:1.8350729 4045:0.8673479 4050:0.84396386 4058:0.74758053 4061:1.7032601 4063:0.4478448 4067:0.13378291 4071:0.85986567 4072:0.46250254 4073:0.41196755 4084:3.1465545 4085:0.46577048 4090:0.28000844 4092:2.1055288 4096:3.2813294 
0.9248254300463119 18:0.32719833 19:0.56901294 27:0.6561656 34:0.95365119 38:0.73701739 39:1.0519857 43:1.3964216 58:1.1955699 60:0.56726819 68:3.0245013 69:1.2293663 77:1.7383409 83:1.125458 84:0.52911466 103:1.5665271 113:1.7132683 115:2.7475753 123:2.2145143 126:0.58810008 130:2.2730234 145:2.3873978 147:1.5290349 155:1.3163134 156:2.7580855 161:0.18649831 163:2.6754787 167:0.78513837 180:0.55043483 190:1.4511808 195:0.230964 199:0.0893372 200:3.8325949 210:3.4031281 216:0.71023846 217:1.9285469 218:0.37930965 221:0.68423933 223:0.58488536 224:0.98007619 237:0.10555309 240:1.4461905 241:2.883014 242:1.8393044 252:2.5994358 259:2.356529 262:0.38428709 267:2.6545243 269:0.6101262 271:0.190256 278:3.0055194 287:0.65307331 288:2.4887152 290:0.49843392 293:1.5314538 297:0.85102254 302:2.3901153 317:0.23414393 319:0.87472928 328:1.4612012 340:3.4740412 342:3.8768592 347:0.41647321 348:5.054574 350:0.30397165 353:1.9470354 358:1.410465 361:1.3398708 365:3.0005655 366:3.0939364 367:1.2197433 371:0.41346669 372:1.62982 379:3.4410114 382:2.7015324 386:0.72594827 387:0.4284209 388:0.027639985 391:2.5682871 393:1.4143028 394:0.041069143 413:0.12724358 427:0.80109793 432:4.1105747 452:0.96943039 454:0.87102062 459:0.95572829 472:2.3830326 481:0.26310861 482:1.375156 484:1.3338889 485:0.73823273 487:0.012879133 491:0.095107317 499:2.8079023 502:1.1219056 505:0.75462312 515:3.2376974 517:2.0166941 523:2.5146716 524:0.55713469 526:0.27268907 527:0.59388363 553:1.055627 557:1.0328635 560:1.532969 562:2.2213178 565:1.4548132 575:0.92354631 576:3.2512658 578:0.30028236 586:1.9779797 595:1.4244916 605:0.084026799 607:0.11006616 616:2.5573621 620:0.26196164 624:0.68419743 632:0.29006064 635:1.2862093 639:1.9312094 644:2.9548166 645:1.3786882 657:2.2701619 661:0.57730645 662:0.19025472 664:3.9221807 667:0.38033855 671:0.37299329 672:4.5144992 684:0.95493925 691:0.5527308 692:0.14158767 697:0.77615094 702:1.270848 706:2.9524684 712:0.83497262 717:0.91722929 720:2.0687904 723:2.1010468 724:1.5330424 725:0.22383231 730:1.254572 737:1.0271511 739:1.008708 748:1.0851712 750:0.58398306 755:1.4377443 759:1.1557814 768:0.78059584 776:1.913148 782:2.1528478 788:0.39711872 789:1.1802611 794:1.4819082 796:0.65097892 799:1.2841731 801:3.6137333 812:2.2601757 820:1.0099449 826:3.2655849 829:0.44656128 832:0.16413385 839:0.3223415 840:0.93206835 841:1.5867896 842:0.82308972 848:0.53974926 854:0.79693639 857:1.2458977 865:2.9884644 868:6.1717525 873:0.32752612 876:1.5612777 878:1.5506978 882:2.0960145 884:0.43083063 895:0.24174778 896:0.56048703 902:2.0719843 905:0.87622231 908:0.45326099 913:0.19993103 916:3.0266914 918:0.41637757 921:2.1667223 922:0.45672771 924:0.79760015 928:0.23328203 945:1.4042625 972:0.75236958 985:2.5765641 989:2.0993075 993:2.8593245 1001:1.419874 1004:0.82791126 1014:0.70265651 1015:0.078933209 1018:6.8092065 1019:4.8578653 1022:0.54861599 1023:1.3611444 1027:1.0997585 1039:0.99015665 1041:2.7935777 1053:2.2218893 1062:2.7859414 1064:1.800015 1070:0.92975581 1071:2.3277462 1075:3.6176748 1080:3.8245323 1084:0.57278275 1090:0.27644092 1094:0.88942319 1095:3.9592733 1096:3.1468489 1102:2.4482708 1105:0.63590264 1108:2.4368467 1111:5.7475286 1130:4.5792813 1131:0.25651795 1139:0.28650594 1153:1.3704958 1159:0.91592306 1163:1.0126491 1170:1.0411483 1171:1.412461 1175:1.714431 1177:1.9577211 1178:1.3762479 1181:6.345015 1182:0.77017832 1188:2.5028503 1193:0.93183267 1194:0.47146845 1206:4.6369429 1208:0.65998024 1217:0.46959776 1221:2.6316929 1226:0.86226785 1227:0.8110646 1228:4.1795402 1231:0.03385675 1233:2.2739706 1235:0.73340404 1240:0.30988431 1242:4.0143843 1251:4.0651178 1253:1.8872136 1255:1.941699 1257:0.93999541 1260:1.2415779 1269:1.3356819 1274:2.8563895 1279:0.82160431 1281:1.2771807 1283:0.57646805 1286:1.7640069 1292:1.3919235 1293:2.224853 1295:0.85936993 1298:0.18628484 1299:0.012131184 1306:0.059375674 1309:4.548553 1313:1.3829219 1314:0.92705858 1316:0.0066428855 1317:2.2678554 1323:3.5925844 1326:0.16821779 1332:2.0042906 1333:0.37146598 1335:0.26347801 1340:2.7307827 1342:0.13112959 1352:2.0408621 1356:1.4051781 1357:4.4463711 1359:1.2210213 1360:0.19844773 1365:6.5211649 1369:0.38427484 1372:1.9475474 1385:2.6753216 1387:2.2960846 1396:3.4424779 1406:4.3371696 1412:1.238212 1416:0.28882402 1417:0.54473531 1419:2.2105517 1429:1.1219236 1430:0.72220409 1432:0.27494729 1445:0.60715055 1450:1.1634986 1452:2.010639 1456:2.6180251 1458:1.7537806 1467:6.3202076 1470:0.70249456 1471:1.1057723 1472:0.14953616 1476:2.0552626 1479:1.3431004 1482:0.66034192 1484:3.0161123 1486:1.679835 1487:2.2808857 1488:2.6954651 1493:0.41092458 1495:0.31540787 1503:2.2537503 1513:1.9730587 1514:1.1311108 1519:2.5384912 1520:0.160541 1522:0.050717413 1538:1.0401368 1541:0.032314181 1544:0.64678609 1556:1.6544534 1567:2.0335789 1574:0.074161798 1582:3.3729284 1583:1.7810894 1586:0.38592237 1587:1.3112019 1590:5.0222101 1598:0.24652487 1600:1.5135716 1604:3.5832233 1605:2.0107644 1606:0.66342694 1608:0.37330288 1613:4.5273256 1618:0.60016191 1622:2.1285224 1625:2.7341592 1629:2.4773808 1636:2.75596 1637:1.2633612 1648:0.43207502 1657:0.77154708 1659:1.4938177 1661:5.109302 1662:1.7715299 1663:1.4328142 1664:3.6474824 1668:0.98932803 1675:0.20591374 1677:3.45243 1683:1.5085897 1690:3.140852 1696:1.7541612 1697:1.62585 1699:1.9004941 1705:1.2948434 1706:0.014409363 1710:0.80539823 1712:0.73170239 1721:0.7901963 1724:1.1495333 1725:0.95034671 1726:3.9101939 1737:1.5418808 1746:0.061172247 1749:0.17025977 1752:0.56741494 1754:1.6423405 1762:4.1208124 1772:0.81480247 1775:1.8284628 1777:0.23409577 1778:0.087049305 1779:0.65971136 1785:0.24714077 1794:0.78409147 1795:5.4102364 1808:0.57159209 1817:0.086703457 1819:0.49572158 1825:1.1410067 1830:0.3577432 1833:0.49643981 1837:0.33836934 1844:0.51253623 1852:2.6817315 1854:0.0032304376 1855:1.094173 1856:1.7823378 1859:0.94693565 1862:2.428607 1870:3.7094045 1877:0.64936996 1880:0.62125909 1882:3.4235187 1893:0.20072219 1897:1.9791012 1901:0.661915 1904:4.4103813 1911:0.4233025 1912:0.060528338 1922:1.7357737 1923:1.048092 1925:0.293295 1928:0.0074847937 1943:1.129048 1955:0.54794079 1968:2.158185 1970:1.6245677 1972:4.0549688 1974:0.9612031 1977:0.45193705 1992:0.36166069 1997:2.0710328 2000:3.0241756 2005:0.44357008 2009:0.12602246 2012:4.7635078 2030:0.24790698 2034:0.66703659 2038:0.039375573 2042:0.8452518 2049:1.8451285 2052:0.26794598 2053:0.54863882 2055:0.86121571 2070:0.95105112 2076:3.1102288 2079:6.3367915 2097:1.2935996 2100:1.8209836 2102:1.0786977 2105:3.6179743 2107:2.3685148 2108:1.1778326 2112:0.38781297 2125:1.9809909 2131:2.6226077 2132:0.90360463 2140:0.088936776 2144:1.1830665 2153:5.2260532 2155:2.233319 2167:1.123451 2168:2.6903901 2170:0.89675903 2186:0.67258668 2187:7.266088 2193:2.2601559 2196:0.071216211 2198:0.48356631 2200:0.3407526 2201:1.3973919 2202:2.1662445 2203:2.4500496 2216:0.13082308 2226:0.038411289 2229:3.9339714 2230:0.052824736 2239:0.95697147 2240:2.6452038 2244:1.4895388 2245:0.12591819 2246:1.1817561 2250:0.12996647 2253:1.7532532 2254:1.6092228 2257:3.2005012 2267:4.7409225 2275:2.6227994 2276:0.18241018 2278:1.2722659 2281:0.82999194 2284:0.61030519 2286:0.42390442 2294:3.9908037 2303:0.45847219 2305:0.76222676 2307:1.4978694 2313:2.1401711 2314:0.36755884 2316:0.44804719 2317:1.6504315 2321:0.72229016 2322:2.661664 2331:1.4149293 2333:1.0777036 2346:5.43262 2348:0.42230204 2349:3.9268851 2353:3.5653899 2356:1.7346126 2360:2.4516439 2361:0.18683657 2364:1.0747778 2374:0.22062299 2392:1.3366816 2401:1.2577975 2404:0.41370586 2408:0.20900387 2431:3.433871 2432:1.3445772 2435:5.2905035 2441:3.6484501 2443:0.64431262 2446:0.78867728 2452:2.3034635 2457:1.7201438 2459:0.77510846 2466:2.0704727 2476:0.10754123 2477:3.5368779 2487:0.67962527 2488:2.1570804 2503:1.9565469 2508:2.0807517 2509:4.4215274 2514:3.67454 2518:0.23035121 2520:3.2431228 2526:0.11757576 2529:2.8348505 2530:0.64375472 2536:1.7740393 2547:0.30255473 2561:5.3130422 2562:2.17419 2566:1.8567524 2574:2.0480025 2576:1.4676023 2577:1.4758369 2578:1.3453736 2579:0.2074132 2583:0.74597621 2586:0.16771156 2594:1.1722383 2604:2.6000559 2607:1.6563129 2619:0.55939382 2620:2.3749204 2621:0.36706269 2636:0.87523198 2639:1.3904392 2641:0.091479212 2642:0.62454385 2644:1.1343905 2647:0.21646512 2649:1.776274 2651:0.6946857 2652:2.496381 2656:2.5244608 2658:1.1913488 2669:3.727921 2672:0.3066898 2676:2.0897193 2688:4.759047 2689:3.6609726 2695:3.5508041 2697:0.15815741 2705:0.39673579 2714:4.8530531 2715:0.09012492 2718:0.81010318 2720:0.32828361 2723:5.6104302 2727:1.2647747 2732:2.5748675 2735:0.39864442 2737:1.5128073 2738:2.8729665 2740:0.055914238 2741:0.95169103 2745:3.4580147 2750:2.6047063 2751:1.2614902 2752:2.9640467 2758:1.7913173 2766:2.4805229 2771:0.40186903 2774:3.0618355 2777:3.1976767 2778:5.0995774 2790:3.2586946 2792:0.45578313 2793:1.0115902 2795:0.15410021 2796:1.3582199 2798:1.0828149 2800:3.0669954 2802:1.6850536 2803:0.91752303 2811:0.31115651 2816:0.47489691 2825:1.2970431 2828:3.5293233 2834:2.935523 2840:1.2207308 2859:1.7235185 2864:3.0648315 2873:1.7607622 2882:3.2386045 2888:3.8023427 2895:1.7195861 2903:1.6681441 2907:0.3793447 2910:1.9721965 2915:0.26138616 2917:1.0734472 2920:1.3804495 2926:1.6034392 2932:0.011016726 2941:0.28677735 2947:0.89524782 2949:0.44096816 2950:4.8759336 2958:1.922592 2965:1.0138323 2968:2.1897073 2970:0.52709049 2974:4.7494674 2976:2.0262122 2977:0.57818568 2978:0.086884737 2981:1.7608365 2986:3.9654479 3000:1.2889678 3008:3.3836176 3010:5.2923098 3012:1.3928657 3019:1.5187545 3020:1.1117374 3033:0.43214524 3035:0.048474871 3036:2.2694321 3043:0.5453319 3051:0.36291817 3060:3.0424669 3065:2.1486843 3067:1.9500307 3075:1.0468081 3077:0.52383918 3078:0.26035681 3089:0.66932786 3105:4.1620083 3117:2.921531 3121:1.4477528 3122:2.6999803 3129:3.1784167 3133:1.5280242 3144:1.0500993 3145:4.2797799 3148:0.70640492 3152:7.6340785 3154:1.4336154 3160:2.5945754 3162:0.42641705 3163:1.287848 3164:1.5592625 3167:0.38609707 3172:1.9094949 3179:2.491046 3198:4.2149053 3206:0.024194837 3210:2.5142643 3214:2.2497845 3222:1.0465646 3223:0.86616731 3231:0.98862374 3232:2.5650368 3233:2.5336432 3235:0.66599226 3246:1.0816921 3247:1.8121885 3252:4.451004 3256:2.6076252 3258:0.10186839 3259:0.22284204 3267:3.3426442 3273:0.1064268 3274:0.40741605 3275:1.7680429 3277:1.5765998 3286:2.4457526 3287:0.85389513 3291:3.9526079 3293:1.7385163 3297:1.2568299 3299:2.9249701 3310:0.75328922 3321:1.8228934 3334:2.9418705 3338:1.0326706 3348:0.47143975 3349:2.5211792 3355:2.6975572 3356:0.44778743 3363:2.3586681 3367:0.93333977 3370:1.0866803 3377:1.0612817 3388:3.9016614 3399:0.82560962 3402:1.1326227 3404:2.2542193 3413:0.69324672 3415:0.66698086 3418:3.5939965 3420:1.5646429 3424:2.237011 3438:2.1523364 3442:2.2669206 3449:3.3720381 3452:1.1833611 3457:2.194382 3478:0.78885037 3490:0.17190073 3491:0.54365736 3493:2.0166099 3494:3.17485 3496:4.969739 3504:0.18278733 3508:0.92944378 3512:0.62594044 3514:1.4475861 3521:0.39146259 3534:0.37405583 3536:2.041321 3548:0.43776596 3554:0.4481681 3555:0.32153785 3560:0.93475318 3564:1.0275992 3568:1.424392 3569:3.8660343 3582:0.91385275 3586:2.7814312 3593:3.2241945 3598:0.38096479 3602:1.2784104 3603:0.42861149 3604:1.9542049 3614:4.0192332 3615:1.6126804 3617:1.4472358 3619:0.35427496 3624:0.15336829 3629:1.2409189 3630:2.0791402 3638:0.12605327 3644:1.2965796 3650:0.63475358 3657:2.6735225 3666:1.6143031 3676:2.3441217 3678:0.59243083 3679:1.0257478 3686:0.98627973 3687:3.0545628 3690:2.6847382 3692:0.28076857 3709:0.8341977 3711:2.1078596 3715:0.88082379 3719:0.91540986 3722:0.35836923 3727:1.999733 3729:2.973753 3731:1.2491195 3732:1.9422139 3738:3.2356229 3744:0.45829555 3749:0.041717172 3752:2.0677128 3756:0.26437122 3757:1.0163655 3759:0.1977703 3765:0.79962552 3766:3.1748905 3767:2.3011913 3768:0.57477498 3769:0.70536047 3771:0.27022418 3783:0.40137994 3789:0.29463077 3793:2.8228593 3797:6.0036154 3802:2.7572165 3808:1.0978742 3813:2.3276596 3818:5.2105889 3821:0.34107077 3822:0.56035054 3824:3.1224535 3831:1.3313257 3834:0.44438434 3856:0.98447359 3857:0.7613309 3860:5.9344587 3871:1.2347884 3876:1.2187775 3877:2.3415411 3886:0.60772371 3888:1.7492604 3891:6.0468187 3895:0.37477821 3906:0.034853637 3923:0.86986804 3925:1.743798 3927:2.5549684 3929:0.54443634 3933:0.52523756 3942:0.0091795102 3945:2.5961893 3948:0.97940582 3957:1.6549281 3960:2.7127502 3963:0.45669752 3966:1.112511 3969:0.24309541 3972:0.8517195 3974:0.56971562 3980:1.5076571 3981:1.9312432 3984:1.4750007 3988:2.7411351 3994:0.21943147 3995:2.6057658 3997:0.75207186 4000:0.82959378 4002:0.62501204 4004:0.34792751 4008:2.2514627 4010:0.31032667 4016:1.5489498 4018:0.8229863 4021:2.2146683 4029:0.80652535 4031:1.5416952 4032:2.862313 4034:2.7070599 4038:1.3167543 4050:1.5257893 4055:0.1122461 4058:0.8221271 4061:1.0203178 4071:1.5071572 4073:0.42865923 4089:1.0046744 4090:2.626672 4092:1.0823487 4094:1.0011649 4096:4.3283167 
0.3876940633943281 18:1.4008358 27:4.6018395 31:3.434056 34:0.76481158 39:1.190944 45:3.3550322 60:0.12871063 68:0.28010553 69:3.1303992 83:2.3264105 105:2.0514727 112:1.2427263 115:3.5252895 126:0.52280158 145:0.2758075 155:0.54454339 167:2.4099736 188:1.2805809 190:2.3274031 199:1.1303337 200:2.6950378 210:6.1416659 217:0.86942208 218:1.3200082 219:0.90742463 224:1.3302777 241:1.4182912 242:0.22800905 259:1.406443 265:1.574863 267:0.78496909 270:1.0669472 297:0.061787546 303:0.20865822 311:1.6642441 317:1.56703 319:0.42266059 320:0.53150088 324:0.80302048 328:1.8568877 337:1.1762029 340:1.3326771 342:0.59174418 348:0.24033217 350:0.84112018 353:0.33190551 358:3.0772288 361:1.4241399 365:1.1562968 369:0.9064877 371:3.6982026 375:0.90851998 379:1.4026413 391:3.1726873 393:4.8797917 413:1.5607648 420:1.4568201 427:1.0318444 432:2.8819094 440:0.83063328 452:1.0859634 454:0.56783402 459:1.7598487 462:1.6450881 463:2.0468731 472:4.4691358 473:0.022567809 482:1.0401294 484:3.720552 490:0.61493278 499:0.67232299 514:0.39746544 515:1.1821249 523:1.4093211 526:2.043875 543:0.94114572 560:0.23222715 562:2.6309235 570:0.089155257 572:1.0687035 575:1.3653352 576:3.7925005 577:0.23810177 586:1.9153099 595:1.658576 607:0.61810142 612:1.4431432 635:0.69842124 639:3.5119565 641:2.546191 644:1.1681634 646:1.3232859 656:2.0779259 657:1.9649105 664:0.8365643 667:2.054565 669:4.2397447 672:3.5502241 680:0.31588954 682:1.1147223 684:1.2180941 690:2.3306484 691:2.679177 693:1.4852455 698:1.0044457 702:0.55775106 706:0.041197389 711:2.356513 712:2.0028729 720:3.4986184 723:0.87997037 724:0.96086717 730:0.60289925 737:1.5472614 739:3.5783694 748:2.0118361 755:4.4808178 759:0.23771581 774:0.70814401 782:0.84982967 785:0.71494341 789:2.1276727 794:0.43090168 799:2.8662333 801:0.97877359 814:3.3491316 820:0.27759516 839:4.8824663 848:0.061317652 856:0.20719844 865:4.5607252 868:9.6168079 876:0.63235009 878:0.75318658 896:0.175868 902:0.47385484 905:0.47554269 912:1.7310731 913:2.2477293 922:1.1454278 924:1.1953053 944:1.8820336 945:0.93745995 947:0.19759226 948:0.15624361 954:1.7797163 960:0.49831468 979:1.047569 985:0.62498844 993:6.2628136 1001:0.31443593 1014:2.3951609 1018:6.4192643 1019:7.2042027 1026:1.2355859 1030:0.15433559 1041:3.0667505 1053:2.2048059 1056:1.1506798 1062:5.5607767 1067:1.6128396 1071:0.1605522 1075:0.78850091 1078:2.1084311 1080:6.8655324 1090:0.59878021 1096:2.8845353 1102:1.6217009 1105:1.954302 1108:3.9531393 1111:2.0051868 1112:0.51190847 1125:0.73368502 1130:2.3880584 1139:1.3525672 1153:0.0070166588 1155:0.85536987 1161:1.764376 1163:0.62964386 1177:3.7794871 1178:1.8930066 1181:0.96839106 1188:1.9277918 1194:0.27632666 1206:2.2596812 1217:0.22749701 1227:1.2504699 1228:0.91900951 1231:0.012668669 1233:2.1556709 1234:0.14825068 1242:1.7054893 1244:1.6100096 1251:1.8743702 1253:1.1733155 1255:4.6957688 1269:3.3188093 1274:1.3907237 1275:2.282793 1279:0.893058 1281:3.1132107 1286:4.7842541 1292:1.4148161 1295:2.7818546 1297:1.0498167 1309:3.0464668 1317:2.8282547 1320:2.193809 1323:5.8865733 1333:1.5660793 1336:0.15631844 1342:1.3095572 1352:0.40035459 1357:0.41900939 1359:0.50346404 1365:7.6603336 1385:1.7354199 1387:2.9228096 1395:0.66740048 1396:1.2450986 1406:4.5176077 1419:0.33582082 1424:2.4380784 1433:0.4400872 1435:0.35699719 1456:0.60629874 1458:3.4346914 1465:3.2029839 1467:5.3040504 1471:1.2751725 1474:1.9897354 1476:1.0635413 1484:1.053252 1486:1.102129 1487:1.7321744 1488:1.4306328 1493:1.8576577 1503:1.6132725 1513:1.6871675 1519:0.73977566 1520:1.7399788 1556:3.3790841 1560:0.75516748 1569:0.90034783 1574:0.72864652 1582:4.147687 1586:1.9784689 1587:1.7650442 1590:3.9037378 1605:0.85759693 1613:5.0741172 1622:0.14820069 1624:3.2868655 1625:2.6963699 1629:2.72085 1636:1.2153006 1643:2.4917769 1648:0.045629531 1653:1.6038522 1659:2.7418993 1661:0.28131881 1662:2.1910548 1664:3.0400827 1675:0.96287471 1676:0.68828964 1677:2.2416258 1690:2.0353251 1696:2.7650864 1699:2.6179366 1705:2.6164095 1715:0.31669557 1725:2.2636743 1726:4.1470923 1737:0.59481108 1742:1.1226608 1746:2.0320263 1750:0.7145232 1762:2.4670413 1780:0.58811253 1794:0.94214374 1795:3.9465756 1796:0.2397238 1801:0.73793441 1823:1.316749 1825:2.8195114 1826:1.4557695 1833:1.5929275 1835:2.5770531 1837:0.062808305 1851:0.11344823 1852:2.4923835 1855:0.13639525 1861:0.31636414 1862:1.4479311 1870:2.2693367 1880:3.6608558 1896:0.17697549 1898:0.079789191 1904:0.89981127 1922:2.1598709 1926:1.007303 1928:2.5198412 1938:1.3403934 1943:0.26227984 1955:1.7514617 1968:1.0057845 1972:6.0922251 1992:1.4555602 1995:1.8576969 1997:1.5139503 1998:1.5312212 2000:3.0332453 2005:0.039578408 2006:4.378027 2011:2.1026719 2012:0.9640193 2015:0.22922677 2031:1.78681 2034:2.4471304 2042:0.59895939 2048:0.23470035 2057:0.58845872 2061:0.049702257 2070:2.3387325 2074:2.3480289 2076:0.69685292 2079:3.3582075 2097:2.169872 2100:1.2146652 2102:2.6309102 2107:0.61124372 2108:4.1632004 2125:2.2867913 2134:1.0061524 2138:3.2980103 2144:0.15174547 2153:2.6436305 2155:0.19920295 2159:0.0073993504 2168:3.8102083 2186:0.79931188 2193:1.0658215 2201:0.27464947 2214:0.44580352 2223:1.1251959 2224:0.15447143 2229:1.871217 2239:1.261072 2240:3.7870498 2244:4.3261652 2245:2.0746894 2246:1.4637841 2253:3.4748764 2257:2.2871826 2262:1.2507701 2267:3.4018962 2275:1.7038867 2278:0.024753124 2282:0.74706662 2290:4.7520008 2298:1.5282767 2302:0.8389076 2303:1.3143836 2313:2.9025486 2319:2.0200069 2321:0.74382997 2331:3.2948155 2348:0.54450905 2349:3.6984768 2356:0.89953864 2362:1.4844117 2364:1.2335582 2376:3.1811843 2378:1.2821375 2386:0.22858372 2392:1.0478033 2393:0.88810635 2401:3.259877 2417:0.89656198 2431:0.84182465 2435:3.5086362 2437:1.5025531 2441:1.4114594 2443:0.60338342 2446:1.2949933 2447:2.1945944 2452:2.6698754 2473:0.50776947 2477:2.1689897 2481:0.91202134 2488:3.7760344 2491:0.31640053 2503:0.78529954 2509:0.077924013 2514:2.6008334 2520:3.2227561 2526:1.8839945 2529:1.038368 2530:0.098384857 2536:2.8210914 2539:0.11477278 2547:2.5332799 2553:1.1794907 2561:6.2992539 2562:1.3813559 2566:0.74607104 2569:0.37928969 2574:4.434886 2577:3.2376907 2581:0.46012738 2582:0.9794513 2604:0.17027119 2612:0.52856719 2626:1.6659204 2637:0.759058 2651:0.80487967 2652:0.2181485 2656:2.7171156 2658:3.1117156 2669:1.9983963 2672:1.5811447 2674:2.1291065 2676:0.20842642 2688:2.250488 2689:0.085041523 2692:0.94521475 2695:2.133405 2705:0.9779039 2710:0.14399239 2713:0.24592081 2714:4.0181737 2719:0.69664049 2723:5.354938 2732:0.62229919 2735:0.72005898 2738:1.287295 2745:1.3291889 2752:6.399755 2756:0.68031657 2758:2.5642262 2765:2.0131106 2766:0.27085495 2770:0.098714441 2774:2.0977106 2777:0.13538373 2778:2.7461522 2790:1.266003 2792:0.35184878 2793:4.3500128 2795:1.8582712 2800:1.9604632 2811:1.2416272 2816:0.077765167 2825:2.4789317 2828:3.9019423 2834:1.0808969 2835:0.87509143 2840:1.145309 2844:0.75553274 2849:0.93675143 2851:1.9617866 2860:0.37933144 2864:3.4510252 2882:2.7759938 2887:1.4927009 2888:0.60007727 2895:0.90660506 2903:1.7603402 2904:0.66544425 2907:0.84465432 2910:1.3418601 2934:0.95411336 2941:3.5690458 2949:1.1716572 2958:2.4209938 2968:5.5869374 2970:0.040556632 2974:1.9941349 2976:0.94773388 2978:1.4239783 2981:5.3670583 2986:4.1878552 2990:0.21686533 2993:0.34600347 2996:0.36328715 3000:1.6367358 3010:4.8658319 3012:0.031507283 3015:4.289485 3019:2.9667006 3033:0.1057391 3041:0.87389517 3051:0.36939585 3056:3.2671332 3065:1.1849879 3067:0.62158042 3078:0.84761918 3081:0.026731193 3085:2.5012836 3089:0.84482449 3105:2.0561631 3111:0.62729156 3117:0.64500469 3121:0.096781224 3122:1.2098883 3133:5.1232204 3141:0.13896127 3144:0.19851993 3145:1.4665895 3148:1.6301153 3152:3.2834091 3157:0.091138884 3161:1.0894852 3179:2.8826771 3198:4.8451424 3210:0.50725079 3214:1.5859529 3230:0.087568671 3233:1.8552278 3238:0.53932083 3245:1.419528 3247:0.45473754 3252:2.3225095 3253:0.87098181 3259:1.3871219 3260:0.76883316 3267:2.2159486 3268:0.074690282 3274:0.12204266 3277:1.6244206 3286:3.5484667 3287:3.0474033 3291:6.856658 3293:1.9724008 3299:2.5603392 3334:4.6944427 3338:5.2660179 3349:2.8200452 3355:3.0598714 3359:1.2828339 3361:0.84759456 3366:0.49976042 3367:0.14366584 3380:0.38713315 3388:4.474328 3403:0.79519045 3404:2.7523584 3418:4.0561514 3422:0.45801002 3424:0.85229856 3425:0.72437608 3428:0.72270387 3438:2.4853394 3442:1.0464909 3444:1.1347216 3449:5.8897004 3476:0.11144803 3478:0.16160555 3490:0.18108505 3491:0.74326682 3493:7.5375428 3494:1.3163186 3496:6.400939 3500:0.10397792 3508:3.2132413 3534:0.72810572 3539:1.1897455 3548:1.1121571 3549:1.8491566 3555:0.46151552 3560:2.6781011 3564:0.11813468 3569:5.3205867 3593:2.2918353 3598:3.9195316 3603:1.8116997 3614:4.2988977 3617:0.7353406 3624:2.7783136 3629:1.3772295 3630:1.325917 3644:4.2028656 3650:0.9891209 3657:2.4255695 3666:1.1710156 3669:2.6148252 3676:0.17658344 3683:1.3659818 3687:0.55691147 3688:2.3248992 3690:1.0459979 3692:0.53046858 3711:0.7097255 3712:0.63508391 3727:1.1164651 3729:1.2758363 3732:1.6190033 3738:0.48096988 3744:1.9351184 3745:0.24436744 3752:2.6808105 3753:1.530791 3756:0.93866295 3759:1.6239033 3764:0.2332319 3767:1.1527969 3769:2.3915012 3777:2.3228049 3789:2.1701994 3793:3.5213943 3795:0.83853877 3797:5.4083128 3802:2.6673083 3808:0.7591697 3817:1.4714531 3818:0.61891383 3822:0.13115346 3824:3.5202506 3831:0.67617857 3851:0.89776289 3856:1.8191552 3860:7.4055734 3871:2.9467144 3876:3.439343 3881:0.49315083 3885:0.36119324 3891:8.5681963 3893:3.1362584 3895:1.097306 3906:1.2320572 3919:0.24862343 3938:0.31304473 3945:0.94422156 3955:0.44699848 3957:2.4159939 3974:0.17967594 3978:1.8491321 3980:4.8815951 3981:1.5758916 3984:2.6547651 3988:0.87685084 3997:0.75948048 4000:1.8171268 4002:1.0570617 4004:0.43397355 4008:0.41281873 4018:5.3111892 4021:2.7358568 4031:0.0066918135 4032:2.6068137 4034:0.65331066 4038:1.952144 4039:1.2763293 4050:1.9237809 4058:1.820437 4061:0.34959158 4068:2.2101305 4073:0.029595107 4074:0.3512235 4077:0.34403858 4085:1.527097 4089:3.0061424 4090:0.43736303 4092:0.57606947 4094:4.3118191 4095:0.96636236 4096:3.0108638 
0.4528677816336472 8:0.096614182 18:5.0567703 27:2.5009928 31:1.5543184 38:2.1853983 45:0.5394938 54:1.401795 62:0.53023696 68:1.1901109 69:4.5836883 82:1.0459099 83:1.3134544 94:0.62431192 105:1.4404858 112:1.2228588 115:2.3341341 122:0.061841041 126:1.8726518 134:0.41568461 143:0.063996613 144:1.041039 145:0.34921259 155:0.19320956 162:0.90993327 167:3.1583924 170:0.44328994 171:1.2502027 172:0.068326831 180:0.31080335 186:0.15784237 188:1.3684447 189:0.3891232 190:0.6904726 199:1.8168834 200:2.5553613 210:6.4805279 217:3.2996578 218:0.10363436 219:0.90013421 224:2.1180916 240:0.76924688 241:2.5854354 242:0.94608837 270:0.49684536 271:0.28415936 274:0.045286484 297:2.5198665 299:0.82040823 301:0.47184971 302:0.22496104 311:0.74404335 312:1.7605094 313:0.41799551 337:0.93389338 340:3.2900956 342:0.49527735 347:0.75656539 353:0.25062397 358:1.4993086 361:1.9072613 365:0.6439355 366:0.25724459 367:1.5622911 371:3.9203262 372:1.5322108 375:0.29327273 379:1.1648763 391:2.4514675 393:1.0699676 413:1.0515234 420:1.2713325 432:1.8121861 434:2.9662037 440:0.48245451 448:0.67396778 452:1.8593059 454:1.7332567 459:2.2071877 462:0.31487131 463:0.67443007 466:1.1701907 472:3.9524739 481:0.043689728 482:0.48295093 484:2.61095 487:1.9225147 490:1.2120938 493:0.12506518 499:0.60472882 502:1.550275 505:0.53033477 514:0.79926658 526:1.5731348 543:0.89242345 561:0.024206817 562:4.6759329 570:0.71328223 574:0.13720709 576:1.9924779 577:0.84751385 578:0.35399774 586:1.7963061 595:1.5042306 603:0.15057096 607:0.90514523 612:0.77072877 624:0.52418977 628:0.49053183 633:1.5427536 635:1.1148484 639:1.3596165 641:0.84679973 644:1.2223662 651:0.44513643 656:2.3221846 657:1.204093 664:1.8282655 667:1.1605319 669:4.6495419 672:2.2741725 680:1.529099 684:2.9426663 690:0.44189164 691:3.8249185 697:0.73445857 698:1.324507 702:3.0051162 703:0.34293121 706:2.2843342 711:2.518024 720:0.40351981 722:0.10724679 723:1.5982139 724:0.87579644 725:0.97573775 726:0.60087073 736:1.5622904 739:1.7866378 748:0.5380981 751:0.89068687 755:2.6191216 759:0.79638135 776:1.4913434 782:1.4357978 785:2.3181646 789:1.7166393 799:4.0061059 801:0.10838819 812:4.0641117 814:2.3319192 838:0.075185478 839:2.7487686 840:0.42125148 846:0.45650077 847:0.26533294 854:1.703705 857:0.13944283 865:2.8980312 868:6.5514359 878:2.9134963 881:0.30099019 895:0.35452288 904:0.033399761 912:1.5216423 913:0.081777126 921:0.4960435 922:0.617046 927:0.47217828 937:1.2382212 944:0.015765876 945:0.36734697 946:0.093188375 952:0.006333679 954:0.28962868 959:0.46283415 976:0.53071427 979:2.503099 985:1.5677615 993:4.612103 1001:3.4593623 1015:0.017731935 1018:4.7675295 1019:6.7893119 1026:0.99846625 1029:0.66355348 1030:1.5271511 1041:0.75297117 1043:0.54420346 1053:0.41574797 1056:2.2939136 1059:1.377385 1062:4.8460464 1067:0.49497426 1071:1.0211294 1078:0.86262083 1080:4.4788351 1090:0.62606543 1096:2.2431691 1102:0.70196974 1103:0.98092401 1105:1.1354859 1108:0.36344165 1110:0.08357197 1117:0.26644906 1125:1.3059893 1130:1.149254 1131:0.33119282 1155:0.90708804 1161:2.7435093 1163:1.1724536 1165:2.0597301 1171:2.2784488 1177:3.0198371 1178:3.1529455 1186:0.8359549 1191:0.26568952 1194:0.30842805 1206:2.441292 1221:0.7334525 1228:1.583819 1231:0.23306307 1233:1.3204298 1234:0.75918674 1235:0.91755152 1236:0.42288235 1240:1.2923697 1242:1.2587445 1246:0.62686396 1251:3.1550276 1252:0.41421252 1255:5.9302711 1257:0.70456028 1262:2.0211186 1269:0.061802387 1274:1.8468932 1275:0.79253173 1277:1.1974475 1281:0.84501052 1286:5.7053742 1292:3.0202637 1295:3.0647511 1297:0.42084408 1309:2.4519887 1317:3.3030834 1320:2.1543207 1323:5.138413 1324:0.82043099 1333:0.22910979 1336:1.1004187 1340:0.45040959 1342:1.4138422 1357:2.5592639 1365:5.2833309 1378:0.87634349 1384:0.40386468 1387:1.2025683 1388:0.27670747 1394:0.29400274 1395:1.7629082 1396:3.5265915 1406:2.1194389 1419:0.57205594 1422:1.091203 1424:0.33317131 1430:0.031709701 1433:0.46583915 1435:0.071786642 1456:0.29726964 1458:3.4033589 1463:0.19265741 1465:2.9030838 1467:4.2139196 1471:0.41208482 1474:0.94258428 1476:3.6606045 1479:0.96411526 1484:1.5086954 1486:0.17665264 1487:1.6032265 1488:0.83110487 1493:1.8001988 1495:0.14538047 1503:4.1446066 1513:3.6387973 1514:1.8867872 1515:0.94218689 1519:1.1804825 1520:0.50296944 1525:0.25500971 1538:0.74855161 1539:0.17892306 1541:0.16269898 1544:0.10114053 1551:2.0087767 1556:3.321557 1560:1.6413257 1569:1.9938369 1571:1.157357 1574:0.35330001 1582:3.7597301 1583:0.57979828 1586:2.2134929 1587:1.6189674 1590:0.035207003 1605:1.1748695 1606:0.95988178 1613:3.1759267 1620:0.0032720864 1624:1.6062295 1625:2.3128905 1628:0.35939711 1629:1.6668817 1634:0.30192065 1636:2.5677638 1643:1.5368807 1648:0.74083972 1653:0.083212405 1657:0.019990802 1659:1.7514964 1661:2.754112 1662:1.9920689 1664:3.8302996 1675:1.0178791 1677:0.14523774 1680:2.1536775 1681:0.75587696 1683:0.083456397 1690:2.5535498 1695:2.0632434 1699:2.2576296 1705:1.8664463 1707:1.8172853 1711:0.40685835 1715:0.093772411 1721:1.1339625 1724:0.64553869 1725:0.81297255 1726:4.0684409 1737:0.79624391 1742:3.2500212 1750:0.15970738 1753:0.19789267 1754:1.8656538 1762:1.968662 1767:1.647809 1775:0.15949014 1780:0.1101357 1783:0.84156036 1790:0.65076661 1795:2.5715013 1801:0.57054335 1808:0.13448656 1822:0.49589255 1823:1.2597904 1825:0.60701019 1832:1.2525376 1833:1.8659787 1835:0.04698807 1837:2.1095757 1844:0.48732287 1851:0.19288921 1852:2.4035106 1855:2.4798431 1856:0.26178807 1861:0.87866473 1862:2.9726689 1870:0.9986912 1880:2.2174542 1898:0.30702457 1904:1.3141525 1922:1.8072768 1925:0.2815429 1926:0.156317 1928:1.4204589 1938:3.5545883 1943:1.5258954 1944:0.17396528 1968:1.1098102 1972:5.1339779 1992:1.9800272 1995:2.0012414 1997:0.34344169 1998:0.22247304 2000:1.5970864 2005:0.10925564 2006:3.2307458 2011:0.085091978 2012:0.83987093 2034:2.5810635 2042:0.31646198 2048:3.2454171 2049:0.14090356 2057:0.65485978 2061:2.0607934 2070:3.1144509 2072:0.6991896 2074:1.533515 2075:0.62160176 2076:0.60646129 2079:1.8015141 2088:1.2805429 2097:1.0181628 2100:1.0739312 2102:1.1731354 2105:0.4529444 2107:2.0669763 2108:3.2244792 2113:0.29945034 2130:0.3495999 2131:0.7341609 2134:0.19752571 2138:1.4608957 2140:0.074597776 2153:0.25797445 2154:0.10977536 2168:1.8172995 2172:2.629261 2173:0.097998887 2179:0.63374257 2186:0.20206204 2193:1.7141311 2201:1.5048783 2202:0.16384548 2203:0.58257079 2211:0.94981658 2214:3.1088297 2223:0.87681735 2229:0.37331083 2244:1.0694549 2245:0.25049162 2246:1.4950968 2250:0.80196333 2253:3.3142097 2257:0.41624185 2262:1.3670325 2267:0.22391009 2275:0.96763825 2281:0.65281051 2282:0.38169533 2286:1.3993533 2290:2.2456472 2294:1.781376 2298:0.94538003 2302:3.0261664 2303:2.5094154 2313:0.41399565 2314:0.20580897 2319:2.5056093 2333:1.7615072 2337:0.42314386 2346:0.11839131 2348:0.78818464 2349:6.519649 2356:1.5510219 2362:1.8310226 2376:1.6749866 2378:0.31053114 2386:0.41195488 2390:0.19148175 2392:0.28457823 2393:1.7496893 2400:2.9204371 2408:0.33185077 2422:0.68218148 2431:0.68379724 2435:2.3564348 2437:1.1536571 2446:0.26499671 2447:0.16911167 2452:1.8649724 2459:0.14297366 2466:0.77907354 2473:2.0576146 2476:0.73959029 2477:4.2508869 2487:0.6104818 2488:3.9004753 2501:0.29881626 2509:1.1607432 2513:0.67637026 2514:2.1258152 2520:2.8473585 2522:0.30978227 2526:4.2176023 2529:3.7405672 2533:2.6106122 2535:0.34722987 2536:3.025418 2539:1.0927967 2540:0.69428915 2547:1.2990109 2561:5.8470263 2574:4.2006445 2577:1.9065423 2578:0.24000411 2579:0.033971339 2599:1.0112787 2604:0.39127433 2606:0.30660039 2612:1.2136984 2620:0.32274207 2626:1.713626 2636:0.27290547 2637:2.9870195 2639:1.0135603 2642:1.2473568 2649:0.87727427 2651:0.74989706 2652:1.2215059 2656:2.7694821 2658:2.5440652 2669:1.6578623 2672:1.9970182 2674:1.9095104 2687:0.1314714 2688:1.2824821 2689:0.43763894 2692:1.2507147 2695:2.9725792 2701:0.96150982 2706:0.90399039 2708:1.3523139 2710:0.67585409 2714:0.89459378 2717:0.017702654 2719:0.54352075 2720:0.83335954 2723:6.8776078 2724:0.09740521 2732:1.2424822 2738:0.16898111 2740:0.59434921 2745:0.71057719 2752:5.8476505 2758:1.8615659 2765:1.5347121 2770:0.43439311 2771:1.0562247 2774:1.7822355 2778:0.63844508 2790:1.2656864 2793:2.9326115 2795:1.4563289 2796:0.61409843 2800:2.6874685 2802:0.9234162 2811:1.2697341 2814:0.17220868 2825:3.3740938 2828:2.9640746 2834:2.8571272 2835:3.1599362 2837:2.7408261 2840:0.38208658 2845:0.37574714 2849:4.0796103 2851:0.56250817 2856:0.43532196 2860:3.4244299 2864:4.5804324 2878:0.023043603 2882:2.3071909 2887:0.465994 2888:1.742824 2895:1.6609471 2898:0.6232304 2903:1.8867823 2904:2.0131996 2907:0.36547536 2909:2.2767701 2910:2.6691074 2911:1.0492892 2917:0.16339111 2921:0.26177514 2929:1.4653769 2941:2.5964673 2949:0.7356745 2950:0.94505429 2958:1.3584256 2965:0.0993402 2968:3.0102708 2970:0.05544778 2974:2.3384655 2976:0.62937349 2978:0.43209222 2981:4.7225046 2986:2.5828023 2996:1.5519538 3000:1.2904255 3010:3.2636414 3011:0.54908431 3015:4.8779349 3033:1.0778497 3035:0.67908585 3036:1.5151415 3052:1.2007272 3065:3.1192403 3067:0.4532623 3085:3.8158028 3087:0.26521742 3089:0.6149441 3092:0.89921474 3105:1.0269885 3117:1.7593641 3122:2.1936512 3133:3.1336386 3140:1.7299045 3141:2.1528356 3145:2.7597952 3148:3.3159451 3152:2.6109529 3157:1.1789023 3158:0.35058498 3160:0.54828441 3163:0.88593739 3164:0.38764611 3167:1.2461138 3172:0.31461522 3179:2.4070232 3198:5.9244695 3199:0.32777628 3211:0.32832855 3214:2.1899264 3224:0.097475022 3242:0.94621491 3245:2.8572111 3247:1.7838048 3252:1.4182715 3253:0.087156802 3260:0.61194074 3276:0.30883366 3277:0.93092078 3286:4.1096439 3287:2.6152928 3291:4.984827 3299:3.1568339 3334:5.4865227 3338:3.8008306 3344:0.2585707 3348:1.7145772 3349:3.5606275 3351:2.0893035 3355:3.8113234 3359:1.5187472 3361:0.22428769 3377:0.91890478 3388:3.9525037 3403:2.4089115 3404:0.17776823 3407:0.069918126 3418:3.3718154 3422:0.52356684 3424:0.65436506 3428:1.7969365 3438:3.7981515 3444:1.1620817 3449:5.5644255 3457:0.2772029 3466:0.52365476 3475:0.058580697 3476:2.1674724 3478:0.62202603 3490:0.3822138 3491:0.078967392 3493:6.0637441 3494:2.3465528 3496:4.181776 3508:2.9457233 3509:0.29942673 3526:0.36059606 3534:1.1022439 3539:2.2882102 3548:1.2700994 3555:1.0395762 3556:2.479712 3560:2.3244867 3569:2.9168067 3586:0.4299652 3593:2.0890877 3595:0.61582506 3597:0.20343792 3598:1.6168481 3607:0.20430765 3612:1.1995603 3614:5.5406442 3622:0.41335511 3624:3.479466 3626:0.20229717 3629:0.30683112 3630:0.1998446 3635:0.29639024 3644:4.3218765 3650:1.4977375 3653:3.0698488 3657:2.40382 3666:1.794035 3669:1.8014348 3683:0.63193274 3686:1.1576345 3688:0.83303916 3689:1.0093307 3690:1.1428542 3691:1.5861464 3692:1.7391726 3701:1.2546611 3711:0.93353772 3727:0.56653583 3729:2.7406092 3732:1.8517162 3738:0.37151524 3744:1.296536 3745:0.60388565 3748:1.1346825 3752:0.59245014 3755:0.71122921 3756:1.6577516 3759:1.1840432 3767:0.76143301 3769:1.8877702 3777:1.9151111 3789:1.986937 3793:1.1671115 3795:0.92641294 3797:4.5439234 3798:1.5241029 3802:1.9050003 3808:1.4079603 3822:1.8472465 3824:3.9764204 3831:4.0222588 3847:2.3593102 3851:2.6056421 3856:2.8983865 3857:0.64680135 3859:0.8447606 3860:7.6712971 3871:2.079114 3876:1.4939656 3877:0.80131721 3885:1.8635916 3888:0.0098287463 3891:7.2786407 3892:1.4142634 3893:1.7182709 3906:0.37607041 3918:0.014186651 3919:0.18690401 3923:0.20138729 3933:0.73443198 3938:0.96250451 3942:1.4302963 3945:0.82537985 3957:3.7866032 3960:0.50507742 3974:0.17490837 3976:0.1573239 3978:3.9472673 3980:4.5144682 3982:0.20505415 3984:4.2448473 4000:1.6204823 4001:0.47541341 4004:0.25524127 4005:0.072456449 4007:0.31478566 4008:0.21292832 4018:2.5676937 4021:4.773757 4024:0.15499097 4031:0.60097861 4032:3.2528307 4034:1.2414436 4038:2.0582242 4039:1.0180166 4044:0.3609497 4050:0.9054122 4052:2.2485046 4058:2.3044081 4061:2.2794759 4068:0.9116748 4073:0.30795807 4077:0.052388042 4081:1.1869255 4084:0.97476387 4085:2.234915 4089:2.4921982 4090:0.74759674 4094:2.9549651 4096:0.55621934 
